{"hidden_layer": {"weights": [[0.5516753541981319, 0.17508446289101598, -0.9048829616360496, -0.45551507982100703, -0.5744280043126224, 0.3283498038742807, 0.4211157100716181, -0.1748001055463999, -0.6509426582541427, 0.49977944967642474, 0.1803365272486046, 0.9401728632713562, -0.8649748613933146, -0.5314272057263767, -0.2982841088440208, -0.9466042064487934, -0.11994498560744304, 0.665304934400361, -0.5104447103108418, 0.6764385856545736, -0.49804425953173026, -0.9258109146750582, -0.8122976383618001, 0.12284672944283548, 0.12644447222133492, -0.9352059743583045, 0.394447717678007, 0.2336833641193976, 0.7790492917555434, -0.9145261827945608, -0.7887870654270697, 0.20542501744551345, -0.2954495127164981, 0.7567262118067162, 0.735447156969116, -0.5096699935641571, -0.10482558221252086, 0.08055173969605944, -0.7177878138756448, -0.736571233582883, 0.598161724168335, 0.84747983674171, -0.9942716779018104, -0.9172684851476646, 0.9720344564473528, 0.19699144902468743, -0.7240262306733064, 0.9347743155969835, -0.31289477064627286, 0.8656585450148204, 0.5431905116437195, 0.5388363150554641, 0.7743610146801065, 0.8807615990789937, -0.11051057086087068, -0.5035540269054011, -0.7863776912954104, -0.9417688172942003, 0.21696235567155783, -0.11217544423606579, -0.1136480733542856, -0.8585250188277832, 0.11952544882146722, 0.17475528241038676, 0.09139140115110352, -0.6477624254921589, 0.20894136920549058, 0.8570587810274419, 0.32938831524478746, 0.6681743157653788, 0.7359081821393225, -0.3875417154006836, -0.29545741622539806, 0.983124790981606, -0.3808168656667123, -0.9086249456478113, 0.0876553839232161, -0.1853685437819562, -0.23037998066985196, 0.6078697997541389, -0.2664069794618822, -0.8486836145782632, -0.7551601287716017, -0.011980042835715299, 0.42848641548463395, 0.12955520329534176, 0.15146713638360665, -0.06404379537090109, 0.9499368363335741, -0.22302794278221671, -0.9057256386656422, 0.16028430517622613, 0.24627329376905713, 0.21435956350573, 0.8323966087988759, -0.2819528845142608, 0.908751352933015, 0.1614831475146404, 0.30017631468344874, 0.433065931100999, -0.16843904423333156, 0.7650138816883052, 0.5028335576147877, 0.1247119541273922, 0.3595005698262518, 0.7211170913188009, -0.1350325539836578, -0.3050500709143549, 0.5517483560607278, 0.48572671079509017, -0.8844139627991465, -0.7284192318249694, 0.009304846093727726, -0.7786649142092794, 0.7508056152589203, -0.33213116562196926, 0.7899940224003342, -0.8755604488846527, 0.6119302527857929, 0.045356924402014276, 0.9289985228215317, 0.43837124816038125, -0.2643036722577787, 0.22162370451076416, 0.22489682795545687, 0.2683404379957539, -0.5592361212136829, 0.15791637597267077, -0.1903877796708402, 0.216617773781098, 0.6046853384519987, -0.11903953544111667, 0.693335749524958, 0.07405520706492923, 0.20497810196191593, 0.7652191850842069, -0.9387802953744606, 0.6499199939848749, -0.7740477035277352, -0.3830630364772991, -0.1915621034561663, 0.4865935952795153, -0.10898051062353459, 0.28950507271782183, -0.1690394013875944, -0.9217781327821898, 0.693488243624987, -0.562459963313963, 1.0157767452493618, 0.5852749941119108, 0.5221691349913876, 0.005769023515348708, 0.68030414207713, 0.1856957299011703, -0.6684815633731491, 0.5464337160974604, -0.9393491606261255, -0.11811544834523038, -0.6179060444099761, 0.5753177961321967, 0.44302634932855955, -0.3108440791363169, -0.37926874939725036, 0.5922192734151737, -0.4416372285266376, -0.24344122300809865, -0.12156966205855914, 0.9676067242436313, 0.8081218904221188, -0.18426136102134594, 0.2609211514410278, -0.284692443394428, -0.507475849165056, 0.9608313798139654, 0.2409477373392366, 0.4082038648054663, -0.1414294306008155, -0.6408175376214154, -0.20724598545533987, -0.5650800733532653, -0.2054597676524585, -0.25575402456456814, 0.3794769478552106, 0.47736225856287395, -0.15804527066701712, -0.5446853639008247, 0.2325128442407879, -1.0560408712257832, -0.08671028010897786, -0.4392665617670619, -0.8181256637415981, -0.8747009878929276, -0.0002912792171297498, 0.716093796093753, 0.4430236408796837, 0.7369535762872971, 0.12170409709313315, -0.9668428419478847, -0.3580947563286055, 0.616452571023484, 0.5203514674719344, 0.5498516375980156, -0.7912829006411949, -0.36756764134261166, -0.5886834506634827, -0.13720784345070522, -0.21761560638973995, 0.49507070958674154, -1.0037142200722742, -0.74314801178758, -0.3482165643723303, 0.8236915847012328, -0.7243149402188841, -0.2100078009254323, 0.14323641031116008, -0.8638460296560645, -0.12406110397069428, -0.36354732212536206, -0.5931326533430937, -0.8754482316831285, 0.1662874491099433, -0.3188573358151, -0.29801903531783924, -0.57336420514066, 0.622410611084625, -0.6864685405425728, 0.8207047327102954, 0.33715892582245693, -0.7661128930243172, 0.11409269987242096, -0.38279893460956715, -0.6952152311157751, 0.25090806507840385, -0.8887970760007917, 0.1885011705790227, -0.7857989451292415, 0.3871004994305167, 0.5915357475541454, -0.8703412112389087, -0.34594860952967293, 0.42564599043297124, -0.8949658943979792, -0.41165359565912657, -0.6593609168006787, -0.02329303449341678, -0.1523172238395379, -0.08924878830204326, -0.37597517825338145, -1.1507691144579615, 0.07665775925897078, -0.48849284491696293, 0.5573919105788242, 0.7665338076945691, 0.06350704280941559, 0.8046759321718016, -0.022871357512911188, 0.7571100364246973, -0.4946149225501391, 0.36947542207861805, 0.08339150436979066, 0.14480171029301647, 0.4678968512070537, 0.2802873322275132, -1.2532012713432648, 0.20990771364526606, -0.14164640013941954, -0.10362982704164447, -0.21317529360070428, 0.20221222856648066, -0.19138645220847064, -0.80718170229616, -0.8346860423192397, -0.3101361194017406, -0.8708939177307216, -0.06008558621644326, -1.401586511891348, -0.6229702791778416, -0.06328185578763709, 0.6817057076794582, 0.8482321288256471, 0.7352436810656768, -0.7649072775096286, 0.277679459446535, -0.9745918640322935, -0.8888512505896766, -0.8409406998409517, 0.054532805382343244, -0.39282974741404625, -0.36941313236702605, -0.09208722080949094, 0.18155211140591473, 0.10533045854715926, -0.7377170634545809, -0.7505878007340699, -0.2672591229779947, -0.6799513468914848, -0.278776287568968, 0.16977503686009704, -0.30267204666630987, 0.4801080381244887, 0.3297570893304001, -0.9960908301129724, 0.17580809132120837, 0.4388134628173683, -0.6447358107357894, 0.35360719576441546, -1.026422640855919, 0.5302392314304437, -0.9134113295057145, 0.6566026085235818, 0.021492860981119064, -0.9243202850240857, -0.9383877468942746, 0.8740082652543717, -0.13159579979799094, 0.20483028607092188, -1.0149292932198228, 0.3683613742826929, 0.7194348533186238, 0.21822047419227725, -0.1887489899287403, -0.7651503412858643, -0.8393555520682676, -0.17264861571133747, -0.13968320592018865, -0.4466101544872657, 0.014994268090562712, 0.42226594846428095, 0.5083994613890406, 0.30098419170449564, -0.21531249531557559, -1.101782597332994, -0.1306118119784654, -0.12506417421975818, -0.8423641650621988, 0.4213229167170002, -0.7106865422457972, -0.9887226870243381, 0.10090249421146301, -0.06674269977157452, -0.20281982551645208, -0.1008252026076663, 0.700836718102362, 0.42418885578332743, 0.5024041621491857, 0.5961150325103757, 0.5140155336684, 0.5448055140049133, 0.3612705600245084, 0.48863985202911103, -0.8738382323601152, 0.42401630402945883, -0.06018823539048129, 1.300267569926805, -0.059249289351242754, 0.06011450966864433, 0.05534925613883986, 0.3757252809942705, -0.1278808134342441, 0.21821821333557434, 0.8863662614812317, -0.12848237137743393, 0.5549360141738777, 0.9359484488719924, -0.42498581841241106, -0.1905101884365456, 0.7135335386932299, 0.9165516112249321, -0.8933392705095822, -0.15134826362426132, 0.9092916465743279, -0.10227126386751774, 0.6810793965463814, -0.011558483080548961, 0.3806964335039548, 0.2418949714781546, 0.5535502916669631, -0.01432070101354125, 1.072807657075695, 0.6494512481454184, 0.3995091936632703, -0.02391247992957149, 0.28735691298367877, -0.11698074581511902, -0.22634768284333698, 0.9810323723785307, -0.6289556617187562, 0.022167369351286038, -0.7042917340246108, 0.1452883134184936, 0.9601103982898812, 0.6299499859387346, 0.1527262355598593, 0.8206257230495402, -0.9880898713923493, -0.20609913852061043, -0.29886792029697845, 0.050830622933604706, 1.126130932648789, 0.2220666291819627, 0.4452003088369998, 0.26135351835155973, 0.7815235222031564, 0.3608546463393157, 0.6434354100652818, -0.5265121508570711, 0.7178122282368732, -0.6209928754967615, 0.9492948735320575, 0.7497669446925352, 1.2357656257048624, 0.8064971835160352, 0.327818121277303, -0.5649947108128629, -0.33217494548407256, -0.0008081120582421912, 0.7578929219491453, -0.3348314171480644, 0.5909469320154351, -0.24169282354174226, -0.17132291785783513, 0.642798835167378, -0.5140278758853052, -0.7260184225064144, 0.6812978025727505, -0.0018399585488216158, -0.5655084034782175, 1.1937662361880688, 0.628755468780368, 0.08236424046916142, 0.9844458590505317, 0.26461949861311035, -0.11195893376977734, 0.5484189556569659, 0.5101057400759245, 0.6187344400493504, 0.9882195712226898, 0.11664109958049464, 0.3377108308762446, 0.03800684704241665, 0.12886819917341266, -0.42188030426524314, -0.07206313077105976, -0.3351721860699145, 0.5254259825336463, -0.30527087661958524, -0.824517950188409, -0.11834567935788022, 0.9886668648479615, -0.09396475672016738, 0.10614944369565098, 0.31928270200673997, -0.45582493477532227, 0.6520942184411617, 0.7556894411512416, -0.34788594302281317, 0.927732303735493, 0.5974460483558114, 0.18661785690454166, 0.7914423997060015, 0.7124143841599471, 0.43115189621888284, -0.4116753234391901, 0.8704950796684383, 0.9128432250443694, -0.018693045525508725, -0.3985039224637627, 1.0484753307324386, -0.4128878060374915, 0.7077867124238658, 0.6448516482717433, -0.23291062566171455, -0.9904711365072888, 0.7428482224318889, -0.8985869692990515, 0.21750421982246676, 0.576822197449443, 0.254904653203332, -0.8364361899170464, 0.7100724293508925, 0.1540396907590658, -0.5185129628043619, 0.4692126546158239, 0.6139093993449178, 0.10153559402305054, 0.27181328203165744, 0.7555660000166586, 1.2770734171331988, -0.37852472599681086, 0.3783993505783064, -0.05652528415051523, 0.4869038905666965, 0.8492607243223799, 0.13865439275109986, 0.1761141215775545, -0.4142021781789571, 0.049042917934079666, -0.27840227489193253, 0.4364386327206857, 0.5480379146733412, 0.13762663057621582, -0.34414389072305285, -0.4981409293265363, 0.5567269219091847, 0.856435909757296, 0.2827322962618497, -0.4641193071311624, -0.2962032827630631, 0.828404659721945, 0.7686143057676983, -0.9378637890020175, 0.290618163695083, 1.0452648694624544, -0.24684822583410682, -0.19413565809899222, -0.3775159453250346, -0.22483606660977692, 1.0574100548282261, 0.14366902378498592, 0.05157083765151103, 0.11976044904331994, 0.31361446656313574, 0.5398646275794371, -0.24750700102508752, -0.09674444722146931, 0.16427363004995818, -0.6860528955753817, -0.8169477126021447, 0.8518442421136255, -0.6343701086512363, -0.28985588157055037, 0.2412597186611154, 0.5523939279956556, 0.3190149462094727, -0.3757948446556588, -0.6885577155341029, -0.004886865739307806, -1.0552703067022273, -0.05107534624019785, -0.49153215691953767, -0.3531260631969709, -0.641233924414768, 0.8408957411487606, 0.3154983361705622, 0.6635482898823173, 0.1838417561636817, 0.4208957780674885, 0.30822240027844305, -0.09254081862085901, 0.2713475412652234, 0.6104188578134192, -0.2733252386741942, 0.22974258364589645, 0.3704508946777949, -0.04632764685360592, -0.11174350173751868, -0.2269611502462466, 0.14061059397257947, 0.40536881811861364, 0.4949909117306948, 0.528321489015227, -0.3819390582042839, -0.6078792014836603, -0.09252299337445642, -0.6952023218115537, 0.26274298814618047, -0.18282755694514072, -0.11473753639376193, 0.37769223417751163, -0.6529575890442546, -0.00258868453572012, -0.755254317400387, -0.4049000668280733, 0.15361718610567693, -0.7869742268966141, 0.08511384984226907, 0.5065465969721282, 0.10730545139009547, 0.2833753768619171, 0.4954156879501122, 0.07105338898859033, -0.577456215594754, 0.3848417596054764, -0.6463509551803707, -0.7724990270353957, 0.6870113315801853, 0.8085515893814795, -0.460762814776818, -0.5146410492567446, 0.9664937116862992, 0.8722360735217451, 0.4260710086802553, 0.13395439642289458, 0.22712472477170406, -0.04101882362422139, -0.4493960335784844, -0.4163551711186308, -0.15304618075738832, -1.0284267415564248, 0.5680761866059029, -0.8850490066659065, -0.6695390031633613, 0.6399537159862877, -0.07444485307538688, -0.2943206475617644, -0.9101740792910012, -0.3224581356613677, 0.03327864937921201, -0.2694624730736455, -0.1376999389838593, 0.48964580537659386, 0.5857317206321385, -0.47376412434613613, 0.7411943265310369, 0.23147615902242014, -0.5516899061507219, 0.7174090352176885, -0.10971838425415092, -0.9229861717647218, 0.1763323183253134, 0.8345427408062053, 0.7180087757287955, -1.083631292222638, -0.28675248007138304, -1.0457943073675424, -0.08937846537737004, -0.44032924987780736, 0.2248269527194373, 0.5290308436620434, -0.7803445087725457, -0.5645325300592778, 0.267238482649928, -1.0653206730702007, -1.061369034116613, -0.07603325869484953, -0.5766377681009359, -0.030670003956941163, -0.09307701610389255, -0.46071584454656617, -0.09630114445034173, -0.19178407364877817, -0.9439174128218281, 0.18525474119206467, 0.49669175811379307, -0.12499699161868749, -0.20585690190957617, 0.8062200390541169, 0.5064687475074003, 0.2404465632694334, -0.9944468320665758, -0.8791221966281517, 0.03896263788932176, -0.5979540779838933, 0.0832270130564581, -0.03008932045475292, -1.3342977009207921, -0.4711802960611315, -1.0019779133807833, -1.1708137859079308, -1.066193646550454, -0.17346915976907723, -0.04210035674243676, -0.6612489609343992, -0.8092934406401725, 0.3726074565221542, -0.17344062408536753, -0.7524124800115725, -0.04540542124512634, 0.6968441019114848, 0.2277262335092716, 0.1576764233606158, -0.7029749320757317, -0.6725578985942993, -0.5540331351985428, -0.1265909342597025, -0.9450158671717259, -0.4116546846141543, -0.2803093339967585, 0.3406908284114078, -0.8894458100724582, 0.052920414160920894, -0.3995083349830818, -0.5586172103758378, -0.9041643921765797, 0.4828325288989309, -0.40531799923350686, 0.10776584772060628, -0.32382979244758214, -0.4796465793668463, -0.3554169524111648, 0.27735674645410957, 0.3086132259501326, 0.014911228420885707, -0.689663395099742, 0.6025242628721627, -0.032843370286982476, -0.9016701151926865, -0.8303502869052474, 0.6041784289273743, -0.38688911657905467, -0.1573332077422167, 0.37684886373960014, 0.7430328856131133, 0.3343959062952634, -0.04911094811914472, 0.36034088265099634, -0.6345187319909459, -0.5213699206326855, -0.7775618955394162, -0.09526162095450888, 0.44507153997668514, 0.2914257246878446, -0.02436678261535612, 0.5004742574511615, -0.8769767791245204, 0.555706445126371, -0.0035727555497133425, 0.1510671519784361, -0.47652221245234067, 0.8400061992119984, -0.5309697283103704, -0.0034170842736623514, 0.528493598597827, -0.5062404050031041, -0.6465734205210015, -0.01523853772455659, -0.9987783315066155, -0.9595564817391447, 0.9752158418504779, -0.3771349074633801, 0.8571337360194684, -0.143973063837989, 0.7995021482958283, -0.6200551108630946, 0.6105517412106688, 0.29114732138379174, -0.9058592853331794, 0.005008583893453847, 0.5773947578560943, -0.43375205152514373, -0.1729161312783922, 0.521254099429587, -0.2629421145257307, 0.4342294788119745, -0.464952685135891, 0.34690866841189516, 0.6848471383239076, -0.8339765495659239, -0.628589051682484, 0.6907716058792013, 0.39976528725688387, -0.9268714869704259, -0.801213773063484, -0.2904258839161782, 0.2500535597343778, -0.22171008981138995, -0.2204614947712984, -0.03347316631637298, 0.3964956968836988, -0.7605968096478422, -0.8680383945323153, 0.14653172519007643, -0.7219796844329696, 0.01877578813131698, -0.16308499925627168, -0.5589813042453005, 0.7943638741196863, 0.8878785209869225, 0.3237435188918528, 0.5756484571322362, -0.05814437429110935, -0.6916263524482453, -0.6297501082764166, 0.3086426838939569, -0.5591745727947305, 0.722500871916544, -0.9425922296511817, -0.6719267396963507, 0.1298081600147767, -0.9984242381832438, 0.5314097613722146, 0.6438886739853256, 0.4943121371063086, -0.45700953263338895], [-0.7374372127555311, -0.022284269603877638, 0.07095862929078711, 0.6535703077820314, -0.40155067386732046, -0.32715682632947796, -0.21863697113269764, 0.6320983822843282, -0.39013833323506897, 0.05660280489474179, -0.8732725229312033, 0.6525621178930685, 0.8092668451135092, -0.30485719677928247, -0.3780050202364241, -0.556995481149797, -0.945489920459305, -0.08016774282979422, -0.7220673158662938, -0.21611734982835262, 0.843981280685443, 0.010748034539584506, -0.7666109425658647, -0.011755181411209126, 0.9168053670297676, -0.6250208930188388, -0.47706892905934817, 0.7605242531211269, 0.6655598966421019, 0.7941917621741763, -0.3889684931809261, -0.3044427135181216, 0.6570903472130823, -0.2516220999883226, 0.612947682983522, -0.362777578906091, 0.04898630132569481, -0.42735840810040826, 0.48582787993421145, -0.31168442832250304, 0.8330972388318433, -0.45722411186308326, 0.0670202414902038, -0.7388427136833916, 0.10951238528037704, 0.9765992991002598, -0.1810268604433748, 0.33989335898173, -0.24326867178889663, -0.6036239898863608, 0.05907775167823314, 0.2515423139625774, -0.45845480804553285, 0.4277997751504836, 0.9940652641773426, 0.7696116585172479, 0.532295844184832, -0.3560133982411011, 0.1399088423455733, 0.4176501140935048, -0.7957797295524212, 0.3044879055324346, 0.13522794825129453, 0.6137493688511589, 0.5036003106733877, 0.10978592342936368, -0.8140475368777821, 0.3811460822774374, -0.3348566505225943, 0.6897591381066849, -0.45166961684532264, 0.4472746733250866, 0.4523321842456508, 0.017129116386591463, -0.7991173284757902, 0.45352452822359446, 0.19934333770308502, 0.7056089974958227, 0.6481589181818421, -0.511468227050171, -0.142490643256495, 0.2476553583271148, -0.9933811789834632, 0.005572198641197401, -0.9736011527470336, 0.5680027191641266, 0.6256695214012274, -0.973792203792264, 0.8259366704985776, 0.7771462314192255, -0.13812784975260542, -0.5506600435557015, 0.41225764217644617, 0.8666982472739809, -0.899624812903093, -0.1625937632342541, -0.4753878466652286, 0.45591744199555057, -0.8652925484930851, 0.2612775931363768, 0.6578585439018861, 0.5471140250706994, -0.22650049547722903, 0.03807506654376415, 0.7434812768885524, -0.8574842562869723, 0.7041822873133133, -0.5988980862258673, 0.48005582925387663, -0.059740695448935115, -0.3465744900479749, -0.7780024273752828, -0.5771799630593784, 0.45012830010674754, 0.6250608815336492, 0.8291839772333326, 0.3179289937049233, 0.34241292381927063, -0.44574421672111864, -0.8265669759411435, 0.9738151775646323, 0.6088323291459915, 0.5839878389460843, -0.07025047659817726, -0.14829808971690175, 0.9582604916710212, 0.3163448782336749, 0.4987878872923065, -0.5087477917205415, 0.46617629479650075, -0.3603288623718959, -0.22382081052145067, -0.5359028637655816, -0.5794864316407492, -0.8998944277739945, 0.3966557406115867, -0.303892394860391, 0.2564454557320429, 0.20072416864960096, -0.4703371295984266, -0.6222251672431234, -0.8951376304771712, 0.5180653580928221, -0.9746726167325298, -0.6380847756026361, -0.5912631398419871, 0.5811587493696089, 0.3345340159137398, 1.1502914307284764, 0.1622765177608268, 0.8622900848503208, 0.17384402717875366, -0.018091218573212078, -0.09173623433444954, 0.7098816802005142, 0.9501350421615887, -0.10471104679711558, 0.7446453445422838, -0.0967616536215125, -0.18987262718886008, 0.17322552366100655, -0.16503549881716617, -0.5545055011675345, -0.3811314568409096, -0.8118158916217133, -0.5375643397601535, 0.1445261894552734, -0.415218251545527, -0.8382604057827912, -0.7603342538346715, 0.022465101536538152, -0.39248645657951303, 0.39254044341546984, -0.5439614892719137, -0.4065322374614389, -0.2909463256516105, 0.5688132689357125, 1.084716178142163, -0.2369927925296011, 0.04926889066020343, 0.41690451735681855, -0.19050718308968032, 0.12803160730585447, -0.39567509403744927, 0.20964620441259404, -0.25565584220008436, 0.12587158781955538, 0.012108728508876237, -0.3445546564992661, 0.20860746632307142, -0.2844104159598098, -0.28692866292396746, -0.86639746564087, -0.4890156666820469, -0.165460879888835, -0.04651372138440775, 0.17299053318421362, 0.3392116299043629, 0.9790406571271527, -0.7247144483020322, -0.4610725538134714, 0.29116009858864195, 0.32734583696687436, 1.111250673043111, -0.22284526708652025, 0.939225069043875, 0.7666982529570392, 1.082730016680274, 0.775464881759052, 0.7380536364497271, 0.3506723722746661, 0.36783111721383255, 0.0083838907060621, 0.6580010484623395, -0.008235694661091388, -0.29090122552176584, -0.0789387041735307, 0.21548593026109503, -0.6018185914439199, -0.12135856470792772, -0.7879522498897888, -0.5564375628677545, 0.5012277141942123, -0.5482596110235997, 0.9402142029642265, 0.2630041422165931, 0.27519475684794203, 0.20564325717946427, -0.6888896070754112, -0.5202847981543722, 0.8129375788450699, 0.26243971644419306, -0.3449555872829192, -0.4357117692221159, -0.3298423871186341, 0.2917548066151413, 0.0014285605226037822, -0.05888909743825317, 1.311782650633373, 0.3674485091602683, 1.0448067059932256, 0.42951054050468856, 0.606108223688733, 0.33135694958386425, 0.3201738353498822, -0.0684140660529088, 0.2029145410475476, -0.09343720152043013, -1.0397820842647987, 0.09679414384891853, 0.24356395871319042, 0.07512791842607168, 0.2997282648558692, -0.04783156501198511, -0.016224367493868276, 0.16126439699288897, -0.29017737774155794, 0.23858327322120246, -0.536660385272455, 0.5975517632486793, 0.04612154777822104, 0.3682892864853701, 0.8250121176149389, 0.2348535874170122, -0.47908918913063364, 0.5431588188922958, 0.08756818966166145, 0.0769121898819611, 0.6451860443582259, 0.1015218316640157, 0.7048983116874237, 0.9236512525338497, -0.23929448805302997, 0.6223789531030973, 0.8035055373172004, -0.01909938531065561, 0.5192621797510836, 0.057160520014424385, 0.609120189666958, -0.21315904005191347, -0.9083113076742932, -0.22701931840559644, 0.1989145090041893, -0.4328712923858512, -0.21743829126106384, -0.9874505687509747, 0.15087059613935944, -1.1261137847905889, 0.004639246785855795, -0.5065672271041639, -0.980129501427929, -0.15118161793230406, 0.42899063559285533, -0.7288398734707393, 0.13067336851664915, 0.6469535470826816, -0.6210959360040506, 0.8898366326813372, -0.5076043046651335, 0.7379429360376906, 0.8726065920985253, -0.6384561496342668, -0.22943363742081083, 0.8816959572341743, 0.6432681670928782, 0.026264934468762494, 0.6548317409375306, 0.5876371075592679, 0.4013674486786664, -0.4573432591944737, -0.39962733896622904, 0.18072901584119186, 0.4119751619098531, -0.21069437011574427, -0.7735386013954259, 0.3948285762758386, -0.8667782704408011, 0.2900646134430346, -0.7229727020298209, 0.029664482058508582, -0.15610150705384182, 0.23462685526107707, -1.2175854605970051, -1.1863664955621815, 0.11848467176234503, 0.5148857308968973, 0.37764184119974753, -0.05784161500822213, 0.6520463235188543, -0.2124484904848224, 0.1043970580106265, -0.4242230678075117, -0.04399330565188775, -1.0286370439121777, -0.8666022189754105, 0.5759489501863317, 0.1893452511700973, 0.02868895847653137, 0.690943112088005, 0.023734420447143398, -0.1927020347271828, -1.3467703074444, -1.0815864859674116, -0.10568583014533103, -0.9749400307027909, -0.2648465760541809, 0.2988347796928588, -0.8055841194975125, -0.7906915632190306, -0.7972085878028381, -0.8504989811958538, -1.0520668940115638, -0.5601970959528273, -1.2572728836878186, -0.7379397248383759, -0.13452125245746413, 0.045549419580697637, 0.35426619980822055, 0.9212891259325772, 0.4006858782568017, 0.8722470722425681, -0.6963855597634959, 0.4266041160651148, -0.2710960426526426, 0.6026360779190703, 0.690349482438518, -0.6605202588952365, -0.11478778660121476, 0.692854097488649, -0.9844357212533502, -0.28354274014750885, -1.0034104209980743, -0.7044913977450971, -0.495430029654776, -0.8481749015755757, -0.4736203946770391, -0.13350426185812148, 0.12244883055073488, -0.3105414854775843, -0.6477154992408564, -0.6342513014359927, 0.3874251789658062, -0.7212137171253223, 0.1775406186413894, -0.24596059545328178, -0.42259807791476084, -0.7995366716468819, 0.3194415820044548, 0.031742025581290585, 0.6156997246321342, -0.5805621322802513, -0.4160902420343152, 0.1631900082827405, -0.9257786526194877, 0.07665877699705763, -0.992775197364565, -1.0125285401871427, -0.03894705447108694, -0.5545083964245945, -0.009517447631235949, 0.5570972979811871, -0.7314367754905917, 1.0377012441760838, -0.5773240695767314, -0.09196374214260733, -0.08186970037187373, -1.0176548041745712, -1.140146914702993, 0.01959661069536058, -1.4824681626494487, 0.4614150625084764, -1.324365616887122, 0.285130977320715, -0.15418835307823037, 0.1771634288266853, 1.0569951929656485, -0.2587358329296641, -0.21953832833076106, 0.6888273462556975, 0.5264019940990403, 0.7930950584239157, -0.6652749553122528, -0.9799703417790158, 0.6476372169275403, 0.8489689207925324, 0.5097948384736438, -0.03203212226321631, 0.4422299390563595, -0.7136095013780427, 0.7174736082256074, -0.2115453446835177, -0.5314922759334505, 0.43169368836420635, -0.8021089564541459, 0.16796762810761012, -0.2145100080590435, 0.08696658040486664, 0.287803199057442, -0.6183936370464279, -0.9943142384754375, 0.025899815497567272, -0.8288079099955519, 0.5031555809088345, 0.8390921488089735, -0.24676329430119742, -0.14486666854100752, 0.6826507157630645, 0.4713236308570141, 0.9647263030055329, -0.8419960548800475, -0.44927597084871707, -0.09494159728813598, -0.29685328086022694, -0.04592329370989301, -0.6430049745908797, 0.4848909525939681, 0.02586271186925718, 0.27940452275779165, -0.7080020916039066, 0.49225662105810725, -0.17050512651148914, 0.23722644592933803, -0.5521744430653277, -0.3518736567318983, -0.9484410854407459, -0.3058054776347242, 0.11813326694351586, 0.6479004917496253, -0.2553230626668105, -0.2625027979413168, -0.7193666007061719, -0.4411388299850587, 1.0625418442759829, -0.0011924317266572221, 0.6546873129127512, -0.7293910836269005, 0.02403572394629938, 0.25400209506416854, -0.8302491923894603, -0.30357874023678827, -0.7510818451660389, 0.8261342601018344, -0.27832902877223514, 0.5906544714264732, -0.44638125319710503, 0.4315189117238199, 0.35878823067890286, -0.27476807642670703, -0.9816550492178614, -0.1502743987163938, -1.030152675035288, -0.539248173024094, 0.6096929146798752, 0.6156224578364913, -0.10916814077933334, 0.45473499589438954, 0.013666762580218823, 0.4154433327740988, 0.9483524326802804, -0.3348746430979762, -0.49488170751793886, -0.5241111909403506, -0.6969806987891243, 0.34341515889869606, 0.0033337925100015353, 0.38606142000760174, -1.0056758829475347, 0.7771885467514043, 0.34039978869714715, -0.04289769662684377, 0.9146005945465121, -0.6863697323536688, -0.08579464181822859, -0.8564907533675599, 0.5324635109575445, -0.5362720394521919, 0.6068661759336503, -0.16399411072943337, 0.36577112466178624, 0.36876725642659053, -0.3688911526315795, -0.3512525529178602, -0.019690726481542697, -0.2449294039906903, 0.44523106077361685, -0.011384774536600193, -0.0618945019083002, -0.4468126853541146, 1.212351667142876, 1.0557465045715917, -0.4916689672302332, -0.5187736481890558, 0.8367783771859488, 0.46064795968739014, 0.3555203918488709, 0.5595358920886819, -0.07427723611601983, 1.029596614409008, 0.6804798467122307, 0.1892037502685691, 0.9834307327018436, 0.2775281211832969, 0.0746227298100908, 1.0038399662853443, 0.19191574739875247, -0.28412801293614676, 0.4644122644966334, -0.6526948927310674, 0.8892592895645237, 0.02307257089845343, -0.17350631254192947, 0.24407039393873273, 0.11164544754166164, 0.9659228336906138, -0.5159402039235221, 1.2064067035202535, 0.8099200178777165, 0.061362575988816115, 0.5451848789097461, 0.8209756828994146, 0.6224568535911157, 0.46111780410382686, 0.4272028549747193, 0.864780146665588, -0.19795822596435259, 0.5304346496166146, 0.4565944668382357, 0.4436312286254319, 0.14081953690465837, 1.0124819582404334, -0.05601222300899368, 0.6016991960035339, 0.9885590029507255, -0.19999786330964311, 0.42092866622057257, 0.1090539942689975, -0.4412534868000706, 0.9143581429871875, 0.5116725519983825, -0.24858905294323977, 0.5702246429831466, 0.8390494199063852, 0.471508319065078, 0.11914468898652172, 0.41470361619498786, -0.52844651168957, -0.44757807910589387, -0.07834062332256164, 0.8760062088138736, 0.09174221153710944, -0.3690303683292775, 0.8946736647246685, -0.12848628562839595, 0.6510288398512721, 0.9455402110840997, 0.8678087491078649, 0.8384861628013913, -0.3676790324764625, -0.13455734859267532, 0.8966983019584739, 0.011030641960682442, 0.6228109653896527, 0.5215709943166041, 0.35167444846907825, -0.19575630063181934, 0.45031263798398924, -0.06349218652501214, 0.31211284293718644, -0.42849800113565817, 0.4941720110793198, -0.5916722614441553, -0.15709574923284142, 0.15930666818897896, -0.699538233424582, -0.7945865287181353, 0.5062915897594136, 0.1362560725625992, -0.11716338503242484, -0.1849290389310706, 0.6505190758602081, -0.21257335345805847, 0.824345757168099, -0.1118423960664755, 0.756720347240294, -0.4329043369728604, 1.1832853109089674, 0.7766728700364327, -0.5911198598421373, 0.46321153476800675, 0.7822862769211159, -0.7278575202312471, 1.1183534223147238, -0.5838180653955588, -0.044236008206130564, 0.34766667578615074, -0.40269509240848744, 0.2823260805026688, 0.6993230328697476, 0.15341322847712516, 0.6420894282558163, 0.5398943353340516, -0.1917458992920883, 0.4313305439118459, -0.04498504553040997, -0.5544291169921756, -0.7679941423065924, 0.795125045574677, 0.05891486802601973, -0.7397175746514453, -0.6169457032495317, -0.018821498354750586, 0.44330730144391733, -0.3367206530880349, 1.0466631534609385, -0.1356962874665479, 0.481027929550138, 0.4502557750268719, -0.10221094491871421, 0.7100395440940188, 0.17331217210066616, 0.5391157675721749, 0.7257519856109367, 0.6031646249996796, 0.567903149958885, -0.7433835148452421, -0.5946801441071495, -0.2435695218571385, 0.7064622357425515, 0.12306526771304813, 0.15872749159313695, 0.5537338869681228, -0.16659360880490293, -0.8565601270530991, -0.27014319615561133, 0.15748122154096092, 0.8825810245251478, -0.6028523984523078, 0.636011696685146, -0.7135866380587725, 0.9812191053259338, -0.31690695971794614, 0.24914246900613188, -0.5968865612783376, 0.6028847678555894, 0.17553169703406996, -0.22757668835394607, 0.6414980072350704, -0.7619803263775254, 0.7900734859370306, -0.3466017543340983, -0.29515928539579894, -1.0191565745874789, -0.09489238215616692, -0.3519504166656255, 0.14455965100430074, 0.29994242058700843, 0.27039946044211377, -0.4755048719694864, -0.717494260317109, 0.19053914673905936, -0.10975649317726033, 0.40730710778690615, 0.05445592840794061, -0.8967820045517991, -0.20500624887270724, 0.6697221751809646, 0.13120458511981276, -0.5809742724795703, -0.5976119790214437, -0.32830019819278683, 0.747942138010382, 0.9680801806819305, 0.7995454474987921, 0.7959094778111021, 0.7974328001389845, 0.496950344588133, 0.1070623882099047, -0.9876699426659378, -0.8771984322722359, -0.23054688122942746, 0.7710898980571331, 0.39523356343634125, -0.4517527409340876, 0.6329609225514028, 0.15069599362799252, -0.3434082849552706, 0.2846875784524873, 0.7439831470887244, 0.07578123130570913, 0.7189162148993224, -0.3784667119623695, -0.8525617392724794, -0.002328670068433522, 0.7937093272683554, 0.7307714702680126, -0.16994407611032852, -0.8439480236359638, -0.6660105993335089, -0.8083219365623119, 0.2843014018186749, -0.8216862498925088, 0.8973708754598458, -0.6441625060602548, 0.5030907400973718, -0.4386876632771838, -0.3733517921439817, 0.49387392354097814, 0.10101198441725455, -0.48988762961335003, -0.1251414626043935, 0.034668434938732354, 0.1594592737411684, -0.9498004615400963, 0.7581178710119689, -0.2776555415419879, 0.19088140877013338, 0.20863131860849293, -0.7538985342602924, -0.8566485635159276, -0.09132470795865766, -0.48757313731846824, -0.48215862892800837, 0.07946198893562324, -0.21917336853665334, 0.857476069867274, 0.39561446881441126, 0.10317190362897724, 0.3888441234958779, -0.49624657159178803, -0.95631255314245, -0.8889705636355034, -0.9816902548552371, -0.4449153158876165, 0.5961271089336747, 0.018796724064856923, -0.4269811407967511, 0.025690649751508702, 0.5728778185284038, 0.8756599288925905, -0.3822989193363316, 0.36629104430177684, 0.2078510559259248, 0.3604799213752099, 0.6484954652272923], [0.43501735156626786, 0.9866864881686468, -0.4761771075029777, -0.03459759380971761, 0.6738519851088329, -0.7246434322125632, -0.8545923778994913, -0.9461187947365122, 0.05237899673695723, 0.5155441252679578, 0.48458024525981624, -0.6021018812608403, 0.04812842622126956, 0.6562358077464854, 0.13656173055337062, 0.24152912596405107, -0.852587218577223, -0.6402050420293668, -0.18331450272587135, -0.09129908599394532, -0.7057954482208753, 0.29007701681776354, 0.4587693224239475, 0.6254712491523846, -0.6353191640340192, -0.42529170254609294, -0.3466915368891914, -0.5858771073743261, -0.40004473535538554, -0.868476149784569, 0.34542853321424927, -0.5628392930361343, -0.20235045115988193, -0.24139241808911405, -0.05282784093815218, -0.6274218560364514, -0.6935185875312189, 0.1974312323694771, -0.549256776656102, 0.6294245385328802, -0.0751215368924227, 0.8547831460977122, -0.6807746381667593, -0.04156126301208496, -0.6685398256796753, -0.42373866218025436, 0.40689665484892257, 0.35119051580684313, -0.6708979228625926, -0.28645493020569024, 0.28814547456142203, -0.27335537877074745, -0.8694847578246232, -0.5491459285709288, -0.5315420994109692, 0.20123877304662852, -0.1311250518735112, 0.5918144096617746, 0.6250877973392708, -0.09760811430647931, 0.5630868582119977, -0.2702745834517981, -0.6795313488567888, -0.6081189336140463, 0.5376567721326547, -0.051366374342492464, -0.31709940434285766, 0.5986009030903812, 0.24358954117432474, -0.5324150047585556, 0.3532090141661513, -0.7588852262153156, -0.2970207577524968, -0.3532921086172904, -0.7918173196610743, 0.12908898554207035, 0.5702665197698134, -0.3630559231483894, -0.23969803538132647, 0.32073011256446204, 0.6843289821179911, -0.5987289648604849, 0.03339986720922794, -0.5424135682957358, 0.3213291403228409, 0.35013912273046843, -0.44930577977982566, 0.18719358929652175, -0.6632479122212072, -0.854031900435435, -0.5996654506406711, -0.5431455231888481, -0.25310815788725743, 0.8456156540190655, 0.9321952533570405, -0.7274104267514816, -0.22393533992122647, 0.2639565921150764, 0.6817386243729842, -0.4223887761715522, -0.6915487920154744, -0.7913351496969432, -0.1367307559655744, -0.16175926817416428, 0.6358829559593292, -0.20753514454853933, -0.2887750971929909, -0.18790546010934153, -0.8746172440850121, -0.24239723547860365, 0.6822686291366421, 0.20019186318679094, 0.07694508620626617, 0.48057007850654787, -0.7974450690016073, 0.3679116516354254, -0.7219811467912476, -0.9539623156465583, -0.6200806455994892, -0.03567018888579076, -0.3770417281057661, -0.12395771840772798, -0.4641613971170006, 0.36605870926985024, -0.4557953254741074, -0.8784398006546491, -0.10506126166403723, -0.5157574046362612, -0.6478885048247699, -0.8904025492034632, 0.5460470819389305, -0.45277886104097204, -0.8512675554481385, 0.015367682885143735, 0.05340157079857794, 0.8134978591416356, -0.7411479897446074, 0.6924484505225226, 0.22566435690516373, 0.9666114199963697, -0.7429534460439453, 0.8723636437136368, 0.7940895871066126, -0.479046031237345, 0.2098574564650732, -0.6481764701211497, 0.5116725893071955, 0.6363660137851842, 0.8080929786625248, -0.48047495828137293, 0.5607387099869471, 0.5750758607155729, 0.6776498202283091, -0.2900991487414643, 0.500349370259976, -0.32756120038202224, -0.694421021235132, -0.4742245194528202, -0.4626813665117515, -0.09671590704244108, 0.8931854469783257, -0.16632946849614805, 0.032446103492940304, -0.9651801225019165, -0.34808717200669126, -0.5125217051554971, -0.03604550430830593, -0.5441147852248894, 0.5121953766039669, -0.9188156992208099, 0.9490806010171259, 0.5420100722017823, 0.516163248350855, 0.7400420439563179, 0.166335914336471, -0.5763695440226253, -0.4247311622956521, -0.919288415848964, -0.07066778299272908, -0.8225397526518666, 0.4150395221357762, -0.12387131258613449, -0.9159065818565516, -0.46108327046247977, -0.24216087685897178, 0.5345161194608828, 0.1164897091984194, 0.2203920336672556, -0.35041645933178883, 0.1403115256385797, -0.12720580893427036, 0.39088631133116913, -0.6864988120065203, 0.9754191732403129, -0.4960199028285868, 0.9417709279440989, -0.2573048787029082, -0.7697342792623069, 0.6025880272561074, 0.610270715578342, 0.6268319268795391, -0.5304325976462543, 0.03418502359636816, -0.2113086379770015, -0.3933051841806193, -0.6072632737846959, 0.6088562916375461, 0.4107186346637064, -0.969585881864482, -0.06630690560298344, 0.5863313132175705, -0.8791773380470191, -0.07355344170754105, -0.47848639150936234, 0.12752526156043914, -0.036781478619510304, -0.6184066751373279, -0.7224952290098459, 0.8511405502628219, 0.14069401521434, -0.14998297934273377, -0.6305303678974852, -0.033362020145461344, 0.43608906935052777, 0.45361169420570424, -0.16042246728300913, -0.5331158105077054, -0.6868942219554146, -0.22155245015947747, 0.8397887830717645, -0.6758125324084869, -0.801641970891485, 0.37409431796716097, 0.5214153291114275, -0.4597027189074984, -0.9800572751257659, -0.36028230905593245, -1.0477716514203552, -0.7667087529687879, -0.832704066521693, -0.7720116489639728, -0.40131223923842446, -0.8608079467513953, -0.5169083402180663, -0.04897622871231317, 0.25968849920651027, -0.04418374967083276, -0.22162598095983405, 0.7336874418032572, -0.4403039067204275, -0.5552110523877141, -0.15114784076939516, -0.7154548880760543, 0.481583199815708, -0.45036694679223327, -0.6932011938538687, 0.160035267177472, -0.618259761316307, -0.2639369073037664, 0.8062952781445307, -0.4900441179619022, -0.01915926091718206, 0.49185584118844494, -0.5517620958433548, 0.05989324589930308, -0.8328253883631971, -0.6969914381624677, 0.6262532672552452, -0.11327646848786589, -0.21540877086201626, 0.8645179919080205, 0.9361650140338829, 0.981950934401664, -0.873519057199856, -0.44827120714377383, 0.3999721392243927, 0.6701814604538563, -0.21049375329646386, -0.494115889911656, 0.37243977814365054, 0.3706501958573072, 0.2106478841677553, -0.7285478089199307, -0.8487468296116973, -0.8990158108356595, 0.8478119812522923, -0.09482268105944092, -0.08484958449093416, -0.8973465822765376, -0.9347716847996449, 0.8820870516989888, -0.9666931836787465, 0.4164416204403053, 0.9586702137662622, -0.08962634510120555, 1.0755977577057212, -0.1591701751260156, 0.37481235646244765, 0.892317888994981, -0.7899872848291309, 0.9243570765683228, 0.6492268282276211, 0.13538377565233192, 0.004756456283107746, 0.19615688189459402, -0.7748384065010516, -0.3116814568164039, -0.5583201838159643, 0.5093002038680228, 0.3803170972417194, 0.947451053243209, 0.172517058929372, -0.6793715483794132, 0.5706196116792169, 0.6923084666529219, 0.8620032754707142, -0.46220689511410185, -0.05397300184415122, -0.08310486417466574, -0.2973368324669674, 0.7092324221656563, -0.5720111387982355, 1.1381185917025143, 1.2361220258636643, 0.45772624376225834, -0.6629053774547742, -0.1769915734825115, 0.9097415400641079, 0.7815360076101772, -0.018217177630268797, -0.6015817819969427, 0.08962571551964081, 0.3684030649132622, 0.3887180508846386, -0.8094147103445642, -0.3220049917548959, -0.8722137054971792, 0.2619376415251447, 0.312744115170089, 0.5938928147441255, -0.33311645705562126, 0.3527261488898932, -0.4099728717067829, -0.06701717247054104, -0.7411483667897938, -0.8446079036228484, -0.8697537741271669, -0.5876902076423395, 0.21430613572298254, -0.00262098717737079, -0.6992170498838803, -0.311257922779138, -0.7896932933171572, 0.4552920316902477, -0.15032624076000686, -1.1039939112324781, 0.26556055052677907, -0.11325506383936636, 0.7845902204269338, 0.9111067436070232, -0.4788850767402386, 0.14633284849744294, -0.14147156618575407, 0.7419447574560002, 0.9168333595274094, 0.261233453577659, -0.34196558455637355, 0.573084023378049, 0.18668331842498515, -0.17962874037925264, 0.35025778261200263, -0.21977343553864775, 0.8711670272574645, 0.1027761321416036, 1.0669871719673403, 0.709808167661136, 0.38938367130540347, 0.9884026597662567, 0.45374588604059624, 0.006738223386391047, 0.19635682655700631, -0.7384799486811645, 0.10745217305241049, -1.1779373837420897, 0.02333774811255971, -0.323683978836597, 0.01713045748224746, 0.8461447722864766, 0.996015228235872, 0.19429581330316312, 0.234186608559753, 0.4708716205578748, -0.939491834292268, 0.8624301252052138, -0.6986874447005025, -0.1766971999707213, 0.7927593123235127, -0.6085029514929485, 0.07517740019373623, 0.16111207901821317, -0.5864365588382108, -0.9094261592203495, -0.7497364200878527, 0.12261509633646298, -0.6785736005502313, -0.20641469662753933, 0.9521482735569889, -0.9528879492712543, 0.23720657770057435, -0.1662987030367595, 0.03615893969749231, 0.5973454279165996, -1.03762763035462, -0.9965548145092302, -0.4644630963859485, -0.48701879942286597, 0.8556992843189999, 0.7470396042859779, -0.10913016408370078, -0.4383887811086848, 0.9802053852940618, -0.6096056954783422, -0.8379798877889547, -0.9450569847765539, -0.06245458274792863, -0.5724731396678423, 0.44369919640993716, -0.15598671609539075, 0.7333714515662393, 0.20261621113878045, 0.4784486779251588, 0.2133202351329541, -0.8790906028127754, -0.21349174410453903, -0.23132240230676795, -0.5492118850761368, 0.3664757476567628, -0.7146529389369871, -1.055939147316141, 0.10157894000325302, -0.8258036034978256, -0.9209765094329008, -0.40370259106978995, -0.5764233859993894, 0.019906751948593145, -0.5554784771776625, -0.12823919140985002, 0.35551636055328917, -0.1202449067875786, -0.5938933169307175, 0.1331654146150996, 0.652237045275292, -0.16902162144427602, 0.7418973191265986, 0.9120245929332325, 0.8960183226048776, -0.058462271622531654, -0.5197180859785103, 0.18966996342941883, -0.42019933338024756, 0.8605738300691484, -0.8368114751067628, -0.337229406392552, -0.5883575342347033, -0.17579171860437884, 0.8980113385410511, -0.4880529636970999, -0.04170488751223373, 0.40625037008506787, 0.6341142532526142, -0.4243014171373487, -0.6531857603416906, 0.27636915740931056, 0.9449998537527203, -0.8247388623968054, 0.06234776161752209, 0.9881730414329972, 0.8103067870220046, 0.3576487094464827, 0.8198357635512622, 0.5968753454174888, 0.7660680573257765, -0.6791837106938048, -0.766616619585166, -0.24008400268060104, -0.4338308485908104, -0.8649330763874741, 0.8516131934024361, -0.8524166532881398, -0.6880596648933227, 0.3636277001947668, -0.621404661082826, 0.7154893183451185, 0.05147146596579577, -0.8322040938290598, -0.4773771872069148, 0.1604644195392182, 0.2694644732653646, -0.26694261858109314, -0.6661171196778177, 0.44457275286699366, -0.31369100364111424, -0.6527390863183085, -0.1744623718661822, 0.893084631153814, 0.02610518794946656, -0.2217206834952124, -0.31559534335991857, 0.2110593744584733, 0.14562345581051037, -0.25978490189630044, -0.013854326273810587, 0.4624009973403204, -0.6944240673204559, 0.6651523882406166, -0.327368480687318, 0.42215723134847155, 1.1390818634987971, 0.534087749837939, 0.2403198027727403, -0.849831358300495, -0.1244936949953079, -0.4333689772719732, -0.7405797258296338, -1.0165503473685578, 0.6124428425978377, -0.14408440727127408, -0.32401709930488026, -0.4450734094642866, -0.1487439876547991, 0.49802920139109386, -0.2251009633873462, -0.9960106356041822, 0.6579420291821694, 0.4495606937468781, -0.8222190805951578, -0.2750363346901756, -0.27620536253421707, 0.9909505713807364, 0.5481570227771725, 0.7442676625964669, -0.40555030049535834, 0.7410020368353839, 0.787992906396262, 0.6165000086458647, -0.6780148396137405, -0.6707162284346784, 0.6772092572543398, -0.9155998103567984, 0.26837204317487234, -0.1664149140937968, 0.6251768049177372, -0.2273163620001368, -0.48132773074187707, 0.754538321424663, -0.29804415827547437, -0.3378629199817148, -0.910165487323113, -0.5935500012735034, 0.3396562104299055, 0.23861134479870216, 0.8639021135310341, 0.26426401281367334, 0.29092774951558653, 0.6670513521970216, 0.7514882860585107, -0.7465842660023982, 0.8682536434161372, -0.27503735941894236, 1.0046972062984725, 0.17121801822777427, 0.11703561037233763, -0.23287023456110387, 0.43591429743740556, -0.547925697377863, 0.5627505892183754, -0.050227152630688054, 0.45542835589501995, -0.9202647035554511, 0.274922616701018, 0.3987565299437731, -0.5431158717407106, 0.9142233567589646, 0.3090218234612148, -0.40044260218119015, -0.4169741706956228, -0.46797851338558943, -0.5163419203065949, -0.0006024092803083025, -0.2522018026851256, 0.4978578548667973, -0.7685019559814883, -0.911790524060785, -0.43688434011170985, -0.5255372494001546, -0.25070754196263056, 0.6042185557710295, 0.6095664305997601, 0.08841156386138169, 0.2942658562286047, 0.515894316035818, -0.9299490533498325, 0.8734642844045672, 0.5758227435463449, 0.274960354820538, -0.28572784098933574, 0.07588703112648641, -0.5126387548132647, 0.18126656459527365, 0.6394128919158613, -1.0430155233393368, -0.7094453121977176, -0.5518248484984807, 0.7117094036738275, -0.7802765412328924, -0.22454926162044675, 0.110017368892807, 0.039834483490822414, 0.5489556449763765, -0.5118276437900084, -0.6686198244119366, 0.7864807923203473, -0.9519079576666261, 0.4567794560274951, 0.4911064605196371, -1.0409724084418568, -0.3740210830233831, -0.5184299534122022, 0.586836702715817, -0.5651771082960352, -0.7832936381139385, 0.36331824764603315, 0.7691650563500407, -0.7249950952358574, -0.6751135855976027, -0.1564302345576787, -0.02663651740144675, -0.8099226192521669, 0.34876513124115494, -0.7501339832508227, -0.7314787782633515, -0.4604857265090809, -0.5618600377044729, 0.5679207823515884, 0.26563802303046047, 0.42855029279842505, 0.22149176959010158, 0.5510576686987618, 0.23794444294724307, 0.04201421750390351, 0.972557856972056, 0.4239842526866904, 0.8098639424890623, 0.5393536331150682, -0.01829752714173908, 0.34960293124932, -0.8632447967881206, -1.0072446539144022, 0.5199193242880369, -0.9612382479237596, -0.005639198363066905, 0.9221246212830164, 0.4710500472556153, -0.6602874195536479, 0.5065026002950714, 0.16972203531223587, 0.514699243023034, -0.4591656979608506, 0.09236982287055856, 0.20103846853889895, -0.9818160905974447, 0.8060872627876319, -0.9216728577050588, -0.8762641616926412, 0.5773972383480185, -0.7979333383696088, 0.7156693534944039, -0.8377097633415768, -1.015815735815844, -0.09850942265895707, 0.21813928819035186, -0.4750289379224254, 0.6203227029882098, 0.1394171998027208, 0.8499685954621168, -0.06645627681728397, 0.85076047527585, 0.6697388434894846, -0.8462938127032636, -0.049891108630749706, -0.6255332430896683, -0.0802143218219283, -0.8231012237374585, 0.8782428717380645, 0.7011472980287704, -0.20913129062815913, -0.13364400698954212, 0.46920890708181484, -0.6576062213417666, -0.2329468486352484, 0.5211907580414616, 0.5478294849702454, 0.39750537552091014, -0.934920067919654, -0.8844966702596195, 0.6306783405827386, 0.007917260952926435, 0.7704122689537845, 0.42001221230501573, 0.9641295145056046, -0.5054929530727204, 0.9064329895052292, 0.48356092691633107, -0.8524119702528572, -0.31913386231060714, 0.22829455739410612, 0.2135750636718065, -0.7617753655353527, -0.7937903936065434, 0.10525943084921376, -0.9232762398187838, 0.32766861222781035, -0.9741706689603665, -0.8677389685307555, -0.6353954614056643, -0.7611155026904881, 0.12500225616635352, 0.08233512203851734, -0.19403543622446184, -0.6869723650603361, 0.4594943082827998, -0.7430572054357638, 0.17026772717064945, -0.16514326898903658, 0.5223611602314012, -0.8096718989121008, 0.2923531387940726, -0.505992607412985, -0.26496619998293197, -0.9710951207817333, 0.8361114677795494, 0.6581636009109361, -0.898334588958215, 0.48822729295265804, 0.23033960211117363, 0.18411241348624102, -0.2234547061405092, 0.9293425652566888, -0.3805331881658651, -0.6789262345742196, -0.5418683049889544, -0.7955147225053634, 0.6560903200700876, -0.30994425735846853, 0.44208678397046564, 0.07745507389576334, 0.9007227604713253, -0.02875949005285805, 0.1878331500767303, 0.8557047230923502, -0.8526742670441138, 0.071967793806073, -0.5073951376314259, -0.145573139792856, 0.07933866980637287, 0.8761196364520676, 0.20471385172670542, 0.5035035039266776, -0.8400651722397561, 0.05659723659830013, 0.8543158462520428, -0.20587830353657793, 0.9598602453220072, -0.23979375695386207, 0.7321231738666869, 0.9370869997721002, 0.46666234677718615, 0.48462257146519766, -0.4438716852244933, 0.398862620011908, 0.1259366802465851, -0.5036422844365447, 0.04816567097852342, 0.9048703152037041], [-0.4408898106976118, 0.3688715797226534, -0.11012481093676407, -0.272279233431417, -0.39918929371730894, -0.8923675626331806, 0.3957641582847278, -0.18761714260914997, -0.8479373420093916, 0.03518341695578031, 0.6562962081584873, 0.0642066766869962, 0.09757428845895677, 0.7995357901172602, 0.04481709505985032, -0.20208500936799112, 0.7303066815582979, -0.29124904519748385, -0.7402191593172496, -0.47811086471961795, 0.40195086499651955, 0.40862490258174544, -0.6596982828751343, -0.28136457210683674, 0.5503961414550231, 0.3393237123810826, 0.025324278633079178, 0.4913403043698814, 0.8842395956927365, 0.9831851601109893, 0.288308557006135, 0.05081153320866583, 0.7285350085820649, -0.8309684663809623, 0.054364811884250845, 0.815125341654105, 0.8232664686528022, -0.7089029670199785, 0.01564384141284995, -0.43011960598221893, 0.20985893671640107, 0.48281643176944167, -0.27730043008233285, -0.5127053309740707, -0.47581807123250397, -0.0489296178883803, 0.04824456823354652, 0.539702116998754, 0.10508437509834505, -0.4500683023716467, -0.1415680214020705, -0.8039179015926079, 0.3517102714612832, 0.002751870648543653, -0.024724798827417294, 0.47893976441110353, -0.09199705848922624, -0.981207932418513, 0.041020964280765834, 0.7001508105800778, 0.3406662659428025, -0.4392438968048494, -0.5564199441176358, -0.6662996102601263, 0.26000158999293, -0.4714429771604339, 0.9421481488386267, -0.8427580549669588, 0.3526381641140662, -0.6615735243879098, -0.3643695505053624, -0.8946188602195236, 0.43092786533152644, -0.2361578396367645, -0.6163817284869463, -0.45088091381763823, 0.4043878362376492, 0.18235693435349046, 0.5367116572013799, 0.2700718131530253, 0.2117223802214538, -0.4754999268538253, 0.9858048825619832, 0.1736249064415607, -0.8338357845376705, -0.27991937248882626, -0.8920054929175549, -0.12470922707206898, -0.4950731131836528, 0.742871428559462, -0.9531700365678087, 0.6652086443982466, -0.5380785488908997, -0.3169856942124415, -0.0445490656780973, 0.35871627889988944, 0.16135987677643523, -0.6225801291284588, 0.1751785663962843, -0.6587170981763677, -0.9211989174891617, 0.4870077974086135, -0.1933557053421025, -0.07464355100916267, 0.7596370396795555, 0.0012163564050915675, 0.4857224009648948, -0.3178256646881715, -0.27371196813028864, -0.7758522737667726, 0.5261401653680002, -0.07250455883539075, -0.7235966836316554, 0.777769241470101, 0.3910474965863383, -0.9009876085729086, -0.40949755651555586, 0.3339191116708059, -0.6132763331966983, 0.1303995232734987, 0.29559190255693735, -0.10420589929222336, 0.4450143389551018, -0.9298387038959578, -0.34605054961520776, -0.9200973223469269, -0.7465683576522718, 0.6116019373831995, -0.33901281395293376, -0.2476868164022621, -0.12267966024480188, 0.11233999403829122, 0.6884844252016176, -0.6393888560325781, -0.65651108211291, 0.27483468568710917, -0.10641572428759098, -0.63917316518651, 0.8799743525852348, -0.38888605589902886, 0.7101237066221415, 0.42739982022002865, 0.8263567489966285, 0.974592397123475, 0.1908558434180878, 0.7897744104338806, 0.6144052097116128, 0.3539802421960379, -0.15022036493300284, 0.004849276700295889, 0.3945911157436458, -0.972859644308776, -0.6017164956431792, 0.5099624078032662, 0.058418634295503896, 0.04432112033425388, -0.7680631691464299, 0.2777571035100836, -0.17161075329332026, 0.5779807254580668, -0.7895026770877044, 0.4060862298839465, -0.04691239336524262, -0.6203561728265959, 1.136913891951542, 0.039692076186988626, -0.8217043152989039, -0.649195203902834, -0.7169568805965778, 0.0301019788931446, -0.46401588471716876, 0.4620511798941203, -0.7748945154249638, 0.541604257285856, -0.513231197765286, 0.9840315624715507, -0.46340157458630044, 0.36960560123326375, 0.5818539687207289, -0.2661938627620452, -0.8599392625396363, 0.3760636589154395, -0.8361965784398991, -0.7477987914721803, 0.28339726793304726, -0.8102833213927187, -0.5140659527094247, 0.5642467560547464, -0.08172558161032993, 0.7970951612220732, 0.5427653529897434, 0.35136229378153716, -0.05722667877365449, 0.3832270037919318, 0.5114292074884716, 0.9283817272233436, 0.6479970644434044, 0.2107214182516749, 0.17855726772019048, -0.23333055584663956, 0.8833334837991001, -0.004137275883330575, -0.48567895405278066, -0.8073240867247318, 0.08998644056590228, -0.23656812439119443, 0.15122210202716313, -0.17226350925126893, -1.0110418655856102, -0.03056976172350726, -1.4632216493924532, -0.663511740317225, -1.2292055346437514, -1.0568506859479863, -0.3752118460464985, -0.6108053380137786, -0.4733808409605892, 0.2978992507475184, 1.0012183337195377, 0.8093047763043764, 1.0111555994657695, 1.0592797014378759, -0.12088903666493175, 0.4353889284009127, 0.9755897888392907, -0.9938903150700868, -0.7499925268741547, -0.05028730705958036, 0.9136133177656642, 0.7854184978952957, -0.04706343349508097, 0.5328504304366637, 0.8041324748854795, -0.8169270962565042, -0.4844645500854955, 0.000639795423363846, -0.6078344298002554, -0.29380473787760175, -0.8645325042928987, -0.9491399069484737, -0.4379883383225353, 0.3500760614570023, 0.5720180596471425, 0.0029807542719347863, -0.28410872002197973, 0.6235357429949142, 0.2798734625678598, -0.13433869926622735, 0.8018524615509616, 0.3972813649485266, 0.3900083716390128, 0.31618662626308475, 0.6344220676259278, 0.2791816849257492, 0.23437072912043116, -0.8634646631678151, -0.7174032026163779, -0.5556296956077407, 0.5536586781968426, -0.5571184886326485, 0.740985717490547, 0.4176622679775345, 0.08014827288467442, -0.9946365104221315, 0.44752659435371345, -0.6159240312776326, -0.598625962011589, 0.22832418684094394, -0.13495946600884764, 0.2042862917478068, 0.756698353231976, 0.03502922042606706, 0.7597254323414392, -0.07447451511833263, 0.07471967631876078, -0.23571856356603188, 0.6255904800813894, 0.07821502185208204, 0.7243270899545442, 0.020149970950496112, -0.7149730925591811, 0.7963988442742149, 0.5225426768880534, -0.3053078126037344, 0.5823494181328246, 0.32857988191339826, 0.19427841488582806, 0.5686264238604362, -0.16606833347623157, 0.6629468539640068, 0.7536112471786525, 0.750288185032578, -0.242782348936637, -0.21292412155914872, -1.0696313660663634, -0.6660515707275443, 0.4057050089870442, -0.15985326823399204, 0.2594139058734981, -0.5162524280821813, 0.7900546205855149, -0.31753155451739407, -0.10420302631363695, 0.8310563706409553, -0.8759263880213215, 0.7926066339367287, 0.8491918737065846, -0.9278088852618213, -0.5640512979778055, -0.7639122839511249, -0.8377680769795667, 0.8663544130349494, -0.6007715201807056, -0.304497446627721, -0.4576539385318175, 0.6971991258205537, -0.04415445992761347, 0.4672266095710422, 0.3537650489568559, 0.24969382758218345, 0.7433214507038257, -0.24019895217765316, -0.03478528973851245, -0.572787489009185, 0.7874320170127633, -0.29768209174910704, 0.256922834178559, 0.17068881323039856, -0.4823253920135581, -0.26554089891675237, -1.1987987606614687, 0.11062905055885007, -1.0235477849610966, -0.39005490010780997, -0.8541121113070071, 0.22811536904539814, -0.08986506967028267, -0.3740693145737613, -0.3452645984217537, 0.6139507142067825, 0.1351816853089501, -0.21810573055423282, 0.3676005221463509, -0.654764352453522, 0.4466495195118368, 0.36788854611139904, 0.8292317039811452, -0.0008163195325461886, 1.240056576411459, 0.025333634974673325, -1.2875716641463242, -0.2836830839505491, -0.19401424841498355, 0.26182201184291654, -0.9851438603827334, -0.8527757387574159, -0.39896994939885544, -0.29845729245568103, -0.8140352691678914, 0.4996237531380932, 0.288042404851946, -0.05645538701679982, 0.775109200924278, 0.3869124118419858, 0.20733818871735776, -0.19323180862963704, -0.2625711755653142, 0.7557139419485474, 0.27159926074788465, -0.6862276922959092, 0.48553771028031634, -0.2489333853550227, -0.3620199718965602, -0.135774317524069, 0.49046741200621613, 1.3550179957194737, -0.1311869964810819, 0.12726721536946203, -1.229860645621531, 0.3712324808861134, -0.5841522614250652, 0.3202335551033283, 0.3716459185171032, -0.6472709079354121, -0.6905358956467612, -0.343211681668216, -0.3786488816316182, 0.5643133827130579, 0.4608827019182247, -0.667520205681425, 0.03656336600722673, 0.15220114660176162, -0.7808216930811989, -0.4194790171494207, 0.027704604810518903, 0.6113944278810992, 0.7750150025346231, -0.38903745659675293, 0.2592810626130749, 0.6936837594813289, 1.1494399921815146, 0.11461385361315513, 0.8730836766103538, 0.10513756857641966, -0.30704866608771136, 0.1816465050526831, -0.33798719380126147, 0.44493230426425395, -0.6320103254498207, -0.3036471742320548, 0.2957260369884889, 0.6848790614899001, -0.48597788632417316, 0.3991622484925202, -0.3309851106960694, -1.0299822700471375, 0.4266018801225948, -0.7094082916331708, 0.8681016313654274, -0.6404075659578633, 0.11729927933325336, 0.28144490289619395, -0.6437939493135802, -0.02466366845587624, -0.7493032833290614, -0.29379348156889035, 0.5953314630736203, 0.7290954438074146, -0.20191111611991983, -0.14167475898593776, 0.4280732327701773, -0.0644214239052912, 0.17061969639666402, 0.4249123718888081, -0.6891625989427251, 0.9937703819620791, 1.1360422599205702, 0.2328336307850108, -0.5999933449026777, 0.9396451030267438, -0.22628017860272326, -0.7735841373495825, 0.34970840035161443, 0.7721046171941954, 0.6808625642643579, 0.5440790011006168, 0.8305887269604736, 0.49294520261886676, -0.9377802632145066, 0.8392819468969556, 0.5064463314063177, -0.3341054462922566, 0.18971040066386427, 0.15101577186635506, 0.8289222454160278, -0.6627797674047403, 0.08345000739012878, 0.18339014446551796, 0.9062044381610306, -0.7926661638917416, -0.2119601975577659, 0.4841496683435673, 0.17291800084076892, -0.11985221641625134, -0.4365318318529053, 0.7344553098000107, 0.6752762740491094, 0.4632582916290013, -0.08649436850428581, -0.025640335085186632, 0.5334855214695344, -0.8421957263222412, 0.3902187436178893, 0.5616240441633815, -0.2646254893145941, -0.04661306581180084, 0.35519484208361596, 0.3205726119923582, -0.11098855325780285, -0.40879895375402475, -0.6510503830714918, -0.13871325826240155, -0.04366052425918276, 0.9452555850364823, -0.06646421492561153, 0.2410319834735139, -0.9520346347147056, -0.7531542512878936, -0.5629605959589477, 0.9298463860529832, 0.7759814159712607, 0.45536512031230303, 0.7529805315960374, -0.06289453416374254, 0.18137812584742904, -0.021940643329796356, -0.6642369908936202, 0.8472225312840002, -0.7904927325479231, -0.5093290719137552, -0.26953167617123613, 0.7396720517451062, -0.7912594065460227, -0.2805457874376194, 0.654502193889421, -0.38849166864193274, -0.715011673965254, -0.03231323943358373, 0.5779880360254218, -0.387977145049527, -0.38857274835834166, 0.940142027969161, -0.7201665044427883, 0.586571809092347, 0.2709535394403184, 0.6662415489937462, -0.4032437905413037, -0.5860093336197753, 0.9852258079006512, -0.09991183712346549, -0.10530273639014241, -0.5600281891256087, -0.31339365243922834, -0.20177703831108312, 0.4456665838297627, -1.0923962799621576, -0.8955716182115291, 0.4051386044982861, 0.6190315623312388, 0.5436183809177022, -0.9267399912118498, -0.12466228876331563, -0.46516482163875317, -0.8306978545719249, -0.016197264654872263, -0.18092546695992212, -0.3054791500951135, -0.36837113215158845, 0.909627234363454, -0.6518033563912675, -1.0074796562242017, -0.965080283023914, -1.0272042433669193, -0.3132575700495906, 0.5536012522559196, -0.7870208835297622, -0.1066510337071628, 0.21550517221996862, 0.6449009455529183, -0.24336352614206994, -0.6468116107398751, 0.1412958460216691, -0.1848402425305884, -0.5577358349461143, 0.5922162737011475, 0.6103315303155803, -0.5180061545499531, 0.5436661940219379, -0.35923607290045395, 0.24238564426887296, -0.32095618174680696, -0.5028274926786698, -0.03869292005996036, -0.43170897017750764, -0.9580486115368578, 0.4094894269744892, 0.783631998648842, 0.29837305170456885, 0.13790931199105425, 0.7525608798301076, -0.09187857396138087, -0.08275542178423216, 0.22501069847068073, 0.13625666073407877, 0.29516017840005004, 0.29737482356002015, -0.11045994477103654, 0.30617665301591807, 0.4796987677470365, 0.514136906746364, -1.1250571353652672, 0.054408855025655845, 0.6682644092527011, 0.24755801774105327, -0.02622687182709568, 0.19004195736638507, -0.05901594967899589, 0.19510222404727562, -0.4863231294914818, 0.9870448436184325, -0.8371563412653668, 0.46731450452506934, -0.5347132526392888, -0.5021887195482958, -0.6272461789983886, 0.3525422595527251, -0.4249804989308355, -0.13010700280837384, -0.1812672281555937, 0.5172349352652779, 0.4085604121814524, -0.1543656790482488, 0.5398736311009932, -0.6705956753170492, -0.3697341081085028, 0.5587264285243421, -0.7384009310583584, -0.627033042642185, 0.7304803315793632, -0.23098151383648136, 0.5456272436469316, -0.5483888577194687, 0.8052582714673869, 0.6221119421229914, -0.19231918655147553, -0.8530873535260615, 0.04028257169889482, 0.21365486824414684, 0.21904464568365728, 0.7364593453242979, 0.4940716858636705, -0.559514203815883, -0.2769541283602488, -0.16538561637436178, -0.4518425263385916, -0.03599919841794598, -0.8604676473659948, 0.7645955000870999, -0.8369592898671638, 0.25516894215242997, 0.08387952331334035, -0.20284212670452825, 0.2265597174012013, 0.13459252545465733, 0.7924245694569672, 0.821419656355127, -0.20552633683044796, 0.7118276094926373, -0.9102877050431134, -0.9208061667251468, 0.46576708154306373, 0.15074891995281853, -0.9906163443943611, 0.44302436305591564, -0.9344105186752814, 0.23517293927055594, -0.9728323724811717, 0.1738392279619646, 0.9338449615812789, 0.11967728936712312, 0.3357323601389014, 0.5070119282553371, -0.6837720777742229, 0.3961359814816954, -0.3582783972440179, 0.01268925838752023, -0.5970096650404206, 0.40911947417018996, -0.5704224392897178, 1.0768130724123472, -0.29365293866106496, -0.13518798897123893, 0.38615107472952115, -0.17917015859263538, -0.1248031132000403, 0.49800271433263804, 0.38283691701354305, 0.7764180847495411, 0.44913557302343493, 0.5207735344248875, -0.7124762180079403, -0.5150238694696201, -0.1820478288927816, -0.5951607514871589, -0.016720331191455613, -0.8915303082375495, 0.2754480382316667, 0.7935111242482725, -0.5256788870319045, 0.46032382405063327, 0.30304726562613676, 0.12119734031434132, -0.16799905213437566, -0.3158697365034996, 0.23835034843483227, -0.5907538240988071, 0.24218800410195424, -0.7055288197090838, -0.26953407845701416, 0.5000275915873066, -0.5862947250681951, 0.021344872600135414, -0.11681193245340227, -0.4140603364852921, 0.7925289492125734, -0.05927887033637182, -0.2821377019412154, 0.09702936632220467, -0.06478629983697615, -0.35156320209479053, 0.27625582221961964, -0.22299617389968085, 0.6838801160944377, 0.7330312029754091, -0.18490471065718278, 0.33199534838184325, -0.8058813985860797, -0.3679599221886316, 0.459530429287199, -0.8835257892742345, 0.40367706653145186, -0.28756036511996597, 0.07097812651464741, 0.3608534511179525, -0.7724271276071045, 0.4606806498611338, 0.09300959653261123, 0.06091290568994272, -0.4779695664079477, -0.5601609190602371, -0.12307336305404011, -0.4969533172997976, -0.24692915350468367, -0.67033657317636, 0.8416842148103251, 0.9929545246388111, 0.9595603180831369, 0.1667065983808962, -0.9354250953168599, -0.6153822721508588, 0.5836696864525872, -0.9750489599840837, -0.7268150502289947, -0.5805131663684189, -0.1724744331355364, -0.4449795185170554, 0.13525009072640304, 0.19347986595838398, 0.37555364868099617, 0.6653212561518695, -0.9244378799059204, -0.5977158748548376, 0.3557672198560349, -0.7833634232615748, 0.1368057395711233, -0.4163381786893355, 0.401082358414792, -0.6334264238537956, -0.8421814973446907, 0.04637115261050608, -0.5069076288746551, -0.8545401484096725, 0.09845413007474453, 0.5976602264885335, -0.29272090725725675, 0.7176005257293945, -0.4001542626705421, -0.9067299467077794, -0.5791049267983528, -0.023837326842768514, -0.36451771990002596, 0.7930733473178613, -0.9871110262967837, 0.09987876891127241, -0.6445061528743398, 0.7756119309655548, -0.5469434330298517, -0.1368606421137867, -0.16541804492740167, -0.41504961417320546, 0.8888534681621866, 0.867144004455083, -0.1825853742422803, -0.03543451324495582, -0.24785001582540897, -0.2554512530356364, -0.07323563229482447, 0.06334809698248052, -0.7218427419181704, 0.05486547613321298, -0.49115362729467194, -0.7013328926784164, -0.4893479739074198, 0.4696325130472734], [0.37895702090333305, -0.5269441624147275, -0.10431866044524618, 0.9799729201017464, -0.029611825394678437, -0.28636577987626066, -0.28118016244653554, 0.7065026876288427, 0.4744745114369604, 0.6173904853950942, -0.8752495901541044, -0.08365194920445584, -0.9823147919913129, 0.9630640296257513, -0.9482435122930484, 0.6365898751042331, -0.14871448008264454, -0.11360026804192391, -0.808673419388857, 0.6786595223818468, 0.7832843179956004, -0.7487846923311667, -0.5328692891000075, 0.39832206374460055, -0.8025099327906113, -0.40420859854001856, -0.38539119266505684, -0.3267811518526169, 0.5056426219151384, 0.26026602240878405, -0.21819153552167947, 0.9697206201558699, -0.8274631625463813, -0.13381316138371616, 0.6001346373769663, -0.05446860888867445, -0.6634669920724584, 0.5517152069241448, 0.9885214543794772, 0.7332986219369348, 0.1897462248743733, -0.2162530629896629, 0.6364220677739791, -0.16619240537782476, -0.8488021152143196, -0.18949012292589465, -0.42184038330407153, 0.08210596733970199, 0.15927383029059022, 0.9403042417019347, 0.18356700439561677, 0.557095466774924, -0.9214968817415328, -0.08517551693871894, -0.5013698397298545, 0.4448817225739272, -0.8739189316109812, 0.7548273610921599, 0.42306231419444096, 0.07483474642351928, -0.16782623631803575, 0.10366298135664065, -0.7485373319761833, 0.22806594872073258, 0.9888193261356323, -0.8871296661764206, 0.38452742393279066, -0.6893537606587857, 0.7965237954297578, 0.7108146100992608, -0.9763348538442218, -0.5863831071109821, 0.38655759126684436, -0.42522832172114894, -0.2966546487322033, -0.22561561828919344, -0.5480957110828646, 0.7933333155760922, 0.7349252197302162, 0.545798654341881, -0.89935269327691, -0.4698113132135108, 0.313743396114023, 0.8122454006324031, 0.92917736434505, 0.24509936176272262, -0.3721204481454157, -0.334705154299527, 0.5167997216343261, 0.43034729918576015, -0.2900605054681384, 0.9360447500605708, -0.36034693965463555, 0.6427034940382889, -0.11704174814872492, 0.08815373507237245, -0.47633870892893765, 0.39725843345685186, 0.5316273500270638, 0.29066911170610776, 0.7816711602062353, 0.2296104738469259, 0.8063064946639831, -0.34788405154760615, -0.17671227625008212, 0.7569514339953913, 0.4963822171328193, 0.6917189430995313, 0.0784115535447778, -0.22946298581364208, -0.20502426083093117, 0.1961364164011139, -0.04030498180788089, -0.8813575373054742, -0.13332044324907902, -0.2779646900551398, -0.7900794074699862, -0.935745851356274, 1.0298047394705143, -0.6952836728874515, 0.18195383222681025, 0.48965229918848147, 0.381624700748181, 0.45180987133301376, 0.8828182914911207, 0.8642921236300668, 0.8784776176030008, -0.07632911923431626, 0.9496249648246172, -0.45304572772956997, 0.33600854721321055, 0.3809225199584518, 0.21290313649458809, 0.1708558849087811, 0.32528747445392237, 0.0933054645913339, -0.6727849140148022, 0.541300551873116, -0.25461544701958316, -0.18900136101694187, -0.8608477828859109, -0.6351823777352896, -0.5499676970721921, -0.3254153960823062, 0.15273925641290004, 0.722659502471305, 1.0100925690711764, 0.17178130442898346, 0.7692797894857978, 0.4332973907847959, 0.5023400419218731, 0.8191469193484574, 0.6851941738382927, -0.4791133884379411, 0.7676667814520927, -0.1440545609069793, 0.042059017463241435, 0.3960506541174875, -0.5870464562145921, 0.5682757288842079, -0.4209399417861424, -0.06627515690975071, 0.3151681221573918, -0.37107108985854903, -0.20564941163168265, -0.43100056970033984, 0.8061676374826693, -0.9521121905744431, 0.39451121918163845, 0.2667066632390981, -0.2296980956154227, 0.529220231548566, -0.6450257575336231, 0.622570017958299, -0.8128051636927388, 0.09476637521781726, 0.7759194072847388, 0.30672429237200427, 0.0047747759344439, -0.11907879035006651, -0.4794963244369001, 0.7299490806920843, 0.9885094194304617, -0.4717183261507884, 0.9342851822233026, -0.05581566337309212, -0.29248851053777486, 0.33393536126796386, 0.5740205941993138, -0.23385953577013768, -0.8651068602607692, -0.627997897989095, 0.3577578181555424, -0.7536001364082879, -0.9258216289271486, 0.11032035273397298, 0.7849322849345853, -0.5863701853795884, -0.3886502828518409, 0.38788011531257555, 0.5532922833158727, -0.09338917589630781, 0.39446708566454025, -0.2758938595477917, 0.7580758611102618, -0.25091489884895835, -0.19748369372440566, 0.6428505866949326, 0.8152850753935793, -0.2913121942767587, -0.020818409031825354, 0.6724896161436436, 0.7062239609024491, -0.21708240090571246, 0.15062935281075235, -0.3918792842040591, 0.6636465809056589, 0.19075632214855126, 0.20085654670188038, -0.36632873354495155, 0.7900630661706665, -0.8184856985537692, 0.175294523424787, -0.5595997880192876, 0.9473844999333759, 0.6945246582377349, 0.010590211146567037, 0.05661355845090138, 0.5185782193089014, -0.3742655518805716, 1.0198319252556982, -0.966804723945555, -0.14532868932425483, 0.43494448118792967, -0.36631955864226196, 0.6286352462251936, -0.10992796129799107, 0.16867002564225406, 0.5179640410652303, 0.9629882582703687, -0.4153604805448434, 0.1693420795259348, -0.5976154800294782, -0.03407685843379202, -0.6444029680157882, -0.7670437500353059, -0.31073664563083264, 0.5528323003060011, -0.3027880063437744, 0.5739144724139752, -0.43677851904045445, -0.8437138536318252, -0.57950849454381, 0.5267344253087933, -0.027041510745452628, 0.7310531046307955, 0.7397097786906431, -0.7331476527282595, 0.6860447115865284, 0.35026154279347793, -0.12763903186586778, 0.010960432723253288, -0.4329273237199038, -1.0636802780488082, 0.2440363731705043, -0.2967132324103837, 0.31124651858042873, 0.7532804584005702, 0.03928585652171724, 0.26996179831022515, 0.44335150771223303, 0.5675013756346977, 0.24549509191148508, -0.23307793292923015, 0.30039329047980506, 0.7137196789014323, 0.36881250503503754, -0.8372387292362533, 0.09529799824291703, -0.42620862406926, 0.8922072474020165, 0.2522349952663598, -0.3682228596739374, 0.639265105480441, -0.46493055102431774, -0.6868645980601765, -0.9728153213299229, 0.5386562449751884, -0.6916185397476828, -0.12703659766571496, 0.19182563521296864, -1.0349874006709412, -0.7623628294694127, -0.12120091634574433, -0.446374013831177, 0.6295186141078444, 0.6866346900894585, -0.7193278774212782, -0.5434696059688201, -0.9886495506353384, 0.4346665237479662, -0.3246113263667227, 0.2103949784550768, 0.02070521338290444, 0.4898490966727675, -0.30685783284861096, -0.267320459025638, 0.904875104621654, 0.02442970142583024, 0.19170590589530873, -0.9366157289463231, -0.7573150098668942, 0.8872998478695333, -0.489786472600676, -0.9532008827941406, 0.352397900385163, -0.7396298902241005, -0.9774709205547863, 0.4690326254318731, 0.49496941838313335, 0.05669606609686359, 1.0347224496891514, -0.5029337058244285, 0.6874613446127387, -0.5891075668733018, -0.22493030157422436, 0.3859166091858203, -0.718669786380206, 0.37447364637991876, 0.36311074486463324, -0.5274934469910848, 0.1398217398422528, -0.39751947029630536, -0.07133034875277772, 0.0695041393973447, -0.34153535623459297, 0.03925158159887687, -0.111674735305264, 0.8827176265286548, 0.35118089626693677, -0.5852812157560405, -0.7387290691605023, 0.11442602450159114, -1.1615000750065088, -0.49312420882921765, 0.24274697493648956, 0.3056180740933359, -0.24711425215924804, 0.14647204592790325, 0.45443785122595043, 0.7586868742616143, 0.4854464181601954, 0.30900621573170195, -0.012008674540278685, -0.13842826981145986, 0.485799882166014, -0.117363261916969, 0.439332934747413, -1.228408656627404, 0.43987870044860927, 0.044748140134193884, -0.00027788321215225766, 0.6786447623109642, 0.08287182966846121, 0.7991757898705834, -0.45185251642129365, 0.4502616687186958, -0.8278571845556005, 0.49609390674517106, -0.5280139263458069, -1.0820572907407846, -0.5697576358231825, 0.040224098386634016, -0.46555845224844694, -0.37822681865985375, -0.09878329635598118, -0.356742788655269, 0.7629045220492899, 0.6746349553681615, 0.02524827968765549, -0.43223855792056953, 0.0981861553720198, 0.022473624092217724, -1.1292555286323807, 0.11243391964156889, -0.7306826918487146, -0.224359016743867, -0.1692963038496683, -0.2038821160447406, 0.9488979186459487, 0.8423218564698817, -0.6984267497234874, -0.058220972604108544, -0.10240426394043264, -0.8686200768815956, -0.3384931587654483, 0.4344515273722008, 0.3575708394926275, 0.39524798294939406, -0.4324135258327527, -0.6069827319869611, -0.07831481038408517, 0.10596503931854218, -0.2141846274175113, 0.7725052647351328, 0.4547482240614752, 0.6258331166995301, 0.6399759614593633, 0.247246541886882, -0.24134587539200378, 0.6337743111973381, 0.6916910345533637, 0.06017331686911578, -0.6313501819296531, -0.22213875963268812, 0.1287871017264652, 0.39403683063384204, 0.7520687699679071, 0.2749070433708487, -0.6698274358155631, 0.7804801687343128, -0.8014598135262515, 0.7349868074076399, -0.2970266004797594, 0.14908986431020332, -0.6194507567202368, -0.823215817372931, -0.39579892131129885, -0.03994749178683153, -0.8822268682434388, -0.1737931212712514, -0.2688330306958159, 0.24550867840987878, 0.30917412734226507, 0.047540022033776094, 0.6215910967414154, -0.5129623377797958, -0.24187114025332154, 0.4083170849795919, -0.8466756722006727, 0.24165790080381866, -0.5243728107125489, 0.2690497859383814, -0.06804538493657965, -0.21006803908323182, 0.029319265354449984, -0.5790161865697796, -0.02226036344470472, -0.5781320131524683, 0.25974869741276946, -0.20236218845800272, -0.44588845559597845, -0.42439387865382555, -0.8986462977692737, -1.079509110643296, -1.2398776385276753, 0.19529730507453003, -0.7387083408665799, -0.5582659384878329, -0.5227599331339334, -0.05270815121568763, 0.8595701969848616, 0.3338821004182591, -0.5621442432942121, 0.6226197448255911, -0.37325086391185247, 0.5454452808552566, 0.47764081300723193, 0.3097930386156426, 0.9081900750227597, -0.012946421494188032, 0.12398678098800171, 0.5970867201820854, -0.33642027437012684, 0.36176788805644977, 0.45955136307445477, -0.13355069666222508, -0.6277314526917459, -0.15382537390794188, -0.6422902641228425, -0.568028349069781, 0.1166125307828599, -0.28062111723300054, -0.6077500635390957, -1.2454150469763305, -0.744605538245354, -1.610623096991068, -1.1722390200869348, -0.26581056042895174, -0.09890625556825103, -0.13090919955136518, -0.38512324356575733, 0.7182476778387418, -0.8015954931131284, 0.7017355124020442, 0.013532041223999248, 0.7302764120050589, 0.008842585648574893, 0.10372318437924292, -0.34155151729250693, -0.16138986884005158, 0.20169071163343477, 0.5478800460108694, -0.21279856563829602, -0.3021873854692662, -0.8264566019810521, -0.9582666835746849, 1.1906444416397783, -0.5668499223778689, 1.0511423093384868, -0.016014666383985982, -0.34189090098429303, 0.18822597721112563, -1.6741097372188622, 0.09139565880336481, -1.667675881582952, -1.461933514707824, -0.9937453368379853, -0.18017675833685098, 0.24361118004891855, -0.20850011969767607, 0.7689645324793355, -0.26256738908168387, -0.3939456727801611, 0.9891561888753352, 1.1492931817167995, -0.521521369013469, 0.9617274840463531, -0.23047433355514693, 0.23408208082194584, 0.3260517756537986, -0.4945875871815717, -0.3197883011217012, -0.8618006149464977, 0.8025376852989483, 0.14489752382199006, -0.5632656789108118, 0.41788605447744537, 0.22724449190796955, -0.3710524521600619, 0.09831097117094036, -0.543497776744213, 0.3584339414333349, -0.6309498698685989, 0.3211789606125659, 0.7722824927675271, -0.5421596689395873, 0.6623743352812137, 0.9067357428921939, 0.7567449375073789, 0.4988261409529061, 0.6010225458310606, 0.28731049333482284, 0.1256247932869046, 0.7395780596303017, -0.012002260400935173, -0.20929866148673915, -0.5373830368013145, 0.8641487412596331, 0.6036910242365204, -0.4549761915617301, -0.287141015324032, -0.35298193305821807, 0.621686349565583, 0.9250293939450048, 1.2876796083907316, -0.3912840952680057, 0.5643031860295527, 0.33398717931999206, -0.40293547452423656, 0.17879674982856206, -0.014588193984821234, -0.8616663885408591, 0.016825706059428812, 0.8248381775250643, -0.8655300855951095, -0.18389978850827887, 0.06393708288161822, -0.2077037650746057, 0.8196259343679516, -0.30291974105830455, 0.6796405599956983, 0.17957141786362338, -0.039612607763234775, -0.861274981209585, -0.9403637070817266, -0.662380674089266, 0.7102304881729421, -0.8586167388673118, -0.8891120125880957, 0.9810322837725086, 0.7077173939664771, -0.03403528002116675, -0.2500849394591418, -0.32121345426961634, 1.0248054314376207, -0.16835311040271356, 0.535872284095999, -0.7575583857675886, 0.5332438904354763, 0.3059837153393851, 0.12542238763128677, -0.014634647163084396, 0.8560853901816842, -0.27936409502649184, 0.7375948730510953, 0.6958806366040894, -0.40143530515640785, 0.6374207151906837, 0.4687457373706809, -0.7277395499417785, 0.5962899763619273, -0.25351585404920207, -0.8413501739012079, 0.36456859463431407, -0.2995188385707983, 0.4708012146831723, 0.773006278834194, 0.0009319118363493367, 0.6818135289292155, 0.8486727591362263, -0.4350780192645891, 0.28754533973606816, -0.12732183726525728, 0.27730959085113377, 0.05581517393622876, 0.07018578091777614, -0.3231108890436975, -0.6263236525885852, -0.6464226276901593, 0.6839706588219273, -0.06976394309431433, 0.2507304467953379, 0.5677751499232442, -0.7237156037884129, 0.16213019167564774, 0.43104806231358517, -0.49499445826478244, 0.47172038624381657, -0.44223271662420627, 0.013031120363355934, -0.4741580546114626, 0.3489037666641987, -0.3006901734550038, 0.14463163737629925, 0.6530352039304985, -0.9170396390081376, -0.4393145153165157, -0.7650561325426767, 0.75287545929538, 0.7486181545741898, -0.4105302189655305, -0.3922213458402612, 0.37127380362413204, -0.4474358531843451, 0.9024730675402768, -0.5459468006311482, 0.19613775510932296, -0.1704253593341279, -0.2852354691604553, -0.2287462295049027, 0.6442763929802766, -0.4011633236325545, 0.5376881153115316, 0.24480304414537832, 0.15084695848951418, -0.25739066703086483, 0.18849753303515035, 0.7077298430440851, 0.9642447222039267, 0.8895109546930353, -0.6986690735716561, -0.07538082508206578, 0.21607080826611802, 0.3863954822753916, -0.5046097792132626, 0.5847419821733062, 0.05525564187399621, 0.3664216071651275, 0.7772937604375589, -0.6461761739300416, 0.7218202380540066, 0.3399623123103703, -0.0649449992425661, -0.19194732178562834, 0.12225203675555388, 0.43240903253662866, -0.34978191288772376, 0.5535869523024445, 0.24970020427642503, -0.24327063648013172, -0.27233453594677937, 0.31035074560614195, 0.6725409421760548, 0.11858771078941475, -0.5332243147424566, 0.0355336889290802, -0.47031120360023027, 0.05872841520835853, 0.39608937170995406, 0.7290597321679297, 0.44116772576011254, -0.3159031645700653, 0.056569681786129436, -0.8369920283146369, -0.29258364005833754, -0.27823551265383173, 0.2844899235187344, -0.2041982844923277, 0.10377702354563313, -0.6441559070654798, 0.1914601312390771, 0.8432505530036113, 0.8718488473719103, -0.5667717515320576, -0.35434790045606396, 0.46006592023567516, 0.5860421758063058, -0.8466684151929325, 0.6856368817627065, 0.4613106823212928, 0.33729781644679185, -0.5665201242424875, 0.6336514775254929, -0.7752781233026815, -0.42221189198723375, -0.608580040323851, 0.335532266483904, 0.7359992942877513, 0.6381013944317993, -0.46983460427324686, 0.5630573180527025, -0.5332447752579449, -0.5513847360792616, -0.8210767628524436, -0.38278987415127086, 0.2042130666612048, -0.7841345796243314, 0.8801612395645989, -0.4766517852656486, 0.40922967352385026, 0.13903391949493984, 0.653999852040792, -0.996715359486108, 0.28648157642756206, -0.09294753817564379, 0.8064284447875697, 0.2401609494625737, 0.07757694989535152, -0.54515645075856, -0.14569110869530497, -0.022169186264981565, -0.48390968045830496, 0.23821540257819507, -0.0730996743832606, 0.6025629900016354, -0.907970547233997, -0.06197696921427642, -0.5101609438992245, 0.5352558907608678, -0.13640434148432423, -0.3143751453693416, 0.9385515836542411, 0.8243666939309267, -0.9154196869444964, 0.7027430146319319, 0.6852283207370322, 0.354875517128636, -0.7900601474443567, 0.2351240587488153, -0.3389665655726422, -0.024505437209682096, 0.016649532230772056, -0.10696420907205004, -0.7604834447261983, 0.42064116754023956, 0.8762323983938677, 0.4279378667534983, -0.5917637780301184, -0.0012667960345487117, 0.6526063334832508, -0.6308177737769629, -0.9467486675598353, -0.22411009318158026], [-0.8206339567470264, -0.2192228754540857, 0.3392674935165165, -0.31195711741582177, 0.10348545407482246, -0.7108495602643896, -0.43517239673563846, -0.14016233282761092, 0.06338315211315715, 0.28432993598666223, -0.016744337600922643, -0.6906538795661628, 0.3266374975488675, -0.21685074927558642, -0.09168428909612476, 0.5475203170163939, -0.11949284875409294, -0.9495823229524807, -0.14730637861683116, 0.5035928777230543, -0.9796168404033676, -0.35476471463839876, 0.9002474521485713, -0.5107147866823953, -0.10984160043732993, -0.44984401859063716, 0.5129463152192708, 0.8337750167763209, 0.8600126442539981, -0.661328892427897, -0.3967171681922337, -0.5768956924732187, -0.2685035402643218, 0.25487665058991804, -0.6293273002400896, 0.43674704726900504, 0.34375558783773497, 0.30901216581384766, 0.7086947827024626, 0.400940361421517, 0.708783447739836, 0.05953461808941404, 0.2683631504021749, -0.28167298322840073, 0.6753980336318736, 0.07659915821722588, -0.5167915946343722, 0.8014261420641645, 0.8215568607245176, 0.10652198472420546, 0.9800169329289452, -0.5712798903934666, 0.955694251422601, 0.9250376972272751, 0.11690559410812629, -0.3416334462750723, 0.11727954732775858, 0.5463544848581177, 0.4505321919144171, -0.9390149602515101, -0.7410544407680044, -0.8609651182777456, -0.8926581626984762, -0.7268864282491886, -0.33450661748350274, -0.9133098294405344, 0.1806326985714233, 0.12529042759189282, -0.273957222144308, 0.3799937954950217, -0.3681002661155151, 0.3476410015872666, 0.17666141615453332, 0.9985855436538312, -0.05276834868747512, 0.4196651238590601, -0.7496587868509645, -0.018494593496469564, -0.28787168460071266, 0.7452267025075595, 0.5886934335411289, 0.14557387065107558, 0.3643553071572143, 0.4993819534168886, 0.19447528304986061, -0.7423867427746202, 0.03586061635661448, -0.643164877068605, 0.6440111537133145, 0.719657783718897, 0.872081302349011, 0.5955973956269941, -0.5262072763440705, 0.2757618329443071, 0.1996205272915025, -0.44150958703804055, 0.32719390759771594, 0.8662083968104959, 0.2556685218547253, 0.7349960701714734, -0.5362690505821315, 0.0035552897354970228, -0.785050229929505, 0.052089060559773526, 0.7886041820851586, -0.7243673318437104, 0.7743601444394025, -0.8644564838865637, 0.42481055693986536, 0.9756024536373596, -0.3890159844094, -0.15812362256270363, 0.5247951913004758, -0.7056947979422512, 0.5230003150737804, -0.5690906161640251, -0.8370617748377641, -0.958102359188304, 0.10410997163234778, -0.45370752139159026, 0.885488699833007, 0.5613417745304533, 0.16314621502361307, 0.23780319449544637, 1.0195164825481313, -0.581526841525946, 0.5488692693752056, -0.2361732947887219, 0.5794551022618214, -0.6606031501767993, 0.9780233620372399, -0.09817144749980876, -0.3365679702564553, 0.9896236453352406, -0.9188813988348438, 0.15133024707075213, 0.5768768984303517, 0.765168055773564, -0.14024781130928377, 0.3989546878281338, -0.7879507021948866, -0.5022373509663871, 0.7799287062817113, -0.49923798523453655, -0.30899336811368583, 0.5036234507491625, -0.30526277170345906, 0.6922319606066054, 1.063404335879988, -0.45090493627541894, -0.047374152985637165, -0.3308530123145734, 0.8245283431831766, -0.5355170930736444, 0.052982011870056266, 0.6184262742090616, 0.3603607082384794, 0.2026624057558941, -0.9066556438193281, 0.9295083390758053, -0.06225258486836863, -0.9645069322287175, 0.5126816571745306, -0.3485415196166092, -0.5831910194395007, -0.4503084957208149, -0.27260367033643673, -0.9485033122797549, -0.812164170235534, -0.32996956841317293, 0.6253070640344668, 0.38426574275810765, 0.2218050990665011, -0.10139252498649094, -0.7135282234011615, -0.47923922929333335, 0.38743587879317465, -0.3138801741328221, -0.46350917661238267, -0.3044087301700587, 0.3311568491974486, -0.3148706872971786, -0.19121732797393975, -0.5038665756208519, 0.1366667683900289, 0.23759200243824324, -0.6352552700386167, 0.3027028362223891, -0.9339552718973112, -0.4096840750215931, -1.021775540789072, -0.4123688775795186, -1.0777061058764195, -0.9720539934345959, 0.33506239684315947, -0.34524207095292003, -0.036098655627698095, -0.7383415254807005, -0.6863466666213252, -0.8936819246127763, -0.21041030053085955, -0.7933586469505731, -0.044761753850235626, 0.5003712149727402, 0.6153168704331407, 0.5712199526994334, -0.4947093255291945, -0.6752940609281246, 0.6432971144170804, -0.22097145074465677, -0.7663199219531582, 0.451704761424669, 0.18821765737589893, -1.05384757205129, 0.24006118551477298, 0.05066949989275679, -0.7561967340883715, 0.1457340966459281, -0.3006578678421349, 0.360748363660758, -0.5281352678850971, -0.49330784353545687, -0.7039814598010596, -0.6110616093644395, 0.9800938032909521, -0.2051058471075718, 0.44680101941517814, 0.8209338241673529, -0.7840153433974627, 0.7444914913250349, 0.07476372565919995, 0.7862060079547711, 0.04347484500427761, 0.2645895778383501, -0.05636311182881961, 0.09660447948311897, 0.5468833424743124, -0.3932436981189335, 0.3516531612189924, -0.028915361694006252, -0.3658180147739348, -0.10482023762929021, -0.26761837864139465, -1.307438459225227, -0.4358614101449978, 0.5052271216591773, 0.2567902185131865, -0.5212990842262702, -0.09337996983232388, -0.2574290130328527, -0.6299314464918652, -0.5433072948254418, -0.6742321079536717, -0.22828846415834825, -0.6493664157663017, 0.08551393223002225, 0.5884678486720261, 0.7420002058681825, -0.06414241287404815, 0.7365620570362048, -0.6414292859724099, -0.052715475528679924, -0.5021415249162415, -0.21774290692500214, -0.7426039198118861, 0.20166065340582107, 0.6412959135835037, 0.9371824701732392, 0.6605848197376696, -0.23512612727021542, -0.8625548415648938, -1.0499561060544382, -0.32181206253950595, -0.7315467217668784, -0.9522302512342173, -0.042207635949240166, -0.5886382420350761, 0.24128650870987942, 0.44167768525772483, -0.9794507441052822, 0.0017329499247955471, -0.7489318209274622, -0.42411359256466885, 0.6636838908214252, -0.5450929217882611, -0.5802750307021706, 0.034790266065396216, 0.1181319095063466, 0.6779415496549941, 0.7475681268145155, -0.20472588306106432, 0.03318677069698638, -1.1253219429130576, 0.5762968140092131, 0.1672652164542669, -0.10259357202680341, -0.5983491583836114, -0.5674939669132207, -0.5196915816709703, -0.8336314673826601, -0.7122840139221647, 0.7223629884207715, -0.5386050949121951, 0.029163996330379225, 0.3784186554735762, 0.6242699738561582, -0.17062107983193034, 0.7925642432758749, 0.6393737575178459, 0.4017037918150995, -0.9862208144504542, -0.15445869413507343, 0.21968527907257068, 0.47020060432691485, -0.04444290834029651, -0.535688751884776, 0.1983113495893584, 0.6171189413779125, -0.4458193217023311, 0.17470705676620338, 0.062492463004249856, -0.19865446743017173, 0.059868928263122324, 0.02761181988639918, 0.8135297846997754, 0.19676204871692243, -1.3206214055550243, -0.01753499915877529, 0.509841079026202, -0.32664917764887624, -0.6348150173727511, -0.908965978593096, 0.5492454901785843, 0.8805381708020403, -0.07352021583393303, 0.5982830026153947, 0.8804765660800483, 0.5304796028213814, 0.09161767504816218, -0.7968350387205049, -0.034762188223873905, -0.6624937181058728, -0.7085960810873653, -0.5171797963814178, -0.9740538506893053, -0.5836421517190942, -0.30856041076694424, -0.21334420042448518, -0.46923737852243014, -0.40798725959533, 0.31024437468046384, -0.4383446374405145, -1.0076916214781735, 0.4897035821838648, -1.224779139771023, -0.2702989365695334, 0.038174770530015056, -0.38971416842294243, -0.09251532063744813, 0.7673245750615411, -0.7435348710306932, 0.10027670985808837, 0.0581601878422293, 0.7240217840864301, -0.08502054787323196, 0.5107306616425018, -0.4367916725006539, -0.06933543182071368, -0.1846143738176103, -0.3123535217329395, -0.924394517926461, -0.8428145888479968, -0.8983996365738681, -0.9828245767028848, -0.34067932365540865, -1.2014789225667593, -0.46324163966264775, -0.40573758772085977, 1.1865690282168988, 1.1324167671605498, -0.3874930393876789, -1.2021976736967557, 0.34288421010042996, -0.7286383945820604, 0.866863013368355, -0.3442456732390757, 0.7470604209082623, -0.013460011143842503, 0.6450563165089158, -0.5873786952293801, 0.25767042653151156, 0.35945981684530626, 0.39023049449769087, 0.29810022715320555, 0.26266818326611374, -0.07307089720231111, -0.030659992672697808, -0.34043595880729954, 0.6737333428590792, -0.10086612089146818, -1.1470082949026579, 0.276512136498195, -0.6524813253901687, -0.7479673149082469, -0.3705901532503577, 0.4635905048765396, 0.5280050887535161, 0.31535385021003376, -0.38153768042705144, 0.07402446219929981, 0.2204017105794344, 0.2931113190948412, 0.770267063001007, -0.35772754497335096, -0.1750699225400547, -0.3058446641552918, 0.10491393929289995, -0.896199544443685, -0.5884177509871168, 0.806940619178291, -0.012484905998963125, -0.8024887778692, -0.8317865781330285, 0.4784879667065506, -0.024709782626867502, 0.02152881391859664, 0.394156736413762, -0.7231518062565795, 0.45006147197467733, -0.5533285403257259, -0.5365408001892628, 0.2545481551610454, 0.7713429239864396, -0.2838524562521682, 1.651086599968448, 0.5149816414165791, -0.3562687271834526, 0.11040554653490517, 0.09999268124073768, 0.3607773283240296, -0.45268358619889243, 0.3867581486025947, -0.48974893880816855, 0.06080637123644777, -0.7234323635033704, 0.4976067521872712, 0.6209934326719505, -0.2920678071125666, -0.46125247193615104, 0.14446481307093462, 0.7611830019780723, -0.03438211630298196, -0.115014244235593, -0.5530701060650185, -0.4860988186448508, -0.3728432313271531, 0.06428136881085034, -0.04271686329516069, 0.7646271603145682, -0.8315791393173884, 0.8435314941506709, 1.1325389522232208, 0.7734567916693066, 0.6402041083718452, -0.6435282371181102, 0.09841060611648354, 0.1961236784663071, 0.09318690724922636, 0.2596819638629139, 0.2034650859780505, 0.6455328336709762, -0.07382924390622865, 1.0197796158492018, 0.9874040087931317, 0.2034774073633951, 0.36868384588202924, 0.05396825271522743, 0.2766662968494174, 0.4329727744251209, 0.8404238739436467, 0.45923629986244463, -0.4826691078379681, -0.008531507558416515, -0.5775866806589469, 0.031534116831654004, -0.1591704826075398, -0.27927543525274917, 0.7896022978677932, 0.035789933235279986, 1.2952671931090656, 0.015372241020465444, 1.005882689105661, 0.002121333068871194, 0.461972404651907, -0.7606320171925386, 0.3628096986241233, -0.0975706024680944, 0.016688574232659816, 0.11111535842597153, -0.34567042128315106, 0.5596086212809827, -0.16458433593037156, 0.8775268566559328, 0.6542054732926312, 0.5172537997383496, 0.3778243854887843, -0.09698380953994637, 0.39013039101920355, -0.7623384779624556, -0.7036182548907833, 0.05617327838622496, 0.37101432750660884, 0.2847675411793514, -0.7553284601226432, 0.7344801946105679, 0.17767467176671187, 0.13028581140009982, 1.0335244756995494, 0.9040204158098308, 0.9039001856758413, 0.10127952685197882, -0.34529236099360266, 0.48986580894377035, 0.3464628485154875, -0.425047408480119, 0.3607950132534558, -0.24916282631445733, -0.4494535919241128, 1.152163590346796, -0.6525018785000962, 0.7364045320776528, -0.8256119295147821, -0.8908362657718746, 0.9582066199887681, -0.15863184909323094, 0.15652064431525933, -0.05475156008633552, 0.6386292104824709, 0.0042585233818338815, -0.39702575150998354, -0.8923701852392142, 0.2299087424782507, 0.4729529439167406, -0.09607014957108818, 1.1626901714460909, 0.8995426229587119, 0.009004681488873352, 0.12226000150040738, 0.20149229983231973, 0.07228965658972282, 0.1380248786404355, -0.19321402342953678, -0.25841512976927433, 0.1951733478616105, 0.10411916519090612, -0.5984953684839117, -0.5732817156322555, 0.0471366183163221, -0.4851199293344094, 0.39312200278796855, 0.9355953800269652, -0.6730073089682838, -0.8864319259605326, 0.8066016636332537, 0.7241236763317889, -0.009557504652333475, 0.37449562626670657, -0.45605819634409067, 0.21641081781403002, -0.36739615562655303, -0.10734698959057766, 0.18147449028944163, -0.23952158279152896, 0.7110285894170908, 0.9771533059588311, 0.7633711893315865, 0.36331537647511314, -0.11090722842493021, -0.3699411192633513, -0.6549702455005401, -0.37569678053683386, -0.3902393813993973, -0.12537421994770256, 0.5939816093394763, 0.48814396613332917, -0.6958977446043971, 0.602236674834229, 0.5675211852382508, -0.8755310803177285, -0.06518074195181722, -0.5889713811558762, -0.20973193933766143, 0.22331773050007953, -0.19585327256651938, -0.005615808400336904, -0.1315573144967723, -0.5810986853110568, 0.5757311193444211, -0.05531390173651556, 0.8813133730282877, 0.6078581653828508, 0.7343120800876309, 0.7965288724232252, 0.2613583869247757, 0.4874658301247121, 1.092235273134176, 0.04473883929822894, 0.9623672076670315, 0.5420762854370083, -0.5777909049427902, 0.3185211459780635, -0.3588067288487665, 0.2441219260849557, -0.5773810122381715, 0.26950057324398535, 0.5814617153175083, 0.055757706519339104, -0.26905960654689104, 0.7790870281786191, 0.990960906572689, -0.11894749045033311, 0.9923519767865228, 0.8574634799672679, -0.39502757580870584, -0.3344822025071887, 0.6476423043721315, -0.1492632255606359, -0.4033169678024424, -0.7851584445484672, -0.3518576331136048, 0.2283703101871487, -0.20735176126948157, -0.1100141700032594, 1.0398287735714762, -0.6612566421440944, 0.22309504724971513, -0.3599656422453816, 0.3937732645323752, 0.6595191070531417, 0.30905170193980164, 0.8171446558714549, -0.4310932656375512, 0.5981427943794372, -0.8364527844909171, 0.8672309535637528, 0.3188686597938044, 0.315858769887907, 0.3220850587014949, 0.04220716704201042, -0.3104784455122026, -0.6817557510848579, -0.21009820864658138, -0.6505705392542865, 0.04865526151593653, -0.524162201531765, -0.5496736190678123, -0.8894895000924583, -0.142470787923204, -0.14191265386530888, 0.11275479771840505, 1.0257155513858576, -0.2112321970244185, 0.026662920329600378, 0.891774091219955, -0.6176825884848376, 0.3325050215112976, -0.7260216131934838, 0.682674868873919, -0.27570908052375076, 0.9729754112855994, -0.902132353695339, 0.5255710297879157, 0.11431932178461346, -0.6037320811798996, 0.13050977833649108, -0.7879936586477136, -0.7853496508939204, 0.516121981392483, -0.4854317414846339, 0.7343016655900564, -0.6263678236871605, 0.039349104509121484, -0.7654274180182018, 0.1818530671233425, 0.6330024808162352, -0.5984034790532311, -0.21770233674570863, -0.9438149414466634, 0.1390762475147663, 0.10317526426545466, 0.3267808693621437, -0.18760200697539509, -0.4492456758588641, 0.4211681109984389, -0.6759024044700437, -0.7253957149142353, 0.028629558836776224, -0.3570291101615747, -0.346745090008829, -0.0051718801740066045, -0.013856564279957961, 0.6292305342599993, 0.01654434679619289, 0.608288613931683, 0.14884546325147588, -0.8220906646351086, 0.6941988956050704, -0.9940304923447798, -0.7385261509609404, 0.36708216046229686, -0.562868037243181, -0.5799937190692193, -0.43290005285179567, -0.34504628680883953, 0.15266671082451516, -1.0462201826660316, 0.1608146186727431, -0.3085144070035257, -1.050233028580279, 0.05594741193248484, -0.6676442324215136, 0.8556305841298846, -0.6665772421752745, 0.07559882177877374, -0.8517329986727941, 0.27278355938055115, 0.5481802772941982, 0.5299759602400498, -0.2702423635143989, -0.3697093628360888, 0.5067263128318331, -0.16272704904482424, 0.8757385834882947, 0.745609056584082, 0.18275778214535363, 0.2253069388259577, -0.27321411682942376, -0.27048007993699674, -0.08408765536313594, -0.7874472867702237, 0.17489725414938, 0.7874709528698098, -0.12387142720588601, -0.4757029951132602, -0.8378040353544318, -0.9485481675595822, 0.04451376166070972, -0.9310793911381827, -0.2787684515656917, 0.8081729828107537, 0.16252471852254285, -0.18450228695536885, 0.14699924687857213, -0.5022237336768931, -0.4097427682059218, -0.03352705505035858, 0.621370463920752, -0.015518839762163061, -0.729383165618446, -0.7262066297290679, -0.04549734734160614, -0.9100888148294237, 0.6870718183294806, -0.7616803858507788, -0.507450680309216, -0.9163702601405529, -0.1135053203960597, 0.33334522291934976, -0.11992074590992244, -0.8260301268970426, -0.6591864834652402, 0.18417735669353846, -0.025469070496504813, 0.8470686787047325, 0.024896705959420975, 0.32838097994654625, 0.5584773119092542, 0.16915008669398227, -0.6532773286660823, 0.515616648282766, 0.5013378103030126, -0.35609362103397624, -0.27454161498554464, 0.5668285573096656], [0.32143193527281344, -0.5150284511759622, 0.5465068656692553, -0.83593948274743, 0.7628549190008496, -0.4496785072052587, -0.9798710580835162, -0.25276788614503976, 0.9905338306150135, 0.8350732982086015, -0.8225345105313104, -0.3163368393977011, -0.2557399486559047, -0.9369626204103735, -0.7927944683305436, -0.8434970116356445, -0.08464971775115804, 0.7326285466402644, -0.13706188400132757, 0.35762097906904744, -0.16493633115327921, 0.22037110555525463, -0.46609663501030285, 0.9117668205950968, 0.28163398480429636, -0.22819106722073146, -0.360825539456719, 0.04513547827736186, -0.7915550552034405, -0.3842991396403328, 0.15957620143383866, 0.8743799957227412, -0.31523960934367334, 0.4301671228750425, 0.3054363769452287, 0.3598049512238166, -0.7506152302638889, -0.4114348039180302, -0.6765369323117018, 0.7605520583133699, 0.9195376365286201, -0.9179273998698136, 0.07653033633123908, 0.8639629073973935, -0.2015263056635855, -0.3475867982114183, 0.45318512571850306, -0.8200053011922994, 0.8420717353536652, -0.43792831443833397, 0.15936069855374324, -0.47519605193227027, -0.5534327794171374, 0.8975370386306114, 0.30237882354272716, 0.8335193522205746, 0.6899537433643126, 0.13166146252643762, 0.7377214339377897, 0.07283193109047363, -0.2931204514094056, 0.481242415534006, -0.17800190679508485, 0.9656534472142362, 0.9051666040921582, 0.8180517477116713, -1.0040239302230027, 0.04567497783470538, 0.6307058178903475, 0.38645072354627075, -0.5038093990641452, -0.4242642666290009, -0.0010287284449780776, -0.0785455312090631, -0.7859526052475331, 0.8599591463707712, 0.6657891954926157, -0.8823107337095807, -0.2630828255414047, -0.0117526286390196, 0.45671010979217647, 0.7343671299487945, 0.32196109070439083, 0.3027100544699213, 0.658590751928658, -0.013321722148156079, -0.9333978816937704, 0.9553455860691552, 0.29811166606080935, -0.6827061799343243, 0.06433208899312576, -0.8985998387032954, -0.43402170016678715, -0.16469640696360371, -0.8199819461732801, -0.5383419270990706, -0.10099449549711133, -0.3101695510866272, -0.28146685396442417, 