{"hidden_layer": {"weights": [[0.6095352953443967, -0.6843516813432613, -0.2645323760118594, -0.8399890970868051, 0.8767786404510596, 0.13500480035264673, 0.9288418610902323, 0.33473778065105986, 0.9177099465828782, 0.4254029820318068, 0.25293273962422336, -0.13980432258582365, -0.8983360418416613, 0.6114293730386213, 0.1282325473472048, -0.9898472407791892, 0.5550168671759108, 0.5828850653794846, -0.48580374508112656, 0.7229359966433337, -0.6509009502667842, 0.32912750848312755, -0.6464082999001335, -0.16185136844451264, -0.6416139228237971, -0.8977216156622967, 0.32592987437737886, -0.7870848123810776, -0.8711959101826263, -0.8459221096488205, 0.18749812180621195, 0.4321395562628325, -0.03520723496402112, 0.8554266274928182, -0.0927380780391629, 0.4242879742180514, 0.11033312113692063, 0.5690654442067585, 0.4264428512837095, 0.6054610282106813, -0.8130412216584461, 0.3756859001254369, -0.2748635494143234, 0.2072278668388692, -0.9822104503782597, 0.8702414525745551, 0.13993809292505172, 0.04759339240227367, -0.15162382806549565, 0.3641208021948381, -0.7787091835345659, 0.030143146321663483, -0.5842464612063176, -0.5643687304515206, -0.18392730882730124, -0.5289100374984055, -0.3479885449122282, -0.4725986480204105, 0.6955303539305331, 0.38331247388282075, -0.24770758002214696, -0.8529560517119802, -0.255546462168289, -0.5371137076238787, -0.6189729078208472, -0.6688916815510066, 0.22298232382253758, -0.39338068471459553, -0.05510999406024006, -0.1046935086463361, 0.2129848768067922, -0.18769925702948326, 0.8809410965208457, -0.07403989685289974, -0.4935553552816754, -0.34027318417760233, 0.17557377508925767, -0.9114942154270024, 0.6276339760415528, -0.6829718606272039, 0.036544043244689295, -0.20539146941993636, 0.11808972283424413, -0.232210532930881, -0.8154182170275424, 0.974486420967198, 0.6958807794861603, 0.3015108539877844, -0.48395532716662854, 0.39126030754856633, 0.7691350997631471, 0.9452946081008952, 0.7980952386410134, 0.8271204605836968, -0.6634429304749562, -0.6589782993690583, 0.6202536728113365, -0.547553841030977, -0.20978122755133313, 0.6274974284434756, -0.8246478178470076, 0.6726624403960557, 0.27337124870124163, 0.6460502506836127, -0.12484143525146932, -0.5709128510761031, -0.22033729140456412, -0.9123166408083053, -1.0007274624192373, -0.39622697077348523, 0.33508464502221996, 0.21946457853386114, 0.3680250862642813, 0.017034752784716556, -0.6115316949210761, -0.009736360788465775, 0.46964511932634406, -0.8132209801873987, 0.9711799914406221, 0.20207024359981177, -0.4997674824406375, -0.7778394913580127, 0.39730635759102323, 0.2557599805059876, -0.875477144486151, 0.5693884860352196, -0.5773429839469681, -0.3853485645960826, -0.0025113015432650506, -0.6016249874894045, -0.5761303649260401, -0.2049037272547591, -0.5652200489524738, -0.7546677714476863, 0.44990580219250503, 0.45258935783270404, -0.44191782711061955, 0.2889496429993494, 0.31061726894041114, 0.09653405069730536, -0.7728544908062769, -0.19914395013923114, 0.34019328982685126, 0.39680820194228683, 0.7309858103713129, -0.4413395168864276, 0.5569059209773428, -0.682667087944194, -0.8796755746522235, 0.6949891388125374, 0.36502744562441863, 0.49951362252994763, -0.035828258055302036, 0.672555774509233, 0.5782805906726496, 0.06081846172818327, 0.02955780850499836, -0.6197239260989061, 0.45993309297973783, -0.902870640736211, -0.6501276075048588, 0.47316042267795105, -0.8056141142924308, -0.14586982348996413, -0.1991907342452198, 0.9050746074427547, -0.08043577561915409, -0.6695373238807876, -0.0013363254892624354, -0.4900976143897684, 0.7396740875281844, -0.24007132777552673, -0.8230036016814679, -0.760299039855224, -0.28480869416630966, -0.6535294753966987, -0.8945698492443604, -0.30241087288131924, 0.7613188479945974, -0.7761744679778281, -0.37103083917709695, -0.8889071698466133, -0.854277602199881, 0.07160548605816862, 0.6623873834513765, -0.723363089670591, -0.15320064898696834, 0.27306372249186905, 0.8013249105045682, -0.043305187340641954, -0.6534881839978487, -0.5900851763269669, -0.9334187204265979, 0.6500107629268426, -0.699004556291756, -0.8528253809971436, -0.7132906781945567, -0.24291802707987858, 0.7317555631501438, 0.2738906259768852, -0.4665606296323503, 0.3048235973778936, -0.423722813574766, 0.9574259792865739, -0.9114435040140147, -0.33329504112516384, -0.08750864379354603, -0.6754196332829081, 0.4116242403727839, 0.2847459678336408, -1.0960742506267167, 0.08392402247622224, -0.6026408120930477, 0.6567614501714509, -0.4840905097647448, 0.30082083576475305, 0.3921617883227236, -0.08835264319740337, 0.255367653819583, -0.7704128325094457, -0.6726246601379822, 0.32317641133400576, -0.42447829323029673, -0.9288964167229935, 0.36904048509678744, -0.45598408689276754, 0.9667400032432161, -0.6490625426541616, 0.8159952090039356, -0.21750739434884353, 0.6267828474461997, 0.6383624523219257, -0.03245228147824159, -0.19264951922720477, -0.659113102517928, 0.8123226933728692, -0.9684937117713668, -0.9473385607908642, -0.5546729644829473, -0.5362475679137327, -0.6420113047643029, 0.10196426495942089, -0.8446413672788265, -0.20486727960127246, 0.6972948370039878, -0.1365201716718443, -0.25487844246981495, 0.7279851901928036, 0.2991890631468911, -0.7570289229892269, 0.5332234646308583, 0.7305878674866897, 0.9867872184387938, -0.1605209314869827, -0.03479175479515996, -0.7715801112843752, -0.7578697685728802, 0.4172164157604706, -0.5992498338138836, -0.41585898450386793, 0.1916936272862507, 0.4244786713331007, 0.10107538216283161, -0.5364999863237131, 0.6452144467292182, -0.10408686322670624, -0.05910348295698972, -0.5509582482907679, -0.4373316757392754, 0.7735614799045972, 1.216722272576, 0.08301186625605039, -0.13590792629900206, 0.9997484083125379, -0.3425725467292447, -0.40753372839840885, 0.22807238080326103, 0.6353985525960811, 0.5001863984380811, 0.6230412850102065, -0.5454192599585856, -0.12470205475098618, 0.27305749377435307, 0.6333355562081755, 0.9761524134947784, 0.36707917411146307, -0.4361706848950388, -0.30854877329104, -0.4805061026562267, -0.4880812868368173, 0.34344396441320324, -0.02938560235038851, -0.8374111894491099, 0.41425489721079656, -0.11812784075508309, 0.36209901052090737, 0.21811684839530265, 0.25958251842022745, -0.2644372770505571, -0.3286806496194235, 0.6689361589404516, 0.8692386310936124, 1.1764134994437399, 0.4331721476407551, -0.3602699806104575, -0.8975231223886619, -0.22517047290977696, 0.8781676326025964, 0.14090044662116208, 0.009118015431219014, -0.15028991242182868, -0.7200994135118056, 0.6093060419501107, -0.5518041520159913, -0.6254711288735072, 0.7107994114168962, -0.5058015428801974, 0.7798508100987275, -0.8848130874837772, 1.0470835928646915, 1.0887382245212536, 0.38228717829808617, -0.37440449873426984, 0.47347224810610183, 0.38862676614999847, -0.21252114305288416, -0.79826790215223, -0.8808367163966523, 0.5895571641357127, -0.3138505737674228, -0.6503147034727073, -0.15968760564887305, -0.7239374657642923, -0.9724895125292241, 0.2752712400454535, -0.28960636772963433, -0.1760651442792609, 0.3773116130484363, 0.09903057720587878, 0.25016432125635785, -0.6453863778710321, 0.7893308357131522, 0.3946839591625798, -0.3475250533835513, -0.2891262673429736, 0.07477437308754911, 0.7892076770744373, 0.4843630211233813, -0.1515626835257673, 0.9267514422838216, -0.34861016034728654, -0.4241886853476193, 0.42576336793979125, -0.6542877535320741, -0.7983126678167531, 0.4768547624655014, -0.048785672962994464, -0.19240461479064352, -0.09332174660640992, -0.8554271973797409, -0.7721630184126989, -0.4327503227189456, -0.2229449838164902, -0.5806019282522057, 0.6058715101365382, 0.7445678841809154, 0.6004661121175061, 0.8858802410671256, -0.8646255827757507, -0.7593182842691875, -0.7840546498960159, 0.42283934861242883, -0.6841994068713559, 0.5475915456727694, 0.19515232842176405, 0.8411807971959387, 1.0265395582010859, -0.5988972099289978, -0.7812717541693922, -0.12135098917511307, -0.01951456562696498, -0.19816668522610695, -0.1505075462324766, 0.12971935666566795, -0.04261692091384662, 0.6993226711740242, -0.6639089040784882, -0.9402317615705278, -0.10350744703105064, -0.20798028623501583, -0.5306420841659212, 0.3335038017193976, -0.7280478482270856, -0.9091440546544083, -0.043865107006491565, -0.8417680826979977, 0.35672333662638783, -0.3904671227822901, -0.2934532333242945, -0.7989357829815699, -0.8928091377590313, 0.11173746586204698, 0.7620853775189296, -0.1548875031450182, 0.03755121120650851, 0.4321185767595623, 0.2615852293097688, -0.5241730670337268, 0.021757653488765693, 0.7900578665379774, 0.010204229354096903, 0.8388835565830018, 0.36484951286431944, 0.03952733441230312, 0.9215603381862152, 0.4131913431414521, 0.2495753074752711, 0.2715021159062118, 0.07413785488634257, -0.9641401801687286, 0.7664786478824603, -0.5762243616388234, 0.3574176183343635, -0.3414898271805421, 0.7770399539903866, 0.4169552865620772, -0.2329230764191097, 0.5741373017327492, -0.15601326877271382, 0.46982331314233433, 0.36883180174460223, -0.5494203553828179, -0.513713667233369, 0.5579356782440918, -0.7299958853968623, -0.054108933451718286, -0.5412733652532816, -0.8022296184695338, -0.4477730737076187, -0.5988751468811779, -0.29212744512295624, 0.044926229071837784, 0.8021166321685932, -0.25695268780692126, 0.8078809888742562, 0.8375392646019165, 0.4311794659435276, -0.14927346596612884, 0.4067828934992639, -0.022968908633348883, -0.9341219649167862, -0.33836713797395246, 0.02894241783627999, -0.18325987232970845, 0.28091627097473165, -0.7802444628395732, 0.7617078831604049, -0.47175836182545616, -0.9683739946487027, 0.046811840000240676, 0.7333408963901761, -0.06788304767140288, 0.08084031948910354, 0.09093909323532305, -0.31232904643580167, 0.4704384266894177, -0.5261054993416848, 0.49681077591693634, 0.7330886879418077, -0.6420189258291237, -0.9983467205086067, -0.2995385458630728, -0.6251020263428203, 0.07028100906441316, 0.018236569607424365, -0.9995829147773326, -0.8887225942475525, -0.44349597446694156, 0.3066734283430477, -0.6949489681565477, 0.08517727635044994, -0.06475203895850598, -0.4587257157542241, -0.6256141332636769, 0.38732980692155417, -0.4656153360442414, 0.1998880724128244, 0.7032570264177568, -0.423195506352185, 0.2604039284078516, -0.4837904249361575, 0.36930418179160235, 0.9426541244008779, 0.06345327167290117, -0.415728829619366, -0.5190320404531411, -1.0328777906526254, 0.030904209351627524, 0.5975394944123609, -0.4411131007962681, -0.9341114491932963, -0.4222942938118433, 0.3944404998643319, 0.47602403079839894, 0.7252604153694698, 0.6807340925455961, -0.32438966782270945, 0.11869493893154917, 0.9022158849814398, -0.873661980077189, 0.7202799625957745, -0.816285568677009, 0.41471915046838015, -0.6125627157401231, 0.5775526658379716, -0.7577415808547036, -0.10030788019548283, -0.009850719820585028, -0.21531091826949458, 0.45349643849347115, -0.3011356587446079, -0.3301605640870822, -0.021501152794484175, -0.8526252364176763, -0.4574278326976497, -0.2143924685688658, -1.048882613420625, -0.33059889077240656, -0.07178157883940953, 0.33340379813209436, 0.7862760355608799, 0.34907587134553836, 0.6237535074954115, 0.19644860411056453, 0.7138036279946206, 0.09869494706931106, -0.8424914748979593, -0.7158436217515416, 0.17969899816102244, 0.06797039118611725, -0.3588689148422756, -0.691271220875005, 0.5272870037433949, 0.11415247474707453, 0.6595323591050882, 0.8389612728680518, 0.861094335878995, -0.2769636975809669, -0.7854387145628632, -0.7259432559910411, -0.9288108186323139, 0.44982348136896716, -0.974685225478622, 0.5852656784327118, 0.828701491826072, 0.7405659654149286, -0.8930754496703522, -0.33667228975924757, 0.7762798906137867, 0.44083814063851934, 0.9684608870110445, 0.8917238785654897, -0.8351839907950603, -0.3838922412201922, -0.18105962436091752, 0.9714421480223944, -0.8104441723873592, -0.4951886144670518, 0.35373537086331064, 0.17365984871956805, -0.8832104156719311, 1.0528261170969553, 0.21202542788269757, -0.3732909701181342, 0.5177398923074235, -0.2079712418215338, 0.158058704257341, -0.37908609832778273, 0.7882269332146864, 0.4594816108965438, -0.9358970639919033, -0.5459846825782821, 0.1464423675549516, 0.29374137375662274, -0.3696180844523292, -0.7060486276254251, 0.34123110778352506, -0.49629562520475523, -0.37688166594625727, -0.5076639217588312, 0.5540970251494545, 0.35112530311208556, 0.13441064824821372, 0.03683199190376999, 0.7305194175145923, 0.6508518248292319, -0.5168012094677015, -0.5527185533597702, -0.6598882866746174, -0.5603835427546221, 0.32173450757720307, -0.8190664563747092, -0.9879912495857821, -0.3519449595111348, -0.44057248541407834, -0.14301631305360682, -0.5557947361880623, 0.09417107908162387, 0.09010276113994398, -0.32311591637859804, -0.12287742391682656, 0.1622910881599491, -0.30082238155030766, 0.9465109097413518, -0.8577772891874949, -0.12207091467685416, 0.7641828814078855, 0.2819136834416438, 0.9715045390389339, 0.08180130028416994, -0.20616460171338843, 0.7315804118819168, -0.9746142697401251, -0.3724021793947315, 0.4250528376019503, -0.9576729279512275, 0.18739381294389645, -0.03624757544380917, 0.26356431799672114, -0.9136485808668772, -0.2883448071448246, -0.6396734936016983, 0.8518203860839622, 0.12408677541445738, -0.433090257643313, 0.28183424537502133, -0.378213020646018, 0.47574815660467923, 0.41328602127820663, 0.15876138813007823, 0.628334617348527, 0.7141428109666449, -0.8157461089061828, 0.5263948144361132, 0.13894975979573343, -0.22936883722068035, -0.23691008777274455, 0.9341624469849122, -0.34522315174298357, -0.10764331815108404, -0.07267369296590875, -0.42035653399286704, -0.08973485982671456, 0.3978134533240761, -0.20565977721801845, 0.3624613292425032, 0.09699865201333929, -0.5339414245712706, -0.2657368726266405, 0.8734485325670206, 0.5448410309285268, -0.04317134896239218, 0.6767436222340316, 0.0030668997171616444, 0.5389464090134297, 0.607814042727325, -0.23556306871812235, 0.9139966667759977, 0.9100121239781443, -0.6773899984939472, -0.1987291651528038, -0.5209972070004942, 0.0891338686850347, 0.31155414530647096, 0.49421524294867364, 0.7400862984136394, -0.5267598612966846, -0.5474999688600195, -0.23689695150997453, 0.24654634290645416, 0.48790898330016297, 0.9411025429789059, 0.5209170755242812, -0.845836868313693, -0.2945096795245125, 0.7438514082042719, -0.3743494968194148, -0.9910552220532363, 0.36587808245290343, -0.9896150989426952, 0.18824134027148146, 0.5505826236502497, 0.9573979455247824, -0.48116975838144177, -0.5412570372704002, -0.7894019972770081, 0.7331038857376702, 0.7455149335585269, -0.7249399801740131, 0.14126495786885052, -0.11374953600562954, 0.7858290823947496, 0.7968297051533262, 0.10724323119600837, 0.9529610437085508, -0.5885313118999084, -0.6000329956713641, 0.21404063359452213, 0.33623401028084127, 0.2010775032541133, -0.036313910376407924, 0.25994071016116477, -0.8089828179972608, -0.44321873093816416, 0.7938499239874153, 0.1807178010288649, -0.9404208389290076, 0.8210143822387028, -0.2107559996080787, 0.31681778406061756, 0.45826387767321025, 0.8177015094927041, -0.6861306333773731, 0.49722216437466094, -0.6879091401146055, -0.400290625913168, 0.5894351119768355, 0.849187722055657, -0.10482046977110304, -0.24436265133714996, 0.4445721337386219, 0.9870094707919981, -0.5120025700249774, -0.6781977247343777, -0.4588109718914703, -0.02352732603008414, -0.745468374684666, -0.5111241024445109, -0.47562034116443236, -0.26355066427888973, 0.07794501904481742, -0.6839335286382885, -0.10873149992021135, -0.9509701348482177, -0.7178460603042844, -0.45168352802245376, 0.3767918606703839, -0.08054790166182843, 0.15031370504727712, 0.9834879033518923, -0.9741104997195952, -0.3430186689945114, 0.3624263655544133, -0.8908559158912817, -0.6070414646650917, -0.0657904730969856, 0.2914953974342478, -0.6510901688785253, 0.970914471464144, 0.0776933165872844, -0.9150439785911049, 0.48239673481821754, -0.875331831711493, -0.579759067578272, 0.22867513225503405, -0.5669916563292704, 0.07029125833853389, 0.41220470085242905, 0.4083266729049993, -0.8216195858114865, -0.6514607275104678, -0.15643500257203838, 0.2839603200351394, 0.6453427005677248, 0.8982908290072769, -0.8458492890422868, 0.9639804091071781, 0.2460106874101722, -0.46067433880297554, 0.39409989370334886, 0.4185115167960092, -0.6199920582778515, 0.03579232579122249, -0.2543180814835224], [-0.22305953235867038, -0.7912154620134508, -0.19112085900520848, 0.28095269488502295, 0.8393728211915987, -0.24514954063136507, -0.6383796553526528, 0.8791798950172274, -0.43412941710634656, -0.9224404342100947, 0.28442262306066324, 0.44942930058065667, 0.3607991629438831, -0.6570297686891817, -0.6125277481607463, -0.6074623662642515, -0.5734705621382836, 0.8399278104900876, 0.9184636606491758, -0.10722673086944612, -0.5944999390161603, -0.036931495191806496, 0.5749892174879534, 0.8774453379794993, -0.0683523630968903, -0.08304427689250349, -0.4409779243255927, -0.7467433592497423, -0.2534400430165704, -0.5974348359274526, -0.16733890890315162, -0.2701896957694365, 0.03022317176478687, -0.3285817152824935, -0.9219995162190433, -0.666768189389738, 0.45004014847726886, 0.7629554053170927, -0.003646261995688717, 0.14920993098104482, 0.11413508812336208, -0.3159927519749426, -0.395641346859486, 0.2683132969302992, -0.3399467963994974, 0.997442323135745, -0.8542364781005641, 0.6029602586899823, -0.010962819605665858, 0.6273439467883534, 0.19881522359709516, 0.24557444745633933, 0.7602710157879953, 0.09485422087367401, -0.18574205309604053, -0.6352930847239526, -0.45662311701034963, 0.05722262411606582, 0.057532231055153434, 0.209502876557549, -0.9678074114664749, -0.5592536291202144, -0.31291776702315444, -0.5409505481809865, 0.17804150648941516, 0.26578766323358277, 0.2541005154076515, 0.009607341497272827, 0.759595185305484, 0.7026738111079722, 0.4361000183780703, 0.9431928535108929, -1.0001918019544374, 0.524708370597167, 0.3066728407038372, 0.6701358462356694, -0.811271983804263, -0.30821479328432155, -0.25893551502407397, -0.7513249681299916, -0.773319277373284, 0.609362975823755, -0.4454935798553481, -0.4909701436943852, 0.2580310755035191, 0.7810419873442795, -0.6850103078516178, -0.8812373367249781, 0.1631363193841886, -0.20316244657091462, -0.019524868123288717, -0.5733001176671927, -0.6308263882222744, -0.8962698287552936, -0.3806354539003225, 0.76275073043683, 0.3442028054780066, 0.5096955004607371, 0.2796339001544541, 0.7830708703873753, -0.4247492655004732, 0.48315562995591693, -0.6336773579054376, 0.937090355824785, -0.04543588890061277, -0.7668709085154991, 0.028668779935540737, -0.43090983686043094, 0.0055916771869018, -0.381299292738841, 0.09041858221670163, -0.20684488215428298, -0.41529630160509834, 0.43276593362833715, 0.39500612568157595, 0.12827546775927984, 0.9721967913897867, 0.8960184582013726, -0.3969498811027031, 0.0870350212425293, -0.9486113533384816, 0.7886705323714618, 0.41102299884673343, -0.9871822915379466, -0.40622000581841583, 0.019303346960987802, 0.0983428249722537, -0.9920456372368173, -0.3308157602296985, -0.4249329834741009, 0.8265493962413332, -1.0124947643270754, 0.49618306986284183, -0.49838793482320326, 0.8365729037511149, -0.8710168543548316, -0.9293488734762256, -0.21718448829705708, -0.07212108904462311, -0.8327419832784131, 0.5144703759572544, -0.470319799970071, -0.7614564168769307, -0.2854780390032031, 0.3970189988064155, -0.4143181232229958, -0.54160507919858, -0.38837989528412104, -0.6084187209337725, 0.0416691792393231, -0.08994701643908662, 0.10071777898605815, -0.2871863871483497, -0.6520666175408636, 0.1513652100564185, -0.5741517975313917, 0.3624242718491, -0.05491085260846846, 0.6853230805043542, 0.9105973850147023, 0.22758911899981452, 0.021825514277407105, -0.7120366055464152, 0.6639876670861756, -0.49464491489826656, -0.49095923307855144, -0.2933580627113578, -0.210854323751821, 0.15131742848860807, -0.7928498764582903, 0.8650340314574898, 0.5357733509105657, -0.8078764980913639, 0.45888200912974864, 0.5570409288202206, 0.029760858208133713, -0.5397256094816293, -0.29679940073524635, 0.7388311716856792, 0.22435077703818268, 1.0550738449604593, 0.3804657943950027, -0.5014762245809813, 0.7295876964413988, -0.09129805966908802, -1.0532579566829818, -0.39111197374854206, -0.6466620136738234, 0.47525389142646396, -0.1541416681340519, -0.39748448872914166, -1.0018011678110001, -0.012304386216609923, -0.7373455900509774, 0.26358025077657066, -0.8112281944307477, -0.04252938798559058, 0.8279447895634016, 0.048241193950908104, 0.9809966125893511, 0.2547926912293946, 0.10695153642802299, 0.4206871183762376, 0.48627611217485534, 0.0710359609174874, 0.9730776197830457, 0.7767143462179849, 0.6961691460784589, 0.3540761551136466, -0.47579391064121174, 0.9773689654952644, 0.49388279979199445, -0.6703409113780752, -0.04019385118969147, 0.4270982071857952, -0.35338016735854344, -0.6915666411436255, -0.4110069076397837, 0.04681502563526689, 0.2218197574875994, -0.49036561695609876, -0.10564229231360467, -0.04776736649037661, 0.18874758088035234, 0.22684026909633692, -0.9696998631368068, 0.2569053146007874, 0.7936984449443746, -0.5931752614617292, 0.15872659971147773, -0.6157018053752509, -0.051525650956626, -0.41289812639954854, -0.022903841867526357, 0.7595816091683589, -0.8544311312483713, 0.11168708240679426, -0.21015954623450378, 0.26448532473599395, -0.6560527850641781, 0.8958696186102183, 0.4746191797286977, -0.3056082813187582, 0.5674045034221258, 0.03319629367058081, -0.18289500979215947, 0.6340982428810061, -0.7479105358246059, -0.37140170769276065, -0.55465408172994, -0.4886524726399684, 0.08368399199150443, 0.5398322880552202, -0.8956710674721108, -0.4073228693980791, -0.2511427960299109, 0.5141558401172751, 0.16075576039831932, -0.015063298343126287, 0.4359558012917761, 0.16255400141268028, 0.7291763011368493, 0.15841773534832312, -0.42542002765630793, 0.266894965201625, 0.8917132729533138, 0.9413016575384752, -0.7404981201429656, 0.8683586160624469, -0.5695761542600651, -0.2596060605807214, 0.6018362162008932, 0.6144434274374225, -0.5003914527004188, 0.8400613588316569, -0.9721941961184573, 0.47629448929028073, 0.22887587700602188, -0.9121071145550046, -0.07826359870344642, -0.5716674692568228, 0.20620570117696238, 0.8915114115211717, 0.15695894370923563, -0.9948659564116819, 0.4571640297568432, 0.5986052745947982, -0.6511483473719109, 0.5253583910095802, 0.23439282867989372, -0.5267009309960391, 0.21945847759987328, -0.25746686006989117, 0.5539428820810138, -0.23160257859879535, -0.1992849399497738, 0.44457444399114004, 0.36840498641021724, -0.6533376354600616, -0.24506001583383177, -0.0023396073561207753, 0.39069369127604453, 0.531091231694072, -0.05244769187303578, -0.8576690153302636, -0.257254789369166, 0.021440715277144095, 0.9283822947001885, -0.8963476933280972, 0.020188793917000257, 0.31605177513114713, 0.34982072454608604, 0.019929712511632013, 0.7200340938192478, 0.07493806150011494, -0.950074658588283, -0.761367460669148, 0.2771016821154007, 0.22607986851756592, -0.4523099861445261, 0.7037776208901929, 0.49691377545570065, 0.7266872427861474, 0.1998528797377656, -0.6074158158142029, -0.8321028258012807, -0.3619680381608968, -0.5616995342351874, -0.49527952880307985, 0.34173822861492364, -0.8298214877105642, 0.7507636378369945, -0.26397339932011293, -0.2116266420074969, 0.1812651135166309, 0.3488728468510895, 0.9745600602561368, 0.5287044985923127, -0.920918198191493, -0.37988807357808996, -0.8687414338498958, 0.6174597592056488, 0.4673148659531271, -0.9448251923417248, -0.8409954319226439, 0.9698312911247698, 0.13780776517687723, 0.1875179984120879, 0.2138228494468221, -0.0915406368829317, 0.14309151648157317, 0.7211866760436517, 0.3791479502210175, 0.11000944025244137, 0.45360093230608495, -0.5415652483516138, -0.2692201997762928, -0.6683570033754115, -0.7187642436250552, 0.13568383674805853, 0.9277915767629565, -0.7577286210435964, -0.27973339481252835, -0.6520222312616687, 0.2175406658705783, 0.19207818068177965, -0.5944811331100089, -0.6388625535286234, -0.30840754275549825, -0.004440408511060401, -0.2798157166551275, 0.06310113101339321, -0.0808126219666349, -0.8188700437082652, -0.804827646605003, 0.3825972930746529, -0.4662506652850038, -0.1523430058609564, 0.4466907476063618, -0.790720764779644, -0.16904401412926398, 0.8914497605757251, -0.1875042545373168, 0.7279905264123212, 0.7553198271413697, -0.28591101648525963, -0.1729149949511865, -0.6580783460476993, -0.857518884677567, -0.5126559477417306, -0.6079542578911391, 0.6437759267353713, 0.9957554306572196, 0.6173278597480047, -0.4736862921218617, -0.028535035311717628, -0.731983370566276, 0.927758350446314, -0.013650901411576542, 0.30433493724380783, 0.03162134098390426, 0.7348525507476813, -0.5432119983707577, -0.80220769514234, 0.06127921342561866, 0.4476690836601722, -0.4652838073908063, 0.47948015698427954, 0.9870379508192472, 0.5157910847451772, -0.7335751471957568, -0.9640122213160184, 0.44234580519153616, -0.561501089444111, 0.8914957597862052, 0.2988342726055087, 0.026254013853677517, 0.26336536695661206, 0.3626526964666087, 0.001562311816427986, -0.7823532266907132, -0.17936326481483955, -0.201577549642817, -0.19810647601108702, -0.09550377101196299, 0.5240476367626609, -0.6760325057328698, -0.28812020295882745, 0.7235730799431288, 0.46854482982355555, 0.45404088768629647, 0.8073486265659268, 0.8452086259872423, 0.21471435421776466, 0.74014487613663, -0.7122266116577256, -0.516456651433259, -0.47163146333711964, -0.364394398174926, 0.6485679533306455, -0.3423476720885433, 0.7127564227618409, -0.20054466209617658, -0.6918253477217007, -0.689031534006098, -0.9470070424312467, -0.9873787086900649, 0.8817390377446168, 0.8419838768548382, -0.4137817609441603, 0.04140818164619556, -0.6667760365976254, -0.010709305619555054, -0.4979875275454679, 0.5664585541386938, -0.4268876021041538, 0.345760199499586, -0.9154307369151782, 0.839775455801483, 0.3851265211298548, -0.3858807291204133, -0.6981200553825019, 0.5438123389865884, -0.703027092342332, -0.8285493415378898, 0.6410167765184447, -0.6930176978489528, 0.561345165216355, 0.3589558831829835, -0.6004508303887444, 0.7523095529922451, -0.8480856745575471, 0.5470301642173419, 0.9042723804137519, 0.42450390561235973, 0.971273583108615, 0.7332428651910501, 0.4087397816453747, -0.12062227602148486, 0.2651477681921087, -0.20598205414727128, 0.031059885754058422, 0.6746148006731351, 0.3386441846502388, -0.011101552337483698, -0.2024607076014717, -0.09358021704223911, -0.7501436372564285, -0.7539540096907369, 0.22311550214493145, -0.8316657655801728, -1.1080966782410326, 0.31519133460357035, 0.12023094481404377, 0.6111355684567059, -0.5323304928112451, 1.0342162405508777, -0.38451710206518364, 0.40167179282181625, 0.003973188065763686, 0.5982845370387434, -0.7414704032280166, 0.6458296924186754, -0.33631818989638484, 0.7417678269620358, 0.6231864439015887, -0.44649783549164557, 1.021535965111487, 0.27411714174529206, 0.10067755055371096, 0.8922157887005859, 0.19186143090030874, -0.657819964288017, -0.5484481586026775, -0.8978889328598604, -0.6557475898651538, -0.2777514629083462, 0.3510827941692231, -0.049090407553461286, -0.37110565251673727, -0.43674592096732484, -0.28718333791720796, -0.23596556356729487, -0.4887822715849281, -0.1879926516529005, 0.0243680223800279, -0.5050422650204828, 0.47025106015847723, 0.8616355310854512, 0.4376744943089519, -0.6818623202638981, 0.8290997119530298, 0.6960714571140689, -0.4235085346464007, 0.720771034735033, -0.2525259070278046, 0.4098339771789845, 0.36860081806955414, 0.06621722156638873, -1.0032571804152584, -0.05533860390957459, -0.2577418781227363, 0.6076836386249783, 0.523480480250064, 0.1764027014068734, -0.8985861792702268, 0.08938530589861517, 0.3457845766862844, -0.7032431978919743, 0.4918377569352585, -0.37335034781314763, 0.2274961556493435, 0.8303870672386068, 0.27657566437960746, 0.7739256635819116, -0.20921077123160736, -0.09935154696955949, -0.26185185091991536, -0.07703879287063516, 0.8874871049203678, -0.8327070173850968, -0.21822614839918608, 0.7310234588048846, 0.23203279655228995, -0.1381671661738696, -0.42998721277458035, 0.17047749295711326, -0.7126511317363753, -0.39852543289884224, 0.4786144519515511, -0.26166969578997085, -0.46782473410751807, -1.042541204938915, 0.7017108845727759, 0.6511133096246938, -1.0142108757218102, -0.38272054798727745, 0.17711696272099053, -0.762786204676109, 0.34785887630781787, 0.6940097524982507, 0.6492693419236872, 0.6332520980514177, 0.9091757770901624, 0.6577606877277975, -0.24091151952006107, 0.7126398270479138, 0.7715603255998664, -0.057663495588187175, 0.6105972588345957, -0.5629999726040743, -0.04081244435245123, 0.4640045341902507, -0.8648170231778528, 0.9065606871378927, -1.009640987491408, -0.5093887297744683, -0.09187611990537077, -0.37206126937914885, 0.6362394573962691, 0.36895087236263224, -0.7286562977259431, -0.3215489454017084, -0.4873043469675655, 0.268187760131164, 0.22152611743777278, 0.3199559419810349, 0.22507288504973857, 0.5738398530848458, 0.6788826318585067, -0.6515061683548257, -0.07773285072529007, -0.040898830378820465, -0.07037968202825934, 0.5272755163971109, 0.21074177814036443, 0.06967411355923692, 0.9424999353818689, 0.8786615987332115, -0.10286002021328576, 0.9279900969728074, -0.8189351175176999, 0.7714622191038661, -0.5021526358955983, 0.4064323335122401, -0.97242990442298, -0.7572333628647808, 0.5459053405967873, -0.4534044090283588, 0.3772694728531866, -1.0035741931427657, -0.09362140362735996, -0.5083575963839024, 0.9503904184989271, 0.13667801237778995, 0.37399323000639384, 0.9199818114142306, 0.512303775942491, 0.8752511429061499, 0.5989210862447911, -0.0044464840566956, 0.25483249936966373, 0.7018203583027641, 0.8268436505993613, 0.6598231462171515, 0.28509286026355074, -0.9921229505941074, -0.47849860127046023, -0.0005781251539493198, -0.8716907477758339, -0.44536523015832513, 0.5093669620095108, -0.3592692128149593, 0.43821709998712116, -0.4350771828620478, 0.004210656612994424, -0.6730075090591685, -0.31731345847875053, -0.5835569858427375, -0.3966737100028838, 0.22468272292061264, -0.031895978282137756, -0.6686556988100827, -0.7267039820057486, -0.22001095551329583, 0.7865678648416371, 0.7293247920866036, 0.11013827894413779, 0.8696725400660624, -0.4668366184240462, 0.49596507118956035, -0.5059573035196092, 0.4756656772694512, -0.2439714181639514, -0.9438124176299753, 0.17170856396705006, 0.3512165943544422, 1.0143774505123146, 0.70102642973976, 0.123442181300593, 0.6918517623914605, -0.027726377518005014, -0.6762134485560943, 0.07192202459727354, 0.49989699916028807, 1.0436248865690956, 0.5057973895283349, 0.8824650298131319, -0.5732783189367044, -0.17691914037551965, -0.8652194717062484, 0.2778519171700288, -0.8255157629797629, 0.6652305901736274, 0.8239683926635114, 0.7315193903024425, -0.09684673227417791, -0.8523255645298536, -0.2228998013581925, -0.8323054211483016, 0.07049337624667573, -0.9597199822268394, 0.36558502761808453, -0.5919407297294054, -0.0879858010723163, -0.8760621735091543, 0.5668443206024354, 0.21810325115055573, 0.9312095694640203, -0.41149455627207404, -0.18243583300053742, -0.5984887641781654, 0.3318048315185377, 0.9019105152290106, 0.18654061943304878, 0.7869807964150881, -0.47122652980057694, 0.9639748484349686, 0.3159992436606856, 0.5681862867881173, 0.22659693988078605, 0.3846793688909368, 0.06948743218239162, -0.16851143103649532, -0.23985614486485132, 0.14127562811912966, -0.5535704640074691, 0.19826235761940625, 0.44458228837291314, -0.7749497752095307, -0.9975191858785377, -0.5576908673444977, -0.2517676893280331, 0.6388100559212223, 0.8509099950262031, -0.14767297037446306, 0.12045993278579994, 0.30944645808133336, 0.12050051702660275, 0.47547204108418195, 0.042172663024498055, -0.5585376777699408, 0.5104661752326641, 0.36984776784874673, -0.895890683828512, -0.6928820410237705, 0.7301562940011271, -0.8831269929854509, 0.5924307694151458, 0.06839207966178622, 0.7073658781162669, -0.6694667474930616, -0.6865191899885473, 0.7870677784361564, -0.9111182348372271, 0.5338553382655735, 0.19617009652491157, -0.8790352680295843, -0.32918139585942585, 0.15063388386509047, 0.1158834925270907, 0.8960293770773593, -0.930869188154279, -0.231208198650704, -0.8851060692165819, -0.9079770417536889, 0.8862513898459881, -0.37195064661675087, 0.1092376785218732, -0.5453482200738669, 0.9568470272588391, -0.8067075292457189, -0.633710293079705, -0.6110528389805038, 0.8759369777327521, -0.4171140214657624, 0.46813510436833145, 0.7346055121580137, 0.24427474430298593, 0.12875504060337808, 0.018284675510120252, 0.41201640601918577, 0.6272985604409298, -0.9229976122281842], [-0.6842886078289441, -0.36300269186119616, 0.6236236617381306, -0.3060810060767738, 0.6962772291688974, -0.5024827429881911, 0.11000246188401408, -0.5108167133229413, 0.591431748611791, -0.9346271974335671, -0.6006670054130401, 0.6311470246622755, 0.4145342982030644, -0.998460340936077, 0.5966252209037218, -0.8670751404488115, 0.953154458926379, -0.5388419408061749, 0.6323265116139172, -0.07484367597700592, -0.3360562242292664, 0.6352165692887803, -0.79017042809513, -0.02048520961716993, 0.03695129298352695, 0.6260176838247133, 0.6223473475628352, 0.23204779416429577, 0.3255185282344848, 0.22319283208043572, -0.7530633200642385, 0.4243355365752939, 0.021612370726997746, -0.04920066671938343, 0.8676870625280988, 0.22987440419389105, 0.13525000387469857, 0.9113364551639901, -0.4329154981887731, 0.5299548538127347, -0.6737720376841719, -0.6842087754787556, -0.34929718726714765, 0.4776869273997457, 0.8361894180670192, 0.06994146079432374, 0.2386465921258613, 0.014005099199054672, -0.5924712929999978, 0.40149327995368955, 0.7649428218566389, 0.08508038482084894, 0.9969838014630288, 0.5519105327316995, 0.31404684465916843, -0.9875861759728015, 0.40467343846125337, -0.04077642560182815, 0.9771951346719643, 0.1633996135788259, 0.7100271882427698, -0.9418329690129394, 0.1662242704999987, -0.9850394430160049, 0.22793551579677385, 0.42171462234745577, 0.636910953641911, 0.0627121546182402, -0.3167496318078745, -0.3585126775275503, -0.0075028082277550255, -0.2313885745132772, 0.20903103945656643, -0.5500107427744014, -0.9047983933725096, -0.6292320636128866, 0.7293522611992939, -0.3881671869865395, -0.22075266511764297, 0.8223792156684231, 0.17093697960253226, -0.3288330577834536, -0.9516660081758899, -0.6193702237526597, 0.5752278814917147, -0.6858234418512026, -0.5506165239442627, 0.21217184746044054, -0.29379140064278286, 0.9864390850890902, -0.5600380142213416, -0.750466407128004, 0.608868934242498, 0.4762119369189753, 0.4944503580939789, 0.3204663043636666, -0.6957319424089555, -0.7058936125788817, -0.7022817844041079, -0.8698144716626711, -0.6488186606506844, 0.7815487605145556, 0.270387816086222, -0.7160341542174318, -0.28730745272995345, -0.26477587588753776, 0.5635732303806404, 0.0189759208710624, -0.13174841592214473, 0.9410013181622384, -0.44736875808813814, -0.7473312533119836, 0.9465050085642852, 0.6069658696278779, -0.7192639726483789, 0.8137669113159574, -0.5616124161365613, 0.3874264524159006, -0.3715130399895169, 0.89025934327177, -0.691151974059217, -0.9873123228404621, 0.47024735353219954, -0.7191374834962508, -0.9863943249384363, -0.31617088984468406, 0.06259699241673167, -0.9382321487190706, -0.024240154835841722, -0.6128154142867271, -0.30990849522572395, 0.5109883759155448, 0.7471288004662483, 0.697836461269473, -0.6184156604542753, 0.1569364712736667, 0.15904869787972753, 0.757066842519102, 0.31036421235658923, 0.21021826376959774, -0.5622182170389591, -0.5065690969074694, -0.9981426358654835, -0.5657293562213125, 0.8698682574478049, 0.9797110759775421, -0.04443700911276692, 0.13530829896678542, -0.760434939792899, 0.5164346187972965, 0.03918206110194314, -0.0640039881756909, 0.2981262607376188, -0.8663356660144161, 0.3076504534149317, -1.0607557541761692, -0.8334977633771697, 0.018643985931013612, -0.8127888214003386, -0.050127994095795686, 0.8586654319258471, -0.6110018526274561, 0.19160989895806987, 0.9277608423026364, 0.7830859805547581, -0.6000866759605553, 0.30085749138168055, 0.3366932940834788, 0.9171125128790598, -0.7453593393288784, -0.5725251262970373, 0.5427629099364637, -0.877885143778626, -0.0897212889657497, -0.06153963233143739, -0.26449599495909737, -0.7600784485798789, -0.7702952382851459, -0.1092292479057342, 0.27281440440607047, -0.6318237371315966, 0.7092561439371398, -0.2474611226252618, 0.34330611207855494, -0.1036863127746831, -0.24943072162803656, 0.742048984289902, -0.7280983608706587, -0.5506204931313172, 0.30604630128998794, -0.4425209855082324, -0.06121004082586397, -0.4601334764106741, -0.5717483117584327, 0.8342175958733381, 0.9177124570528926, 0.8465865520619851, 0.7467200544419611, 0.8293921852586428, 0.3627910308202914, 0.4784662192658921, -0.35316670574775266, -0.2653341244965361, 0.608139247788084, 0.9137255435862621, 0.5363376987949993, -0.3682027338391296, 0.3980001440575681, 0.4898374980210896, -0.6643632550566906, 0.7712558909842755, -0.09412366365619564, -0.3602828383814417, 0.1707021475586448, -0.11691565716650801, -0.011960692559772413, 0.43576813130620823, -0.16962640103896237, 0.6158248598509584, 0.026268013440167447, -0.19381013435680863, 0.8591642028000627, -0.6610468399022882, -0.7952714523184333, -0.9463300759157757, -0.9869140927409318, -0.07497090184400965, -0.7410242989027865, -0.4463322844777324, -0.1589252192846217, 0.5180667442516937, -0.561956075324596, -0.7470779524844758, 0.8537913712774505, -0.6598618566615397, 0.034634827925804294, 0.3844600772654015, 0.46017349554309783, 0.253199455204106, 0.4428844519956059, 0.39004023484706907, 0.43869616057964833, 0.6339666306319288, -0.2770750186288467, 0.49499719167985684, -0.08738398905103364, -0.34952264117115817, -0.46547143335865504, -0.6812408356842076, 0.45876052396399336, 0.8219036963572692, 0.7414058081687609, -0.22180593271837107, 0.12082054135006397, 0.14474451471873168, 0.3878844897274495, 0.9796166065645608, 0.7751988049754113, -0.4853641807790867, -0.3590074948332623, 0.04217873787397384, -0.06779522850659059, 0.0793122803444757, -0.10107816068838264, 0.10608998077954418, 0.45210018845197725, -0.7698617777193275, -0.6947662378512499, 0.8173455666885089, -0.5260796146556971, 0.7203823228592143, -0.21001502893537394, 0.4096282366509088, -0.7438815731102786, -0.7822368568778759, -0.8731797653043514, -0.6480186224239247, -0.9446374008127193, -0.1525220402445828, 0.3825173923085661, -0.08489026988620668, -0.6432987779693855, -0.1453136347165504, -0.7305258046187605, 0.10877869530155261, -0.402721040853762, -0.07093537257949696, -0.38160137884526163, -0.2910899136180462, 0.31282368090405765, 0.6281780470417306, 0.851262841964741, -0.11814665436135173, 0.2916352979519396, 0.7680626651049917, 0.03886383328828238, 0.3836195352161007, -0.11666915805704964, 0.49639128889222944, 0.18250837225831978, 0.13975222095131792, 0.2368004319160114, 0.8144357401213231, -0.17863698146758047, -0.2946296702288282, -0.4395882845254289, -0.4035173429558207, -0.421969809477504, 0.21384527276888585, -0.8650163585276633, 0.09969656292901534, -0.8100599043693951, 1.000142926306315, 0.6984521479256495, -0.5294886065030519, 0.559975912389825, 0.5325663084773238, -0.07111201254438888, -0.6365307393425991, -0.018506366288250736, -0.01095567209670606, 0.0295601564769797, 0.26028912987406394, 0.211089884856072, 0.19796383947693194, 0.8255194206010666, 0.17871177997215126, -0.728756052371505, 0.18078198945978574, 0.10779825897084924, -0.08672659184474275, 0.3991877121404291, 0.6186876797303413, -0.9101609872639693, -0.6574509528284949, -0.18676512229502437, -0.5161212989497719, 0.6524368916732906, 0.9577637893701514, 0.10425949573870431, 0.506763661074981, 0.49763251451924634, 0.631889906377562, 0.588642677538165, -0.2257469267268629, 0.6594962013133138, 0.767052983985375, 0.435952704061925, -0.26255234828408613, -0.7494498587419837, -0.7069601896274778, 0.8109923115250403, 1.0841793770814394, 0.07965184438369038, 0.46700290364624125, 0.8334702071829527, 0.37229294422927894, 0.5647607697481977, -0.5471271353609762, 0.3886003094705215, 0.16943609133604015, -0.6345777826252498, -0.7059742588046046, -0.3995381540327205, 0.7104389359407024, 0.029017633079269044, 0.22247202722139292, -0.6560598126579298, 0.056873557369831816, 0.4090905078632904, -0.8898361602331437, 0.4396962825205103, -0.4207495210473103, 0.9495752987135987, -0.4872778932601577, -0.3633983277128513, -0.5123467332016701, -0.053158926609385974, 0.6664418546681337, -0.5444787915889968, 0.817172774996033, 0.6365410329208667, 0.9503562181860973, 0.2596061299811748, 0.5372227884576, -0.4646523792955399, 0.16995191925327796, 0.03144042376057864, -0.8687345159159975, -0.49627043869627235, -0.8875738887182535, -0.5293707499850806, -0.7106806330405914, -0.33010365197431507, -0.573305438099555, -0.3329464190823529, -0.5994733098926274, 0.23739873648841675, 0.9841383529248426, 0.8926175331820676, -0.37110234236142253, 0.24563072162912652, -0.13803885263310575, 0.40225909862361897, -0.3907248172384938, -0.12796094570994956, 0.7420794069777118, 0.19324570244128822, 0.3919200120791472, 0.3493391730844717, 0.5973380301304956, 0.07290973447490122, -0.3698234493554704, 0.5735947699443884, -0.6310146029663614, -0.36282737737583387, 0.033300976067036164, -0.9708298138882808, -0.31602422743439407, -0.3763531755368669, -0.1010123882615357, 0.4447565697430419, -0.5652646172439574, 0.4316922737921757, 0.5679172167707044, 0.15050086041941482, -0.4160840521855448, 0.7800405402608191, 0.8975552221243338, -0.6550862474187809, 0.1385945945451717, -0.4830178789895268, 0.3777715577945473, -0.8018397522061197, -0.7088402054652688, 0.5678259110398438, 1.003784895097493, 0.5969805509218926, 0.6692222390336309, 0.4523021115109333, 0.15385819112832722, -0.10268070631463061, -0.007879499989432442, -0.0933384672644139, -0.7148544457473596, -0.5831756493269266, -0.4282964586418319, 0.9253309203354723, 0.6231948457763473, 0.9273935089059095, -0.5479911317675041, -0.46695960332200503, 0.004409607048887537, -0.0482487728965754, 0.18551247566918036, 0.6661865519275686, 0.09267278882321785, 0.15102910425989363, 0.3710342353518739, 0.23117024053576407, 0.2884184887755531, -0.08507355363093956, -0.04965101927523196, 0.5130926221330397, 0.5048503864666346, 0.7127847694510804, 0.125787546417332, 0.559388316942947, 0.41283944055549116, 0.31854592233038104, -1.0334591141885234, 0.17930092804197673, -0.623707485051279, -0.9622627103104214, 0.8305263305982363, 0.43309018413211114, 0.4514790191803897, -0.9869152662365561, -0.27403040329516304, -0.26778060933617936, -0.2974261007726176, -0.6005643832191658, -0.09744709842963609, -0.3431320883018028, -0.23014082233739866, 0.5165423945466135, 0.28731729267159956, -1.284806375451188, -0.40515252175811284, 0.6209503746348374, 0.020123693482836727, 0.4420066103221173, -0.22388632427029043, 0.32355109571960194, 0.6117747245742149, -0.7139803990794238, -0.3771358626228146, -0.26659367874905654, -0.003259721846205647, -0.21127896384775072, -0.6889046636778983, -0.19778803975001882, -0.6994235830725777, -0.72432814951096, -0.4234606556228317, 0.815025593246175, -0.9152065725805087, 0.37025592804113694, 0.5828315281339016, 0.3045121325591645, 0.4760589076476752, -0.15524479910349595, -0.9011262451035599, -0.3065626284999246, 0.07310969408150647, 0.17224599150257897, 0.37589240863598067, -0.25394108439188673, -0.10122448710830786, -0.11635359689826613, 0.34764722237604617, -0.10782635945312422, 0.1954763898691731, -0.0766762389823406, 0.23086182084412668, -0.5489720438660516, -0.27166647590466864, 0.3631794359653564, 0.351583825749317, 0.8197981761169538, -0.4681256550581533, -0.058443042987138594, -0.5818060146199188, 0.9457749899511005, -0.48682055730884527, -0.13106593738068092, -1.000856108723875, -1.2269321186514344, -0.6205291260770665, 0.304927569764493, -1.4284367954259187, -1.250306689555434, -1.0151505930603948, -1.3416080142532227, -0.28911837764133375, -0.7959972608575424, 0.7465010407571725, 0.03442558754700802, -1.0242251627721461, 0.17769412910625884, -0.9201832550193821, -0.08651542987877497, -0.7532992931649288, -1.3473428621208392, 0.04062521756008429, -0.7633020427424465, 0.02968905322375665, -1.0332083371068406, -0.1319771408521157, 0.8056565091433385, 0.330700436004149, 0.5095433213165818, -0.8105201856540323, 0.09081342242430185, 0.7274279703590526, -1.2316823970510782, -0.7515407015452685, -1.2646838319553675, -0.031028983403983443, -0.3932174041645848, -1.1801774476736815, -0.9024901725860168, -0.8608550567426289, -0.019724692722733646, -0.265914732221709, -0.22562118263963715, 0.11710444029896921, -0.8627429524017582, -0.23731968723697972, 0.11207955825093473, 0.2648855461622802, -0.1557368072383725, 0.36022954949640124, -0.6395636379444358, 0.6930712420782874, -0.07926239294612297, 0.23938354191524894, -0.800193393665675, 0.11540307602244315, -0.003087091161464843, 0.40243913416753846, -0.37083731692126914, 0.8239037706156471, 0.23242249419748126, -0.5370628888679119, -0.86460472527465, -1.0894247910141657, 0.08336300766111572, -0.5529878466232095, -0.32653139774222484, 0.023759848495620194, -0.7791995102243381, -0.2409233435296152, -0.3155223353656723, 0.19137597390874692, -0.02260859183168488, -0.02041098787125319, -1.0451580981644888, -0.2696175461515611, -0.24289097359777206, 0.5788149932968584, -1.0085647533953686, 0.8362791619590928, 0.8794930773202504, 0.7379664427266929, 0.9521749690722509, -0.9806658329003148, 0.21195465554028078, -0.8107314935517335, 0.5713088073215478, 0.23452194729564857, -0.040905795797833794, -0.35553718803334267, -0.6679137935981958, -0.14607681688712865, -0.061062995048079945, 0.10956826568687816, -0.770087668894418, -0.6264650256334725, -0.4683552843264013, -0.34726124585372586, 0.09563644041597866, -0.8172868285127654, -0.015376227673215255, -0.09995815595413042, -0.7207132659040639, 0.41132990597405805, 0.37172238298910304, -0.8691117462342698, 0.5363231716599055, -0.736175305825983, 0.9698617702420564, 0.5255808187395189, 0.24474167049440917, 0.20427673601345697, -0.952933281254694, -0.5086920564531119, -0.22985403640361698, -0.5639580915470334, 0.012335414656123662, 0.7416220783726376, -0.5868520213447622, 0.15229545727761054, 0.002012815597601479, 0.044087176485073216, 0.31558100082444707, 0.06223762945228352, -0.9359562910770355, -0.02818198822288048, -0.41428021281420174, 0.2770234510820322, 0.368325478644241, -0.9716885454465894, 0.42360347875545196, 0.3507478483797596, 0.23208202401140618, 0.0377336733797836, -0.7019492721634891, 0.006203155369684422, 0.6802113380870041, -0.6779225011704446, -0.4832497444819932, -0.4956851489549823, 0.5988537046732003, 0.5533052424248515, 0.19136894339978333, 0.701812968011516, 0.5118728242032227, 0.7144933476581493, 0.7750527187396021, 0.380995118271601, -0.10792110741099267, -0.4612846020776702, -0.7850346245924946, 0.11608876585905248, 0.3689637857283972, -0.13540841291051478, -1.0869321360383744, -0.3719517937749529, -0.11406726142135401, 0.4549852100499009, 0.15163140449354232, 0.09302271063582691, -0.7440416260395419, 0.442918497902365, 0.231073234245319, 0.4497384323254024, 0.5834329176847874, 0.7209378529612985, -0.8401598024898509, 0.9956757637926894, 0.7808298664695692, 0.24284442450946322, -0.7977293712505663, -0.21840578446618783, -0.14152213947461587, -0.1820057550103545, -0.4184265917591436, 0.4402697790764196, 0.8521474629329726, 0.41751269635450644, 0.5544557224740768, -0.43721888022222966, 0.6910963522232888, -0.20964353654776233, -0.20416533788336108, 0.5003089102232691, -0.23231222321698922, 0.23026783351864413, -0.5759595473331861, 1.0179099049925, -0.3615174930659639, 0.10725770669130327, 0.6321293687302513, 0.39508518066372, 0.3083688766150039, 0.46330903011085145, 0.8931067149599512, -0.05459646870817392, 0.4718242917318287, 0.27932327461046746, 0.5995535265168779, -0.46575828287376336, 0.7837188786043273, 0.6083837457723942, -0.1252447506513366, 0.35967370625846967, 0.14815727693769942, 0.6652428949972047, 0.24249326154953052, 0.16201531514567566, 0.9646330951948437, -0.06682980492293163, 0.32346937401415027, 0.7265211456369635, -0.03312156982109548, 0.5155709050713744, -0.35187802733567713, 0.26890666611260605, 0.35364930555869173, 0.2196309850380133, 0.010938830375393912, 0.7374790420233249, -0.17265648261696642, -0.5631543543520849, -0.2582550846074363, -0.35051674216165774, 0.776942899607741, 0.8265123839893322, 0.9471455690403279, -0.12180622736789545, -0.10713051235938073, -0.1520474828427263, -0.2658108709111588, 0.17679237143003743, -0.32378722177911634, -0.45089527799787255, -0.977852619263112, 0.6197040226922558, 0.39050129935050076, -0.05965365997802789, -0.38712166270902554, -0.000672502929731884, -0.6403788250791643, 0.8606203305797925, 0.3034895121601606, 0.1867434764513351, 0.1866860556259593, 0.755857440277429, 0.7415833303407614, 0.7255410301782745, 0.11244494098293956, 0.7909115115524601, 0.6715312748547071], [-0.7386244510499953, 0.780416264503661, -0.018553123546733774, -0.5759607196989853, -0.25117068510235985, 0.8537857707176326, 0.34519723972767835, -0.9067986085714175, 0.9519738438006637, 0.37084789440368016, 0.872023537616684, -0.6840359610069118, 0.6904483288385572, -0.865747435264834, 0.24149532945418845, 0.6086538594165575, -0.9255729471622536, 0.3996535679300517, -0.9860403649891671, 0.7610074106268732, -0.5016088338330382, 0.33959081575107253, -0.012965609280673362, 0.5463394173448624, -0.24299437090288034, 0.07763276938085917, -0.0013516885225048902, 0.5286504683977824, -0.6426663887836606, -0.43307725658197316, 0.471891727889479, 0.056259077339760655, 0.4067336285284281, -0.16654986246580947, -0.5125494348521857, 0.47074429987596617, -0.6637633437484591, -0.8771282447740397, -0.6053192624826575, -0.20322518012353416, -0.8178794441656911, 0.55438052785174, -0.8776874784714335, 0.9025742011771181, 0.5704320404745549, -0.40382620572045813, 0.06768326307148988, -0.8794945742101591, -0.48404600482900323, 0.1202046996848706, 0.24390482783725959, 0.406441581841549, 0.6416830452536393, 0.35742580278156266, -0.16429780184208354, -0.6284402817095467, -0.40374084612212613, -0.8302130975967368, -0.9281257909605032, 0.6148601130051149, -0.5562192313939446, -0.8699401181127605, 0.10571402126036092, -0.10869737596759652, 0.2430674956929907, -1.0036137690837503, 0.0859848963922496, 0.438126853921562, 0.19726441392269117, -0.7789483123738865, 0.8929207045455982, 0.3597192281952658, 0.8645069605911148, -0.2820973080476879, -0.6793522305018983, -0.3911249709903534, 0.44708184046999394, -0.027675181788426317, 0.2388055226434583, -0.7632729367812864, -0.7718428054952482, -0.3114609779217364, 0.16044387118122305, -0.7480046460325234, -0.4171878746828226, -0.9646762700402987, 0.3168053975530369, -0.10406580778419249, 0.15455940440183255, 0.803658623748388, -0.5350176651915853, 0.5975895272941902, 0.5208470971930099, 0.9434890801558097, 0.5602721566364315, 0.17822499818069637, 0.13165651731587716, 0.5869826755279685, -0.321558863016671, 0.3036617300825659, -0.07354801102921871, 0.574419173130235, -0.8006001009248431, -0.24500789494962827, 0.43245580431423086, -0.3742630799894707, -0.7812201564861547, -0.7178507605658715, -0.4027703899731485, 0.15359036719751315, -0.031120869652678837, -0.3896805046572034, 0.13771453941358192, -0.8890711612997662, -0.948608907116735, -0.7398667441310354, -0.6082605384025402, -0.3370936414565145, -0.10404501499454911, 0.006012681235218258, 0.5249407798789145, -0.447283526127575, 0.8940869994118879, 0.05585484511022538, 1.3841415767663017, -0.2692751392650581, 0.27483213516593197, 0.6446192800699474, 0.8408034969826811, 0.22198411756011263, -0.05654650102436071, -0.7340269170823247, 0.40533727415428605, 0.466466093194638, 0.1676519060410337, -0.34401746202516087, -0.8942560747727895, 0.5079469848278115, -0.7730540163523071, -0.7906135722458921, -0.18613536054242474, 0.9274058283668407, -0.27590419465367405, 0.2800866252305432, 0.6787370515101155, 0.11730380436681023, -0.4514497916211699, 1.0213736015297967, -0.3035533833926323, 0.8710784581293042, 0.5185194067175767, 1.0387251383329412, 0.015489125467811898, 1.2112052333240175, 0.6986971481188775, -0.48172294698358975, 0.336323438649321, -0.10709462928565174, -0.15980643332364625, 0.35902511694223077, 0.3318858118319397, 0.5334515368934603, -1.0130638762957185, -0.8602336066457396, 0.22886862028092844, 0.937349001188618, -0.0431099708985034, -0.45477815577847436, -0.1323426554308298, 0.9677371114657313, 0.48567900243131096, -0.7203765618417651, 0.29562802600408866, -0.5993772368886037, 1.1627873883010058, 0.06525743184496838, 0.7464725307212806, 1.0237259640886913, 0.30398747689916455, -0.6166964298182078, 0.8893968537393324, -0.39846297613352794, 0.04432312155457138, -0.12466136366488056, 0.7119077832263152, 0.0592809526359103, 0.32752005044376764, -0.6860307663351163, -0.16182796380939346, 0.019856186927987598, -0.35598923436590985, 0.498617301200069, -0.25951291961271755, 0.4672679386785578, 0.9301814162756596, -0.015042995599817277, 0.6882255639058209, 0.09065186282919498, -0.7116501618822327, -0.139437104737622, 0.4746273968868025, -0.7063732910062174, -0.8245080481415309, 0.7127963627922789, -0.1979316244086591, 0.30930091196797477, -0.13158541262530485, 0.40027959429239884, 0.3471557345050333, 1.1265878990693665, 0.14421159746148413, 0.32912713375756586, -0.31869983038661337, 0.2870325650828226, 0.27695974559848663, 0.9934791353094805, -0.2941318378755847, 0.19607338663900653, -0.3620994611000606, 0.9535045218386115, -0.3570772458916275, -0.538330823269508, -0.8273425127896091, -0.5306755727963559, -0.07444057705554011, 1.002543505907053, 0.38921910537375437, -0.3424841789049061, -0.020375283562425225, 0.48301632023982, 0.690899377190215, 0.5680407471867801, -0.8610725744703689, 0.5648227014241575, 0.4327540993671653, 0.9009544544028466, -0.32460571530168536, 0.0032524360795524385, 0.4836167267298201, 1.114928449187197, 0.07500781953764793, 0.29686873830975896, 0.6512356737364261, -0.16479351599901432, 0.6140509037553274, 1.1577223808730195, 0.3260878256990853, 0.06978596289288115, 0.43904438819571917, 0.368657676070252, -0.770180894234714, 0.7889953082456537, -0.02827048800549654, 0.5783500909064149, 0.5334791985139965, -0.4481506390011527, 0.24307700058077814, 0.7178913984176188, -0.09953606395914584, -0.946836888354586, 0.1452220766315141, -0.8269126209218892, -1.2399454665935272, -0.3157149592319898, 0.025450186809880117, -0.6093288087017789, -0.6037657189336896, 0.811500251109568, 0.990331729981979, 0.38770162279451564, 0.46519670914598643, 0.48951831838755605, -0.2930829486557759, -0.3568070142084914, 0.8865658934635267, 0.9498083671941742, -0.18226421646759297, 0.8621288913750325, 0.9979415087313964, -0.30772653522027665, 0.3955537655815364, -0.6131339420049235, -0.7734003273112418, -0.486667706129676, 0.4704817337505623, -0.059943602313693535, -0.05144168439928847, -1.3472650712147005, -1.1679852672902795, -0.4508561705970955, -0.1697045663146161, -1.1813988439090592, 0.06442835254081246, -0.3027564458466598, -0.07711359115981699, 0.6266664818946834, -0.21910647175465717, 0.5430548100625839, 0.5616076141610108, 0.43218860221649913, 0.8300450462828041, -0.5112562989384447, -0.6337689739676485, -0.2718457643101022, -0.36635432963983505, -0.5855266155054849, -0.048183272631588676, -0.1158425998509472, 0.3743837562326706, 0.7573374445389716, 0.5289172202780155, 0.029709027278568965, -0.014604024900989046, -0.053245566246912374, -0.47252391556268025, -0.19324854526196864, -1.5405156398620603, -1.3458621733839096, -1.0661872202699456, -1.27240141010206, -0.36110340338239866, -0.04607143563198721, -0.36309874542075526, -0.4964542460164399, 0.1408677740292268, -0.6738364719351913, 0.14002885318566, -0.7639427772209675, 0.12578929772262362, -0.6176048089699588, -1.1448066725796648, -1.0453276546329608, -0.6011135319030854, -0.198107474228868, 0.554793536966941, -0.6693922899495435, -0.5345851256135823, 0.8601325232906517, -0.005173561398694845, -0.12893558985881012, 0.7025690755786943, -0.9780892992678902, 0.006180474291886982, 0.04562293626584327, 0.06367894076556947, 0.4094834572864219, 0.4700558568673346, 0.3045504549172451, -0.16948428526587306, -0.3335257040228427, -0.3674902853088061, 0.4056138361305632, 0.5676544971597017, -0.052080758037532565, 0.033453175578155706, -0.8616262452073379, -0.7470575076003816, -0.29735873875986474, -0.4286820204483872, -0.1286201438352533, -0.4796886353002352, -0.1238115636529465, -0.22013704857153216, 0.5754950882541502, 0.6127979094768601, 0.2516904277829683, 0.2132368639440716, 0.014405310050202746, -0.8051297810524799, -0.267827157502237, -1.3514958591403319, -0.2031803111994665, -0.14914860702451016, -0.4540837837848977, 0.37561633224480395, 0.6738395121950446, -0.6288251869867987, 0.18541674041477565, -0.49378687953651396, -0.3564417584097499, -1.1390606027662744, -0.5334070394990235, 0.3518506961822623, -0.73273430865941, 0.5841612098701072, 0.10897954151678452, -0.788049510220924, -0.790509370709898, 0.26651189040972695, 0.8048076010145602, 0.7162342741142227, -0.46388438350508077, 0.4032053367786955, -0.42077893558993834, 0.8260407635981442, -0.5549756835478329, 0.23533610054821844, 0.42916335711982756, -0.9793516852203712, 0.15284750831619764, 0.664171810245358, -0.8443349525153006, 0.20197926189805898, -0.14570239646193087, 0.3226851657091913, 0.6470619230213049, 0.4505085421796376, -1.0952099790605478, 0.4786017865504188, 0.4563150335667684, 0.536859014703657, -0.3128517405681852, -0.07401904018478658, 0.049384998395726985, 0.1259959084745511, -1.0637163601568507, 0.5452607077093671, -0.6108413165637536, -0.2865995685739673, 0.12539624332361882, -0.23964032428070017, 0.5297623803118954, 0.1432980137904014, -0.32141188463112813, 0.458367903791838, -0.34693772547328733, 0.3661097221614365, 0.5151998193589988, 0.26575705365616203, 0.5580258978798273, -0.6794939558253423, 0.07366399357457469, -0.3058154266664314, 0.2076068512289399, -0.7115747352808843, 0.04768398084972888, -0.10134454473355724, -0.6054868918185626, -0.05138575868359651, 0.05406067358311172, -0.28962794183153123, -0.6683374508055537, 0.482149780720933, 0.5445247361909652, 0.2536851350426501, -0.9601034094756736, 0.9854836163511006, 0.560897604877455, -0.09511434945870773, 0.6428194627687567, -0.018108939288734735, -0.22595496656800126, 0.9306079585184954, 0.4777741181351267, 0.16160902897910004, -1.2370336705683347, -0.3912320989647513, -0.9918274492949865, -1.0448088594861522, -0.32874419681529893, 0.03406982453666562, -0.22999565099615651, 0.09380961950809377, -0.8682152507089321, -0.13022676258206056, 0.22471858598658898, 0.7655702893959704, 0.27178577900822654, 0.40101425915477484, 0.30289367070781387, 0.33713598447577353, 0.32701981762034804, -0.7875403172327098, -0.798060062121719, -0.7552922056971367, -0.019691735192377272, -0.976985166857995, -0.01944075856056279, 0.04708464199551229, -0.6807914276909063, -0.10650233407545501, 0.1330451465775555, -0.5900992967422559, 0.22762624154503433, -1.1988183502086245, -0.5019298918779277, -0.18133299052605173, -0.34945284263653453, -0.622249344274585, -0.6617506106004519, -0.10265873058484926, 0.0169212998921889, 0.6113120746961348, 0.15881117270706296, 0.4745426907824041, 0.8093073107719945, 0.3311784029062228, -0.07752746723176596, 0.3864128127595199, -0.16643632498389005, 0.6571065678656062, 0.5046365298412888, 0.0198767311509106, 0.8320518725584964, 0.9352991517723073, -0.17871064936205994, -0.8498365225479412, -0.31096798663916664, -0.42588831659722876, -0.43024452395761575, 0.9591689302929166, 0.22165581790063024, -0.44039543440817736, -0.7692767836374091, -0.9511326298768851, -1.7548970318528043, 0.36741947189413954, -0.2910838870862061, 0.2375725224285634, 0.19522942066342325, 0.09323843351919404, 0.032920287103336256, 0.7363374687375948, 0.6519656749694439, -0.8686996060333104, 0.8648512438347667, 0.5665635856745569, 0.6280047550981341, -0.6901086040769365, 0.41472106442018875, -0.22502857075387653, -0.13436455326957195, -0.24480804034879675, 0.033523109640137785, -0.11847804820639529, 0.20029040175145718, 0.5317254892383507, 1.3215434029092645, 0.4893641670045161, 0.8521338373470284, -0.42866380917588276, -0.06154995015381052, -0.2874339812825522, -0.6047611606235057, -0.5863662848236533, -0.03031289127470629, -0.6897674822018967, 0.6328091067478112, 0.7547135924510965, 0.3342284830240455, -0.36736177268260506, 0.9444451178680755, -0.6225393988498508, 1.0782619059787497, 0.9968309633973825, 0.10432209566092157, -0.22993044550942704, 0.23587059345438777, 0.7567872995798322, -0.8730849260974096, 0.6725804798839552, 0.7686194129571309, -0.6090393372250209, 0.31077339425072964, -0.041269206070845665, 0.7641846773328247, 1.0052443619299962, -0.5910879891520712, 0.059588087714986804, 0.8261199982544627, 0.03623843001554062, -0.424487563725126, 0.020165159426983586, 0.8932732214007276, -0.16867424920931884, -0.11455941370457812, -0.5775833119299116, 0.9721663746516407, 0.25127882189008865, 0.7285394023893598, 0.6215839113973531, -0.7717786858998589, -0.35543317817960346, -0.5552808391696314, -0.7753835887233667, 0.3792671791744185, -0.7640819759041237, 0.46031240619147373, 0.7455547767841538, -0.23773332567832894, 0.8388732781161865, -0.1655891995500128, 1.151580396044079, 0.4852264091316552, 1.1476964435426757, 0.14210259181721707, 0.463003635105534, 0.26518710393504696, 0.5099260097946423, -0.4988438427785858, 0.19238558437624295, -0.2224495070262489, 0.12208558487323033, 0.5737710757215598, 0.2713560974470973, -0.41102626652851965, 0.4461365124150309, -0.37089382178366526, -0.7459384084718919, 0.5413227842512169, 0.4074373590243462, -0.1044527354691844, -0.7122081792787116, -0.2707831753492959, 0.27402615194243435, -0.713647559714479, 0.6514446064199101, 0.9812399836104417, 0.5259446491707466, 0.49157704489707976, 0.04686192166085138, 0.03878108977492177, 0.7411617834311901, 0.9230149774809816, 0.2595667391752886, 0.24853302579931172, -0.29833458827089093, 0.9618239797669488, -0.6189525796404161, 0.6063832138430268, 0.606001969018721, 0.4606932322817085, 0.02857080869687637, 0.08850660221707839, -0.5407791611569146, 0.7998184252523807, -0.504325855476428, -0.4216491345861609, -0.8152629217911337, -0.13212511264595272, 0.8456215620931619, 0.7008702282335046, 0.4384205607326231, 0.7497467039242631, 0.06627075035271512, -0.05792466702191179, -0.7850835530568061, -0.4774884854582603, 0.6649297857847053, -0.3465069008115776, -0.1028991249024265, 0.6351793780934625, 0.13406547219196377, 0.7908133046953362, 0.9310392459282627, 0.035840013302907654, -0.2494558431939049, -0.2575858393123274, 0.16251559569223697, 0.4601573643247506, 0.12345333047514212, -0.2124276001597972, -0.9443169257595978, 0.36639896446496173, 0.7190882276549891, -0.4552027404431828, -0.42159661820654654, -0.8207063749210582, -0.12150207122586787, -0.5437801480761386, -0.12242707958196467, 0.3240655845488003, 0.7400535500680121, 0.4482806170596101, -0.40227818803130516, 0.08709698633137249, -0.20475752634284355, 0.2574049618320392, -0.21257851761169463, 0.491405818016667, 0.5879667701310349, 0.33136830009071605, -0.5287048809086616, 1.2458136513764535, 0.321943764050269, 0.25790338787992795, -0.2326480124200488, 0.5837176382547278, 0.5314179949802116, 0.12392734591497774, 0.3878649773403593, 0.108464784440647, -0.03599736802702541, -0.8735866569493357, -0.1749983377644394, -0.3402237330629784, -0.8878823131715412, -0.651210796774333, 0.1783092058617712, 0.6683484892956291, -0.43170051242714935, 0.6887104191681692, -0.9873142595454649, 0.023782064064224347, -0.3133089866500326, 0.1021353208873872, -0.2914269877549642, -0.07431846192758994, -0.6837256125454122, 0.527619961895894, 0.7631094016010069, -0.2376789108465434, -0.4877572780985464, 0.8322788124681209, -0.5408675563357742, -0.4195624828001611, -0.4197102880421233, -0.6313226333291456, -0.23658727829843637, -0.9439247037823834, -0.8706779550039289, -0.7122448654090121, -0.4805619421820281, 0.7962222980754808, -0.31172522173948913, 0.6042357667132773, 0.05231196020883688, 0.5925330683917713, -0.4932133094181139, -0.11368009651152744, -0.40192794574293034, -0.06434269721887394, -0.9943758808544272, 0.9043631620123768, -0.7279343271560631, 0.3295313387652116, -0.3038584884831429, 0.6089527342590384, -0.49488507056560177, 0.7732930907537795, -0.3733538930259717, -0.50908138225284, -0.05668282394068176, 0.8293537708640646, 0.5978359428841633, -0.8967276022912379, 0.2697956786517141, 0.10779923928084909, -0.725531631487885, -0.051699620697754016, -0.6850950380916156, -0.7873407879373444, -0.5438680337499415, 0.14525514586727603, -0.08919766790138195, 0.06842920688036913, 0.10934692526839163, 0.8809965453716673, -0.7506967618879032, 0.7154039734088984, -0.18896659673568372, -0.6424612105579901, -0.7861410870162805, -0.5319265647356772, 0.16858461111290762, 0.13649577794665194, -0.38888176077099923, -0.12888974054165794, 0.0013759706862195892, -0.5612310044538151, -0.636147185335679, -0.6560471373876406, 0.40781026151488897, -0.6711074183801269, -0.18353176232831683, 0.7097824567013392, 0.48325791193061884, 0.8643646340980267, 0.5701460207308331, 0.7848488667568982, -0.3772058973160459, -0.13979868439331034, -0.46003306043580605, 0.5256296723990492], [0.568888633958021, -0.5628944059433143, 0.10531647185048065, -0.3083085385208031, 0.8508348383903377, -0.07441747507633623, 0.8097493728801319, -0.03980556981195704, 0.26490375274213074, 0.5147537333899002, -0.5178984221556362, 0.8041991216574547, 0.35729816459257263, 0.9044391602056888, 0.3028394966888098, -0.7048858399770215, 0.5263523766395033, 0.5698125903877049, 0.8674340469650463, -0.2805870468928089, 0.9448441183538285, -0.46824637417955883, -0.8333915280328315, 0.3028575420288886, 0.6092805968936774, -0.15663217151634878, 0.17396696715158066, 0.6756485663185738, 0.22390380391470543, -0.6089968897486024, 0.5032644890010325, -0.2483729680626563, -0.211835780314391, 0.9486004430407927, -0.9569475836206508, 0.5752135632336786, 0.032873274391400795, -0.975465729435001, 0.21194199964177318, -0.31317816430750595, -0.9638107481881337, 0.04183405456099797, 0.6714380065853094, -0.08782403582401685, 0.6840218239204613, 0.1499358327654011, -0.4485476842490471, -0.4229552765753507, -0.03325607064710437, -0.10563710733673833, 0.2755030020747695, -0.15476908789735508, 0.5498702767232604, -0.7942214466383155, -0.5636962372318841, -0.9878672660765675, -0.08920000978397735, -0.5107034120959988, 0.105931071288899, -0.8143994955070545, 0.32826611953839335, -0.6672842968661278, 0.6286479247041467, -0.2293220869005786, 0.6107660293539888, -0.5022344643904636, -1.023636468190006, 0.7038504388187187, 0.9524629435406466, 0.12870758608621516, -0.43553548474370934, -0.28367111195863304, -0.18635677907496762, 0.04943267442330787, 0.20697154999366169, 0.41624619380733646, -0.07911440036681905, -0.5309264932094662, 0.19046051002180153, 0.6740909227172217, -0.6495066658497576, -0.12375736695160043, 0.6623525344249221, -0.9481502165371238, 0.6541376938630357, 0.4560032607934028, -0.4966318026026822, 0.5593860534739029, 0.6045152383597482, -0.8688861060917389, -0.3366932840606088, 0.22356880556540118, 0.9191624361801259, 0.1487184459603035, 0.18305539142790583, 0.8387246514687384, -0.20106818311671557, -0.0838738152349093, -0.9729801952465499, -0.8140386020460415, -0.8200748811227864, 0.575461466626519, 0.7701690857980842, -0.47709125585238465, 0.5152539428450376, -0.4975608599868355, 0.8588207096213458, 0.822814039313045, -0.5754520026863396, 0.2763948889746978, 0.18696066896712982, 0.8619684618588792, 0.8785083239278939, -0.8608435506786972, -0.32210304288745845, -0.5595086147658624, 0.9424048510696981, -0.6717205421017887, -0.3127799664527246, -0.17392579368765054, -1.035104465409958, 0.7232388906190297, -0.21064854031213037, -0.8972589455077824, -0.17356235432606848, -0.11192195683187166, -0.59760146497564, -0.058875301207278075, 0.5908806003384229, -0.8262166141237675, -0.7591086426131215, 0.377835401658388, 0.7871949804923987, -0.28254899529721655, -0.025452749995504374, -0.5039404480966911, 0.7808316878410231, -0.7293243761147924, -0.456753738896842, 0.721769268860368, -0.10420214549165974, 0.3134712337202743, -0.18238870597655854, -0.2887412048424524, 0.1448140830167349, 0.2902865231818943, 0.1789104558858738, -1.0559974718975735, 0.22142266805480124, -0.8101714804988351, -0.04802202732929966, 0.1766497315730276, 0.14780834966101225, 0.17584048205854547, -0.7211606938316696, 0.2553343586420927, 0.16709044120372812, -0.12317628532120145, -0.5821751669685896, -0.11140976827777971, 0.6960281026083547, -0.5531770690253905, 0.7618514249658934, -0.5496873223486938, 0.8807128335779295, -0.10933339512974986, 0.5567125433330222, 0.22870267693246984, -0.35495307450597324, 0.8885258511440896, -0.8974958936052362, -0.14341904480310036, -0.8825860331452637, 0.16589257476146804, 0.591918178984378, -0.9228464074099898, -0.05859019521135705, 0.3027513212595644, 0.74657249971365, -0.5907636794134775, -0.14592608433870286, 0.1041029995500222, 0.6438813716561164, -0.8451869711603892, -0.5318156461461171, -0.45301256089727837, 0.7464840773332175, -0.26469680684729735, 0.16565494975793763, 0.5453989602548067, 0.9237816631435568, -0.17220764377510242, -0.3638862103876208, -0.6196809950338242, 0.8588897593760728, 0.9084110778771936, 0.31269571643862637, 0.08763128919440016, 0.9764877217498759, -0.3752101973987426, 0.6431534720777291, -0.16971064083781645, 0.2227807146702386, 0.3560166399385861, -0.4775545929709691, -0.7304406554388827, 0.0701605394913083, -0.6336985200115971, 0.5382261054660026, -0.5077051530496768, 0.016338105550199038, 0.2441786922835476, 0.1890588943082942, -0.6291548481784374, 0.05930943559547877, 0.18461965675732755, -0.2898783581714933, 0.7986402538511237, 0.027335258443115976, 0.7333894421143398, 1.3260599609173205, 0.18359686372464912, 1.044865425071165, 0.93677090287356, 0.1881112874920307, -0.14674698370029954, -0.9597326708822216, -0.036679312309047744, 0.22668156137102966, -1.0874117410937267, 0.40209127219366536, -0.8872587328803663, -0.6510382431104327, 0.4837193073604627, 0.23113743815600987, 0.5611451593926641, -0.9579512802410638, 0.31742062324850634, -0.2704913538466751, 0.19296007379123065, -0.06201998714202932, 0.7222409348203739, 0.025192817905307256, 0.7809329841850844, -0.35809914261533005, 0.6534352764900683, -0.036838675393777165, -0.08626113218238303, 1.383520537890929, 0.1344146587912503, 0.028014423305246554, 0.45682902656356755, 0.4786065197929146, -0.2999888580319249, 0.4018591790008678, 0.8696931870175781, -0.4568874559160764, -0.2885751456249049, -0.019263307524841452, -0.00462865988544352, 0.2559713528290581, -0.30252465163291486, -0.22203390871121922, 0.03835661006835482, 0.9970896597647053, -0.5039954333819657, -1.2117270765898416, -1.1131856584993747, -0.3559514721664722, -0.752238056822692, 0.4133016077004275, 0.12685974568486105, -0.11815468176392893, 0.4667877102189711, -0.26620186358740955, 1.0354382220227445, 0.5664550959249489, 1.0820555038518254, -0.10241073149667128, -0.05896735120534296, 0.5127061230089509, 0.15968043668695361, -0.89644353096607, -0.9669088738316293, 0.774975104473807, 0.468704226925079, -1.007260922836138, 0.7127523117885556, 0.29861730627604477, -0.4142128090246183, 0.18076428422003174, -0.033969262309165346, -0.5131280985938508, -0.15052038018788041, -0.3075332227347512, -0.5715052578655581, -0.5388388245410701, -0.7091965017016442, -0.6923742472212273, -0.585379170002741, -0.5289766155048067, 0.48029146056488015, -0.09698433274700644, -0.31326002929125013, 0.9165349266780511, 0.4237536691034534, 0.7766708285006478, 0.3607305163776421, 0.7410849927286781, 0.3005953112392741, -0.3675585142335311, 0.5417875343695578, -0.09901098849834533, -0.42828956189087447, -0.021326178948221506, -0.4518798439882557, -0.11830496662262259, 1.2454645068452905, -0.1298488491266182, 0.6463438266075003, 0.6302700446540344, 0.6375108536813967, 0.3594848769573962, 0.28230830869818235, 0.0675151875835883, -0.16240943620115128, 0.08849745453329347, -0.7506211894333116, -0.49418828333745707, -0.45787310202357834, -0.05202872131567696, -0.3715595143818162, 0.5764079920779723, 0.7668712760454761, -0.9409594322343262, -0.5829018050495756, 0.46747978805956464, -0.4026755123429862, 0.36546784859154446, 0.3724245440644525, -0.9583720620490969, 0.6811751302003364, 0.43026708632752614, 1.4652336550272496, 0.039861831752346255, 0.5411923050202265, 0.4903318934816776, 1.0685743348673664, -0.22441527036289735, 0.8951838156287947, 0.6268849957067023, -0.09996393546757834, 0.7808570223262334, -1.0574032516951288, 0.42657402383384596, -0.39443339813609557, 0.013516792124234612, -0.08043637466159838, -0.6336271470554724, -0.015989058925636665, -0.3843988628620484, 0.3027146025989058, -0.9776701258155778, -0.4139653712652912, 0.1935957207421688, 0.47091024891133343, 0.826550893486174, 0.7447957656380196, -0.9692838448110973, 0.2663369456701856, 0.8234043312845966, -0.14333964263505225, 0.6574516144381554, 1.1214159023158559, 0.2859371848492026, 1.1925719757488062, 1.0120029563344268, 1.0686617542623298, 1.1257649764090392, 0.24119742977495495, 0.9914188893816835, -0.12724662626147631, 0.6881424739468952, -0.06961499947444241, 0.08058228436148025, -0.5472182584093448, -0.4541621903560951, -0.4392772792469701, -1.0866450664737755, 0.7544227107440343, -0.5435323460761777, -0.44043721888763704, 0.05427896695946494, 0.6349851768161516, -0.9351177678134484, -0.08995944077700978, -0.35525637108933644, 0.5183609894332072, -0.8346463050990002, 0.7876811294274946, 0.8132362014203118, -0.46158608540566476, 0.42572402655761316, 0.3257686928350389, 0.6684742350862966, 0.977915663198197, 0.9613485266009234, 0.8771165268955196, -0.4952992314336024, 0.5505843347336788, 0.5601098318739808, -0.9333770088229706, -0.7277950165345124, 0.26189421148620873, 0.26638332276353616, 0.35353320415802364, -0.8078753992419804, 0.13126524742208004, -0.13816722320750244, -0.7045673759656123, 0.1024873717913806, -0.8735324154771867, 0.8043293804158242, -0.4306329752916912, 0.46610855671883417, -0.9652952234880975, -0.6735689168602509, 0.22884220482675785, -0.3003446623507029, 0.5602619515788506, -0.2751229131995226, 0.5349033668373206, 0.5254771698397029, 0.8373484949307408, 0.9640873467802865, -0.3567621113550631, 0.9669914493048771, -0.2092781161826303, 0.6109304875736417, -0.7669674714554591, -0.2408393697062513, -0.27753532555683164, -0.2359186381280324, -0.012851531474412385, -1.0322159081135587, 0.09073664184235866, -0.7851736164456936, 0.9376273821554445, 0.055785059351369355, -0.03607400491991518, 0.13489058412925872, -0.998400020718051, 0.33056129386172456, -0.0003063548149284704, -1.0408075081418682, 0.12511161938179188, 0.03828890163334146, -0.16694606976149504, -0.8469802130380526, 0.7869042825047536, 0.2489822477830733, 0.7904148861051445, -0.2680612986214414, -0.27048809032716215, 0.584084507447818, -0.7423895511514143, 0.0591123396109118, -0.06690983087385871, 0.183515469769797, -0.4601206871933483, -1.009809165542673, 0.24822328640467553, -0.8648590769175316, 0.6342264354853078, 0.48581286613199914, -1.0030145818042167, 0.7896152834132852, 0.8465090826238142, -0.5321404860534579, 0.8368626908919118, 0.6315876563252251, 0.5787553568996768, -1.0601212409620044, -0.6620334180439363, -0.281199692199217, 0.10950427599384029, -0.2422924090838472, -0.5676858499875331, -0.6654845261024281, 0.9048326635828031, -0.7433948759258417, 0.4978762786151188, -0.13792580712420283, -0.290071420258102, 0.8186101664740678, -1.0491256503864048, -0.08436721685192268, -0.7954378231657155, 0.2385834230588208, -0.3728713247207677, -1.0109905546870541, -1.026122524285815, -0.7818126736761241, -0.03168927007201177, 0.6037875353752179, 0.1659007406444365, -0.41186859629517414, -0.43708054657895296, -0.1570622413228459, -0.37478471435459887, 0.013705011563332396, -0.694274471110086, -0.6737512129766832, 0.36931038242983355, -0.364121694340616, -0.6389280047244205, 0.5445984148943525, 0.4644297850901014, -0.035570648895526316, 0.5881078431827902, -0.3072324846181701, 0.0057691895548769205, 0.6092439266609999, -0.026821798707924623, -1.0127619337532172, 0.2356134563138949, 0.7574304169565398, 0.3714764286942549, -0.08365900179171434, -0.6174374168247821, 0.8905636000042838, 0.85099662991551, -0.43047701403163724, -0.431174009725555, -0.5712026799485116, -0.6900397942958416, -0.5862228233069913, 0.7928937592427143, -0.1910199505905559, 0.5831419016600803, -1.1656124333964166, -0.5852243514895836, -0.7510177000691671, -1.191038461705895, -1.1246845883605134, -0.46453775764637883, -0.23933268156626214, 0.28548085100302145, -0.20259269259027074, -0.9938512240994992, -0.028180441837911085, 0.2914881070813255, -0.09020976129643236, -0.03785785655886209, -0.9216784918297909, -0.06743326627753546, -0.7176184931262923, -0.38130876640303774, 0.7821244127597854, -0.42944277952545984, 0.953061481519963, 0.9778953128538269, 0.18968644875114216, 0.13540335928259967, -0.3446307710351383, 0.2717301858492342, 1.0975863973448192, -0.34780982920402165, 0.5918808637816145, 0.5184696139568203, -0.24707259338402804, 0.40957931663314345, -0.6592343302764055, 0.257356893570225, 0.5310609639487114, -0.025066825737266946, 0.5520792182773584, 0.4312824660460845, -0.05072442576287086, 0.7303006436713106, 0.002230932012749796, -0.9909390140565879, -0.1420968824961922, -0.043518863504623126, 0.6542212235505807, -0.5884137906078064, -0.3425920117534399, -0.5904241618829177, 0.8623565935598655, -0.7284882364731353, -0.3025087464616609, 0.21521670298091558, -0.7575750117500223, -0.3354985077788202, -0.24411882397229498, -0.1645855146085734, 0.19906509829258834, 0.359268221053516, -0.5714544077970244, 0.22695533512470498, -0.3121664903962632, -0.47764542477735156, -0.02165005395152541, -0.7039320617854459, 0.5161943919483715, -0.5621840572278209, -0.3921707957412054, -0.7018956951529028, 0.6304287761397437, 0.3230036482963293, 0.6018040725767299, 0.2101634496545151, 0.21675552734966844, 0.7368501580825215, 0.14361389869978464, 0.5136323482949903, 0.45076130357492267, 0.6482425182911612, -0.1286741023666431, 0.677915679434462, 0.08504162021343672, -0.5695284656161123, 0.3240732369732478, -0.08202751417255283, 0.6503814615840632, -0.21759212411474396, -0.17303876577610222, 0.3301861462186571, -0.3294932522429651, 0.3615879062863057, 0.7539421849094442, 0.6769135453503312, 0.13879924837390076, 1.2082147265394019, -0.44466301812086373, -0.5031793083751315, 0.8282777189979061, -0.20228367906046263, -0.8581817905822684, -0.4548373456235698, 0.3374829549997376, 0.5364370779457156, -0.7528794862478771, -0.351926557056796, 0.29573234190096565, 0.9537715124050026, -0.014844969482322992, -0.515145678655465, 0.6930724745608273, 0.8228564086095604, 0.5112180617014114, -0.6781459615772986, 0.021741971304387334, 0.5848779336335417, 0.5566606357512718, 0.5052692387648059, 0.5355483313832695, 0.7224134102944925, 0.10968480666318774, 0.16114582185177237, 0.8695384365843395, 0.38226972109459467, 0.9847837953015726, -0.6389995601449856, -0.8538098843524143, 0.4656778707679576, 0.23556496734131882, -0.7362622267834265, 0.9191380266896929, 0.5727933372268733, 0.40925573911301527, 0.9543612703796043, 0.3057209124417699, 0.4242296289596674, -0.2429212427944735, -0.7101517523430924, 0.8670349073324172, -0.8630488006454445, -0.5496028634984607, 0.7047231541152448, 0.034862399152728145, 0.2699455112493917, -0.025670290549669395, 0.08902293422033444, 0.2767219620465605, -0.06096399689082321, 0.062334065090230005, -0.13950939440597102, 0.18931462407318705, 0.8340305200546543, -0.2770373546970637, 1.1645064691534255, 0.4087327818936223, 0.37130553750184386, -0.6354788028233392, 0.17304250208605773, 0.7171659491864569, -0.3523674591697282, -0.3679367678414329, 0.6053544976346876, -0.6314274693586575, 0.6482653267124301, -0.36665486515022033, -0.11615070225946585, -0.45563884190185167, -0.20474380907337209, -0.8222435924812422, -0.32680346394030046, -0.1904951348828949, -0.5774146394312911, 0.7516117296413122, -0.7550463064531033, -0.06661706103041432, -0.5754341691047572, 0.08323620780028389, -0.7572312805213461, -0.9318568243686267, 0.7775161429781375, -0.5962921097000661, -0.6166452975908426, -0.7076430463699189, -0.5402361589184782, 0.37883322624837035, -0.03165172385775418, 0.6331095248274735, 0.8622242837582212, -0.5359082506989155, 0.8908733278585232, -0.20551820293491274, 0.5063899018964302, 0.7611236882626684, 0.31858106356463406, 0.9215800845658433, -0.16817594398468166, -0.8848775011793832, -0.44115995338045166, 0.18666312636948684, 0.08654096511539845, -0.6858449166686409, -0.3684478554159079, -0.7082967291293814, 0.31791693758745654, -0.4712595370421009, 0.3641369029707182, 0.3559020897314849, -1.0428135642494094, -0.421737576609426, 0.8765938836048194, 0.6762092907478037, -0.41864999730710806, 0.8286674790263427, 0.4332328732143493, 0.32614254383204516, -0.5054775864011856, -0.9319515221327328, 0.844816020650059, -0.8050908892376187, 0.33551485903400047, 0.16661307557064986, -0.30453608953243716, -0.13795433383813904, -0.92073523070331, 0.10910560187927047, 0.22762286607302207, -0.8247017050810141, 0.7293680943401831, -0.14505924763726297, 0.8655035628127105, -0.1306035005794955, -0.8048260343924266, 0.21004233182167062, 0.5599404414968239, -0.16903899202285583, 0.8885972929920323, -0.5692046122381685, -0.7760374187442477, 0.9925942871217436, -0.6446595697461175, -0.9282997439667422, -0.6493707176185379, -0.8505667525066849, -0.5408216918412156, -0.3901196284504387, -0.5317096576127607], [-0.960412302497196, -0.7368762656805807, -0.10906037978761574, 0.8998488309019352, -0.8049111742852977, -0.1103989550182618, -0.6762466216755589, 0.4858010986479355, -0.9249007622412708, 0.521242336255233, -0.21450873898272804, -0.23012947204875767, -0.5860700811715028, -0.5069770334834589, 0.7052352566566311, -0.05058595972250646, -0.5384713987986529, 0.8936851694641907, 0.0616691444199422, 0.9406693083139386, 0.016419801255344924, -0.1635066882309848, -0.17281460394112247, 0.9717682162049386, -0.6284912097070874, 0.436358248078454, -0.5172056317991018, -0.27270355476659147, 0.1607449956998015, -0.7957632355035316, 0.31038202205221554, 0.6568155173549293, 0.8508096069367131, -0.40712617578527144, -0.260518360132338, -0.6630026357531685, -0.9141544870919214, 0.1398455317376932, -0.7377496307284387, 0.33943501001453485, 0.979712642490175, -0.9527880649031362, -0.508796142449708, 0.4493172789678601, -0.2120894161879847, 0.3772522372524609, -0.3710070298754106, -0.33158804451221763, -0.5728428091704875, -0.6124323207124533, 0.1254470868478307, -0.7677703732925277, -0.4725138551450965, 0.4872321715331134, -0.7309157899382399, -0.4055851017762313, 0.018436317635478927, -0.7877705055806168, 0.6353058408730075, 0.5566913049229836, 0.6267653122674668, -0.7772082385830104, 0.2579287940610456, 0.5754022409628308, -0.5146136984525518, -0.5988214473160255, -0.587340444953566, 0.45126276646198415, 0.18535870670231375, -0.703135845741036, 0.4979730652131188, 0.5775126672307112, 0.24771915021759183, 0.9442701180767865, 0.7147662289599156, 0.9292862215582341, 0.003104001559478716, 0.5499495030083845, -0.5783030794493854, -0.5046386212419401, 0.5950190370426132, -0.17836046850809922, 0.5364386838994675, -0.716118044455629, -0.6943271075129283, -0.7684214181790763, -0.010312804698426221, 0.06828165876127651, 0.1727389240516679, 0.7445393326100838, -0.25824384662134825, -0.13849068408807946, -0.8125557720177712, -0.6074714114797655, 0.015369380623564452, 0.7601154538465377, 0.5061986015697957, 0.40992497599952116, 0.6832952793758484, 0.48470855901171545, 0.5181218056337842, 1.1322575212629833, -0.20993124447837008, -0.16620167471892666, 1.216485381303179, 0.5127616144297801, 0.17752085518026803, -0.0927081866137697, 0.2589268425201222, 0.8874037297132311, 0.19104404186432256, -0.5886855123978925, -0.40666525384870544, 0.8811577986329869, 0.6716467613806425, -0.38434829573992996, 0.444215445271758, -0.2402813901154113, 0.006620380543657659, -0.2776548140742565, 0.5108393754003093, 0.632135230169253, 0.040133594198396766, 0.8322311727753627, 0.07705853276323224, -0.8681880585466863, 0.7339420911634807, -0.6230055338691822, 0.10680303962175777, 0.9386295000413932, 0.17054468180940816, 1.0596336073679988, 0.5111567191592623, -0.29511781170570756, -0.4308572930677963, 0.055510673779791894, -0.12407069491835923, 0.8498392467936291, -0.27687334151129733, -0.31405984564924583, -0.3607420652836304, 0.2753393893559226, 0.198348681180899, -0.9777424119556639, -0.22735481406536553, 0.1470456393090697, 0.7883457648914514, 0.5377318590945235, -0.8483620661503254, -0.3591689047248294, -0.25130207689775447, -0.5932534233201228, -0.08372419044654823, 0.2075227625829365, -0.5749866797456694, -0.7733497595768665, 0.4120878085238757, -0.45982420753104114, 0.3086597391043173, 0.46044277263781164, 0.18913224390843325, 0.9829638423678426, 0.09542207219479044, 0.6676808811599666, 0.4019192773378286, -0.29889812104761054, 0.7644929375029546, 0.33380514007384654, 0.30681221228534206, -0.9611510562674273, 0.0369334767788393, 0.9523879428326727, -0.07114684788826112, -0.46190718116212787, -0.8829973919995908, -0.800123380468543, 0.1563594454987871, 0.566954922132235, 0.6591789617028633, 0.17064308686555502, 0.49795983188557696, -0.11520287071898445, 0.38453402129362724, -0.9587621020497856, 0.5756942581073847, 0.42861439784063815, 0.5734909357920289, -0.6889669868370223, 0.6338343416084983, -0.5943632997983376, 0.3084225445851504, -0.7209789042677693, 1.0996957700286265, -0.12446071469662753, 0.5382137644463625, -0.14387624482251576, 0.4764553218585179, 0.1038138885967647, -0.4198654055381462, 0.7234268793545262, 0.5786467519777511, -0.335743703404113, 0.5008822379194583, -0.902441639486877, -0.8718113793324913, -0.7859582247435409, 0.540348065293526, -0.9025532120841011, -0.1322343823818797, 0.27768387430426916, 0.5041564685128719, 0.7853532236671458, 0.8511317225508235, -0.15007476217397264, -0.4143223951621727, 0.24008854865005608, 0.390496916706949, -0.002183082530564446, 0.6050795417847513, 0.8338689360838173, 0.012652639204232785, 0.03649586814642863, 0.33895754082635093, -0.8604600466703725, -0.5486523721077259, 0.9725717591715031, -0.22354418229311032, -0.3185340924818254, -0.1291266098696044, -0.5814126919339647, 0.4880854478446276, -0.4773410978515944, 0.3546943722766057, 0.1838018962953423, -0.1383004227128449, 0.6285501300899795, -0.5434263077062401, 0.4310942988222753, -0.46929375134592893, -0.5190634358245078, 0.3751472313121701, -0.5221939192073765, -0.8918928293320622, 0.009537791833795634, -0.6962741055203444, -1.3997168001898457, -0.6286403236798138, -1.0151634896647126, 0.13700151658573928, -0.22102921854448496, 0.24867124889220968, 0.3549738373973135, -0.5904448485798861, -0.9459732035378797, -0.9565462347946566, -0.41026495349477754, -0.9482862916786624, -0.09320434380173379, 0.6732843643516235, -0.9825972278006923, 0.4400451641740739, 0.060984376608460865, -0.37530572004446083, 0.16164782413497977, 0.35923230343386603, -0.05976456910956447, -0.4307425979968122, -0.8257483683308202, -0.5673028576303297, -1.4062037084428567, -1.4020039695462627, -0.9704377864847299, -1.1223108671699225, -1.6944603702643273, -0.25399285554938117, -0.9201807467272173, 0.29890509402936855, -0.7943657425423376, -0.7119728313088182, 0.4499254030983236, -0.5989794337711234, 0.8177735490481498, -0.7170983496245068, -0.08456911732061831, -0.449145485706247, -0.1794130722429035, 0.08064321283545056, -0.751717030874013, 0.35605628844511256, 0.015828400848076466, -0.4778585495082473, 0.08237533919114517, -0.19675737019427275, -0.6550731981324392, 0.6136589136863165, -1.0957690054301379, -0.775473835004447, -0.8907868317486597, -0.4553466429904287, -1.2597702048320796, -0.6462069335917954, -0.31646835087338665, -0.2520530306990297, -0.34590067504257505, 0.38749634575500314, -1.012325041420202, 0.644020529475638, 0.2180510138736646, -0.5716084877214264, -0.01892185594403763, 0.9317988724956308, 0.37653001877404574, -0.5939340942834419, 0.2884409209015312, 0.9402530843448657, -0.39148699724939523, -0.27260144544668424, -0.3328449963672917, 0.059048948251872874, 0.28397762481319433, 0.12167497599642724, 0.7178764183519212, 0.3010314135545564, -0.5912433577814576, -0.6201472602942554, 0.257284833194268, -0.5613240670409492, -0.5557526504870942, -0.5389883387686178, -0.21275670164749474, -1.2673558794313522, 0.4537780225356664, 0.22350820862741494, -1.0267343197345302, 0.17945038962212176, 0.7136293867266614, 0.013831704133098621, -0.6601286003788862, 0.7146637351415719, -0.43281630659213544, 0.39865109986880315, -0.5888380274692621, 0.6571568896763806, 0.22767055579447887, 1.1946605322134403, 0.8901397172144285, 0.5725644821478354, 0.16622931093388574, 0.9686159519984932, 0.25219394963633096, -0.2767725295567496, 0.4657284300358335, -0.2356440503418153, 0.2448843430771561, 0.23024647818366512, -0.02717664163445096, 0.40304570045016186, 0.11082407237614701, -0.37206921628110384, 0.22446442372908915, 0.6887175522706456, -0.6397191578653484, -0.0655417286408659, -0.9142920553916534, 0.8073657465397184, -0.08179081485086326, -0.5324639632173628, -0.5141411353862028, 0.1900684934185879, 0.1094924800874747, -0.7284494911579116, 0.2504490107727066, -0.34789522620297975, -0.6225593662698199, 0.8002246922025583, 0.10557416314281154, 0.5788117652355083, -0.34863145254570665, -0.2928524465035265, -0.09717583109594514, 1.0411364170805706, 0.6072974910735505, -0.4147037298630653, -0.056416921074482124, -0.06736837754230705, -0.5450849403752895, 0.8229624525953522, 0.21897311223002833, 0.4951666028713931, -0.42906991327416694, -0.38038356756055514, -0.9186737001647443, -0.6367704592668788, -0.744893476296992, -0.4848528917421139, 0.055482429402090604, 0.8477436074570615, 0.8966673597826046, 0.670134248910224, -0.5033870864838288, 0.5245235367486966, 1.0855859182411483, -0.513474104222375, -0.33824727458546316, -0.5578672386879742, 0.5521304630552414, 0.20640162402180645, -0.17743910148057226, -0.26343021579884646, 0.3429532966521789, 0.7076494551014273, 0.5726212694956032, 0.34903763594638765, -0.370241415265813, 0.47925361378725195, 0.757413244455625, -0.3564515059114963, 0.6295426015907535, -0.1867229116139588, 0.604084218631458, 0.43715967370789693, -0.002795960387077718, -0.22205005670132705, -0.9719520205840366, 0.752504364376581, 0.7094051395384552, -0.9016311290216192, 0.9302474391568193, -0.15142053488120383, -0.0789915178286551, -0.19190587156996883, 0.1554617585094208, 0.506603774625813, -0.7990817605570713, 0.39858303420531555, 0.451660641732086, 0.22819670238709072, -0.16146279515285059, -0.30854108750368064, -0.15553582018130338, -0.4457991569594744, 0.6997644576262252, 0.9516932644672871, 0.10001122778451378, 0.45294131950104616, 0.6188094529790593, 0.5201062010004269, 0.310099946454462, -0.43387085384892243, 0.6605589259084262, 0.35820509715524185, -0.6819167283838563, 0.46829760951458443, -0.9882803406641691, -0.20205456037277753, -0.9375371153211932, 0.080392371583932, -0.1970146925383769, 0.9197957817054918, -0.3550997098377799, -0.6567986834487384, -0.24901854271910476, -0.7696066705886366, -0.2300708441524088, -0.24871517853828057, 0.14319696195392578, 0.4946196586889631, 0.22726009549637596, 0.5084411613346271, 0.26334753928716886, 0.18470906269527895, -0.3910175782972735, -0.5572745946990636, 0.7642501930280481, -0.9160885407203557, -0.9789478343266924, -0.6479883561069639, -0.7650894173943223, -0.25607163957888474, 0.12161136480193817, -0.9626848300091859, -1.0020400904443638, 0.7261801511092396, 0.4265801018850958, -0.45349137656959626, -0.019251237235520618, 0.008812826369560683, 0.36253165040372637, 0.21279755331403744, -0.7381250044518881, -0.578767838886814, -1.0507069425726496, 0.5530258513258356, -0.1954084847235799, 0.21869982268081922, 0.6308205950584422, -0.3256121267709405, -0.310285394581423, 0.793483447975832, -0.6969751650157712, -0.40789129599057294, 0.6120642476492688, -0.4921296863633424, -0.33225080877908564, -0.10482785182501586, -0.762583453648948, -0.10845450201585152, 0.23911447064663063, 0.863360715612236, -0.18044254284009503, -0.6949194120822055, -0.0969437705669861, -0.25949701437208944, -0.883641813444728, 0.40555027765738905, -0.49954767318954546, -0.7970002200478254, 0.6881894974388723, 0.3850376470777547, -0.6727297811841066, 0.21233179886541617, 0.42530168695671455, 0.1831191037359345, -0.6296977696201503, 1.045781395641735, -0.004433582395222109, -0.1794855096270161, 0.47679525898414116, 0.22166509697044198, -0.3165689373590341, 0.8268863683879192, 0.46833683744607, -0.7869160490329679, -0.37538216842462513, 0.3810758699488344, 0.9815592143261085, -0.8800201003098848, 0.3000182277766862, -0.332858394314502, 0.0603403522943634, -0.6707796705981445, 0.29274196718318696, -0.5768107682910241, 0.01035913487016556, -0.5252081214780268, -0.546260268026883, 0.6843607062610622, 0.21459679811415291, 0.9728629779177966, -0.20676258318430474, 0.8894509323028945, 0.48361466265845926, -0.11284082304201128, 0.7519248980923061, -0.16247623357341323, -1.1238495657575531, -0.7429232100383301, -0.29839458808908337, -0.8789500386992911, -0.2900112683489926, -0.03911807883041862, 0.15978892521933674, 0.1926234243509706, -0.5427797552227451, 0.393196445250314, -0.695686014406156, -0.6903066505095665, -0.13029804695113534, -0.6063574125856025, 0.600459884987346, 0.11115885178025024, 0.3464219770308212, 0.9796063933469034, 0.49017098182598023, 0.4734195921467275, -0.20536184282019476, 0.02552704636742892, 0.24550228051719566, 0.49287815994324913, -0.5528533780982676, -0.9729152713795078, 0.06130043972799147, -0.4358468760064941, 0.7091364680878648, 0.538090772524984, 0.9200724221745196, 0.7886652938697627, 0.4653006200744245, 0.12674144305926394, 0.3320381984713807, 0.9701634473516293, -0.5516285982361638, 0.8056537083330215, -0.11869801158386448, 0.10971898737524165, 0.507897923972243, -0.4298066970881415, -0.7302564265825708, 0.03919226788658292, -0.21694567558284858, -0.3523226027454391, -0.01103950053080627, 1.3032497447830413, 0.19667308053422156, 0.29897487211351603, -0.06100629034748329, 0.2694484643228842, 0.39523954498095715, 0.5119555092929905, -0.5306375688488268, 0.6665594588443587, 0.47913059786368384, -0.6301898105659811, -0.3046154982352128, 0.6558174365258872, 0.15285035710043182, 0.7232337340256167, -0.6856946151701009, -0.12716224380508243, 0.5400478111184238, -0.9206414756394516, 0.19253622752806127, -0.45803043744775623, 0.10369091091766297, -0.3121840831145281, 0.7983775987232551, 0.8974673688823396, -0.6390139087722192, 0.22956801797652993, 0.5366718182584833, -0.3103598508295504, 0.7958130300021654, -0.4063026254021183, -0.41441847863786396, 0.12725997132649022, -0.4808341276478176, 0.7665185867874312, -0.7583109973460546, -0.10664579449407718, 0.15442984959672212, -0.39900898985784833, -0.6039821987027861, -0.525836833758655, -0.5253529109874246, -0.8573759842021063, -0.9052995531952643, 0.15098308856795845, -0.8005522392749937, 0.24532292123043095, 0.5212274725231112, 0.09105211413277604, 0.7313091052531455, -0.5450277722054861, -0.6229389426370802, -0.737317607528628, -0.01312029898399275, 0.31006917376474363, -0.8682871606332171, -0.7763466555212474, 0.3439529646770696, 0.6588605921008481, -0.1261193513805723, -0.47488003738502704, 0.4495282863219341, -0.8769930579832075, 0.809093026257544, -0.38856122539623467, -0.5863830473547069, -0.6656006569973091, -0.24396364506723295, -0.37222154674020347, 0.3603542348229558, -0.7349423277282228, 0.9430731283128964, -0.9729801537257534, -0.40399878773031506, -0.5391959038356862, 0.29327243102354256, 0.41876137430445326, -0.11996677883835483, -0.07729870398266607, 0.6452330573993668, -0.18010145679183545, 0.4996967380990229, 0.49723691465840303, 0.734669157173113, -0.17973518528271012, 0.27120941305271, 0.17881724521774287, 0.5813851692752574, 0.9448450673243982, -0.25368987114119956, -0.5119444921971162, 0.5469732313327291, -0.17935136888780984, 0.4256942541051031, -0.4926695172916077, 0.023897281874676435, -0.4445795973264323, -0.9727141879413568, -0.1377327658447629, 0.7380778231778504, -0.6208482864054494, -0.10297031310024217, -0.7332390349421539, -0.678038687633609, -0.01413843317649944, 0.7534930879779695, 0.1274009345073057, 0.9845023531729985, 0.9669260061097916, -0.4561580575799096, 0.10790875299516751, -0.7820192186058621, -0.07454844419392499, 0.5904435844826369, -0.3438536783635189, 0.39943149747353673, -0.6883867736504934, 0.3591203456460776, -0.6009653205025984, -0.3401940365570094, 0.5659915013460565, -0.8660347321441291, -0.8954200966110655, -0.3196622045409692, 0.23075670619888267, -0.12175658622361607, -0.639896984608374, -0.4291531476077992, -0.5737790840057739, -0.3146191515711274, 0.26889406183568093, -0.6981324586216497, -0.2046157938256606, 0.5715876316902547, -0.32377659324862573, -0.3464087529145055, 0.6686548708845669, 0.9187510621327197, -0.8187879773089906, -0.6268962786548503, -0.1351992926311033, -0.4006167734182185, -0.922940536380931, 0.054370779073351146, -0.15763338823330378, -0.4496066091643348, 0.1836339496248629, -0.6400814037755069, 0.9105024964528765, 0.8510064694431738, -0.47623551155055394, 0.6174138123153854, -0.635117445588387, 0.32504560040551644, -0.334873095600146, 0.3601380402587038, -0.4855967883674128, -0.6311146008345201, 0.39948540630569385, -0.13575012979102663, -0.10944870787378336, -0.9669430920430231, -0.15614514118552025, -0.8992529887269974, -0.3006546580134088, 0.43491230478453663, 0.7505791646804348, 0.1343876437411088, 0.6035191681903136, 0.4258132367272482, -0.5363734575433493, -0.059152335372202214, -0.5328677830719131, -0.7966238349112299, 0.9603769359391332, 0.4772572797511705, -0.06187513502379133, 0.8586494937161888, -0.06641930264679297, -0.4104619099705715, -0.984852695943321, 0.8807888904590724], [-0.9507626166435168, 0.6276715721475112, 0.6168259074868441, -0.8779105734487, 0.09427923165058094, 0.5324985433887104, -0.46582487812455997, 0.24095138743761035, -0.09642471351885562, 0.021289435525742695, 0.5631913920349143, -0.9458954613194896, -0.6339826965161267, -0.04526426591132637, 0.6858202400007193, 0.15568487888607183, 0.155566341434072, 0.6429343427192487, -0.4662981665669905, 0.2087802162115442, -0.05636934027187701, 0.7760747109256014, 0.48281003225346764, 0.6499696175149572, 0.6442999066241428, -0.09064631333479722, 0.5594077424876158, 0.620298735162637, -0.6457215828600464, -0.1536143640817993, 0.5735051439000705, 0.6005122605855504, 0.3507301021363085, 0.8303086535617054, 0.2788925142838187, 0.49954048380445387, 0.8581907916319936, 0.18182116357022932, -0.9657377695795593, 0.002897404650640905, -0.11841013598049903, -0.5722949361218144, 0.3285910337249037, -0.21554857280364884, -0.460526522534088, -0.09010271840770791, -0.27485687009910986, -0.853914197499302, -0.43307454240110194, -0.595058672752705, 0.20239314302199793, -0.7174800201757752, -0.8016199312504104, 0.9727720236428443, -0.22506116416049382, 0.4785658679850331, -0.9669979454286166, 0.5405856833264573, -0.2076432296998063, -0.6890133542364892, -0.15990639269574447, -0.07134844858464219, 0.11233546329644671, -0.3387688072712688, -0.6084796541602592, 0.16195690672210403, -0.19066037598372793, 0.29463402613901807, -0.2562920470304208, -0.7178575834019133, 0.7866024778099365, -0.5822395726866318, 0.9256194271532833, 0.2664905219084037, -0.3248766957278576, 0.8116042115504478, -0.08254175023553081, 0.9129827422737302, 0.8307928731857152, 0.21360147728652573, -0.7771834540375961, 0.6519373103043733, -0.18755886691894297, -0.33425582934500797, 0.5411553687596502, -0.963051711846302, -0.1844875111102876, -0.4775587292115651, 0.010544096461827286, 0.08670306323653237, 0.8787317683902502, -0.9444808975648472, -0.3853239858884792, -0.7462039545704165, 0.18031783307642327, -0.6761326168132117, 0.5563338639720841, 0.24693708588330207, -1.0533605283877585, 0.14758305330947835, 