{"hidden_layer": {"weights": [[0.5618453098962177, -0.4271675174701337, -0.9500631500786394, 0.02416312123780573, 0.9978848842399601, 0.7035906945806272, -0.593668746955996, 0.47094297710716915, 0.876636059034319, 0.39411708025658454, -0.5936458640544944, -0.3395487877503027, 0.5400005510194034, 0.5728853415407588, -0.893408741059301, 0.9554818973584137, -0.016009060209752013, -0.7368103652640858, 0.211226140429704, 0.49042608853616354, 0.8920509092957913, -0.3927520715338997, -0.555417333880919, -0.9785667560234768, 0.06721875835830993, -0.7898408053611472, -0.1525973033596446, -0.476069208240661, -0.38892825174460044, 0.3636523913010501, 0.4292836676081453, -0.2857148418117892, 0.6259990968063718, -0.8215225436242166, 0.8911859788245333, 0.12732901157359142, 0.057771522439628555, -0.8774341072148045, 0.1842859096815508, -0.016204657985577266, 0.8661542044360068, -0.9483741927707469, 0.54121067712935, -0.15133168480652032, -0.9256667534945932, 0.6997141418298878, 0.23809147632494126, 0.377805613672082, -0.05931901314846458, -0.24992432306334772, -0.7299679420742134, -0.08616920757022262, -0.778539360721517, -0.483870937813359, -0.1204951138216872, 0.653676200978689, 0.021205859277626304, 0.07031193203390251, -0.5291936897007159, 0.551779830181052, -0.34024942211007947, 0.6360945577317512, -0.6847631443607753, 0.09962885165065037, -0.8778570804182907, 0.10908864941631166, -0.4588829188064338, -0.6551599236709914, -0.5352348677529501, -0.6077622230779982, 0.8191431773364504, 0.3926152273374484, -0.9306450623523647, -0.2362625278096589, 0.8935598264795992, -0.19939271092476712, 0.2774105454021639, -0.02789091064007047, -0.437620220649049, -0.3591645221020337, -0.7705496386366515, 0.08966154875616093, 0.6216761331809215, 0.6690095963567273, -0.13488127212727208, -0.8024045830579591, -0.22750562157650372, -0.4625516932116224, -0.5682969627808755, 0.8811294016781908, -0.08758454598502569, 0.3265408623524569, 0.699267921170865, -0.44317290934791403, -0.3899435187873497, 0.35921165754320766, -0.6756962137821932, 0.9666822381245048, -0.742785573090088, 0.8294234167577929, -0.8879287225091047, -0.8302736595635182, 0.33719107249120633, 0.8799316706785231, 0.18871636707899833, 0.8575492447805779, -0.7110282446459076, 0.2550773320963862, 0.6103236746687121, 0.9914753533726217, 0.8904996044983391, 0.177976407838482, 0.5112984273458656, 0.3450449810076494, -0.7188876889757649, -0.2518343324406281, -0.3522999922484849, -0.2164280588433666, -0.09285648483827903, -0.43358954880110984, -0.09580100978802818, 0.7305793342131977, 0.41282086443019167, -0.7842351116959815, 1.0556365879635647, 0.5726947335060651, 0.09721138743696107, -0.4089690290496893, -0.663081387324386, 0.9214703156730667, -0.6506136161510118, -0.24150215490900653, -0.30872231406262973, 0.6226095984532247, 0.3996163418785419, -0.3826358183643175, -0.31179131119604014, -0.36739566494499637, 0.06106807881957909, 0.42040232368440517, -0.4863005258888182, -0.35688471859246795, 0.23756072156693764, -0.6210270054352294, 0.4195172372376609, -0.501816932323583, 0.7098405740376436, 0.27259329884214284, 0.05892585499287448, -0.36921506736349663, -0.24863693384689478, 0.6360528958266225, -0.34766558325968117, -0.22645402250755048, 0.9029533387490793, 0.6586128710950577, 0.42857251763528353, 1.0534331292701282, 0.3403717286516474, -0.5426114675740978, -0.34258057860338875, 0.286585345057099, 0.3408238975130436, -0.7991474504802119, 0.12950541335731694, -0.32647989066412975, 0.5599620797618274, 0.5054018771341525, 0.5929862469660805, -0.9723289205969476, 0.9522574430386872, 0.6293194788426707, 0.8611040835237713, -0.9565766606556979, 0.11082028640727651, 0.7518845041982305, -0.9012546048267284, 0.39701091591600957, 0.48064007568978173, 0.596340007596135, 0.5686216098347102, 0.28649318477406954, 0.9068550643488578, 0.5855503808349952, 0.06019155321273152, 0.03424675228330471, 0.06883756303526214, 0.23079370844070562, 0.3700831081451898, 0.28100623372110023, 0.23090466023491796, -0.5576864247990377, 0.7908698412524746, 0.21257944603677018, 0.5962958315693119, -0.697976436610518, 0.5317025184457113, 0.2801561248829546, -0.8748382773303608, 0.45496068245075094, -0.4906435021346018, 0.7927139243792584, -0.40587654050839, 0.0016956871898489735, 0.06943195415764136, 0.8325889651419198, -0.5939444797115855, 0.7497343180977899, -0.15658449946121142, 0.8982060169810695, -0.45632323917293693, -0.019398188980567065, 0.25791811896273836, 1.3648817282620613, -0.15556638794166838, 0.19934298678624526, 0.2669338664769259, 0.23916167000025795, -0.05084175276007642, 0.7778537998030293, -0.6065562514151055, 0.4198854362801076, -0.14853258316523865, -0.35044943252015537, 0.5606596813786335, 0.5711959510927767, -0.6667173506565498, -0.8535824295306221, 0.43612876385623445, 0.2535363212449407, 0.5010268768401104, -0.1368561593929285, 0.37694647647118906, -0.20241397303095282, 0.5211485174412308, 0.6785246242544103, -0.2385074463239994, 0.8253631031855542, 0.29875402337237456, 1.1413914206874276, 0.11377763837598324, -0.10756503902515147, -0.5143123983910491, 0.16642774566443694, 0.20762253258131494, 0.35853082223477195, -0.24376409829954, 0.8934857627172954, -0.3739236295286267, -0.3441991309586142, -0.6376102582146869, -0.20834271821679298, -0.6937600154846719, -0.8359456789890373, 0.7824607981409436, 0.8395759954448776, 0.7053136313103238, 0.5863463236811609, -0.16411653201156734, 0.6889189356023965, 0.9977814370655314, -0.6531207363513336, 0.4881491772101246, 1.1876967452532239, 0.5071640695305097, -0.8059478915307471, -0.12883208630257, -0.6290373139748918, -0.008967987386120715, 0.8975660531557456, -0.0441103944522929, 0.7492592819771998, -0.19700855395694536, 0.7427157897459757, 0.6341932296050308, -0.018890958732390488, 0.05686289608164413, 0.6511671167217726, 0.9904413367769325, 0.8474443520868878, -0.9036196824668785, 0.6551655694576898, -0.5347556781342393, -0.3238384686729565, 0.034079273299206, -0.6439694047760118, 0.11837048646553545, 0.43908299647457844, 0.050563193590715295, 1.0782323604267614, -0.43373328820179907, -0.14951706477552074, 0.8663319129463991, 0.19057016943521893, 0.22900570790712785, -0.34103753220515093, -0.7170266914794848, 0.3257385631396395, 0.838061548948782, -0.5705742220903895, 0.9894407614856073, 0.12680939306824668, 0.9339161192072186, 0.0970435775128496, 0.36626710838661886, 0.21136890451542054, 0.6098762076723626, -0.7824127839025855, 0.07647612886687384, -0.26580057211775704, -0.7621048031723906, 0.733541275240761, 0.5553923175119916, 0.6469707589560777, -0.49085352779540325, -0.6375340247383023, -0.034557732503235405, 0.49026964957699276, -0.2982355085612989, -0.009784514384674693, -0.7004293837762726, -0.7805260098137945, -0.06597662313506593, -0.5660203035784224, -0.9806683322196496, -0.15715267682722067, -0.21239283772702594, -0.48922981439558394, -0.37516025349361554, 0.16210856992406933, 0.5927453809346469, 1.074253332529764, -0.6102502410767946, -0.12037130803264237, 0.5421366177747312, -0.7364580603748059, 0.6880005959502602, 0.0066328048017767925, 0.7215137747755674, -0.16624534450247433, 0.45312885517937207, -0.3558813620553572, -0.6968940466905401, -0.45180579857803543, -0.33026504510737803, 0.7109512486512919, -0.5675117814118456, 0.023424260637700787, -0.42888170365447864, 0.45946512167773707, -0.7622747161391638, -0.6322687838659469, -1.2048961243495502, -0.8605073030160674, 0.7719361164744281, 0.4635519374731539, 0.4174862923487538, 0.3079940033473895, 0.048452449312108715, -0.19786472156688822, 0.3631409349403523, 0.9727089746937506, 0.05546032354526827, -0.8932424767553396, 0.6539149046532755, -0.8933478424025756, 0.44034088490349776, 0.7933241080683762, -1.139197031113076, 0.653395390877506, 0.5153032885710425, 0.5023660681007023, -0.05719900173284146, -0.05697739447410138, -0.2663123542053328, 0.6618253947372025, -0.14511413588690475, -0.16653861250807722, -0.4858687912073582, -0.7965739301325283, -0.13121491356081214, -0.43450444243766434, 0.5070755439162381, -0.25740468045397474, -0.2876947949218719, -0.14995698782889774, -0.26339510947690625, 1.117298001690628, -0.6338621815098745, 0.0891436523266757, 0.02246793110296153, -0.5858611318004874, -0.17290567101649687, -0.9079542188193366, 0.9211544206881929, -0.47048214035770036, 0.8185090392671456, 0.6363972061051925, 0.3878309255472163, -0.8476752151869268, 0.0926151659945492, -0.23226743037786463, 0.36826789489918027, 0.3553731490872244, 0.12067869868635434, -0.8064697745333715, -0.6182228973380888, 0.028915002426560258, -0.267452025699464, -0.5599150425734819, -0.2163960871080283, -0.3227350827319625, -0.5361388929240144, -0.3383028929925731, 0.3809991040663191, -0.8670103772830181, 0.9679222089918438, -0.6933235835214336, 0.3401923224475845, -0.30904869644169397, 0.4411403835668687, -0.6012557778616281, -0.6812487696579518, 0.11823296799182402, -0.47793898519547945, 0.8215390310727664, 0.7931521472956771, 0.00821657110994068, 0.5999815867442336, 0.2655157939869354, 0.38415319633153666, -0.3468487228806405, 0.06912176143426828, 0.7056067614943025, -0.15978985551971495, -0.1487531464117615, -0.519901776315114, 0.1329595769372131, -0.5308824547211027, -0.5556827343492128, -0.5625481618436434, 0.9293872512890654, -0.7118129496551129, 0.8323060952988738, 0.04805256090971706, 0.8514160421791771, 0.9835907539588474, -0.5832602860662435, -0.27661360387233214, 0.881532013797996, 0.361728299117669, 0.20301074940779043, -0.24270796426559355, -0.18529183290486148, -0.09159974216463561, 0.49727709676679543, -0.09089209460068112, -0.3624514764334628, 0.5764542332208598, -0.41469195841929385, -0.47968626525609454, -0.23061755675251702, -0.9387310988478735, -0.5569714247740906, -0.45631592329560944, 0.3162291130874739, 0.31292156427328893, 0.3080028417658311, -0.44808083443197166, 0.026460310081205262, -0.04227623732304544, 0.7777178307750373, 0.01956459735404516, -0.3111130712308004, -0.8652195776875913, -0.862741655025314, 0.9720987930757752, 0.2909714744407222, -0.9957990413741689, -0.4310877827383382, 0.8893628908590901, 0.856265979313727, -0.14402453815391916, 0.49769522704571084, 0.5237599580492958, -0.23870568048077623, 0.18051906054125097, 0.4715387529080099, 0.22831411610646937, -0.27782617205572413, -0.7736161193920447, 0.14296944852860807, 0.6941134348601897, -0.33804250739909286, 0.31904112143447055, 0.6459691263421029, 0.4568525061040707, -0.5830671403645502, 0.49776145362629964, -0.36516235965584426, -0.37787076629019595, 0.3840000613776463, 0.6242523965881769, 0.9081962937579963, -0.5740799748796814, 0.11482384126666938, -0.9156802533796653, 0.5262612594008571, 0.1788496192723467, -0.11883517177414082, 0.6647118093460802, -0.011571384103824023, 0.33688148045407457, -0.09165685031124865, 0.8220988195937424, 0.9519546724284065, 0.31829741947577367, -0.5778212547409757, 0.13183393125969384, 0.7059905860234649, 0.0780228228806403, 0.7806195621017081, 0.5270973498162193, -0.8487147147127367, 0.17995923736875336, -0.4038863689974681, 0.3651366618380511, 1.0204562669533714, -0.2273809900043134, -0.7679939108527027, 0.026791568543129515, 0.4251377822931242, 0.2781843894653962, -0.06613514614346455, 0.9775073275877462, 0.4910015759835807, -0.7890185543848054, 0.7707535000757617, 0.46988382135298096, 1.0212017475235498, 0.9872233504434854, -0.5275827358804239, 0.7333512033365795, -0.590163149729991, 0.6702738763136081, 0.26105495852218696, -0.4597404262411967, 0.09258056823793889, 0.4301904743705356, -0.006171288740226655, -0.12548434182609872, -0.4224881891520932, -0.36188105823947425, -0.5621453797881297, 0.14272402211845242, -0.14530350371033735, 0.23770760920562065, -0.4378417944583325, -0.6253445220904384, -0.5706365872123732, -0.7955635785681141, -0.5369256820267919, -0.6676230151839048, -0.5246175851780738, 0.6109633462696626, 1.222148323041614, 0.7368927253402345, 0.6111616471147274, 0.8601006109588684, 0.9715329251252034, -0.21455694076455156, 0.41006232802446285, 0.2982480515147486, -0.09111971015074492, -0.06270031877196652, -0.5026157149246596, -0.8249553191152197, 0.33481708747950845, -0.7507190499211231, 0.4314669227095055, 0.7630364107509425, 1.0738330660498752, -0.4409324511449416, -0.5968728777538921, 0.0870713999230279, 0.5091565546889889, -0.9418332503363771, -0.20234015464857463, 0.24143087653056633, -0.3750890916386083, 0.8999652879614627, -0.570250020233504, 0.002639413919188148, -0.6190544276465134, -0.16728973920568274, -0.32063229379791947, 0.4341969612283339, -0.2980915636296626, -0.13038597151716658, -0.01170719975331279, 0.9002482775383023, 0.292783718829482, -0.6869342829912534, 0.5550902864051771, 0.29317167203644995, -0.4171430695659528, 0.22944257871672402, 0.7554953955518823, -0.17716320002823904, -0.07882921758068527, 0.9254247592823356, -0.5210159980138318, -0.5123879561919479, 0.9840233011636899, 0.29087217100746987, -0.07862932445780085, -0.3934996546176066, 0.4439239005612956, -0.7069622373999391, 0.26224632597694014, -0.17532644630274455, -0.17511923531792373, 0.4892798152074052, -0.27246286474190645, -0.5260934815751113, 0.5181090939651872, 0.8992504697873922, 0.23341961605543088, -0.12059826316869308, 1.2969250448027427, 1.0177175395102327, 0.20661908432124904, -0.3747114770662268, 0.47625921196573623, -0.02959239405159865, 0.6849148432848687, -0.9275118799589414, 0.5077364715870307, 0.3468336967346962, 0.8063440725741383, 0.8204248739333626, -0.87190724021597, 0.3604751684144174, -0.7848142315152272, -0.27192739463395244, -0.2071661052664151, 0.9037044406354864, -0.5132585330445224, -0.18079650806182346, -0.8467116714205613, 0.4780269178463391, -0.3061872904066981, 0.5961092971150732, 0.6413550292489352, 0.7614339881090185, -0.21980161456891953, 1.5957177415043047, -0.2951872296962844, 0.06408564143020438, 0.8249940946006279, -0.060009797457204916, -0.2691450246055677, 0.44485101375472624, 0.8309804561271051, -0.3941354239938698, -0.25975779006142136, 0.61516387608373, 0.13485251997897485, -0.39876785329795683, -0.7835846358111468, 0.7394748871152408, -0.21966634444551492, 0.8876036502457911, -0.559999812958144, 0.5597999522695037, -0.8860852551048315, -0.8072700877981439, 0.28616155844553837, 0.3161093719670225, 0.03456294347122084, -0.02488245497819949, 0.23555089752694902, -0.39892250748747077, -0.5911822269436806, 0.5428106002998239, 1.0012518589381965, 1.018824888384237, -0.34412501651039334, -0.08635943382779569, 0.4809937223881875, 0.18181910055917108, 0.8926035013382206, -1.01517374032402, 0.3716291002125526, 0.6105406934721109, -0.5639351829918126, -0.876545897992023, 0.160511930633159, 0.042827271034804826, 0.3038503357892901, 0.10280449612992482, -0.3163174965701743, 0.11070548541938832, -0.18411295927613874, 0.01001154164262475, 0.13683567526685955, 0.557207056381581, -0.10729419282769448, -1.077392015585301, -0.43537288229068455, -0.6604475837349703, 0.645477292864061, 0.6359291499881055, 0.5403177357919025, 0.5309246467492211, -0.24021418211226214, 0.3667147819976336, 0.07661241222386593, 0.308820657017697, 0.06001672398403382, 0.37310286727335135, 0.2537341220526753, -0.3074204773603356, -0.47111993468852453, 0.6406382841321772, -0.26193794616589483, 0.8699730557542371, -0.08683190860600609, -0.47229913946317637, 0.7551132928553923, 0.8314526024062319, -0.6005034833283158, -0.29829196498514127, -0.9422981567513339, -0.9260186655731208, -0.7732996313729239, 0.6402153394608678, -0.8196628403998234, -0.5590932479008416, 0.7238768405589463, -0.023481991479984924, -0.014765607437836684, -0.8905490948253693, 0.33710210413043235, 0.3058221764578374, 0.25425552178522215, -0.805095731334939, -0.09864396982071552, 0.44089321725944075, -0.9791921863667781, 0.27127458821238265, -0.9361603284629612, 0.478257840050812, 0.15182533119821917, -0.9060899744631028, -0.4369736545801539, 0.5138139145672862, 0.617701443010422, 0.7562737463193943, 0.6202243852947855, -0.11142581166447886, 0.8403463137008492, -0.8895787033555761, 0.8658697917898681, -0.5529254745313843, -0.6995965771268512, -0.4105282728955649, 0.19261306468957867, -0.18430372030226294, -0.9584239542292429, 0.6512472043246436, 0.867240134794195, 0.143876070064769, 0.5318455245486624, 0.5710413684153167, 0.0916427346839726, -0.7430265705986829, -0.6213446856922332, 0.84499825031221, -0.2579550393524494, -0.46329643664399, 0.39547090659010053, 0.9900021328809201, -0.696968155148566], [-0.5906533567084047, 0.6659520354333694, -0.03386944523383617, 0.06149004403363545, -0.18170115759111427, 0.7402603477536909, 0.8155539451606773, -0.22155243770827537, 0.046114627623185855, 0.5114492542793723, -0.5071226411895109, -0.8369501821584979, 0.3889560388668272, 0.3348607529506985, -0.12234750547467359, -0.3923562359291846, -0.4503611561503462, 0.6836012818687676, -0.09842137305375753, 0.4480264197062591, -0.6090660658633451, -0.15383038467957122, 0.020277390522669192, 0.43911560888318957, 0.08825169464533689, 0.6665947295989512, 0.12905652734820738, -0.4080789045828317, -0.04653707806868157, 0.971647026284256, 0.044714038442776216, 0.9308180093275806, -0.6251064786350746, 0.34244240015119143, 0.776219563867723, 0.8856448158736815, -0.4834807825986502, -0.8203366220240055, -0.22142722754927413, 0.7089787238312715, -0.2228880051682599, -0.13051695270053368, -0.8923399946083772, 0.6517172657145114, -0.04200640442653706, -0.06297760155630155, -0.8252629366025124, 0.10491310647334667, -0.7414587899683047, -0.07085669166008493, -0.06069871830660282, 0.018383569470598608, -0.8261928840620312, -0.5216734749285081, -0.5854251062046405, 0.7539839662844425, -0.630776463961962, -0.8924322351802512, -0.41915689189513683, 0.33891756747912755, 0.5995276889841447, -0.7823861188514195, -0.5358158563993128, 0.6027276594756288, 0.3737840139452525, 0.07713851132312005, 0.13647589518472306, -0.7993866714535164, 0.6686284538270438, -0.03515973975877568, -0.47012886548362104, 0.24954863415546302, -0.33505205371102653, -0.9934031019063652, 0.8475794211717387, -0.9813272897769121, -0.6271367517489624, -1.0330014625114297, 0.8139168855920323, -0.10341591856651457, -0.6405987227120404, 0.28866703255616694, 0.4358258186998636, 0.1802227750760168, -0.8087115316188387, 0.6393079065791725, -0.11377217296709041, 0.17146078433375475, -0.5279542161073355, -0.2966114627703612, 0.0917602518336973, -0.11733969741557529, 0.038138928161247705, 0.2990601784080235, 0.4271419935758639, 0.12555404435576634, 0.4674807125294658, 0.7384653481821797, 0.33266084684217956, -0.44362800507889333, 0.762533082423745, 0.7945397093034765, -0.3927067784843519, -0.3711627480596233, 0.2705312958298188, 0.25421710250015783, -0.07008973603257465, 0.3126843290523435, -0.8077802966332808, -0.18149087437082073, 0.6488098206940599, 0.620234245647151, 0.2624760974313951, -0.21148690412925006, 0.5095976505698389, -0.4950885764364748, -0.2882043792991117, -0.7042525495136288, 0.2019287518788757, -0.41438165517837533, -0.5253939780872967, 0.05867619674883461, 0.10278329753811813, 0.49461943121155094, 0.23563645530623348, 0.1651931351261545, 0.051709954850878884, 0.20852290167900725, -0.19440688197065492, 0.3559973837651566, 0.5699477112489365, -0.40449994446411536, 0.30591333319281533, -0.45517375502562935, 0.09828276622741111, 0.4537285904728879, -0.1431455289630882, -0.7979519207470234, 0.20556655388433884, -0.6409060389865132, -0.7889279035924934, -0.12591112691061368, -0.5675336124295817, -0.554867359750258, 0.4218051636130621, -0.31473408687949345, 0.4605736594358361, -0.16429959802183103, 0.3989901111441625, 1.2009356867948617, 1.3360444011502899, 0.4569170111623238, 0.5870038784176953, 0.9217967275345642, 0.1962565090715017, 0.0462453638783682, 1.1103360390398318, 0.1576870906544344, -0.5924484735377544, -0.12160243382837008, -0.5031169315881622, -0.7662629332336927, -0.2850730865565558, 0.3596390567853686, 0.5916818367528728, -0.11203458122002775, -0.3730047250323995, -0.8547241517098929, 0.024379879247276914, -0.806068110280912, 0.4160073921864869, -0.6916506431356675, 0.054287406943115846, -0.027991267028523555, 0.9512882539994221, -0.40014240843468096, 0.5589736024333612, -0.3959480998341373, 0.6501498385075993, 0.7192412523732286, 0.04377805511849176, 0.772352583663457, 0.1678537294010348, -0.07207513703318189, 0.3331803669637287, -0.6481345421468839, 0.5067454751215138, 0.2948269350838899, 0.3881490317454962, 0.15487908403123332, -1.0640461878859147, 0.15781319609937003, -0.053293363848885486, -0.9377393602382144, 0.15920044014921594, 0.47730859234642037, 0.9949023205834434, -0.6813304040103524, 0.06733555636255631, -0.8632743950271762, 0.4992592811126351, -0.06199468228237663, 0.9917376979806567, 0.4073054567756782, -0.025067831832278044, 0.14611339460126338, -0.12025423186474786, 1.2809769283992025, -0.09969201940517947, 0.6615095409841382, 0.5677434959081852, 0.5523269218839685, 0.2138154331457932, 0.8238980926331843, 0.1695884343224054, -0.5650064670033632, -0.5290601658223208, 0.8252342531163512, -0.40805398624439243, -0.5972124231808472, -0.24024689425070672, -0.17708582970125017, -0.334038505994904, -0.760897836279144, 0.6242922533229264, 0.060582511180283904, 0.24698515239466562, 0.05332275204148638, 0.4970834861936695, 0.19554037514611566, 0.2834855027992877, -0.08575183769119274, -0.20312276325848924, 0.8364344259915695, -0.4656009861442088, -0.28102497688242156, 0.3043429920004751, 0.06098099910422649, 0.5470061839852094, 0.49980824521958406, 0.537523338820603, 0.0080533155220008, 0.27325649933025775, 0.9843009073535316, 0.4037071749946403, 0.4984286253057694, -0.4495146140160877, 0.3163334092715877, -0.6470144057761658, -0.5519364591720645, -0.7264838417038088, -0.12079176167719542, 0.6666519239728631, -0.7943800450284321, -0.5816128409215616, -0.20204136503270512, -0.5657797915194771, 0.7485541743696413, -0.5918380597232474, 0.7767578985931259, -0.696511508100285, -0.41208187258009576, -1.031927824984837, -0.08431305425289626, -0.5209118456228738, -0.48107451112167626, 0.0875395434740823, 0.10975074056600463, 0.6206099355805279, -0.06577328384962683, 0.07101725725704548, 0.6309823336138247, -0.06993025536026318, -0.1842900474517515, -0.4838221162520319, -0.602996504944376, 0.21609983092328217, -0.17751673434987836, -0.5659193012795602, -0.6701418166185247, 0.9933145059707925, 0.37936331791488975, -0.2833801430045969, 0.1885816815287472, 0.5947865472810505, 0.11479206595561756, -0.7544259166880601, -1.1507952706363638, -0.31525170035215205, -0.0683995509676873, -0.985699995727336, -1.5758781641646191, -0.7792136007599759, -0.5649454983171727, -0.44245012511021187, -0.5608536599239728, 0.6967135549417275, 0.18274933298403742, -0.1884159045772927, -0.07117957527917282, 0.9065814839607487, -0.6795088361459897, 0.8286189355344994, -0.5312701973966215, -0.6756467682057281, 0.6452948342718983, 0.18829778807206762, 0.8843187818178894, 0.4015569912427692, 0.8342694423906869, 0.08902334984772613, -0.4969498137474237, 0.656245039279332, -1.3218638563364462, -0.05232547918221887, -1.487405417746248, -1.0227180925158235, -1.0935419201898768, -0.7381203430540866, -0.36826954230068115, -1.580109941746145, -0.8138942039398195, -0.009067520548163273, 0.5412955654793965, 0.702393149993399, 0.6950984880484237, 0.3475320524205845, 0.37598842992159204, 0.607606222479649, -0.5900546605214682, -0.7515801327742256, 0.6926876661231043, -0.6939309914946522, -0.1484167648989053, -0.4647668098134262, -0.8277462274307331, 0.7775131804131402, 0.18450534093036736, 0.19170174195614406, -0.20906592705497642, -0.3066574567160261, -1.3894173306395508, -1.3832756533399413, -0.6204512689264133, -1.1965474800224836, -1.0301588641652935, -0.7437548594418675, 0.30201597671783675, -0.2705518299673426, -0.9161293682849505, 0.38253889947862624, -0.8014670806749826, -0.20260425485546843, -0.15782831815636333, -0.7953303433678381, 0.027130198533612187, -0.30433822354468926, 0.26119316686359995, 0.6591174384833378, -0.7632503097632682, -0.8062849662864918, -0.2048391308377355, -0.5112362576411225, 0.8387037964282706, 0.8490923759149299, 0.5918751447233739, -0.42052002903665636, -0.2070609953698756, -0.7954943626789525, 0.37777494151866176, -0.11706525171048465, -1.1564230135782714, -0.3492796836863461, -0.9138653926804673, -0.3779860687488482, -0.7439669104156459, -0.655784409892186, 0.7858027103979337, -0.35979680680686377, -0.020328194061967703, 0.1911701505422287, 0.7078579111378976, 0.5536395624675332, -0.6340509780939461, -0.2026699638262248, -0.420074908324688, -0.11692957386566347, -0.4335360341463261, -0.26995692814082006, 0.43383123399151574, -0.018731886994096957, 0.3462316547031062, 0.3228615474011547, -0.12533801655832277, -0.3205418100047861, -0.9073732861737367, -0.1785371247323235, 0.10569262811635383, -0.8104106872762804, 0.31200651087963277, 0.28181474329902495, 0.1771202725928975, 0.8828944766364387, 0.32806223722353867, 0.5436339915652467, -0.14383082371820585, -0.4371105523015815, 0.4431587298335625, 0.26173020044509204, -0.554758455817707, -0.11822198380160247, -0.46191805831427, 0.4096851759183832, 0.49454073512377544, -1.1348141163384997, 0.19544948574594054, 0.33229182349408104, -0.793828125924015, 0.9001781520274104, 0.6142681196174248, -0.3048679721723482, -0.21280421568543686, 0.6298448098613665, -0.05781487731939618, 0.375845644595046, 0.47492380185880495, -0.5694784401836833, -0.2812957621834753, 0.4771623869502474, -0.3022956940212404, 0.14979735532546481, -0.23030302728396784, 0.5363674035415533, -0.02207832291631852, 0.7217116480229604, -0.32407701149906903, 0.20633069591877648, -0.40037262383311706, -0.3843440617399262, 0.7337190804340314, -0.1128024374744626, -0.12047331241543813, 0.5317303627716146, -0.5972481702289131, -0.2986581725330657, -0.7408797084645377, -0.8448878893019239, -0.021970768072115242, -0.6859107460691742, 0.7688149132695694, 0.8302119047828361, -0.4908178920644765, 0.4813008690661136, -0.181730278734443, 0.11508123443906007, 0.48583987928957106, -0.05992846924318503, -0.5096757211511141, 0.4650968279108976, -0.6504611285576701, 1.0863534894684748, -0.14028469035353974, 0.06912893993238414, -0.7299498728291772, 0.7979439182781246, 0.7795080658067493, 0.8222522225468086, -0.4538834037019498, -0.3504951705007079, 0.7643259099472591, -0.2729503171125451, 0.4349254853762321, -0.316534738109408, 0.4837970665619949, 0.5440463588604368, 0.8169536589021587, 0.8826583647896467, -0.750338644241147, 0.2783415263745607, 0.8711314971307822, 1.1321928074024823, 0.7331276357343028, 0.3640905723200522, 0.24605519198503406, -0.26015722706359073, 0.1498994506306312, -0.03737854896606671, -0.5909760711565948, 0.027766190269328375, -0.28669809944171054, 1.0173802470418043, 0.47410741987503835, -1.0717025790613877, 0.2535456880646938, -1.040472702433826, 0.6665064396484048, -0.0625399174389138, -0.4378244170031099, -0.6729448858187634, 0.1638417109466242, 1.0774960623398393, 0.0786809986449901, -0.6930897074889462, 0.74676416431362, 0.6273420349311711, -0.7687037132230268, 0.9812847648659789, -0.46402390081774636, 0.5532986072505004, 0.4105972450931076, -0.29885640354809073, 0.40447066465356496, -0.3380602794416412, -0.36323626866817665, 0.3612867032258682, -0.16102014097056122, -0.04891770785653911, 0.1529994889237231, -0.7322285986058988, 0.3849127322308901, 0.4774801583938833, 0.8324769555427373, 0.6725965595872536, 0.1639104047740618, -0.44652514927361275, 1.008807705476958, 0.18143807701565706, -0.5014563238176271, -0.2536574596073276, -0.4424528752848225, -0.5890388949541577, 0.4840732606256731, -0.714492566277504, 0.6170618087059396, 0.18753621963133255, -0.01599281472090999, -0.3024510426851491, 0.6804874190346656, -0.4598383917875313, 0.04102597085604165, 0.7563814601780036, -0.3175643554506279, 0.08943343306085282, 0.3471869488129301, -1.123117379752176, -0.07640001872801169, -0.2358489820319205, 0.5626222579240451, -0.3952041915271459, -0.4870223033390949, 0.39995196687042933, 0.7614749490504938, -0.4507304815623774, 1.0486136700975166, -0.3169021587991886, 1.2766927498407477, -0.4783234739575154, 0.11763348730345859, -0.5606392663193553, -0.4292183948742006, 0.4933882663708067, -0.7975107346815985, 0.18845246868301602, -0.6765566710897312, 0.1174090247696544, 0.6284374193298312, 1.0887958775535183, 0.38694994121804255, 1.0681956507757744, -0.5427539908325537, -0.337065992331713, 0.12901207559704927, 0.01681968762220419, 0.11271611711843382, -0.48760915459806925, -0.7142475109546329, 1.0955078887398724, -0.5869125682927528, 0.5853685846348158, 0.029440206259100914, 0.9352538154233146, -0.338597437490082, 0.8217806052170924, 1.0337987016566539, -0.34350765280940504, 0.13647638141071478, 0.6905575197786299, 0.9003481082809722, 0.6193850424727222, 0.9079441663311838, 0.6547117600351916, -0.5287050968469645, 1.2869808502012838, 0.03773970549265242, 0.8094351934199775, -0.17082690425096272, -0.6493100966687844, 0.7125063643753107, -0.6519427148747775, -0.011552750425201489, 0.20797501665675114, -0.9571390940309471, -0.13009042244140115, 0.1780326126472382, 0.46858916013646357, -0.4390710712449706, 0.6114746296646806, -0.05591865067356615, 0.6454712021822228, 0.706871008537137, -0.009077298733025334, -0.4931735973090471, 0.034221293870848206, -0.3910834875772108, -0.2638740155497243, 0.9244234810361799, 0.6832025994837636, 0.3813195711020144, 0.7872654862188279, 1.0299956691654675, 0.33383574481744577, -0.5194871292513301, 0.5327787422432527, 0.024096947873892945, 0.03888118197763826, 0.44800093091804793, -0.33380314142229767, -0.1869667933789294, -0.2766093670473088, -0.0888788482656872, -0.03525583424472606, -0.31217845994650895, -0.7211590975366411, 0.6206862815076734, -0.23030734937839833, -0.5486892975002591, 0.507746907010441, -0.5576500319128728, 0.003331705452300916, -0.7640106322280777, 0.7073717868594814, -0.4471949037926605, -0.4657291253487473, -0.37283011581824366, 0.026947542844481642, -0.5540128580877226, 0.29688053553281935, -0.234900863243668, 0.8023531522578241, -0.05489753224967544, 0.7849152686582228, 0.935980012182656, 0.4116806394688927, -0.49449769347942113, 0.5448725528088455, -0.4863765226728021, -0.20949914183383014, -0.1882407831789461, 0.831898896312833, -1.1718663736678783, 0.3390118874545199, -0.07910882615314144, 0.4459845859813568, -0.11233235239178731, -0.808930766711308, 0.5110086749375783, -0.5008536464549347, 0.5940370324060684, 0.3883324429328728, 0.934461614792834, -0.42983308554922484, -0.8403560150762153, 0.783856102176538, 0.28888327459626817, 0.5417485297893337, -0.8645471113161731, -0.36373883718543293, 0.28585388378063636, 0.9130895383175459, -0.6301628611255196, 0.22454094718176304, -0.10116966189014283, 0.9589737203285699, -0.5416512512237167, 0.7197034217096823, -0.22617687916718074, -0.5777692602289051, 0.44967362139996714, 0.2529020682838183, -0.8117906820547967, -0.10567386558877952, -0.8927224505654171, -1.0183772054286955, 0.6762709710359277, 0.2788082518475332, 0.5167384925459362, 0.22102521934721894, 0.7214145010047843, -0.6075989030847361, -0.6025221309842685, 0.29314222559346104, -0.5829575859905776, -0.5726334565098804, -0.6008942612700552, 0.18152703354240282, -0.31724593373379595, -0.38242389230415746, 0.7485670004559581, -0.6636263681439061, 0.5209874175194211, 0.42928701648618117, 0.6933995183387636, 0.056998942058203585, 0.19859167056240346, -0.3112328152403355, 0.8779116993644445, 0.5690923978891892, -0.6777425713273767, 0.1009979810593804, 0.4443802953434557, -0.6298689239901063, -0.45162381216542, -0.8052812495870572, -0.9811971928971724, -0.5173336137605352, -0.5632223167515563, -0.5729237681281955, 0.2910671119288184, 0.8437129314561487, 0.36508908986962796, -0.717962430413412, 0.17192401508090777, 0.9213547427926723, -0.3095788571559237, -0.5639685769795977, -0.9006281761653617, -0.5288445236861536, 0.37076210300369095, 0.10989028859494555, 0.32557658425892166, -0.6812742999731068, -0.5261130104910073, -0.6960786323566259, -0.8686501721832844, -1.028694116377802, -0.528138094306459, 0.21592023347985942, -0.3471342154763449, 0.5046358379879057, -0.2261353309105111, -0.7529735690914693, -0.0324806927486104, -0.8652438461041596, -0.07415332529573337, 0.5330123286184607, -0.7906330026530244, -0.8182763855725745, -0.4888837640811865, 0.9286522899407486, -0.6606617313256498, -0.050092310502483035, -0.4947725192546515, -0.9474241263590449, 0.79740257509803, 0.6309173633944529, 0.7441401296805551, 0.011887085682084948, -0.23725851639974851, -0.14717824647193298, -0.18661075361582224, -0.6213538619919355, -0.4603236051830472, -0.6822113672615696, -1.0007175518936524, 0.8742265448044078, -0.12804973620693733, 0.9273305625500136, 0.01925846953120019, 0.13103269452757343, -0.3688877321611765, 0.9049525678684012, 0.2661541193463888, -0.5955249441228363, -0.7042510935698347], [-0.42414464225504145, -0.3808463843945158, 0.07600955260678921, -0.9794370443439497, 0.3305514597921908, -0.7059504617715837, -0.7734823821449162, -0.762747836366847, -0.38511800536201557, 0.5429799752138385, 0.1447038519430519, -0.9355692621883105, -0.6832997024802275, 0.3421503213441, -0.5846143455989828, -0.4384403793075052, -0.4747980504599201, -0.33216720372549147, 0.4428693487680839, 0.264909542394711, 0.8419438914372943, -0.44892151936495583, -0.2829216180219989, 0.05510325954210549, -0.48609552486325924, -0.8699026601702762, 0.06564955361170188, -0.3344312203503135, 0.6531809335804832, 0.264238624652426, 0.492220486248115, 0.09187836247200143, 0.7534139908119482, 0.7382436952453153, -0.3943182543123443, -0.9280675884676695, -0.944504486784732, -0.9583959273747947, 0.12582352618309675, 0.7611640677345306, 0.7372788757832763, 0.21310518781182522, -0.7493151728929806, -0.3853987475294487, -0.4257261290372717, 0.7299226570223649, 0.452203116012416, -0.46974820985808124, -0.5968807843246869, 0.43040781100171044, -0.5582448512134004, -0.7695027818568937, 0.8060525379500831, -0.7230886141256965, 0.617606044438682, -0.17129084396768812, 0.309251342611111, 0.9730496201583734, 0.357795607691412, 0.20078164421435654, 0.47377635913974786, 0.1519529304831207, -0.020912860776276274, 0.6670694574968896, 0.7381115421472961, 0.06334626757295019, -0.31388732409649034, -0.9517477385681108, 0.029255671953637433, -0.6672846069194024, 0.22466085939620128, -0.1537823771773481, -0.4140428104541239, 0.3634402171700259, 0.15599849925166262, -0.792823097686601, -0.9672502125082627, -0.6561283748303334, 0.7708131174471764, -0.7786852497146979, 0.5962321105156416, -0.3485517604478614, -0.44317038427216016, 0.48074572764382184, -0.45788989147093484, -0.6458137909677275, 0.661823375435487, -0.5366146432870694, -0.583913657512436, 0.5865096024949236, -0.6000610718166326, 0.10783705266473984, 0.35468681172673333, 0.404698285561647, 0.480086953346398, -0.39605220012998804, 0.4773831933748106, 0.9163182007382228, 0.731763533367937, -0.7797809026503806, -0.3971376773229332, -0.5403860759287742, -0.48968543656218777, 0.5766958892117995, -0.16924625927306064, -0.5342310746829294, 0.5370176062085192, -0.06215942348747343, -0.2627361642416614, 0.7146022958895131, -0.016202122599822226, -0.20627591818510038, -0.650752898876829, -0.574143415722044, -0.0685437927268876, 0.7354409757450324, -0.7788934571788264, 0.6252070240989247, -0.8867497407988786, -0.9649248475953771, 0.47418890351324505, -0.2790523774281639, 0.26710956125985, -0.8034389641529525, 0.42005075428171595, -0.544400232610268, 0.17673925375066823, 0.24686711380740184, 0.40417111708539916, -0.02138117364704243, -0.5843588895112073, 0.2597437233113826, 0.46775596313343676, -0.0744318415489781, 0.8774152330690955, -0.1510652088453362, -0.7788595961168956, -0.1635377766967813, 0.9402829761712158, -0.2548328815669818, 0.5525413666191876, -0.19327525271998125, 0.38310190522225174, -0.3750348895342096, -0.9552601980623522, 1.0008122430679305, 0.73674833553273, -0.4032613877691871, 0.7010095354071427, 0.7236411976839457, 0.8394712772008801, -0.15388781745079566, -0.221005940267482, -0.31747680093463465, 0.20267016111674543, -0.004607895735856091, 0.42177474809810644, 0.22232719708876575, -0.17541430364150062, 0.6181881017139265, 0.4129359591386261, 0.34625747818792163, 0.8789398926861766, -0.4195872018886919, -0.4475888792443023, -0.2918127792996261, -0.4468080032788704, -0.3980913977693236, 0.3974269812857143, -0.0375772843983096, 0.2964121613763911, -0.984378539797855, 0.1471305935943114, 0.25522266443621144, 0.6795951289955557, -0.14970953398382172, -0.6573744403970122, -0.8459578172169913, -0.45360062496714737, -0.569811328688844, 0.7185361063921057, 0.4592809003714122, -0.06705780413186754, 0.7958088594206179, 0.5182837566158628, -0.029078419223316727, 0.6544077642274352, 0.255782814068548, 0.9756340089243929, -0.4533404622975025, -0.27484979798907644, -0.49681492930520166, 0.8819568156820796, 0.37299408080623175, 0.9189333770229244, -0.7893656243765301, 0.09334373090265474, 0.1386444338050601, 0.8410585096427756, 0.1840529089622791, 0.9478539793429134, 0.8474948912752388, 0.8763846883691099, -0.37859868319104845, 0.9251334308489211, -0.8554695443314283, 0.06790092905888326, -0.5255807434738854, 0.912249299758078, -0.008910697487446717, -0.5011895847818869, -0.42110793084540515, -0.30795300722095154, 0.3781908494879605, -0.2540947335924443, 0.38553025750689784, -0.6786421976275769, 0.939795704506536, 0.8172410791991195, -0.12185281061385049, 0.689326057172245, -0.11692370782860434, -0.8522028102573096, -0.16606184687091038, -0.0969873412227541, -0.3336910769708704, -0.1236169266350207, -0.6337847464548397, 0.7812584883909334, -0.0313552797440727, -0.7125840199755498, 0.509202901829333, 0.7710512533798521, -0.3695245649857214, 0.6256898088802757, -0.09987497110730335, -0.7045003141681823, -0.27323485907085804, 0.48663612865637657, 0.8277345111489799, -1.1714751710742846, 0.3104381990452724, -1.1301365064684665, -0.9890383595443715, -0.02637413584863888, 0.09864279148288971, -0.7670041804059881, 0.34737866893583824, -0.27632516825237746, 0.1685120016609956, 0.8635446843714871, 0.3823131320396961, -0.9012983446380495, -0.7972961349467507, 0.31457418659644615, -0.6709953107048499, -0.8464800853756462, -0.08913763721680984, -0.07907436307511509, -0.694440120356467, 0.06320360859915812, -0.52600462824437, -0.8274643382870951, 0.15154886460823114, -0.7527596678439762, -0.2470362369725288, -0.31836428157224084, 0.025618436093920602, 0.7042500589941477, -1.0228998469422361, 0.5673787676489717, -0.7625383866923569, -0.2741170537331557, -0.7167001276894001, 0.6580032770412046, -0.11122039772691704, 0.8053440566187506, -0.012752829137439274, -0.031097380064412237, -0.4841654950603123, -0.4622008173563881, -0.2539488370099146, -0.3317936401786178, 0.25275855090902727, 0.7037135607899528, -1.074714750831613, 0.18206251681263422, 0.03081935272371935, -0.9221836235605927, -0.05654365246369305, 0.5053803507379233, -0.10700258237949233, 0.702246634822977, -0.41921453543818393, -0.0649474829500246, 0.8983770078885639, -0.4520741316345482, -0.05835715607447724, 0.16620623185958847, -0.5062605992739623, 0.1921731443080254, 0.18556739800038227, -0.7015082709816246, -0.32083367306538896, -0.10239817386424488, -0.12234121433118754, 0.07516306906269692, 0.48847356111058843, -0.3212412054075619, -0.9216340629314943, -0.06851932735164239, 0.09122993932051203, -0.16787267287840282, -0.44636795576325694, 0.4244673856480102, -0.6068110695523905, -0.17804483632770227, 0.5877496897189461, -0.6515664140847477, -0.3818119024252606, 0.22104576731272219, 0.1752549834414597, 0.3058369639321395, 0.970621733623627, -0.5633171119395691, 0.05684917636508945, -0.9253482913190678, -0.2508569574708967, -0.7356525177562508, -0.9403246674646973, -0.9375315791759112, -0.17070236511959386, -0.9716230523446302, -0.9103635575323448, -0.18205869566741084, 0.14431676565094798, -0.6384543104400546, 0.08038919283054591, -0.5563810449546941, 0.9475661248782838, 0.26443453376925985, 0.03922685107980647, 0.6434393245166671, 0.047249433084816404, -0.2860176064975188, -0.6029317466603316, 0.6976746749369714, 0.23604548776328907, -0.6017766355150378, 0.17548293809510573, 0.42540594362148043, 0.6404449640206809, 0.26514779503831626, -0.041012813699547256, 0.12396598266780479, 0.45578553872959016, -0.714761272890467, 0.24405095879734176, -0.7096667063693489, -0.7891447719731345, -0.31614219949961175, 0.1776089671629688, -0.3858055792498638, -0.24952447943812586, 0.27810011296215015, 0.3437360042053186, -0.06655131655081098, -0.614568584924957, -0.03264820147402771, 0.7972968048777422, 0.10218033090070394, 0.1290349140673832, 0.16010592033909019, 0.7724576347318639, 0.6670813814148328, -0.10907177289306534, 0.3700191424972321, 1.0155703977534853, 0.18611825547310804, -0.5966839841851552, -0.23667597893888892, 0.35424627418682975, 0.04755613222360216, -1.0969088533894322, -0.030162994361998728, -0.676542725050144, -0.3418986934985157, 0.6750244734805998, 0.7272556835257098, -0.22425595181527375, 0.45722829530488845, -0.03587409037865624, 0.8813813963723459, 0.7436840555728621, -0.4618454452131256, -0.8103816278606091, -0.1501737614891818, 0.3024032499514095, -0.4794181860242745, -0.6345764031857141, 0.0733033324031481, -0.8683804399479202, 0.5465247353799114, -0.8815348089316642, 0.5796809485583403, -0.3133006420653865, -0.04087465160989847, 0.98115218296368, -0.5112631774383667, 0.2817176311905754, 0.14210589349357947, 0.8593902914564113, 0.6168051929693962, -0.4961518789690375, 0.22505412485568826, -0.44292900140650354, 0.7634272367353705, -0.6964772427955737, 0.08634560786573459, 0.11580930360509872, -0.4885442926478281, -0.6561357837540666, -0.1844929032802832, 0.9280052086650443, 0.7068811906588363, -0.7357865250425234, 0.46480921277829784, -0.19475750334019065, 0.14685447078401276, -0.8027779651302522, -0.8490552095652877, 0.1777162244582935, 0.42646992192709804, -0.07232917876992317, -0.09101189113679048, 0.6269959717102794, -0.686618931316022, -0.15632528560007888, 0.22066703437405966, -0.3553138158855479, 0.09092344208124994, -0.4122311517404798, 0.6073713985823838, 0.3677700760399526, 0.3797527347953777, 0.31065373924034495, -0.2756533989523306, 0.8463636073558761, 0.9829045373111184, 0.32646904993198267, -0.48220915451132923, -0.002347276053311674, 0.9374236565516181, 0.5062376907631825, -1.2466591174476702, -1.2395795928131772, -0.14209908775124014, -1.5613731220626559, -1.5673506757148552, -0.14560942816772468, -1.1662036125959314, -0.857051697856262, -0.15386632438973374, -0.2638520510037642, -0.7056186701550977, -0.6243103411570449, 0.6468399756365587, 0.8565629848768663, 0.1576354015223163, 0.13093895672891973, 0.693093197154391, -0.3250633954791877, -0.70477228481188, 0.910801617459518, -0.3705288658912132, 0.08978712395180079, -0.20639780877416314, -0.24908003645771062, -0.21506762728570242, -0.055073899110322566, -0.12799797247974237, -1.000394942177789, -0.9932654059556565, -1.2293465153257779, -0.8006131629885701, -0.6713299173824475, -0.4595906581617349, -0.9787439652788121, 0.20761649126579598, -0.6776397068822522, -0.2800334158940465, -0.22797330151060466, 0.5224483111126978, 0.362008473932935, -0.4718915873665959, 0.05307764008594398, 0.09216097474672241, -0.2498884931388426, 0.464327681170824, 0.1269049627266117, -0.9315782780741374, -0.9705441698727071, 0.9042333611069461, -0.37543089450844347, -0.02520297713966489, -0.036143564412327536, -0.44401932971633, -0.657207679117226, 0.6501167136470808, -0.14836322958447618, 0.4464430268270971, -0.39784777980949604, -0.9848397925656646, -0.4313693235828227, -1.5259627950555825, 0.34925931052033243, -0.18392260496577073, -0.5803889653962203, -0.3138324190758107, -0.4755717823813377, 0.23548128821721212, -0.46653918333302036, 1.0715486433689558, -0.11662165807622867, -0.17363533940196169, 0.7463148535138525, 0.7574322726194418, -0.7177039220506535, 0.9530575848587781, -0.06273331199783332, -0.534263466911241, 0.7779390350776607, 0.04345057296719396, -0.40069925240243726, -0.7395172182007594, -0.5453126484926233, 0.9685083121624917, 0.18696863152603965, -0.4799819583336678, 0.8480652306351901, -0.051016763348535464, 0.22861445441517356, -0.8706946602822605, -0.7179331015436081, 0.09044081523403986, 1.031370987748153, 0.1839642550381398, -0.6659030307173865, -0.3630207861061581, 0.3374831799060766, -0.4933578930021819, -0.6715369044652538, 0.30679566812497966, 0.5205756913725477, 0.2824839761256636, 0.11595493945740956, 0.24540871116504795, -0.09942174676215323, -0.3788643350411727, 0.8378494563579801, -0.27847666866572895, 0.8730468364380185, -0.0344484480317143, -0.09172793905708652, 0.2550393216739235, -0.576888693140548, 0.8523506536560636, 0.11426920304164037, 0.7888192020322092, 0.7746896731612535, -0.2003560118259874, 0.32893811918619614, -0.6875023714735405, 0.7260715756199425, -0.4635492095054842, 1.0014767127952342, -0.09019554702942907, 0.03477169673398119, -0.33691351466123853, 0.9812099792112957, 0.6642413682476308, 0.6243845421433148, -0.32430246320700196, 0.22171054026149858, -0.7828522263115827, -0.43928396532159003, 0.012756371231868993, 0.7278135621153655, -0.5825377145902183, -0.8948518799968245, 0.31389417642323286, -0.8601655053201468, 0.7690561627397823, -0.5012791950342509, 0.8713885537861054, -0.4792689829867331, 0.6882020502172531, 0.29686392690644103, 0.8709150107304056, 0.5162383637009221, 0.3244745187135054, 0.6283250440062715, -0.6297691288224955, 0.9571027774346997, 0.2214811653668637, -0.17689695748667983, -0.749199802390216, -0.3221731079983085, -0.5170672899041969, 0.14943362747976768, -0.6877008891068482, 0.7195774637174597, -0.8036645865348319, -0.03959792445946342, 0.07312322674889514, -0.46328884829792444, -0.8309887112045108, 0.39758276390931957, -0.545775751580588, 0.8141239878712719, -0.7688418805318958, -0.8253887115960638, 0.3301888413784867, 0.7288624475225888, 0.6833261299605647, 0.46265426112904623, 0.726060942167693, 0.17050407507823914, 0.6371043208780545, -0.6899604743497569, 0.8624941951622835, 0.1710838629659091, -0.08396752354072676, 0.18917356393898682, 0.4463991599027815, -0.2170528818629367, 0.3505631387644269, -0.0028151534860469227, 0.6821664047671238, 0.269182973484687, 0.5673096862368081, -0.4933437171905751, 0.8273014608980008, 0.9539528552383099, 0.8301228660565232, -0.8069301924159604, 0.2909524435340479, -0.3281656312804548, 0.2938855620754061, -0.5103016199451035, 0.5607059072668934, -0.33466020462936436, -0.16154662067193631, 0.5179883529857425, -0.6159786882011775, 0.3914500927340958, -0.6942875106951895, -0.2206784678935449, 0.22298546637680994, 0.4866011957171697, 0.4074210427238394, 0.46760036771841584, 0.09132495190555233, -0.6765931125184108, 0.28906506056381903, 0.07586678872537102, 0.4295358910280966, -0.42436715753849497, 0.7973541126789959, 0.12362675459016448, 0.5739679501306625, -0.1482027933969845, -0.34588622263998126, -0.5819645628357522, 0.5018393330125128, -0.7414417959136286, -0.7542614607708625, -0.5977688342403641, -0.11326280845276362, -0.8465582913442449, -0.5563878713085447, 0.7580823671160828, 0.023749464076370255, -0.3219567786865997, -0.01797375177797871, 0.538715222314913, -0.2989767756213923, 0.20997936815128512, 0.6299032454124259, -0.032334780756121895, -0.1767850076895148, -0.4448261220076127, -1.0168751247591872, 0.5806123459984663, -0.049235872888539346, 0.34451394283701486, -0.48922610282769174, 0.9297525981201183, -0.9521380732863408, -0.061652965437387186, -0.5420625473935365, -0.3743059129162498, 0.13280206165288547, -0.9766655814761233, -0.155913232893187, 0.07746971889476917, -0.6744362985580431, 0.9114321841040747, 0.47800832934446985, 0.6914769917498174, 0.6662658607902717, 0.1639683895524043, 0.5801765406171895, 0.12410105045105828, 0.6663527861935963, -0.4223053811225525, -0.7126966095979926, 0.8192055635370898, -0.19015736217173157, 0.8902870710301821, 0.4993676094069067, -0.5917479041404798, 0.6399375489705317, -0.5263255738092717, -0.2676076969741653, -0.7709569372622679, -0.7107143668507604, -0.3659254188705974, -0.2575886393562419, 0.38994244194138883, -0.9050098547047654, -0.9193339260738744, 0.4948026679405054, -0.18839421673695322, 0.6354009272109012, -0.34904574272837935, 0.20419363326874918, -0.7739585135165555, -0.8614926837445299, 0.38694491375917855, 0.30768216563679557, -0.6289834680299635, 0.35545272669596856, 0.7773213851534858, -0.7128114822411413, 0.4248584576545231, 0.8559766221055437, -0.8918245936908339, -0.7251204228021003, -1.000359458597661, -0.6014615100673703, -0.5285790241635229, 0.30798604902753807, 0.8768237262255346, -0.0420910670187673, -0.17438232181865132, 0.7732510622096789, -0.1444297556693077, 0.1039659794163954, -0.5981584347234525, -0.306590092765297, 0.036884091676953154, -0.30414412415973, -0.3581567021482304, -0.7095971572839347, 0.4156162359482856, 0.7476893155253337, 0.7009465630973863, 0.6017037402591492, 0.9215667683585632, 0.9228787379206602, 0.11859111203009921, 0.6019045000976029, -0.11668939784902342, -0.6679942803432152, -0.9399062527312438, 0.11338233629781087, 0.2877334248607985, -0.21989013741151361, -0.6166255314752112, -0.8612918765760045, -0.8075614797043458, -0.6209240746667144, -0.8004162437513003], [0.0864683172748617, -0.568074242103829, 0.3765716146430851, -0.9245695618217342, -0.3494309133215736, 0.27660216621116707, 0.9871507518571392, 0.3714371936068743, 0.12505154397867368, -0.7641972214003794, -0.11967874594486805, -0.3743313092337657, 0.8648516967879623, -0.08465867756200243, -0.04148396134183007, 0.933485211576463, 0.43889187961270215, -0.13419230137208582, -0.2106234421321369, 0.7084311624861201, -0.4285492927342187, -0.4083394605928268, 0.40546628851998157, 0.048501878740464965, -0.317014516767985, -0.5131798626040622, 0.8267270631791193, 0.020048335663924277, -0.42585421526772316, 0.7623382476652636, 0.49210817550978936, 0.002930701330633001, 0.47634926133405053, -0.5070020758584839, -0.47067638623321584, 0.3880722357578164, 0.35184177317631915, -0.6143942302932748, -0.5311461254061448, 0.9404791741097211, -0.7770531473414701, -0.6537798352184693, -0.18285059741573115, 0.9554440036355067, -0.8019371856086235, 0.9974305509895619, -0.336988123754368, 0.2724468369472135, -0.8830773314127859, 0.618669428585623, -0.8199227088872885, -0.572233190552456, 0.766985174646547, 0.8635430530918109, -0.2133595954245171, -0.2823366585436682, -0.009287052639668891, -0.020667697944078967, 0.5966711700043783, 0.2983957041064961, -0.7624769016731504, -0.1624843547315463, -0.6825561352051815, 0.7560513084736968, -0.7531127731427606, -0.6748929991102772, 0.3793659965728445, 0.12819322244663203, -0.5865883839099462, 0.17309470122451398, 0.7756901263120998, -0.44651599243917706, -0.08904206960121107, 0.2273240438060746, -0.656404268849231, 0.2526653014891269, 0.6700160284479665, -0.037729830750932364, -0.5510564115006618, 0.5970492628846018, -0.38316334799349766, 0.032581678481145446, -0.5262601129403017, 0.8260768398823988, -0.4462216760349269, 0.8273457335940053, -0.032964875142559115, -0.5638996217161084, 0.5536921349950296, 0.7103316292179662, 0.6936867139456722, 0.07187852321791452, 0.3505993615223767, -0.2675309357123617, -0.41358963006240756, 0.5937667204417887, 0.5605978657506131, 0.05905692932596249, 0.11544344734897308, -0.3155307861264719, -0.6863339396086956, -0.0652228839004398, 0.8296414033193454, 0.48150772797874164, -0.3112282430563358, 0.1716666735585122, 0.7514948712303703, -0.362413204853683, 0.7160007536938316, -0.13290507918006747, 0.8967364124589697, 0.5394976372132783, 0.769669606765166, 0.7100548331228512, -0.5282071533394898, -0.540804413219477, 0.7224838247230729, -0.8247145448530366, -0.5880170224030762, -0.4857384149512305, -0.7597212552756784, 0.004130974122270062, 0.2853767652833062, -0.9732913999625391, 0.6824546625022629, 0.7794339457111654, -0.31747304746812655, 0.3663284469496612, -0.29648258484343865, -0.1682857089688941, 0.29445040945712164, -0.028360897951306124, -0.9847461051651162, -0.04728397421878303, -0.5606245811535479, 0.3251527520938541, -0.4602029838657758, 0.41336273423594216, -0.1074269261204946, -0.12865619803573067, 0.554569300162653, -0.8756946974479014, -0.23183326509505817, 0.566407998341382, 0.1978935525595303, -0.9460195848710049, 0.022255212700584833, 0.05820702016902142, -0.18008664476388148, -0.9482275208674383, -0.7513880467121887, -0.0710705454776032, -0.20104123921875577, 0.05761380291840383, 0.6183541330411323, 0.22594093528504602, -0.6623366271362165, -0.30227023840163514, -0.4339407515230383, -0.5302034034011888, 0.03685852141903259, -0.8053472188585304, 0.23461531732635585, -0.6373926203555911, -0.6763551889102687, -0.8507506680049379, 0.6599132320723002, -0.039044822420132866, 0.8076789022076372, -0.1914806907135257, -0.16189374567473339, -0.8432767975833302, 0.2218572732032883, 0.33418066090238224, 0.16930820677490785, 0.5569113933609885, 0.8057032450138798, 0.4838115266417292, 0.5450128248542891, -0.6057065020660473, 0.26164812572578877, 0.8799532172357166, 0.551865514176118, 0.18017539603853233, -0.16787670524853962, 0.8264233131434436, 0.5421704864749366, -0.6714543564326154, 0.48952479223087353, 0.2199565634835839, -1.2863190570094485, 0.2013027199241515, 0.45844453744716784, -0.05523368445640417, -0.8103606539507974, 0.4129661971326763, 0.8333644266539109, -0.250123839955697, 0.9310759995304749, -0.24500957013272323, 0.16797273512144922, -0.24618676221051858, 0.9193540983114783, 0.16912863112927037, 0.35785195606856113, -0.18575824856076487, 0.022155188371971214, 0.18359489453122985, -0.26202116681432525, 0.08379707677889037, 0.1681103784405113, 0.7611071393572719, 0.466354183285313, 0.6004187040479163, 0.3062987145485857, 0.5247659439629835, 0.09417595281611917, -0.648374768345912, -0.40398943357715833, -0.017743465260208424, -0.37934834267415474, -0.18715597851725205, 0.778465122776742, 0.8206384594417284, -0.923162863746701, -0.41185400378489717, 0.24626088510877717, 0.9537446940895934, 0.4647789511398489, 0.7494911776781611, -0.6594185329587309, -0.36823313429461896, 0.6580353680647864, -0.17819305210182088, 0.5938040306013611, 0.736002323545469, -0.10309666799825062, 0.9823505290154884, 1.3303212156645023, 0.3684545453981053, 0.38991817886810454, 0.764787489649892, -0.35539641162061963, -0.5134569677742774, 0.7423713959242308, 0.4722711370179857, 0.4398908723861843, 0.23996021911048718, -0.008069084632781762, -0.6198386198108004, 0.6140506884210772, 0.5129683975534157, 0.932767193086319, 0.9633833392118196, 0.21939472090676385, 0.47279101498575593, 0.7531737260737432, 0.4790678305724123, 0.644311480735587, 0.8331954414980915, 0.6192789529694881, 0.3419842290025514, 0.8559734033968748, 0.9846274838591452, 1.236035667057308, 0.03324353190390614, 1.6103634845644672, 0.5701046153898118, 0.6604339862708613, 0.6209672214579313, 0.4125937685702793, 0.7201169476903538, -0.3886741788514023, 0.609709734152549, 0.6098489022407377, -0.8404004176996058, -0.5757496795737341, -0.16593836796722047, 0.8577824531857573, 0.9287935418893193, 0.9527935024756735, 0.3547795827121728, -0.08160291828998298, 0.4469637782916485, -0.5570243214602777, 0.5400949899074151, 0.23427944947676194, -0.23112598113838803, 0.3689912310238722, 0.35850113753609486, -0.31437602675717186, 0.2104240791618717, -0.3849651820099489, 0.17591076968346375, 0.7454404046451724, 0.760207391633425, 0.7774570879890931, 0.4775207226941785, 0.020995575437061702, 0.4623254690070478, 0.27432307958997726, -0.279566492112053, 0.2840635177561941, 0.16141721431742775, -1.0183971994364311, 0.9514503279309846, 0.2930096066864236, -0.19352023566982618, 0.2024232620509259, -0.44873600972145006, 0.9613189369667113, 0.5790180393316099, -0.4020835232166882, 0.031846564931625077, 0.09903454263505115, -0.5025050834221468, 0.09202323991084545, 0.4249625627652509, 0.26423694805980713, 0.43718435157204105, -0.31864569994863545, 0.6059292080858496, 0.9789809074798754, -0.43006787875126284, 0.004938459208348578, 0.20980270080841706, 0.6218864089630326, 0.5342259421949799, -0.2496741128890322, 0.8279579165093647, 0.5068206820531364, -0.6607807894964798, -0.7060785450378257, 0.05560448372318017, -0.40002955386859756, -0.013380350000796577, 0.4421550530046951, -0.622990890602974, -0.03811742272254424, -0.8517459870208413, 0.9360020375327479, 0.8183828055884044, 0.36584873136297913, 0.6993091431569785, 0.059314244262094966, -0.4284572469363052, -0.7606477101373604, -0.422306148102715, -1.125411086136705, -1.5047080368721737, -0.4463237238834097, 0.38427770932419997, -0.6754870412977604, -0.2649104101160763, 0.6136976760805648, -0.6372593650682392, 0.5116335767785726, -0.20465505816114685, -0.11659919050816975, -0.7683083224936801, 0.11561222053090611, 0.17068760568855518, -0.03218155416042022, -0.4976911283116375, -0.4287820815279464, -0.0636496635316428, -0.377159329790525, -0.021917932131693414, -0.34478002680766157, -0.3008959669966916, -0.13376831540604656, -0.8749597552996962, 0.231441310218697, -0.22902168236265608, -0.5016114489895527, -0.8507265962712793, -1.342212014042934, -0.6850607572820563, -0.666344573159285, 0.4312354995252125, 0.237796315883901, -0.40040406923573135, -0.022394510660411447, -0.2707411805537359, -0.4116786412231323, -0.016322788814159203, -0.14358264606069826, -0.2401525914110113, -0.8481685946987192, -0.4741065554491154, 0.4691117757056969, -0.5368065069545537, 0.05180156329376298, -0.6526724079418518, 0.20444381885560065, -0.007071611877316494, 0.8523612012857212, -0.7803570071425491, -0.5221307865760193, -0.871793434051827, -0.6710660261626253, -0.887541631831881, -0.7039356058744264, -0.2307781999565578, -1.4567105938265572, -0.30252102436082734, -0.08055696934975054, 0.3638290262969443, 0.22890084927897694, 0.22212821374348632, 0.5038332476884287, 0.4189395210222538, -0.11456674246321222, 0.8681516365791128, -0.5819292559491792, 0.9618373991092731, -0.5569332801311883, 1.0039323876569757, -0.5401980700254688, 0.9684493718367679, -0.07430137181471144, 0.8270162539491881, 0.059300944484412796, -0.03829021306477384, -0.1462356906905707, -0.7678417877378865, 0.33354492825778626, 0.27215886275924484, -0.025693601185791375, -0.17037267585916238, -0.5404901068626745, -0.8080409070803851, -0.8320423642613859, -0.39425782704484974, -0.17783320807271077, -0.3393241847780654, -0.6391147411067826, 0.8401252855846456, 0.8797353958674303, -0.592545285051904, 0.20496438510434814, -0.5371095960265462, -0.5484376676070369, -0.6977490448404918, 0.49741847321711186, -0.2546240239062252, 0.5026732644265113, 0.8322636820465803, -0.7163127436031567, -0.47753767051710366, -0.42559584314727616, 0.4216672435676351, 0.36808731933269156, -0.020211976072732226, 0.76045591936837, -1.0139890361530293, -0.46090512538281336, -0.19959823829832218, -0.3069987553486455, 0.25647479227482844, -0.7453976114496839, 0.40075693821365277, 0.11296312679968391, 0.14445018616836758, -0.5705674929333504, -0.39102855687609267, -0.09097408846460082, -0.3166922045682877, -0.36142998375806384, 0.8224712369054953, -0.43158650121991665, -0.5327570620063691, -0.30261834416278854, -0.34781985498677426, 0.09978813560413206, -0.2936552029001046, -0.7922413889648083, -0.8011523431222606, -0.1674916287669237, -0.4251780183295393, -0.3524002870782474, -0.43462536727868567, -0.8932026390452902, -0.9248483560185773, 0.3832171685682356, -0.9878212098243542, -0.6483975790743366, -0.28410096553412706, 0.19121181612172833, -0.27751883440043834, -0.16784713453220848, -0.31886647833011217, 0.5105418664311857, -0.5016437882010305, 0.5051731453890954, 0.002449608270057501, 0.007432854559734946, 0.2689253231361212, 0.6727411604014317, 0.5735575012323114, -0.15632413090053623, 0.8065488381147135, -0.6988343177188999, 0.2531710932391975, 0.9000221530661131, -0.886191961263497, -0.6111541224553325, -0.6736731254337301, -0.06109338958037404, 0.468971981398146, -0.8968215351069387, 0.10839144920681915, -0.024825325703375235, 0.11399618771112609, -0.8747233873073135, 0.735141963903701, -0.19008358274321754, 0.4730457140117652, -0.2664281961805105, 0.0895181825082438, 0.15523067555476266, -0.23779160468620805, -0.6580348389087339, -0.19267410017883202, -0.6863117625305869, -0.93960551218419, 0.7324114256006518, -0.7597463658992404, -0.06962782456812316, -0.8854217624530428, 0.24993238215327765, 0.9612161552189726, -0.14471969310436333, 0.5205829151198572, 0.6999322572019723, 0.09661604748459907, -0.6125287302729092, 0.7155234977576268, -0.9368554118413571, 0.5297259466079496, -0.2697793140978283, -0.16815122845922995, 0.4224986400307256, -0.2717696117494822, 0.5226920520455338, -0.14032202302511584, 0.5501711917406646, 0.36776166200130883, -0.66455891244464, 0.36266566738423617, -0.33565721035006363, -0.8081600411715084, 0.5938236909485086, -0.223068273398832, -0.378290058856604, 0.8958668656103876, -0.772530854125643, -0.3133768551443585, -0.9628942955499119, 0.729809199402602, -0.8292876261736, 0.6226721971896135, 0.8994719933445574, -0.4297047658827218, 0.7803974982953179, -0.8051117259845706, 0.4473161605972792, -1.0624099322045604, -0.2688894472695383, 0.15006491587728898, -0.681129581329753, -0.6449777295132958, 0.225163888297951, -0.20801783598580442, -0.43391105354406145, -1.1211734015012913, -0.34499967020773864, 0.5881600063727549, -0.6045386461442083, -0.09652883246731579, 0.2944357896596918, -0.7816627733476034, -0.5815310932744391, -0.659183311355738, 0.9982580129725016, 0.575656247188677, 0.4639618441807865, 0.13456109147995798, 0.3399605530321163, 0.04087970667337625, 0.4365703104465458, 0.16166239787901204, -0.06591612702636197, -0.051404938042327826, 0.41778156921391096, -0.9492968369778712, -0.32208759945130433, 0.607794766945956, 0.7643569240719981, -0.794065250842255, 0.20397821387580803, 0.45719993166318956, 0.5653981948858879, 0.25583412305159214, -0.507842049164452, -0.7646002312639697, 0.4414378613984823, 0.4764691427213622, -0.7835119976678431, 0.5799148724696253, 0.637884653270769, -0.22711339273547285, 0.031000342430268675, -0.19596642728585667, -0.5808871395990467, 0.030871529677048558, -0.977721280578069, 0.7746557529648249, 0.9647533762967943, -0.7603001722127056, -0.19707332716253326, -0.2743098797214694, 0.6296913369174498, -0.7573739525669043, 0.15508098462941983, 0.31495617443529256, -1.0662374241278514, 0.31928263188494066, 0.31413586657347037, -0.7343751793256674, -0.2882328152977362, 0.24204359458631367, 0.546599171834846, -0.5555381801689364, -0.6368355520329977, 0.039467420786421854, 0.8878229331229384, -0.9155205660700276, 0.38911698974178277, 0.431851120899605, 0.2756356071656528, -0.640084750052821, -0.7648149910896206, 0.30699923064766527, -0.4699045372049502, 0.8052290852283037, 0.131886642778353, 0.19542518778637608, 0.05481131323660368, -0.5399270605677445, 0.9366648910368626, -0.41606964916860645, -0.02337887050845674, 0.3388467205453459, 0.13814873902207447, 0.4623886577964562, 0.5920731155072163, -0.627913562784183, -0.540490743321478, 0.807220506573757, -0.4335605548665781, -0.42760289281752367, 0.1719566693480642, -0.09057455516580137, -0.9319637260359456, -0.8116514971654032, 0.5049156953686904, -0.5137136265352861, 0.010904567744704673, -0.7969237007863658, 0.2294525219382219, -0.5086682647029339, 0.9885202018642469, 0.9119645077984917, 0.7221740326779139, 0.694170205913748, 0.7926282999882062, 0.4087825829857729, 0.8976769702204385, -0.2746174742173392, 0.5147420899322447, -0.15975584279251476, -0.5132744240774141, -0.7016437512328673, 0.044337752676598986, 0.9129164217408638, -0.5220593741567934, -0.8094186713107321, 0.6914478775000659, 0.38915866090014106, 0.18794330361011208, 0.6025084999279444, -0.5033687662811811, 0.36213573626386186, 0.3608040315851598, 0.8771486924800888, 0.8394308765525579, 0.8368864084891645, -0.03618066822058769, 0.9168731848433676, -0.4163205449694274, -0.6796178137880564, -0.4387892949871888, 0.14877231770143076, -0.5281057853589203, -0.3325557069336017, 0.42740789784387656, -0.33392832604051026, 0.5718992105182698, 0.24066774790048537, 0.884806568562387, 0.06530355726473025, 1.1227448362022756, 0.6787215546794715, 1.1576284726456663, 1.0571379365676574, 0.22639513009809648, 1.0441166323280797, 0.3621154230717097, 0.21238609834982933, 0.12663359072026448, -0.31253597874679767, -0.8061462073192829, -0.0957060806147649, 0.8125308618323936, -0.195140438520297, -0.025262469117349303, -0.5321399670412752, -0.5775129497056519, 0.2610809824047313, -0.511083943907402, 0.7920140344646259, -0.5059197188019782, 0.45318149986181094, 0.442243387979714, -0.32660787967745203, 0.5430111642981407, 0.5389240138135816, 0.9671620938584974, -0.4946526522696644, 1.155708541104708, -0.7188021082790829, 0.5497628212572728, -0.32642973967830713, 0.6083108281086856, 0.16287991639751997, 0.04027546826728993, -0.447799844063773, 0.1261575682222682, -0.6391044532877583, 0.5618586179446394, -0.46118763091028414, -0.603684556310668, 0.3034687863092974, -0.3168098383762534, 0.4284380317227756, -0.5366851860282618, -0.5771918985771947, -0.1501664472782116, -0.8520748655557253, -0.4559945421162726, 0.13002692726596496, 0.4902264907658212, -0.943927180993047, -0.8274497206464876, 0.6969486862511735, 0.3392724933264145, 0.8522086612443518, -0.13344087013959302, 0.4574535787112184, -0.24808184345709167, 0.8805959267615968, -0.9329035762217966, 0.7177902436270601, -0.28149937176283335, 0.09916830654754404, -0.1522246476347258, 0.4940952215788767, 0.2989061428572143, 0.0987206450347378, 0.12809886121594327, 0.7093998788111824, 0.11655602521557329, 0.8268694725984576], [0.8602022399626446, -0.8987308531188962, 0.8066190611567803, 0.7371861694080886, 0.9295985758990162, -0.7587380345631303, -0.11543193216169367, 0.05626590850665303, 0.9664462713643611, -0.09485592143146104, -0.8056148604892936, 0.04434197390729899, 0.3394133992141741, 0.467464765156425, 0.660190879894893, -0.3172247585798589, -0.4015668784600319, 0.4362989112421174, -0.15149359588084854, -0.19499819953901287, -0.6553449845172814, 0.3859239622713948, -0.6047648490366322, -0.5308483247047948, -0.2161478083607884, 0.7555320546209856, -0.5655931380624377, 0.8876090543250956, -0.699283444450574, 0.7841306353085575, -0.3300880374120374, -0.7285713128906239, -0.7177209343337265, -0.4161065992167473, 0.29217731808406283, 0.35511709160728977, -0.48843189192555875, 0.8133103988465396, 0.7799654496792535, -0.15526156079712194, 0.7017782165599292, 0.10625630116023226, -0.9428489200418344, -0.9032337500253486, 0.004927892937189232, 0.4763181453517269, 0.772022004955572, 0.14483663247787626, -0.009615808355120683, -0.7520968739906969, -0.05016218951421899, -0.8790128442654483, -0.8750177139541297, -0.5610363788367416, 0.009663224627699751, 0.5972062046630915, 0.7714743309054126, 0.8268004102754545, 0.08487147262768535, -0.02249800361609406, -0.8557028106837254, 0.6787831701455496, 0.171522452725774, 0.5895470852517616, 0.8513678146293056, -0.5939542933495909, -0.7278348576647208, -0.04715307025877596, -0.01314997308323529, 0.07264267837540477, 0.21570925410819533, -0.335992972806799, -0.4717131462478643, -0.27362574378514254, -0.34841440987227806, 0.2180718208352388, 0.7733802667290594, 0.5866168585979501, 0.5199389139301858, 0.0631654905318245, -0.20259101784231498, -0.022686091296590282, -0.6521164835971216, -0.0025760897345112888, 0.8657382710995702, -0.5450285362034422, 0.4219151288446956, 0.7205684656977124, 0.8786684647262599, 0.6301024748093648, 0.03200934312556795, 0.4776628036809486, -0.22427666341218466, -0.12406363606519018, -0.4896221878040789, 0.5609622160719867, -0.7362364691098073, -1.0033066319520494, 0.6778888876310077, -0.13069378984505828, 0.0900150722967317, -0.9406816229631092, 0.5826680422426124, 0.7207936589516926, -0.6109190052064641, 0.8686784553659803, -0.05642397499284135, -0.20262094248677862, 0.7279656435330355, 0.8631412300042296, -0.46992382387502524, -0.33842987214408504, -0.18666755118870126, -0.7926968906695897, -0.4819367667357254, 0.7596549205112888, 0.9334235619773977, 0.10134343311533571, 0.15325881409046826, 0.6739629006745584, -0.5214731764792698, -0.9559593309171637, 0.8431534490150379, -0.23337978655119535, 0.7793174021927058, -0.42979440060309254, -0.7409024862186346, -0.3124603697907252, -0.6755496969641255, -1.0175705053137998, 0.012263490331056602, 0.8598070812860975, -0.7979344941184817, -0.08844694691013785, -0.8401183150980556, -0.16364575902123854, 0.29966003335345803, 0.26940311746639023, -0.16077764286190901, 0.4482075564999448, -0.4237432025457424, 0.5560150996199911, 0.9619497378947978, -0.22687144285908428, 0.2552227144734484, 0.9099427736020402, 0.9130799635318585, 0.11300094445073212, -0.8816752074056152, -0.30763021357999576, 0.7841753420338256, 0.7901385092822997, 0.6071160507330253, -0.49154587972560343, -0.9840638585790982, -0.7860831616195951, -0.27723515329114373, -0.044163691512227245, 0.6688865164796868, -0.6560434262777824, 0.29584449399675933, 0.8728159648987046, 0.42906059012495423, 0.23757206350790813, -0.7491403625875331, 0.07809063448899681, -0.3104383650525136, 0.5293906453409964, -0.5006067490585424, -0.6015063217531462, 0.6006818294580021, -0.9581388904536075, -0.9209715027692458, -0.12862148286681238, 0.19583526103934548, 0.0005443415240389436, 0.3334279748066208, -0.06223237405224965, 0.3251151585452387, 0.8291223230266457, -1.0600081096236336, -0.5603670397304976, 0.1680193979588843, -1.0253620570206483, 0.1958799370417619, -0.03141291773148017, 0.5694956075435842, -0.7927849378614632, -0.4674151286830353, 0.3469896958733673, -0.35019023282908546, -0.5229190413595408, 0.03197596600503755, 0.7304065265454761, 0.2941596171546859, -0.03783288684621986, -0.3507896935690311, 0.6029228296605611, 0.673307512377483, 0.9709211752469035, -0.3344469902342569, 0.7829272251745703, -0.013916357216961349, 0.024764429262471986, -0.8065663839294951, -0.30297795709773195, 0.0781286727126979, 0.7346725964952433, -0.6229380514551972, 0.8774585942529439, -0.08999336487425258, -0.5632451544462901, -0.7193771423521631, 0.7065263827601855, -0.7900664746401911, 0.2875750954603694, -0.546141623267225, 0.22829561411687235, -0.966506251014193, 0.26539559528925166, -0.9541166817438549, 0.8656578516688377, 0.18252244561615094, 0.3786905412925994, 0.0031719160598646656, -0.9311109124781171, 0.5551803791923655, 0.3733184858743308, 0.9057237096567712, 0.09775465455084387, 0.08252267988389698, 0.5296544011796198, -0.7159773988805102, -0.07189987295527092, -0.6476058137952131, -0.8904550906702398, -0.373997175517391, 0.29842148741869406, 0.7998710416407635, -0.4357217639315257, 0.6145091314527824, -0.8063091416914103, -0.543557951987316, -0.7827957573457475, -0.8563944446188686, 0.5008450796187561, -0.9737569187175615, -0.16131642339327437, -0.12475227686678239, -0.8622443241501676, 0.7469766284489514, 0.20230953618604255, -0.6971808061302085, 0.21747807551759363, -0.5255051836502673, 0.7874938696522196, -0.11969670910445113, -0.4476091343580006, -0.13405917104846368, 0.557795200641973, 0.819279929478418, 0.8312414906475487, 0.5322011298023881, -0.44775277857457774, -0.4524862701537506, -0.7035987036760672, -0.35345348736622056, -0.8063494813758053, 0.17794520365281083, -0.3785480589656139, 0.34851946221103536, -0.4433584893385844, 0.34468695395866006, -0.10408688147505342, 0.9393598569522933, 0.2130232904232145, 0.31278394930418535, 0.9615557088356295, -0.43034567528359086, 0.8211922977083339, -0.9993238184434816, 0.12698094641985222, 0.030591323930308355, -0.1701058569038395, -0.8656162886227258, -0.5381030704013683, 0.850057176039803, -0.8826689099589925, 0.06403902944913115, -0.8349199130037411, -0.464247419157349, 0.7707151567030974, -0.568823807348918, -0.8282168896967188, -0.42711501426025134, -0.5520885964565982, 0.584002122709419, -0.36670219082299066, -0.11948995430819176, 1.0169635733990507, 0.5792576041478963, -0.8282450442937876, 0.5609585682659513, 0.9987213307426729, 1.0332821278905409, -0.8986483488271911, 0.06676886469434232, -0.4529164538139368, -0.7334335265767145, 0.4515488208839046, 0.7794183550496321, -0.04501856080634967, 0.752335203416497, -0.09489165222188399, -0.42538977587587035, -0.2644581697593033, -0.28052228184869415, -0.7214168769467837, -0.9640402328765996, 0.8245458497743071, -0.6980768176529859, 0.4011125217073601, 0.47671608988396874, 0.583011489625775, -0.5548704965806187, -0.12452858756292062, -0.8457915407618327, 0.9058564978008723, -0.4277979114516104, -0.9238101254335092, -0.6370429900518257, -0.46751514620878704, -0.857581874502012, -0.47901235672322895, -0.22062000188315373, 0.5558612393126895, 0.9952179917124282, 0.7656222843446544, -0.9558389251220188, 0.32935962257150486, -0.6050802021615826, 0.6892743230436825, 0.0019302676008583184, 0.36617622954617096, -0.1264797258687584, -0.6085562838199609, 0.32142863229717117, 0.5870507075857431, 0.6789722773552147, -0.7972653273276104, -0.1998778868326167, 0.5988806472671863, -0.20192580475175984, -0.06283827059227128, 0.13922747829934876, 0.36528862120048566, 0.10649141308368137, 0.8383855829666738, -0.32968677665273394, -0.9928902809288082, 0.8183424006152379, -0.16937728786007838, -0.4990246488418334, 0.8988389570239632, -0.6208964301058479, 0.09804466054658376, 0.48118189688770646, -0.42157774840568124, 0.7100752854924218, -0.8885545107214693, 0.6076377285308527, -0.003186893253083583, -0.527780912850068, -0.9639531639274272, 0.49877750147033384, -0.5806406094187464, 0.4064366288416541, -0.44148721806064956, -0.3197099668411878, -1.017431836719719, -0.7049407363582233, -0.02264210329306568, -0.8658096729646139, -0.16310280636094812, -0.7326898066370557, 0.8319813867110325, 0.7556265574163781, -0.2927159305001806, -0.25655184005704335, 0.8573156092059522, -0.34962377705486575, -0.4539262521373928, 0.007475989941289063, 0.019431890281132312, 0.5610998537880908, -0.4671061968746243, 0.23946582801167654, -0.6554319805865723, -0.7149328098763835, 0.48488663205713983, 0.7017888499777913, 0.7233665935397416, -0.5441894493771885, 0.19469829431104294, -0.20105184271035195, 0.7106874357882245, -0.02776124437584263, 0.797578909511996, -0.5225774021995518, -0.9997921745354473, -0.46651592988793844, 0.8794279345796706, 0.4470694989791738, -0.4165669260418277, -0.3793935175868785, -0.5808923951884916, -0.07147896132245699, 0.5722477692177008, -0.889385293325742, -0.5045999357968687, -0.7222077536222082, -0.9660744973365846, 0.611879567631865, 0.698446204730529, 0.986073923797095, 0.13199281677942198, -0.6765871100935044, -0.6558029018335527, -0.09920091756266626, 0.5309461415236171, 0.7665760406727617, -0.5233334844981684, 0.5157249109074925, -0.48357169605464756, -0.697515262800775, 0.759696206953006, -0.38748292530746414, -1.0107608700818105, 0.8784701362364103, 0.8051585613556681, -0.5361556926267015, -0.7898094764091982, 0.604665873833067, -0.7406249660391163, -0.4443204298892198, 0.253007331054907, -0.8780188515688245, 0.7447079181965629, 0.293418926341924, 0.7483015489877545, -0.23975586876427962, 0.39439644709616367, 0.6659008055133129, 0.48368413531168697, -0.9453286375262139, 0.8439376605085291, 0.1067823653743755, 0.8344197413863143, 0.8502663263356804, -0.30203106128988577, 0.5682966209593654, 0.31782730740169035, -0.4754851357876352, 0.7809937320659719, 0.3207577937668971, -0.6942160224301828, 0.21867207394864616, -0.8994266045314488, 0.2320867787464842, 0.7399962905866566, 0.5455392417497315, -0.6390877530935348, 0.4850715298177813, 0.9942516311212501, 0.6516971367222254, -0.21156369837744463, -0.033440666097539484, 0.08852813379872293, -0.8348313079030913, 0.015189992776831326, 0.664805295591294, -0.02360145942986504, 0.7403526323053491, 0.7856473816871457, -0.5809062083459029, 0.6003636912005569, -1.0218714386195744, -0.2607356124150203, -0.620541267374236, -0.6943515923602518, -0.3820847407842418, -0.766223395483668, -0.9034800685463903, 0.357685035645863, -0.5442231420810408, 0.059806277066606385, -0.8221866617831994, -0.267225129066561, -0.13757367886971913, 0.33566723107996776, 0.3499309933982336, 0.463244996263089, -0.16440211584297085, -0.6309713137888933, 0.5379491509336918, 0.9135737262853114, -0.3343150103302943, -0.2931968778830546, 0.8166761566335288, 0.40745464060868114, 0.730627246433479, 0.10769965071648228, -0.45969180617594224, -0.30933066601557907, -0.05239139759525154, -0.06545485974621063, -0.20603549971775595, 0.5795810471324199, -0.43035594679978917, -0.5968699757718696, -0.7264278385780439, -0.7109394221172858, -0.4402891026646053, 0.6839796737553381, -0.40166397583704333, -0.889253801434659, -1.0252240144810085, -0.6302218314371677, -0.7451645132253064, 0.2127321078246439, 0.9438133896077836, 0.5330138665851695, 0.21295210656007146, -0.3474032556573761, 0.20038009527067185, 0.21166069477707034, -0.27329008572072705, 0.11778692218660754, 0.06351084860195821, -0.5673668882718116, 0.1639447211189336, 0.10960228931827053, 0.5044447580134287, -0.32540422605986535, -0.518130199789683, -0.15400669315999718, -0.14360449933174177, 0.12806607015706453, 0.8628368332884063, -0.4247271536598692, 0.2286494922189036, -0.8476375231304953, 0.5404281090118506, 0.6889267162962618, 0.390347495178263, -0.4558398125767601, 0.43124880434107604, 0.01545206898851294, -0.3867471404905793, 0.6776865714897714, -0.08238116443242727, -0.3926180861380336, -0.31364690681117596, -0.45869399503812275, 0.6926674378218175, 0.7955677174330318, 0.25165188871506894, -0.7071973598235499, -0.3747787174140472, 0.7412380265272867, 0.651486883394571, 0.8646263726811028, 0.3086875113772532, 0.10008370181976604, 0.4682121722489562, 0.3931121211620341, -0.7812965796287247, 0.22039676961354324, 0.7097174308990654, 0.8427957210752836, 0.7403379325192975, 0.13093725280178495, -0.5990904808612444, -0.04218847667729255, 0.5516629839512024, 0.88035137127298, 0.1411666630544407, -0.4497455251217748, -0.8473750367674109, -0.802981287563112, -0.8165431764516266, -0.2566720878083027, -0.610553099976522, 0.08401447749103483, 0.5000036543606463, -0.5983083778093424, 0.9421174017650218, -0.6866378237608571, 0.7127493269180248, -0.1410248050145261, -1.1280554368053675, -0.5326233150564643, 0.6377384172954711, -0.15409066039346533, -0.11076803080474651, -0.4363754242508814, -1.060242703906721, -1.01314332236196, -0.7331150359320364, -0.5412189269817375, -0.271332598828109, 0.6495544529351556, -0.6081916558087528, 0.7347063588736641, -0.4185040026539355, -0.4564117004019109, 0.34573478411802894, -0.9343877841993329, -0.8120480412644735, 0.5664061229911779, 0.28559861644742074, 0.5529420130581782, -0.39403531890504173, 0.8263804248295323, -0.9060678767986423, 0.5872296400543525, 0.8154605489855996, 0.5713703301413852, 0.658901838730936, -0.6314007791172005, -0.524679867462589, 0.4160527075828883, 0.1386953788033285, -0.5457626356712665, 0.1823421178686783, -0.7312969032976416, -0.2776865419726956, 1.0000922626202984, 0.8109160034468091, 0.533208803297205, 0.2684453018899839, 0.46915220438319893, -0.45571643665485034, -0.8057255877748478, -0.8835125069491709, 0.5806574358792396, -0.12208964578307496, -0.4055517691549489, 0.829257869955631, -0.34435742303917116, 0.9010677167959447, -1.0097628652177386, -0.30167942944419845, 0.9021064517554439, -0.48826342414570945, 0.2337347563207358, 0.46284789274059623, 0.39901438418783836, -0.576292093253254, 0.44264727758148154, -0.9157866388816828, -0.3151396020869213, -0.49032141422774145, 0.8741556972369541, 0.599536762803019, 0.13367789577532466, 0.9870630219122345, -0.4147876784412477, -0.4286313529431426, 0.5869395053047404, 0.890162792860042, -0.3013934396502844, 0.43945133501809486, 0.352008296195498, 0.1960577621862813, 0.9134149553922077, -0.02159012262650983, 0.44023624735788497, 0.5706960473935515, -0.9670644302157979, -0.4538403871538214, 0.4600611743366258, 0.05599335996898925, 0.36348453228807315, -0.26574263647522284, -0.5008529456721613, 0.37397681326742493, -0.9650416314281496, -0.1005369386131789, -0.17207160019355766, 0.3064381469692363, 0.9625799581946288, -0.5655237829907956, -0.06168904204718593, -0.684608180893544, 0.5722553835682933, 0.465540070547951, 0.4224905894090735, 0.1425198836482493, -0.9018434114604059, 0.2011660889782101, 0.1318420550029089, 0.4635416708795807, 0.01812654455742514, -0.869377195076435, -0.9875817623041356, 0.03992609889578955, 0.1504630384154005, 0.30291794801311145, -0.194220297069193, 0.8305071492958845, 0.1814276836329918, -0.40900697965345684, -0.26156083712595424, 0.5845963457461267, 0.027524070063271885, -0.9045258722253828, 0.32950262428495974, -0.10678134989923564, 0.8254511125225811, -0.7041436216632562, -0.8709339085546776, 0.6261491263609746, 0.24643632632462673, 0.16201364290971323, 0.8064516759577047, 0.2021480107926361, 0.8521948582823906, 0.30947151950831686, -0.8110973086370206, -0.17941972549103746, 0.030089246895547817, 0.35163593186170616, -0.2565969643948971, 0.18539743096407035, -0.4562315975740441, 0.17685649007043186, -0.4157102895651882, 0.7364443707402023, 0.8238247041290884, 0.3170392985084339, -0.3153718501218474, -0.07042286578756152, 0.07756011302959252, 0.3266458796489278, 0.676589113017733, 0.14477897031030482, -0.5549837776212612, 0.7264068652707159, 0.5871461212228285, 0.8719471758361229, 0.8664648604161285, -0.47111709300760407, 0.2032716623976374, -0.020825516013505574, 0.0773710093313793, 0.30724336615256775, 0.5156946777493803, 0.042896069565587336, -0.5767461268530631, -0.25647760025755684, -0.35537930022763775, -0.9514481741231964, -0.4516664846233944, -0.4815652180185574, -0.3279130979674462, -0.29095405678117375, 0.8220342507126615, -0.34676828803513104, 0.1468036251062479, -0.000668796937250213, -0.42977923730627715, -0.6579884420178005, 0.8407222633372465, -0.2874097950449432, -0.8239762220564892, 0.6517511205581327, -0.5987924899435595, -0.16810009694729638, 0.9442831383804862, 0.22838233867283653, 0.9634433662090898, 0.5817497468189088, -0.3193316420821939], [-0.3510035522895836, 0.24156594836348155, -0.7438850159885437, -0.811953177909488, -0.23784972081892475, -0.9846075299842816, 0.5781199272742288, 0.13714649332887374, -0.5470345372682421, -0.14091405166267945, -0.6769403064520747, -0.795261491046791, -0.23151685883940207, -0.9234218908924101, 0.4852752823886516, 0.4856082976542089, 0.7853860965192647, -0.7836403964362704, 0.7311883250860445, -0.5645085391417985, -0.10664823173538229, -0.9908064457064794, -0.09998993809161072, 0.591726305298458, 0.7920685431933092, 0.6683697053145066, 0.7355122476391396, 0.7721532285865051, -0.588489700574031, 0.5934266090827247, 0.6454669508705806, 0.24381839538686023, -0.13036879197053336, -0.695916774065413, 0.9041429193077088, 0.7132956469167355, 0.35711059554633745, -0.21483572475688478, 0.7614689844983824, 0.3280177530870706, 0.3434846292230509, -0.21659278036510143, 0.24071285152709557, 0.8404165871627733, 0.13860314191864373, -0.6436506799242353, 0.2488849224493419, -0.17894154341268795, 0.2237985043244436, -0.7419353501750504, 0.803736845770543, 0.8780377974633939, 0.6576918444703237, 0.15902414504334805, 0.5083337369723009, 0.10833499219526699, 0.9691686543672087, 0.4492690068759664, -0.5856045155651137, 0.7762704536228479, -0.7722296223320607, -0.9736461719293402, -0.5251745029972589, -0.26928969927038876, -0.6939601587748693, -0.8225365473000703, -0.07844178324438192, -1.0206860026334692, 0.16458426782908842, 0.21162235528506, 0.5359318417760631, 0.2035666100862449, -0.2680769612490532, 0.62094679128217, 0.9150378831065485, -0.4169201175189885, -0.3623173403843301, 0.41784644273574734, 0.9604947478702632, 0.07264536419001583, -0.919704773469183, -0.722787679004036, -0.4130498887877281, 0.2623148559026267, 0.7217356386908957, 0.4549092388144209, -0.8304852728926159, -0.15857196347857674, 0.33841389782742765, 0.5429321076298197, -0.9958309077042273, 0.06748186491823036, 0.36189686225530343, -0.5302950174282319, -0.9729658823124059, -0.7956533578079765, -0.42823134582205014, 0.26386872044014537, -1.1251829023406699, 0.34219070663599194, -0.4254560611552318, -0.8781454822607604, -0.6516826136322581, -0.6127527307246154, 0.7507810621023291, -0.23471257086748365, 0.8915853106837981, -0.2568487655462067, 0.9473869060091122, 0.7933865506595212, 0.9089829763787154, -0.7583038592333697, -0.7673996759504844, -0.7215764866734105, -0.1577010323263904, -0.5745246679144573, 0.13743928451437473, -0.7884059395210369, 0.5318866320150388, -0.03429620843044411, -0.7857705098694265, -0.33973109044361705, -1.0755331901023486, -0.09228646212376138, -0.8539761507470719, -0.7185206254158653, -0.8725125105929006, -0.30760873787125814, -0.328202581294709, 0.6118255448149956, -1.008206054832082, 0.2529158267174037, -0.5962786432043279, -0.16371310810580483, -0.9029848460837074, 0.1543632028327858, 0.386941511382389, -0.5189590367598845, 0.2923433756440636, -0.4130055048701165, -0.5175128336350354, -0.2447087027266137, 0.5886694780422028, -0.06194695106909955, 0.009186906142174676, 0.3284532763651003, 0.14136614834749262, -1.0593174143051012, -0.2701725471584539, 0.856425657553936, 0.2866794470938449, 0.31591516481843984, -0.26020852746862033, 0.5355472528521277, -0.8317639839477813, -0.710850610449243, -0.19906697556307543, -0.24450770121942106, -0.7542945377925425, 0.16466475271636352, -0.4850502604027637, 0.9228102396976221, 0.12484394916187072, 0.698169081073012, 0.8825786077428177, 0.5324092629492482, 0.3502326429945202, 0.033582993511878136, 0.4089988139039036, -0.4019758385576342, -0.9196731163530872, -0.6689178701130859, 0.403208765934138, 0.8386612553310334, 0.16498404466548286, -0.8183577856513143, -0.5202528843835503, 0.06998578996484424, 0.692282609095038, -0.22639714492931617, -0.4261164413577812, 0.5623099504028661, -0.40468650195982797, 0.5209693095443837, -0.030681120619708704, -0.31442173035285, 0.8148297748425108, -0.7155070556718434, 0.7114947665424555, -0.49725918262508456, -0.09523560040830234, -0.08884653379438937, 0.9924497838545157, 0.48201100624520654, -0.5935254402641913, 0.535334506976739, -0.5945036788826408, 0.5294790463487972, -0.7128712920051868, -0.3128734848208415, -0.5936820394381158, -0.19386470819310772, 0.5122247098781196, -0.21805721004278938, 0.6568768610587397, 0.5473699751404059, -0.6309905321783118, 0.41404526093266447, -0.09384446798537657, -0.20098917176663234, -0.25256696017985436, 1.0460557504387435, 0.1175167676857292, 0.1251255131496178, -0.08114860283409732, 0.23873175074338485, -0.0627595432105072, 0.7567221975863446, 0.8752754981320006, 0.9461914709977713, 1.0596328642782473, 0.7287811476156644, 0.8154256018005801, 0.030033451338306053, -0.47969906297658205, 0.05182484271865951, 0.8382768704120848, 0.1427883240253613, 0.6725421529237354, -0.9063827651611313, -0.636368590058015, -0.6763769827162894, -0.444371693293488, 0.2820122134386854, 0.010449516992141045, -0.1702501151640815, 0.4892930321000863, 0.6668958658625991, -0.5952507872590074, -0.06685971534179741, 0.973126742618563, 0.16727508654756437, 0.698321483004047, 0.5048940241915438, -0.10256351880024721, 0.26026013537512904, -0.6148942584596205, 1.058802682836882, -0.17771943420060826, -0.2853976878744864, 0.8507342366645465, 0.40296214135076497, -0.8967540864877412, -0.12185618873123785, -0.931696636312285, -0.9935326593203083, 0.4807272410819019, 0.528128800928416, -0.6778498089191788, -0.377231632871742, 0.2721666370126747, 0.9831191075782841, -0.4154323902459649, -0.3325575787967975, -0.32441899540902625, 0.6740058244063434, -0.0859691141988886, -0.12424026527314261, -0.21459644968450656, -0.005290944537292541, -0.5298598824669329, 0.5230653182949048, 0.6503538310335998, 0.6550535694389251, 0.3603789400007249, -0.49636359740071834, 0.721498146143861, 0.18652055321134778, -0.40126659913514706, 0.20320243423704815, 0.41899822436081113, -0.36253321872871375, 0.762408591118905, -0.6668258058266975, -0.8039256597814799, 0.3615965546380402, -0.03066639392728734, -0.12358054473362277, -0.32183674937608286, 1.0596838294115114, -0.48145034025422667, 1.119681600236041, -0.433771074009116, -0.9988512844488626, -0.04599837468037787, 0.2205915868346846, -0.16918074542372702, 0.9905863438099729, 0.6429127671823205, -0.6623052239849608, -0.3824385611274955, 0.023797849921647893, 0.24618296052515215, -0.2515622088134557, -0.6224322408258447, -0.3142307233862629, -0.7248079483301533, -0.5193154882947959, 0.5917968934279604, 0.4925524117903612, -0.2324796684848729, 0.10800864794058233, 0.7779339117714013, -0.49647846927248485, 1.052068482076815, -0.09729590610198893, 0.4146506597242861, -0.14296043374339792, 0.43573066771794056, -0.18017631377237525, -0.687732201452058, 0.15942987101772685, -1.0780667815133624, -0.37762244980610177, -0.09361458481237349, -0.35222459181856175, -0.3602318276504185, -1.3611542832853096, -0.6319096528830016, -0.33467338117631024, -0.557497237054626, -0.37548779765702506, -0.8304412049334021, 0.4942558343606318, -0.9668042536649071, 0.8743814983841577, 0.10684063835531425, -0.3872519461411908, -0.952778164426455, 0.6868042945014167, 0.10135939437806273, 0.8860917914977111, -0.19422245018984338, -0.05054483561726294, -0.10162464491673108, 0.9684351164816325, 0.8541984467207993, 0.2712408569604851, 0.2605633370147596, -0.9234038180412129, -0.761304409751814, -0.0015731838090923334, 0.1502892130688285, -0.2945418758784731, 0.4393349757757223, 0.31090611732519086, -0.8417084666468743, -0.10465153761004854, -0.07696347467060308, -0.9622110702396188, 0.00026011742452686253, -0.4953884613861542, 0.8148795186545444, 0.8050952804028855, 0.36456877736803306, -0.7777529353342385, -0.8597254311106904, 0.33937367401219726, 0.33011569672591345, -0.02598817790504394, 0.37549924327834905, 0.9064229678599511, 0.2430910461881059, -0.13955774090067058, -0.5321514264422531, 0.8555155163915924, 0.7281975313253812, -0.5466406146073174, 0.28700919426543847, 0.3576517382423229, 0.23456971718540479, 0.11088560406992189, -0.8881166580631743, 0.30384611570974324, 0.4342548289350605, -0.4079388599970321, 0.7323921769249024, -0.275437005758378, 0.5060677938219007, -0.033815106453450254, 0.9173310520865804, -0.4571719499743703, 0.7310741673292535, 0.762113249302912, -0.5221892708702884, 0.8853374067734182, 0.8331454082160753, 1.1212582399217519, -0.7164221261639184, 0.8200856402139105, 0.7866969680361022, -0.4854347605428774, 1.271728966591773, 0.027864321481061133, 0.8461933553875487, -0.7018770320868607, 0.2101369816861507, -0.05576011456459152, 0.22160950510478644, 0.7903620630854702, -0.12067535376095757, -0.6952507487402128, 0.21317011400047123, -0.27836323242784566, -1.0301700971569452, 0.5151281125090927, 0.7664393144064384, 0.7514847366040875, 0.2771343703032663, 0.45303191976508667, -0.424231820439891, 0.7404473082231708, -0.18119052762746424, 0.23040948539195746, -0.10082738119622035, -0.5397495686055055, 0.5125051736401637, 0.8572287909047538, 0.16588275539671485, 0.8292973255275375, 1.0018565611365353, 0.41396464700372937, 0.5719450489857061, -0.5111365694872663, -0.22035896792951107, 0.3229564253014238, -0.16236546999419513, 1.112870378319481, 0.7809788495388147, -0.23314101639838755, -0.19156841065195282, 0.05511858292460687, 0.5604315784328668, -0.4877374103273801, -1.0117598576868523, -1.0523988691944897, -0.3042082015955304, 0.10304600964348451, 0.33615240109440003, -0.764618801961343, -0.8771702428552923, -0.6119767397929592, 0.19057495185452403, 0.73929497275011, -0.1663640958591595, -0.3694136091758643, -0.2211613472541636, 0.7052560185599497, -0.17992438098593708, -0.2883898355764892, 0.6316797173420831, -0.11302110492902373, 0.5285618271853618, -0.2174216328290168, 0.37408972035294397, -0.08573193006575276, 0.14967176902192592, -0.17050965241820257, 0.012752853177118361, -0.065840514781181, 0.2911170251403983, -0.6702564788798776, -0.9773189388232466, -0.901521738314933, -0.9444327384315214, -0.17170998502518178, -0.09823792053958225, -0.34443333078448674, 0.15314629113875053, 0.7247475978613103, 0.6643839011247653, -1.0448248556897186, 0.6787704035263921, 0.49501710417827305, -0.2045238287172775, 0.21240095817879476, -0.7061857465131716, -0.20843867850069908, 0.44824165629669244, 0.23975567351973792, 0.8254960114224443, 1.0777653982005422, 0.737807551209416, 0.1782964487311033, 0.4393681876739029, -0.16554258574490022, -0.05130607906649045, -0.277780704542923, 0.1985268558161572, -0.6562053758385994, -0.7055664201535463, -0.48964855465891716, 0.7505911680178061, 0.25443758471772027, -0.7333683088288406, -0.40744638789074117, 0.9330206234197111, 0.7651567744071869, 0.5332133965213199, -0.9868846855080854, -0.04114123970386266, 0.7383303577199031, -0.8536193589675254, 0.804369465889716, -0.6967678390668802, -0.12437073340521673, 0.40897129552941763, 0.09094532188703637, 0.06708754120717714, 0.45649689315596376, -0.580643228192863, -0.16077352123319807, 0.4835394723249172, -0.5827599891384279, 0.10178923079483412, 0.3260335520648234, -1.1419717749793958, -0.9742990343959436, 0.09408318590320383, 0.3032919704839326, -0.808039725855247, 0.43874415962728613, -0.8798828566506598, -0.5819629756270992, 0.5366396203686655, 0.6561590009854542, -0.3802568545175696, 0.6980816937798875, -0.4803051759128373, -0.7734434360866475, 0.011712792222911399, -0.5721889612092917, -0.4246916783405295, -0.3108349330262719, -0.25648981776623736, -0.13016461513552033, -0.5373037702665093, 0.003657575895463279, 0.022622746585950582, -0.6180960084546341, -0.034854543394390265, -0.738498811273946, 0.5090341142445922, -0.32751434105378163, 0.43151829624904314, -0.5111518610364355, 0.17654041325842737, -0.0029559457828668752, -0.3622701377089456, -0.4505329658014294, -0.7005011742697136, 0.9085037226448082, 0.4349036486334165, -0.773905394234797, -0.8912530893917946, -1.1822124865199903, 0.5110971568588397, 0.18588214963194685, -0.7239528396157573, -0.6503187903645482, -0.6842299693415217, 0.14520235895867906, -0.8628339284225651, -0.9334781490711401, 0.3867661135786562, -1.1384196029090097, 0.39871569158688075, -0.09159045949342379, -0.22339149331349348, 0.7392502046710625, -0.4917982742931555, -0.008363820297512696, -0.051613735346604836, -0.8692811845063477, -0.8670278495839855, 0.6015403567640337, 0.966441307380873, -0.41599230512748614, 0.7011864905868135, 0.6299656139691626, 0.5335803285474887, -0.8297587366201178, 0.8098570887002027, -1.0992245649747148, 0.04193157271798499, -0.07059248636484598, -0.30499699182376455, -0.780320761570677, 0.304573579915969, -0.4836149875906567, 0.18599043032517037, 0.3356502843361659, 0.15011660731680168, -0.19834611781026615, 0.019595724335658708, -0.25870487346194887, -0.6982397612120183, -0.7879034270281541, 0.17495091526644224, -0.8400957366841989, 0.1640180278076272, 0.5755608942794392, 0.22090560297587208, 0.12056797169713494, 0.07790552863328364, -0.3364627126451003, 0.37089003841233525, -0.9439536464329508, 0.3736730304232454, 0.217281426701448, 0.3480563545943973, -0.9943468100632693, -0.17116554354450494, -0.7179448725915273, 0.7866022726249835, -0.8985163994693781, -0.7256443059956204, -0.42753748438523337, 0.6432998420262035, -0.2465347992899704, -0.8506373454658936, 0.5371075987215318, -0.5537178917066513, -0.3743360781108541, 0.7321909173999307, -0.15891512230000066, -0.6200038332193812, 0.9557332597330083, -0.3716782724883031, -0.5910954310432811, 0.20982809693378698, -0.6744763922193526, -0.7528154071133462, -0.22266066967048825, -0.9830243133457266, -0.9791918609256798, 0.5571229510565254, -0.11242120404882837, -0.9656150629674459, -0.44868973408966084, -0.08248068882353216, -0.9141703821465512, -0.2037526358182872, 0.7587197419903066, -0.08382907253231028, -0.4448703623876232, 0.07672602883367007, -0.8041793564399825, -0.6154932786755956, -0.18174129645205703, 0.9254480376647888, 0.19961199723417455, 0.1750406071115657, 0.27826110059371145, 0.8900593538537068, 0.05989128528896195, 0.6544790905220472, -0.5558630480962672, 0.7988512587023545, 0.36924049521301416, -0.19369369865819563, 0.23041825329158483, 0.5667957644969468, 0.38294036063948034, -0.8510643263226019, -0.5368457289847846, -0.5114338694844575, -0.2758024778696406, -0.040083414663042376, 0.07642129900275915, 0.2921966824628349, -0.2213578813119905, -0.18135596633885817, -0.23907227801861514, 0.8675802317011263, -0.3128836936612751, 0.26583576560544236, -0.7260660998548697, -0.24395660914508302, 0.5274598788281837, 0.6513708028864363, 0.18498029238033253, 0.04826853104857217, -0.3700549806099274, -0.05498306639207067, -0.8901367407149148, 0.6371102255735858, 0.8804313220123671, -0.4362150287204792, -0.45715141424014294, 0.23842645667933948, -0.5213965247073742, -0.6369682987458566, 0.41773805187050317, -0.2118505115032602, 0.39021487938584876, -0.22499010050387983, 0.4523137466654077, 0.5973760560027516, 0.8801842356122933, 0.7186716205173691, -0.39646642213681293, 0.8238695047136547, 0.20590153127739735, -0.03190239078851256, 0.7231348629623829, -0.4492491396852288, 0.5736300615376017, 0.04656626223107411, -0.4542771774713751, 0.10122586397315038, 0.5517088855836372, 0.3866588579776119, -0.31380231844792367, -0.9897228988550427, -0.6944007166389531, 0.8446679373662557, -0.9991694974389453, -0.7845967703539896, -0.8367383116150267, -0.2379068943605014, -0.9702925094459423, 0.754977394340282, 0.634245520439749, -0.4586897746115418, 0.7502672153894707, 0.7912442671276342, 0.8394176350806225, 0.056675460363781675, 0.5852894140383581, -0.55674302661629, -0.569766426388697, -0.7339846486723532, 0.6357926825070794, -0.8748552617199383, 0.21007885880903351, -0.6153163814205516, 0.16478465066767178, -0.5468034430436328, -0.2562803848186374, 0.2695846477684948, -0.09535940525897438, 0.4323078973450326, -0.7496533414340559, -0.40617330977439603, -0.48191918832857006, -0.028410505762258786, 0.22949015944746676, 0.3521863049488263, -0.712250692228046, -0.528709223091207, -0.05658410240503915, -0.7663177216999597, 0.7550507997828163, -0.2155096847038423, 0.2961410825605186, 0.39551661180590225, -0.7903531780078235, -0.6421317084633481, -0.4300318890715339, 0.4131652309075955, -0.5334476915115757, 0.17724672530864635, -0.33637616286182725, -0.5624471865319213, -0.8647463391720149, -0.04733550987053167, -0.05992478487027923, -0.7335762722158428, -0.06599634036728796, -0.19363245982556232, -0.05946478347527351, 0.9507170607982096, -0.542293737546379], [0.41669323032261185, 0.6485804374934256, -0.11871095326720837, 0.3142486761117369, 0.5739903793904675, -0.07122585014694827, 0.6551961832160591, 0.3394527845447215, 0.9160728712858484, -0.5213034080708532, -0.3334490095304683, 0.27826570863427125, 0.07327586764011813, -0.3631968042005101, -0.18562545049363427, 0.6902745709869905, -0.9637652188619954, 0.483024080611828, -0.8400908343775071, 0.36056850346935465, -0.3888350420746607, 0.9366757336058544, -0.9812488910047472, 0.28055976566557117, 0.029085005131399777, 0.92618852643509, 0.6608192443241996, 0.43400795157492866, -0.8390040180784055, -0.4795869876653336, -0.1082202849894307, -0.7096494774858104, -0.20412074378297712, 0.9528502492023166, -0.9870363100781654, -0.5703761094274139, -0.8345408666731083, 0.5990899432386751, -0.7356578527349941, -0.4103990527793848, -0.8107972354843525, 0.2652824439996786, -0.10221442234085518, -0.5205429597034225, 0.2808922851858816, -0.3150881602181363, -0.03934379576682625, 0.25021433670456844, 0.03136896880609074, 0.15922082386992192, 0.5667535879719333, -0.329376572373002, -0.8042242841141471, 0.7316028768079161, 0.20124774115891464, -0.23739300487489534, -0.9737711242938043, -0.57995600044027, -0.8313820503823688, 0.5804044117964152, 0.6627355124137922, -0.03481803616234675, -0.5166900002880316, -0.5897442337813777, -0.4983248196078143, -0.01854246967551342, 0.16379869957340548, 0.3159440186706034, -0.08825965696294882, -0.7305137383805799, -0.11886078661630342, -0.6252070180423928, 0.7423674200922116, -0.47956195989311107, 1.0707012258806787, 0.06508407459373831, 0.6924894968749646, -0.8394674152819881, -0.7005663507143433, 0.5934683750478459, 0.26788174976046514, -0.24847628132717664, 0.9422838347191198, 0.22778135005097688, 0.20931783698460116, -0.2869187248534981, -0.5886259813593234, -0.11568017958136842, 0.10875978235314704, -0.385952829177557, 0.8496996446446438, -0.04192419297840203, 0.43202653828826415, -0.09209108029897896, -0.8189301503223603, 0.30568422122422406, 0.8558734769553986, 0.9197066698980627, -0.18992359008316867, -0.07028424627261115, 0.6805913111930082, 0.370394026285828, 0.2803495475472274, 0.8285056315019786, -0.02558363053448151, 