{"hidden_layer": {"weights": [[-0.8704873707770466, 0.03312785517310757, 0.5490476667276054, -0.0719895790389049, -0.9719717834845458, -0.015668985252078382, -0.8341989352394497, -0.4896463531450306, 0.23872874076690498, -0.5584981969731893, -0.30997999022336975, -0.9820817402543371, -0.037322603947830935, -0.13976824489526862, 0.9780393097800528, -0.2118650041965464, -0.8885664718059008, 0.9903251097008963, 0.21189636044213067, -0.5213704038494269, -0.509571623626343, 0.3338358885260675, 0.8729725199452649, 0.36874414319406257, -0.48060159477672015, -0.9141429271479042, 0.9946671729593664, -0.2743241835327095, 0.037532006304310306, -0.6638282595643765, 0.3961879940995654, -0.6157141489266535, 0.2184246011639828, -0.5087188648492025, -0.8017087729860014, 0.023066545957849842, 0.6203651670516876, -0.7832590901471028, 0.3272421507651, -0.9923098077465636, -0.8347941157164215, -0.16888043642345943, -0.915034887989106, 0.5472549699311392, -0.8998817870782965, 0.5968852745776997, -0.08847360728220051, 0.8124466155030882, 0.1703845610354393, 0.8877029688316522, -0.7035392646732035, -0.771806463885158, -0.012441804654022448, -0.7521555500775607, -0.37307878617554047, -0.9982453087114993, -0.9290650384026069, 0.3546077816357871, -0.9062604408821733, -0.18345888138302535, -0.06832702766228493, 0.9982311371547942, 0.2537878817162674, -0.22716073763180294, 0.6232096054090415, 0.39590937018116856, 0.8405056979600425, -0.5661517944058478, 0.548005424118007, -0.2934272507880201, 0.4672970888273818, 0.6187238256543627, -0.9130708215202051, 0.00743528655606009, -0.17901441240281668, -0.6594910045948406, 0.14835189953607925, 1.0234146299460718, -0.4526957169330503, 0.9974086875071644, 0.8023952339061639, 0.25899380021702284, 0.423596273228813, 0.4500130557568047, -0.965497457264568, 0.5178362954553568, 0.3444794346374996, 0.45285746907967783, -0.5781397711676857, 0.5382950974475729, -0.2694612212339556, 0.6713045951460718, 0.8112371996062601, -0.41293547485659615, -0.4457517706234923, 0.7813280645324093, -0.2078115231354783, 0.24483293513535118, -0.9002020931583271, -0.7979512471623436, 0.07956913829143715, 0.7826490145931843, 0.967929189873499, 0.10322532574663759, 0.7054298312947818, 0.28661313819777795, 0.5083398171941447, -0.4200196768723994, 0.7629292653053452, -0.9564134290751154, -0.8367682223011453, 0.6154769899333936, 0.49038324531002675, 0.2016088696906501, 0.2394739802206665, -0.382672439822096, 0.2719128560743397, 0.06534554545500573, 0.8926037352248595, -0.1616156704920702, 0.6568123007151178, -0.09393911787761094, -0.9666860430412676, 0.001518516842368382, -0.4327038249722986, 0.6067546919237272, 0.6423243714700283, -0.7952642130342816, 0.03849371322549465, -0.10946306358661509, 0.7945085740045614, 0.6876530353498226, -0.12242790289006851, -0.7536165418742009, 0.3742174117748514, 0.5731127287598137, -0.9242941057133633, -0.6553258806404649, -0.44241770959839805, -0.5593751671674934, 0.9562529209221122, -0.4711777719933745, -0.456483898926726, -0.6287301697481262, 0.2952410897678274, -0.01810778655451178, 0.20518403911635433, 0.5767682993530256, -0.19082357800742022, -0.11224404491510255, 0.2979370027602974, -0.6849521894147413, -0.471680153738136, 0.6491548916035881, -0.7919385287195162, 0.07777857261226641, 0.8420091670066764, 0.5842721206762411, 0.5036446881094966, -0.4155817279168477, -0.5036903441691151, -0.14525185394813364, 0.6288841048105157, 0.3325741579406222, -0.11347599682364111, -0.9487147353070068, 0.49784404918458247, -0.12015139687282823, -0.6173519474713893, 0.48306307303279694, 0.16427914384553352, -0.08956989822619581, -0.7881093069528432, 0.00599812441108099, -0.6008742299895246, -0.8938510424645878, -0.5404208786453363, -0.09628672327663357, -0.23936531655114454, 0.15929515510692902, -0.1945485205828818, -0.46484786556186797, -0.5795121008676126, 0.29989713279815333, -0.09757940397284655, -0.6963589582868027, -0.7622290363208791, -0.28160490488782963, -0.6646212112366043, -0.9071883771608604, 0.0008621547534307042, 1.0559627541567007, 0.6830061272365094, 0.27382977293608796, -0.04627913739323467, 0.4992110469168915, 0.5988425650199296, -0.7749074477262821, 0.6233357591830984, -0.49524934355199407, 0.44541185509419745, 0.6971262932303641, 0.14251885220143137, -0.22749755660798307, -0.5162777597809048, 0.005063307067151991, 0.5111371087798632, 0.18860132217172454, -0.879697711145751, 0.43410644190430514, 0.003676528535645956, -0.3810374215935716, 0.7936221679925762, -0.9243439150120075, 0.8613361298659947, -0.8900698354791906, -0.741335120980382, 0.2251557653183313, 0.6866520068275003, -0.6443248634992911, -0.4189692864671168, -0.686189542254234, -0.20054385933194757, 0.9024695365546326, 0.49274868358536383, -0.720080348786794, -0.6064935656589413, 0.6996730840473399, -0.5356538816495994, 0.6079718547273417, 0.25424054911077093, 0.3869278381368353, -0.6290911860690026, 0.3267341623301104, -0.1705742703408561, -0.09819053784244818, 0.7982830649258936, -0.08133177195564749, -0.316639051516047, 0.9864924530623704, -0.05997978065004502, -0.5888490772710088, -0.5397574943109397, -0.5334096757876444, 0.9262891664885393, 0.7458316198118383, 0.3283056119700019, 0.040097150627522046, -0.4301873048715205, -0.09657770743286284, -0.5242365936978619, -0.9200468954408494, -0.1678081591971949, -0.09188382015824458, 0.6252995251154116, -0.056690454313032206, -0.05978733570842077, 0.07699330818586839, -0.7655595907708446, -0.6753764783082822, 0.3819906438441851, -0.8880685025659474, -0.4100538794230353, -0.6068345997980072, -0.33796879744287395, 0.31268199652750045, 0.0015388388811065658, -0.30189216660760393, -0.43317018068589397, -0.36916194981710504, -0.2755022281875864, -0.028071032208394846, -0.7308829374515406, 0.2859652157959458, -0.039044787580817204, 0.41784212648312036, 0.6373007350035741, -0.40552771283464717, -0.5713027596451737, 0.4188578841229801, 0.09939939290692053, -0.36948623561716754, 0.6916914704284648, 0.6702735005426185, -0.6137268525181115, 0.3293533433862111, -0.13839797957811367, -0.050224147937497146, 0.5126568510948014, 0.965032839749275, -0.6079996881369653, -0.625084647318207, -0.3236094855638952, -0.11719848069007052, 0.9828455232012718, 1.2388489398876237, -0.5669616515145768, -0.6365775059105934, 0.606252452072367, 0.05789463278762244, -0.4797760015461239, -1.0874840409604714, 0.09666758445803808, 0.5363179847774885, -0.8727558026687308, -0.7662054912941533, 0.17076429538417706, -0.7941888204129023, 0.3030796580105286, -0.46561069624092083, 0.20268732651838675, 0.9569770638908808, -0.9156968329178775, 0.13026712497343643, -0.61695447988799, -0.6783581561308145, -0.4040055733247928, -0.2428379076806755, 0.6700101767164479, 0.21568096801772993, 0.944560475174368, 1.0080354140928727, 0.8154125691342138, 0.4013707223628667, 0.4357373832400287, 0.553268735405072, -1.2058273144999179, -0.4089844988205588, -0.7843319555599969, -0.17344456098251942, 0.12843193854051688, -0.2506135822276197, -0.41123332181213557, 0.8757347670913332, 0.8791174745660487, -0.4739452734185017, 0.9174431159054677, -0.031197958565625288, -0.3805079036187423, -0.2581502730609736, -0.33365990096650533, 0.26734673257129055, 0.9053682179284479, -0.12603299280832317, -0.059873819145524046, -0.50572341552945, -0.10097376598711244, -0.10880786973780626, 0.5304054218746912, 0.4617152887676525, 1.1211649515553455, -0.24349697285777533, 0.49128060845107036, -0.5358020824176799, -0.9655001349372931, 0.0013225026281213806, -0.1240607649657655, -0.6070753896519568, 0.3596013304422548, -0.30884996081186483, -0.5724895599772798, 0.6552005538365102, -0.2798251354096772, -0.6926720253505781, -0.6058735470209001, 0.3152933299999985, 0.465138559640488, 0.5041601435456415, 0.3016973554494612, 0.078019068692203, 0.5680894101644943, -0.7222532681356171, 0.29381980379821276, 0.9325474413381033, -0.7995604394378666, -0.17586005135864236, 0.08474737431364875, -0.3080541417875648, -0.20935983499286948, 0.8499800845780271, 0.3814913430359758, -0.05788496794846835, -0.32224144316409714, 0.48075539000661976, 0.1664885927909591, 0.4138047565253342, -0.6744128982188279, 0.4408720870158334, -0.19519091168666816, -0.41585252781088045, -0.01526344230404634, 0.9293883193548212, -0.35251654814413014, 0.728885079622049, -0.4178721353512601, -0.5004117114236954, 0.41566313410479294, -0.3429142735331868, 0.2254124730647199, 0.4773316696442162, -0.6681046049612092, -0.16240786896968623, 0.10416517502647203, 0.538971205228966, 0.2295336325469069, 0.43337778253561715, 1.2953612702381974, 0.9617051346605433, -0.6550041484015817, 0.41200009070923144, -0.12491821086151814, -0.6514512825578068, -0.22622147207281743, -0.5611581686398105, 0.22647669936196635, 0.8585339896551475, 0.2636059889981474, 0.08783170136151507, -0.45173582379417304, 0.2457833893008083, -0.9662338516665752, -0.1633179535634589, 0.8303399585222757, -0.39506570344143843, 0.4859200258676894, -1.055350129383588, -0.20621305818965827, -1.1149481179490213, -0.29571147782882845, -0.4713454320982022, -1.0881122611530671, -0.6041353428196446, -0.24983674885676696, 0.9655413537608935, -0.04500885912463591, 0.5393951038599099, -0.3362960738911466, -1.049561439903768, -0.4640440859955383, 0.19317429687069904, -0.8164860914336254, 0.7537883007938294, -0.34126952568265645, 0.8256468653050685, 0.4980855819249708, 0.2665057550147605, 0.5643392925938725, 0.8459259435364681, 0.31669500058996325, -0.9839692979176976, 0.7696425195435387, 0.7040576567903957, 0.8895207785949792, -0.9305038576564397, -0.7229690014900495, -0.1068590469633408, 0.5016265580660212, -0.6465604667203709, -0.11258464427520927, -0.025075844437292147, 0.6655112887749608, 1.2977985757501995, 1.5794625168809164, 0.8021752784264871, 0.43420192173039684, 0.280209989851946, 0.4340624263338498, -1.0445949441640667, 0.315372728121858, -0.42118002791988196, -0.7260518296845324, -0.18408267107896595, -0.381087223937536, -0.9419683527903352, -0.4889068752283628, -0.9141949557258653, -0.45627375644429957, 0.5933534358973804, -0.6314180782562477, 0.9668289047334434, 0.049491400498743676, -0.3175404213496437, 0.3527464128899399, -1.0239055720536017, 0.03534526781175405, -0.7677418095419192, -1.1430030066862185, -0.5087439168863639, -0.8569198352977615, 1.2504207171541424, 0.8631301887927771, -0.2073763893921127, 0.11452875502610765, 0.3178553453583523, 0.4238001472215779, 0.5380026042881026, -1.1655370302605512, -1.1076618289018247, 0.10053896808724659, 0.3728053185200711, 0.5302594019508119, -0.5852179302879135, -0.1553595423747342, -0.5980137531368521, -0.5448964181806055, 0.5497058410568174, -0.07083168112524364, 0.2755889204402183, -0.3374214590970372, 0.4459839008983281, -0.014537135864263882, 0.8044811365016481, -0.822425613667647, -0.10012214281407829, -0.44162265226826847, -0.8674290244677557, -0.039708449720710026, -0.3147046161968293, 0.6691800862246047, 0.38738959449983357, -0.41939052700920554, -0.8526641064784303, 0.7259759025016421, -0.08215896160625746, -0.6669619474056486, 0.16461554647515828, 0.6043174351094366, -0.12222977644022537, -1.0711668633791436, -0.8228752461721133, 0.10006100679605472, 0.201793591989987, -0.8377439280559312, -0.5066076791916891, -0.09697776504230772, -0.7446647005868005, -0.4478963533899813, -0.6090168826631616, -0.16537654084711745, 0.3814785868741776, 0.3420977553869537, -0.6257412270946654, 0.31370027520735294, -0.638784301819167, 0.7168914351741746, 0.7159325117332073, 0.9399975246773198, -0.11006425378903516, 0.003620775027279453, 0.9814311575563447, -0.7231715422520497, -0.7668475932352788, -0.7943163542994441, 0.6179068310595688, -0.0014872826294058184, 0.06322537086090546, -0.747271123156311, -0.08977818848925143, 0.7922313355915814, 0.1686185671265279, -0.7037963904236924, -0.6617439991394124, -0.1724543850217096, -0.5589780122135696, -0.4890732751939256, 0.28604985806152444, 0.8351254048523311, -0.8546088748047181, -0.5668766053405716, 0.8891948546202638, 0.34244546425444294, -0.06037001892299773, -0.027050678642055154, 0.5631664564194533, -0.08299476655744922, 1.1607591632286942, 0.6983340809749334, 0.3433041573070576, -0.43974574672289435, 0.5065965474521021, 0.41362808143898416, -0.7411368412197632, -0.29988557803393734, -0.10664085558576493, 0.7676458028769152, -0.38133670382352236, -0.4699950156648138, 0.956976394963978, -0.3776183927844277, -0.6147146494275423, -0.9748757826360411, -0.06915005085600076, 0.019467205916675952, -0.8159169569697824, 0.7728652869987906, 0.4461796330088725, 0.5475396735654978, 0.06367339530154804, 0.5516937616379509, -0.2613427947318933, -0.16812008513236248, -0.2820957843110269, 0.4150395508986297, -0.3666876599265608, 1.036141597939534, 0.7762618709278243, -0.11017333161310632, -0.5446011827758332, 0.0017325671174914725, -0.39283953128965216, 0.06563842882091743, 0.412168568190339, -0.5842900775933245, -0.4682180309292762, 0.6419159256557372, 0.7984534099043867, 0.954432142083653, 0.6131805424626232, -0.7156606614697718, -0.4329203337606835, 0.585095440967607, -0.9916256008877345, -0.3748338490935497, 0.279709458874904, 0.6257913162386268, -0.7937482556547467, -0.2929837504364736, 1.0641223246808276, 1.0122350648909337, 0.5755802507928337, 0.47928089853887046, 0.10161181392900291, -0.3136287208460066, -0.6601123320547286, 0.44032721712995815, 0.5386303219378505, -0.6710406962053335, 0.6146152818322247, -0.320713829179159, -0.24140132438774686, 0.06415847975505473, -0.5411153665386861, -0.5348335727911216, 0.8156384845966957, -0.5470402356445923, -0.07005964060596082, -0.17084824269276822, 0.0017390168899671006, 0.8669161446007797, -0.8279494140909007, 0.6601578354439196, 0.3736717834286151, -1.2038384878320885, 0.5918491231587045, -0.4779212121388924, -0.7974223838147245, -0.23673641908292034, -0.4602462674701887, -0.36276354613132716, -0.3147405738624085, 0.30586571643696947, -0.607690985010505, 0.12475622260730058, -0.5947159149737424, -1.0127669991296098, -0.006641762039038572, 0.04517642011517469, -0.6467480683900839, -0.9191233793780098, 0.1973238559818601, -0.32663567051926967, -0.5333837730668731, 0.03567221941995902, 0.9500584955714884, -0.32206055019002566, 0.1627373131039583, 0.05411682578021145, 0.7321284663697926, 0.5262222960051635, 0.18800433348876058, 0.601032241896369, 0.6220112945071079, 0.011670247742497525, 0.07732529699371808, -0.14356645138885035, -0.980367143491445, 0.7670662224301635, -0.7508512641194022, -0.8801885511267655, -0.3509992051114137, -0.17202202501340846, -0.4761200648032839, 0.4408148186294993, -0.9095191763540057, 0.11074508628433156, -0.3741117203716459, 0.4120125779398193, -0.5837206406683458, -0.004753362820029095, 0.9459738594106688, 0.5384184714902875, -0.8979345872554623, -0.6719054986292213, -0.4504949342484239, 0.6400079747787267, 0.5675174654969319, 0.8797346676141669, -0.8273633803263367, -0.1564525672103951, -0.611585882032997, -0.48700636708185635, -0.44143669480189207, 0.03897665062338623, 0.2704754574127382, 0.15418842597541968, -0.5744762879239138, 0.41910968111251107, -0.749872145239103, -0.042231600072523544, 0.40838263736038605, -0.31929279143769224, 0.40319667987633667, 0.9697912238972484, -0.372864367301234, -0.9551147991827617, 0.6896264515769148, 0.22153477343934602, -0.3546902989893099, -0.3982134090032965, 0.25826792116167097, -0.9312821179503177, -0.6156362908757808, -0.3384428703617845, 0.7102328185144611, -0.3536159736785322, 0.17122734494260344, 0.6339764795893019, 0.5220260313911148, -0.43319231654913803, -0.1625119927395833, -0.8344430829058463, -0.43084032705370184, 0.8593048089336811, 0.05296821846087839, 0.6321508652570944, -0.11785071153096417, -0.8669093317532034, 0.37911494985231864, -0.018322418252460577, 0.7090086115010604, 0.9694596871832113, -0.2825958421498758, -0.58058961647661, 0.47028145041043246, 0.7752078223386554, -0.9997396206509617, 0.9122878552609024, -0.8601030858793168, 0.4763849938346736, 0.5701827493235796, -0.6962341520512864, 0.7350119124834524, -0.06993279596914243, 0.47885564926053487, 0.3469905206981088, 0.44625150080263215, -0.14654448215010893, -0.7936075728397243, 0.30288034846747286, -0.827808910262217, -0.6855102328228548, -0.4039460956912897, 0.40521775189048365, -0.8024109239413184, -0.39106476783122074, 0.9233466023229395, 0.7046925231062429, 0.9615543358636817, -0.4046665462139428, 0.7867385414840999, -0.9382279102243494, 0.10309070387139263, -0.8643529189668213, -0.263537968816969], [-0.06173083964552628, -0.9710617173655025, 0.7392759139684069, -0.14533367379529905, -0.5675228582638727, 0.5372645877201934, -0.05946105978809468, -0.8226290174325923, -0.36098919277688823, 0.3469924149088732, 0.4173468830627842, -0.4366808233435706, 0.7138770935214988, -0.6255538135276555, 0.12168130133795765, 0.08587468499680567, 0.4135368955513705, 0.4055349527799734, 0.7500747206859457, -0.21852414286089505, -0.4414977957085571, 0.7152084757267576, -0.815580424348149, -0.7332932621931738, -0.7128509201638393, 0.15934472470272865, 0.9209270153591513, 0.3473407790467957, 0.5860387899565784, -0.9625408027762286, 0.3449309685890203, -0.8868678806405097, -0.8291736409993734, -0.05940659463128059, -0.25686141945459146, 0.9619536401253774, -0.6269512511278823, -0.19619174966334574, 0.9163208330072703, 0.9248158441299256, 0.9600564918730363, 0.6118854861246811, -0.12455368197019674, 0.04634214110742897, 0.7475210457174487, 0.939941620826467, 0.3855247868432749, 0.5880083715774264, -0.6733039432950634, 0.8978408937845768, 0.6830403259328361, -0.27049596394942566, -0.37884013166565356, -0.3633074236673175, 0.6891092137304697, -0.819876571899566, 0.027146812672405707, 0.8594947160525677, 0.6831236505713129, 0.5479496250105407, 0.7873759948628619, -0.43206968787248096, 0.7053126649076294, 0.6902907663765384, 0.41223945387261496, 0.00602820791174654, -0.1223219901095667, -0.8882655747519851, 0.867786119871041, 0.06079915773028111, 0.5435397084073309, 0.10218710648415134, 0.4930977077093285, 0.18818339550291627, -0.3566318836356157, 0.21052715379024006, 0.7132661980372118, -0.16497715743630098, 0.03180352339708636, -0.17340752084955258, 0.9349894438575314, -0.0954881711095963, 0.40181985284165833, -0.044434499187352205, -0.6290662776694365, -0.7445769875301824, -0.04191787000612919, -0.5630372526503039, -0.2624099746230404, 0.382367989426021, 0.5371880919488635, 0.8886337413852957, 0.7830484321598226, 0.8442156635782125, -0.7342288448941581, -0.0943659761403184, -0.6005204850065368, 0.2677352491205155, -0.36255262418552714, 0.22021465452616448, 0.012163319057743172, -0.22470897301353276, -0.24136335577882553, -0.6836547175594454, 0.042882605902531776, 0.6092606983717734, -0.511000449243993, -0.9362911361750353, -0.5737021424190927, 0.4226009241569597, 0.664077837433803, -0.9294841580891875, -0.43083171296759226, -0.685903336347537, -0.3199344087892507, -0.7275380320968987, -0.4045349327586726, 0.5246627013828054, 0.49979742713328185, -0.20655156566005486, -0.6952492998511922, -0.14384076697327092, 0.3531617370973524, 1.1381846590244833, -0.16654958189939223, 1.254481842462817, 1.034744911323896, 0.03230684160235604, -0.7489648374685333, 0.1027723998765348, -0.35484528959645567, 0.08044508240949254, 0.07325340417849817, -0.03891103172113821, 0.512810615895679, -1.0655969566564503, 0.4647367972535017, -0.5037563938987158, 0.7376522636007801, 0.4649482372005706, 0.8388138527049964, -0.919232626268915, 0.14743314941392788, -0.546946811547366, -0.31069730203107393, -0.77628009851541, -0.39519042299178386, 0.39130773611023767, 0.5651674394312962, 0.6810243734433762, 0.36002174265867654, -0.1403767655842237, 0.11470066499062215, -0.16354293353870283, -0.39165239915309025, 0.7367264621290273, 0.6908964849831835, 0.3682529429834466, -0.09404344131454137, 0.09928672922703946, -0.6360969384594549, -0.031449562629843025, -1.0238712750417358, 0.313244618837537, 0.3629460999641943, 0.4791302740487076, 0.2334754586165831, 0.649977732038817, -0.4887405449852822, -0.519082243410232, 0.030848523498564345, 0.06385055074659172, -0.42390715731666717, -0.6684228196144127, -0.6834431446557895, -0.5924453909340076, 0.6066350613605425, 0.20402293475477024, -0.06381517066900708, -0.09221532952533557, 0.2953623724486689, 0.8492715898882647, 0.28493557786704804, 1.4060247087802713, -0.42179423708001124, 0.4624770402354532, 0.7164672234379773, 0.07461415681445373, -0.5938365843037163, 0.7398776780065819, 0.3356730848967947, 0.3505292057256682, -0.8845640803671806, 0.4284318542764916, -0.23390995285326818, -0.0074845071986285785, 0.9297234472171272, 0.8218206594733494, 0.579370562058939, 0.09972705584575112, 0.2459372969826934, 0.23065615020232297, -0.6911947790050917, 0.4233141761447455, 0.5424435914101549, -0.647307840472145, 0.23936384706060237, -0.5218112890326139, 0.6718740483684927, 0.964644403198599, -0.2201011501472705, 0.7619192327091219, 0.5846002362207801, 0.0396225062879346, 0.25291437854023013, 0.32024863086451294, 0.2837806208544294, 0.15671461733286257, -0.14213443256561825, -0.11409157889563609, 0.9036001981528461, 0.44854899253941827, -0.6590237676283436, 0.807368459264789, -0.579943656521757, 0.531744252407518, -0.7263091668008796, -0.8254939855715898, -0.06154584362460108, 0.800220565743378, -0.1047550117524942, 0.5417993836638231, -0.6910200815713855, 0.4985646547145938, 0.09537185393614138, 0.7682420026742603, -0.43877983063000836, 0.08036150079681552, 0.48965882404411215, -0.13223906950420733, 0.9396368510982614, 0.0979952134523603, -0.13496492551392444, 1.0018048677900582, 0.4650054049269289, 0.4595480508279979, 0.3870211123576615, -0.15487572399439886, 0.3565353739999347, 0.6337916888616631, 0.43747921434739, 0.8937317095672854, -0.6064722957813818, 0.8607656701762193, 0.892745603352254, 0.5470616803541546, -0.8629791655930519, 0.138006034062572, -0.458884381001868, -0.14606225188113303, -0.04434913139034603, 0.5667743410088898, 0.39230905743222666, -0.11275324375070786, 0.05477909947292537, 0.2190944667310889, 0.546093909997532, 0.21196076717603424, -0.6339981616656114, 0.2847603719010939, 1.025407647220049, -0.40290049125480615, 0.22791327622638938, -0.6840362823832987, 0.701114701185509, -0.3682589205676739, 0.010721853992143196, -0.018884278916206493, -0.164983901072715, -0.20706698529646794, -0.03821363315227725, 0.3368373426176081, 0.8704289520063466, -0.4741793212695072, 0.9202057330360742, -0.23322795841566382, 0.8011767563160845, 0.41132148327892654, 0.8790070389867478, 0.3584229577802249, -0.6517005425386302, 0.8017242354469966, -0.13153842901342547, -0.538956090489765, 0.05095507485218158, -0.2835518952010374, 0.3469297370969686, -0.603333667991065, -0.07276599187187932, -0.3577389061329825, 0.14023586236542257, 0.6435814767263115, -0.228411898669722, 0.7601141140761747, 1.152656667023959, 0.6459329386999877, 0.3175470891051901, 0.838934688942014, -0.32468765723456916, 0.632675584151507, 0.02208811373717978, -0.8859651303095859, 0.7936264338587973, 0.8751283545185307, -0.20630032798812045, -0.734977440510648, -0.055998262499547896, -0.771679697559869, -0.06729349421972756, -0.044369775031494446, -0.25735141834221176, 0.7325729286060598, -0.468936322065915, 0.6755833086378659, -0.7286670832698093, 0.43675823778670414, -0.23762797953237313, -0.23495043629049855, -0.002223834305475458, 0.29968962753128314, -0.4656761751228208, 0.7793326978620893, -0.39440792498301863, 1.0622064743688016, -0.7968969509234938, 0.9440061722716654, -0.8197279024239009, -0.9812699406978737, 0.26003074895074135, 0.7811983095412841, -0.7712337754287428, -0.3763012506609154, 0.18471235954542584, -0.014660969114697348, 0.18209744265587682, 0.39625210774173447, 0.17155759673899987, -0.9378151837850156, -0.8676992570380306, 0.6200172555491203, 0.2116225136503839, -0.08944971932974671, 0.28407754224849857, -0.9439050213078306, 0.6481510157224148, 0.3070494058950727, 0.5100276482769992, 0.32604242516298776, -0.8495655850706202, -0.5428886295171608, 0.7391500350140119, 0.3417088493123578, -0.9304753472011559, 0.25419231531363246, 0.7146301963211983, -0.20222914235961834, -0.9116058384337257, 0.812457651973548, 0.31141980179867573, -0.7232908717338105, 0.10734038226115739, -0.3495078282351093, -0.6657445440713916, -0.5541509624594672, -1.0368285222197569, 0.25001245262091937, -0.4583304348794527, 1.1751928064681765, 0.4107903591915135, 0.3364958115153867, -0.24534167827203832, -0.6824830508793668, 0.07259146608236401, -0.4906995286784553, -0.652049590858657, -0.013780363302196522, -1.0111501646030547, -1.025280133868193, -0.09827891682678903, -0.5323609403014837, 0.655055685789286, -0.5461893933518832, 0.27225365243222777, -0.237840188553251, -0.360570816140209, -0.8078093291103899, 0.5537374601477986, -1.0386162089365591, 0.3339185190782692, -1.0041910774147076, 0.554952532996326, -0.643049143888079, -0.4405805489860656, 0.20459623804943264, -0.5255978049191156, 1.037901539611814, 0.30326314853285147, 1.0502764455068399, -0.12344231572238257, -0.5538743840617584, -0.16393330714361698, -0.6630553621028077, 0.47552913475229164, -0.18240891416604338, -0.4594992338103661, 0.3915069082890819, -0.3740240062056501, 0.8766406491542496, 0.4934106706514192, 0.1232928174641649, 0.5257724747041146, 0.031178179234976712, 0.5767914990460915, 0.08272935048885652, 0.6904553650013738, 0.47731207773364154, -0.027409357282403516, -0.3376547247227337, 0.25406881886370464, -0.7840524223418756, 0.1311120565126286, -0.40004377705270994, 0.8511355729000948, 0.49013602997951616, 0.39993604591680987, -0.3350978786571036, -0.11684504044894835, 0.2540523710413284, -0.20347459400030438, -0.20588739103709655, -0.9915317859070132, -0.7756362209399716, -0.6500758910623436, -0.9767811479316404, -0.8765684590357932, 0.7061670510243162, -0.18379431406821933, 0.6823184328025577, 0.8688910209403772, -0.2843928981126885, 0.5839900602137388, -0.9072689828041162, -0.47177615932414163, -0.5855115619643531, -0.8457978025727959, 0.007055810574024, 0.2218497118992011, 0.07234162571313153, -0.4851742640849699, 0.22269803888594392, 0.2181444833001408, 1.5114235484514975, 0.27315813437786485, -0.057488652465420446, 0.244351889689414, -0.2642798710484224, 0.48249840192727805, -0.5626042503078619, 0.33291828388236117, -0.21197883000856876, -0.5391743596424355, -0.14954473726015857, 0.5165714530926817, 0.8863865434437762, -0.3764249249361598, 0.14832715844646988, -0.5368066401883365, 0.7639076029772317, -0.0994673794837519, -0.4825432194778088, 0.6585196633365079, 0.5760232252697168, 0.2599003342052784, 0.0737437998941967, -0.8646994153311196, -0.1369218098054047, 0.38095806590670045, 0.5678656184930462, -0.5048801778838773, 0.9031597640491271, 0.3718925960249101, 0.0468214773682692, -0.32584011906690385, -0.26750785606718863, -0.5695387858343883, -0.7294518521038708, -1.1689283565428132, -0.18385335448781265, -0.34155649982654157, -0.22240155948132426, 0.6002763573568661, 0.7377969231224921, 0.2756201158769504, -0.7039803774142609, -0.12615609647226367, -0.7539639835283375, -0.45120096282951627, -0.07890886773290608, 0.16189788700543223, -0.15913237144896658, -0.6528957734507653, -0.11253379613856812, 0.590310241966622, 0.2777970708061699, -0.0243053683259144, -0.2810193804660388, 0.48897652612675413, 0.4739052897811768, 0.09602941539932891, 0.1610092001794072, 0.733526112606144, 0.07767831457238868, 0.5800727595082861, 0.2563521616074421, 0.07751694109523945, -0.7041679106424621, -0.377448919892644, 0.9445621607096965, 1.0938188908285371, -0.7991923220278433, -0.2781993344830918, 0.4242418156166595, 0.8729951673502399, -0.14018239053591688, 0.09573490311324348, 0.8149698642127078, 0.18932796618512593, 0.4634259645416843, 1.0274616169313089, 0.4414665389234076, 0.21727491288858042, 0.23121684026172537, -0.17121074775185177, 0.11126730443983465, -0.48972702975575255, -0.7891900179432432, -0.0948866180855267, -0.057394446809489755, -0.5939398889546418, -0.46181626443623924, -0.3480340540407157, 0.4291598040715944, 0.4254842648149915, 0.6535007181051936, 0.6947376360278665, 1.084624616998742, 0.5304735674171492, -0.4646599133821736, 0.8675671042917061, 0.18096317514416452, -0.21373398888766215, 0.18329380226413683, -0.41180728906449393, -0.6950278776196872, 0.6074572949421426, 0.9820218511010242, 0.12166412590007035, 0.8132917502838724, 0.464617730146805, -0.2151200630779883, -0.011770154053697529, 0.0667921377085551, 0.2200922717569932, -0.08150802759921746, 0.004316237307216511, -0.7573633867869993, 0.2963306548431705, 0.4859517620176583, 0.030599815643144446, 0.16649432361231964, 0.6629499986855595, -0.6462833853101022, 0.6754679567248689, 1.1662114571326356, -0.5386800159274994, -0.08358489470523503, -0.19639728189576594, 0.32208452589703185, -0.5708263708471892, 0.7520448492570404, 0.09973816417273894, 0.47115780246306954, -0.6639080764717289, 0.5599757236325058, 1.00774678347975, 0.21374622866358015, 0.4563555176337462, -0.19077657435590395, 1.0318824049905457, 0.177815072171908, -1.15237024807503, 0.22138079246946538, -0.8448579838169006, -0.3580101847297146, 0.004389026697183038, -0.17062129179588356, 0.8823839651123172, 0.28475249444582473, -0.4006173681008604, 0.22160904479685853, -0.23790773955592284, -0.030937851536905717, 0.04076750494209019, 0.25716401229879304, 0.5548235665349428, -0.9597171771074026, 0.7075032771626291, 0.30014487791081784, 0.3241159260456678, 0.2417867998421578, -0.04530510211962909, 0.4116161375810421, -0.2262631591674909, 0.20760349577578077, 0.7017201942966101, 1.0531397818548158, 1.0403933883113186, -0.42699434688624227, 0.9241738135933988, 0.25209747249339715, 0.7689961104297977, -0.44894736091118254, 0.46301109412743463, -0.08512117896299878, -0.057112926879841916, 0.7451037582448515, 1.0132360086542342, 1.0041927022490063, -0.2424103139430926, -0.22824365696617216, 0.4683429626630321, -0.8905791058755227, -0.7762175432359112, -0.09591901578858737, -0.8662621485137163, -0.5138604101905917, -0.3706658899051783, -0.15698834385904822, 0.6755864117356349, -0.18200946418785147, -0.5825635198224013, -0.34457565534735374, -0.36982599901823776, -0.3293365082501534, -0.2578261254355383, 1.0708833498531567, 0.31389009720951017, 0.13560230462503006, 0.7737640324004159, 0.6609178649269749, -0.5157018785831077, 1.0472591166979088, 0.02081624289835618, -0.558836686519094, -0.2958989379568778, 0.17105543432756684, 0.37307877167239056, 0.3383246205157545, 0.5527810809080755, -0.0017884977647710737, 0.8479282891120935, -0.28953734278638676, 0.6301888792406316, 0.6904193314547342, 0.6816639885943071, 0.9510382184910596, -0.5943133349532456, 0.8102310882680557, -0.5323315230109622, -0.41319091315238604, 0.6810849687124084, 0.6494262962000522, -0.29705063533998116, -0.16803410858184875, -0.234245706175679, -0.20163264982855972, 0.715003549902012, 0.5866261443593096, 0.008814093100513164, 0.01815243525235257, -0.31434747650249284, 0.9518603264841194, 0.23105481096580077, -0.816087371046205, 0.7396110047022998, 0.2735787392548369, 0.16774330014648012, 0.03699001507458301, -0.9193053550313064, -0.22958385920410995, -0.04690078267886877, 0.22266029578995572, -0.7913770938503741, -0.6815935181330139, 0.060576592036312826, -0.016179567279588386, -0.07603997305605945, -0.684860581329788, 0.26293569488858354, -0.7856561043202062, -0.6238466948235155, 0.9661047193995169, 0.07244565282114643, 0.19458903428559696, 0.6517821230405046, 0.5420408545430996, 0.546930719251315, 0.6677013693275158, 0.33805667367708864, 0.38492880355690023, 0.46590243741802007, -0.20182270108177836, -0.3026595794602565, 0.7423741723545567, 0.40656065105981126, 0.3387513228183568, 0.9592981250814071, -0.1607173094805927, 0.6470082103106698, 0.4776427006499626, 0.34799106247204037, -0.6129369744600666, 0.7281368108099746, -0.7875832434863045, 0.4769070625164493, -0.8509921194417802, 0.5067224223500797, 0.4347788062962966, -0.724572312142306, 0.7469281797402434, 0.33115591147642626, 0.09579810330921085, 0.7214282652777074, -0.609411127103398, 0.6976526532593941, 0.18692175151271584, 0.46093064224426566, 0.18212752932867676, 0.3053421301481459, 0.41451276425841244, 0.6426973215265044, -0.39903437787608625, -0.9036296249497252, -0.36149488083416637, 0.8026844645607083, -0.4608772437989477, 0.3572051004088237, 0.20650544481656152, -0.6791473604259348, 0.7066681775666854, 0.4444302734258677, 0.4885934559096044, 0.5464315330439946, -0.90133416673313, 0.2674445040420246, -0.9247226650029263, 0.43832514109321086, -0.7719186005175962, 0.5183731373631904, 0.20415131804429226, 0.3381709369046988, -0.2984717517753561, 0.7365828068085676, 0.5220643150584569, -0.7424564207121, 0.1122915242984916, -0.06092167671138382, 0.8011121259622195, 0.4399343470937098, 0.44817847500558344, -0.7969830407891167, -0.4200764395549732, -0.5801206332217297, -0.09806964258036688], [-0.8007964903817062, 0.9218551391837324, -0.6721950176288951, -0.8741000344028613, 0.8985401112294211, 0.9863136749153432, -0.6520897548426756, -0.657905082536026, -0.6389273175363452, 0.6703601254384435, 0.3863850581885018, -0.6616922294846079, 0.7003814992705569, 0.8498452164282301, -0.7187833500786994, -0.04116084861840737, 0.5932274686352859, 0.5003906030921685, 0.8709054740454008, 0.7963182138816545, -0.0942407088990298, 0.3219733277661836, -0.40978571795417595, 0.9519745598888911, 0.37895454990035415, 0.7645708325869518, 0.8538032596071599, -0.9079075645718735, 0.6291357848311623, -0.03643586970942403, 0.9516884090515088, -0.0030742687971179183, -0.8480026616195422, 0.39058762702734434, 0.28732593053385586, -0.9360238745420573, 0.49801049298326105, -0.7542084380320033, -0.9531466608363884, -0.9219048536703822, 0.06634731204324897, 0.27769484133195105, 0.7398273387399855, -0.46763810781447296, -0.18413260802438142, 0.11245112268011236, -0.9086479108839585, 0.6641014023722677, 0.2121548075311212, -0.9246799340093723, -0.026624191414894995, -0.647038006962909, -0.8845040676175324, 0.8793366658000275, -0.5707121006853859, -0.7585207939064702, 0.17905305733419286, -0.45643035460848824, 0.543854147447133, -0.31307923513795777, -0.15823194589095746, -0.03287761506387716, -0.10623514979087702, -0.6382805791629601, -0.07552098713907851, -0.5979321838223918, 0.6358898455585201, 0.9413195919022633, 0.2304163197991591, 0.6605142226607926, 0.8124851404734083, 0.25268263694947046, -0.35777674129910597, -0.26368885814788945, -0.3244555020687767, -0.9139017396118715, 0.6159115654482316, -0.9597006274728859, 0.3140686704892382, 0.04957822852050931, 0.7739372135257014, 0.30014408638338913, -0.8987220298504304, -0.7057580903849276, -0.15001823757169785, 0.2574560937217396, 0.6619090031743186, 0.1326043667334205, 0.07581680873090216, 0.08711892000818129, -0.4861951644705068, 0.6663214802807093, 0.41667112381489874, -0.17556225348187957, 0.005791747322314325, 0.2192222874858286, -0.8037262670879054, 0.4838400133628173, -0.1547474618783385, -0.5959164343228962, 0.37083579616663914, 0.4455582062738612, -0.4404439009567815, 0.3900628710446302, 0.01209866819747894, 0.13318028137081395, -0.35033030324832237, -0.5307313401336227, -0.7531966318982546, 0.2960988304701134, -0.09187285935966744, 0.6381931772346987, 0.6172504260923626, -0.3243862592212672, 0.3810976469381033, -0.8340619103490485, 0.43445283848030686, 0.09376531908547385, 0.06531068972011297, 0.3584043042440103, 0.6959055359634446, -0.82138299980646, -0.4877098949026008, 0.017159647623840098, 0.37995484615298153, 0.357320384629866, -0.1516575002460156, 0.1686268233675163, -0.3741434421695287, -0.2712420512354242, -0.0888138664419931, 0.46459452880291324, -0.23694254546909913, 0.944678862102284, 0.9420598117594011, 0.8590320832850024, 0.9264682144270521, 0.8863088531775062, -0.985081461484639, -0.25519116887525284, 0.4117513610310979, -0.14751560613941161, 0.8914386836265219, 0.04974167018507183, -0.21847642756735508, 0.5354814793680313, -0.7182943983686407, 0.34933979092480383, 0.6999234352384015, 0.6936259146718362, -0.536843569933144, -1.1091188628227575, -0.9778128450310637, 0.307381917672719, -0.3758316550598531, -0.8163240438457602, -0.09679961212449102, -0.31011687780990693, 0.8279187840343922, 0.346701035128845, 1.016371902574016, 0.1325344514515646, -0.11612037491844836, 0.2608654417046548, 0.4716650019750159, 0.5771568442323899, 0.4815584964006393, -0.8151426749622777, 0.7114468754335328, 0.4617203689286854, -0.046189907513276354, -0.5594402129952462, -0.3934559479521653, 0.053243350526387956, 0.701349751991411, -0.8168427468627879, 0.3027057144759691, 0.5925268591600473, 0.41794268051057665, -1.254300924782711, -0.8752377443921883, -0.37586234976542976, 0.1445277923865513, -0.3025766748044858, -0.0014660118304237922, -0.5011389447035642, 0.4151856712726458, -0.04363246721734086, -0.26108286422701793, 0.9496354958436554, -0.633977048035957, 0.6849433077194296, -0.1204430228470092, 0.15205765399349233, -0.33731693970874466, -0.14220827259810018, 0.03680739161514213, 0.18886046955107907, 0.6696659419045202, -0.3615885715852765, -0.8876032223884974, -0.22061126965158537, 0.4647851456524662, -0.5127592743898143, 0.6237496363246168, 0.17542500995308466, 0.5639122956366426, -0.9445116783846388, -0.9966841083194125, 0.4678867299607596, 0.4581810365130458, -0.641847844631709, -0.1884197210606127, 0.593469790875514, -0.3224856222572605, -0.31909682448356375, -0.6212323702166094, 1.0516596323656864, 0.29067388205004013, 0.010693784348252543, 0.6357306238789832, -0.6194235774773441, -0.9818723529446077, -0.1586365014405894, -0.4994076946495565, 0.056500259253041585, 0.18145111130558822, 0.1821799090887122, 0.13222867383442014, 0.7931496563285626, 0.775056883526412, -0.9141441568588274, 0.07038234703118017, -0.45714984076578236, -0.6749366630946793, 0.2558527508611851, -0.4432636685822217, -1.2965871828714688, -0.14047571419622695, 0.19829892190707638, 0.10140678926607168, 0.6852833864984895, 0.4151282469085458, 0.8552418897486423, -0.12657587090253844, -0.6047618739590659, -0.761778287700749, 0.08946855907109048, -0.4341838348743103, 0.4680146382273153, 0.9370526026840837, -0.5425164348724136, -0.8225428132324544, -0.9157468316985509, 0.3195414533698104, -0.33350321141253764, -0.7117891682257388, -0.8441274361233791, 0.17060928579301685, -0.9322321183586575, 0.7607388510458699, 0.35790632588340543, 0.3943913844718172, -1.0438504606517405, -0.8513642837995871, -1.1442775597834876, -0.13453425408738315, -0.24666621679707695, 1.2669201936079253, 1.1898029487749506, -0.09632359873813894, -0.7593759279976874, -0.7927711131740985, -0.8934494667690775, 0.5283884352454529, -0.17691902887197677, -0.22260001692623102, -0.4569618384727351, -0.70087480131545, 0.9058097009812156, 0.03785720717597813, 0.5726156194288237, 0.9011754385636203, 0.746281754062324, 0.07624397830055546, 0.047151260810569126, 0.061920905481747016, -0.9700805280278161, -0.21609649106682666, -0.1496552950197337, 0.2115006629803746, 0.05356404568056088, 0.20086960447759913, -0.515633838965419, -0.21656984868180115, -0.5498108292029209, 0.6546792339412513, -0.2957390894336211, 1.2246601700404374, 0.17548276734338705, 0.7656309867420098, -0.5420917291879026, 0.5033982805464498, -0.6010764797495309, -0.02922733061589012, -0.041807295516696714, -0.6004590426892958, -0.7609545845244273, 0.3821787380641855, 0.3183986890732611, 0.05172726152352778, -0.48709915563272965, -0.5008502675301907, -0.6508493410964836, -0.2854738406109115, 0.6939600027345689, 0.8152758051959441, 0.003971838818779773, 0.00876299948532476, -0.3341374853806489, -1.330239277187783, -0.2540117348489328, 0.2591709219465143, -0.48228021831861917, 1.1787293553107874, -0.3994231913808851, -0.3357508522121706, 0.274217598348852, 0.4674066610798731, -0.6412846852355447, -0.7880235054850061, -0.40963448512083356, 0.020910903118004642, 0.3250986620120686, -0.6518468854501195, 0.1443105973513075, -0.17044865858742614, 0.799961969755266, -0.8304874102812909, -0.25442177609830646, 0.3145429185064829, -0.25770668763441784, 0.7547421075075232, 0.7229382638479728, -0.0056514156113873365, -1.049730181882796, 0.09481237802897756, 0.030966629873529803, -0.304349199935485, 0.543994139230517, -0.05159527238010816, 0.6840079060868911, -0.15962117494586908, 0.31406571312864284, -0.20157973713696944, -1.0036973115468921, -0.0872817506740504, -0.44659732486065185, -0.18036033271032045, -0.09710978167654093, 0.8854266748766887, 0.5267719267422942, -0.524924045314838, -0.7941391704952243, -0.16653979405852604, 0.23900791827426943, -0.10366887486728334, -0.41838186934160215, -0.3546219119610696, -0.8586822932401519, 0.322126983023515, 0.567631960754198, 0.25236555859993065, -0.4410012387615836, -0.48105793575667416, -0.8752755753528573, -0.23116460929811608, -0.4957563032935348, 0.5387394545173388, 0.9273243071095069, -0.2896549822388657, 0.68763019575461, 0.25625000380723706, 0.6980297448375914, -0.9381347318097284, -0.052569692592704644, 0.5089951459035382, 0.17873888560197745, 0.5414425013660221, 0.6526867647636415, -0.16800404603412175, 0.6529169678803743, -0.15236482342982735, -0.8045806294337389, 0.21946837693567894, -0.7540092535727466, 0.7324488334210966, 0.8938151546306454, 0.5525724587906023, 0.4960835672707332, 0.24803691639599876, 0.3175758878319035, -0.937573045711343, 0.04598366385417495, -0.4925062229478234, 0.5346715359222226, 0.13604140745163576, 0.7605431595717234, -0.5800405991054469, 0.6737283170145347, -0.0327976280225414, 0.31574662213048993, 0.6193908268099023, -1.0650415236704838, -1.0678147104797238, 0.17982789889115747, -0.2817323543564354, -0.5254849535203344, 0.5268255362422755, -0.5505438789267925, 0.08443714563598062, 0.692286281079544, -0.5706624442775365, -0.45057183093225345, 1.0131722264877725, -0.148334603469211, 0.16684149511335375, 0.6216636865228858, 0.5802071286869123, -0.683547694283649, -0.5110133725930802, 0.3378034273286896, 0.686183262569158, 0.8750832408320306, -0.25807159055255996, -0.5678050804329197, 0.5722500293330225, -0.14461089728971865, -0.13499113228079476, -0.7110886902689041, 0.2175440294272854, 0.5245528350721698, -0.536082941792733, -0.28588984797448996, -0.2666618920704955, 0.002174570970792578, -0.21841769316976187, -0.4875386888771787, -0.7191290840023503, 0.2007729630467767, -0.8180241499275621, -0.6689700595498869, -0.6562247743105184, 0.9437426474098626, 0.044386288373241704, -0.18122135484210206, 0.4154232910752652, -0.39262524416805034, 0.25488297982369, 0.24604729507870313, -0.6365149849094645, -0.2882025466157736, 0.8034951871029596, -0.5393014097841676, 0.6050492571412532, -1.0086656804291245, -0.7656191674256781, 0.591752466578985, -0.8018353494907587, 0.747617630568532, -0.08961528175928772, -0.36203904530475095, -0.04237513186131268, -0.3743325451043447, 0.10864358183176821, 0.7996044514865707, 0.5156326306020875, -0.2932109633747012, 0.451448038309522, 0.13046876686291978, 0.379536618041414, -0.9178777235184036, -0.8638471696176158, 0.5752485520702871, -0.09442947849999556, 0.47878045217367243, -0.2906981678084064, -0.5893662233344625, 0.3359724765346913, -0.48427565353639057, -0.6881392556707983, -0.927638126269579, -0.5778952192434282, 0.729194418281278, -0.06172483806772557, 0.7355500789337561, -1.054858462035364, -0.9237520822992692, -0.3678856584363378, -0.6681243278856775, 0.4654492128206361, 0.3516047356697155, 0.053604950718752487, -0.2540162995254517, 0.5742000205146168, -0.9349603859441956, 0.7484903635738178, 0.2315059928574976, -0.6663918876582823, -0.5265197090149139, -0.2826973680559471, -0.023156911386098027, -0.9116412256476988, 0.5322157286950745, 0.333867235379774, 0.9331395286285558, 1.1953824430556321, 0.47352472161160136, -0.8876957664636073, -0.023174105399435874, -0.37175673814783294, -0.9352117552190823, -0.16770233963299205, 0.4785302535000485, -0.510885981604569, 0.54421310961211, -0.3011726600762258, -0.10545710586237722, -0.49117449741589186, -0.09053081302001385, 0.8503671568526519, -0.8747378915603712, -0.7365108788205295, -0.8292752036383645, -0.5936113276021443, 0.3512535934314705, -0.6836813876766953, -0.5895242075714866, -1.124267353531545, -0.34284558252265296, 0.3884221327095713, 0.39603756129650497, 0.6199042728431733, -0.4848893518535766, 0.9381552389879076, -0.0006354501887574532, -0.519779378585519, -0.938634599847964, 0.3618027893724246, -0.40060877099641906, 0.6088143816974195, 0.23303942049860518, 0.45192177563391767, -0.7462203038759359, 0.18193985962309855, 0.3415181844182346, 0.7609293844197323, 0.7800209920302593, 0.5384940905138151, 0.12299029289123013, 0.19882994795143305, 0.9888931711615946, -0.35238645219961545, -0.21884109666282842, 0.008515916732891647, 0.04766618444054312, 0.5867442339959921, -0.03190221611863444, -0.18037365722312115, -1.0160924845969146, -0.4893702748244926, 0.2657890297229947, -0.5375736677108488, -0.3515992606587727, -0.0760707554135783, 0.49900006448069223, 0.07506086721296558, -0.24240361140423738, 0.30540814280048645, 0.1794931529086589, -0.5878420709691482, -0.8678130605365161, 0.1736134094959482, 0.7956280906454083, 0.7170241832577616, 0.7474186445687363, 0.1576167371217305, 0.3656385545489535, -0.8188326824015402, 0.638072471108588, -0.6547950543042851, -0.9711166783774501, 0.5284152682639557, -0.6134617143858759, 0.4640087302901078, -0.08461379236221635, 0.18060028777592269, 0.3330299991040539, 0.4618337717574228, 0.2854275426351501, 0.044597118892212025, 0.13941670969574477, -0.8947727014637009, -0.12207249891822515, -1.1223334510207106, -0.4540111244375502, 0.012988726491383459, -0.7338930453267928, 0.30425798835767237, 0.30183070825822894, 0.5262809668181211, -0.22793330049080965, -0.7251110265498883, 0.1836023505673071, -0.9720236054190298, 0.07109038904645247, 0.8033908970127549, 0.8151443533060861, 0.32941908695563915, -0.5617368247749723, 0.5525688615980038, 0.35329933587677786, -0.24953176042229208, 0.43363018883919174, -0.6425927570363474, 0.954671731973646, -0.2435466088526098, 0.09336375946442639, -0.9919260871628967, -0.5367927816282806, -0.349438625457416, -0.352684219848306, 0.5769289329539631, -0.4318676128474307, 0.10331855632252936, 0.07412682423192832, 0.8675472338272194, 0.02808371881827445, 0.4212124927807015, 0.3744671194262222, -0.06643917807166354, -0.08722054841191465, 0.8348791935707861, -0.5088002605051984, -0.3987910965603536, -0.5699128514513787, 0.353050191530457, -0.4002530019878004, 0.8773756704353393, -0.015489504451479083, 0.9243522509339602, -0.6626043619591337, 0.3105621950250163, -0.26758949785130387, 0.10222601697503277, 0.18896523628966616, 0.801757642566418, -0.09606032079978635, 0.006437050019239609, 0.3119602971888529, -0.5300293540031173, 0.7914869533185293, 0.5232617160331737, -0.7310992212534697, -0.783760368029371, 0.22512902926564313, 0.23676347428904893, 0.7531218073646696, 0.7203953769385243, -0.9834908341623302, 0.1933796200901718, 0.35511665114538027, 0.780962537637367, -0.9052819572127995, 0.13190449227796833, 0.1602059508900279, -0.21499228202198478, 0.8900321692328815, -0.5201442506820089, 0.36121124672481975, 0.1508562973464086, -0.8103324021572097, -0.16056064256281258, 0.10808724707807335, -0.08862545512098761, -0.39997399637047965, 0.5538245903668736, 0.2683911499083049, -0.42400593441737294, 0.45390845620404946, 0.33634080827585583, 0.757691035368466, -0.44946076933052537, -0.45785603364688926, -0.9707679040335045, -0.8075579362949269, -0.24970923672331805, -0.763832271738805, 0.24231942966436967, -0.10366522317873494, -0.5613117915931729, 0.6782735953310979, -0.5023128499076931, -0.6059858221385724, -1.0082018879713697, -0.602402078566867, -0.3581869903527029, 0.4545015811003898, 0.19109367975535801, 0.3042855475053315, -0.446356705683293, 0.5665383396854455, -0.6752042835459983, 0.1815930077015994, -0.8787859372814522, 0.8808094382910839, 0.4667502902487151, 0.3433052024226096, 0.40715885709362504, 0.27870191248941417, 0.055460580628399446, -0.9531607631875619, -0.27090939867594793, -0.13615984753384258, 0.9419746780446265, -0.9067714683386829, -0.6241905046365519, 0.05227893109759618, -0.920529901282352, -0.022699458159355812, 0.12681568663479603, 0.9253908007303395, 0.2068576890345933, -0.0903934722004628, 0.5064387295415617, 0.7094452192983443, 0.8634713373441253, -0.9732304791358806, 0.5929409075889153, 0.07278651804432615, 0.4282962781536338, -0.0772571340659721, -0.4447743753939, 0.4904106714377245, 0.13432366351661554, 0.18041580645242203, 0.3504187987332164, 0.44119946549108857, -0.7317271646184954, -0.05524473935856333, -0.21595695834095777, -0.19911558527961898, -0.8526190457191364, 0.5023499262294613, -0.5833306370290998, 0.496128469004254, -0.7030311874124588, 0.8130277207322008, 0.005576946388611503, 0.1564450368915702, -0.31466435447789437, 0.7701402827753863, 0.7352410050959722, -0.8808686356790416, 0.4758994189671068, -0.1362078192734666, 0.3276716805235253, 0.45698591361925195, -0.9544730382680083, -0.8460377012944529, -0.37160599151969054, -0.7462630514298991, 0.9458160433883722, 0.4574392050329671, 0.8326608284499084, 0.4695269670644473, 0.8847830608962436, -0.8517857131222333, -0.5303133432354254, 0.34115764022019707, 0.2198154610852412, -0.5564480398429632, -0.8726173784054683, -0.42378544103073557], [-0.2437243352209686, -0.9778250889720972, 0.8627074072339949, -0.8695387726579316, -0.27296483505236036, -0.7202912870733522, 0.8838242672934544, -0.4557054107494469, 0.8608617665321847, -0.848348343905805, -0.2706526016436541, -0.2977304611441114, -0.4599972988185771, -0.8577825767248305, -0.9571584816969128, 0.30969415573250014, 0.13305917321366478, 0.7725081356181993, 0.8548507374154537, 0.857880100283466, -0.24059112596508636, -0.5107399649593822, -0.169742220030066, -0.13360056353043803, 0.20262660973283775, 0.39232168838790815, -0.5303918654813782, -0.05940325294143123, -0.5828712641542892, -0.11697650882725985, 0.36161598009781915, 0.27231310246640805, 0.04609907965406091, 0.7708331335077102, 0.19142199939830332, -0.43182328804422954, -0.25348672732655053, -0.009262354423731751, 0.9629207649467996, -0.24752197314651808, 0.31848580636845775, 0.006046431059862104, -0.04946543826923605, -0.6813391956223642, -0.43243638985867083, 0.016566980171723082, -0.7286177627937921, 0.7995986422415692, -0.9357781286178568, 0.9263008707664138, -0.4321348201214568, -0.13819718852073085, 0.8979842574006847, 0.7995933099304797, 0.2455035690210714, -0.32001884711301654, -0.03908834946443607, -0.5419775774981099, -0.21052565292003125, 0.24149603721066382, 0.35705062644776014, -0.40020014646482754, -0.6530795016855101, -0.7089304642270056, -0.4427786799020348, -0.2879760404072286, -0.6468296976900348, -0.28635993063241266, 0.08596266168500175, -0.8770420828877477, 0.4780803008611618, -0.3985041455501621, 0.3363411572929205, 0.7702873057796817, -0.6905485323804489, -0.8843800569328605, 0.337866169982784, 0.0695399464196267, -0.06508790105718236, 0.011810060967870505, 0.2542183442903205, 0.579083081888848, -0.8582230651250793, -0.06180951611393004, 0.3390272405173582, 0.2234751380664679, -0.2815153516429706, 0.9554455175307739, 0.31943772578510443, 0.7828592375377266, 0.7238145689316599, -0.8931085049554895, -0.9543495457337022, -0.5062301072909731, 0.7546592667179385, -0.05807718395535678, 0.6132012849167296, 0.4618163240373006, -0.25542374770010295, 0.6184886688176451, -0.00023822695054952052, -0.3436671833840721, -0.4757156492289518, -0.9188118726026747, -0.7952079314508432, 0.3772429101722785, 0.9748004786296792, 0.6690321364406245, -0.49382581482310184, -0.8217657751500815, -0.3215493186553118, -0.4639877741910361, -0.10479435358331446, 0.7152170291812951, -0.42279668520110525, -0.6643343791839261, 0.712928578995372, -0.016152438359317234, -0.3590621333356924, 0.5315969294140296, 0.27816808399631693, -0.21093163129170542, -0.36690316137450474, 0.14447450190699615, -1.1468243467673433, -0.8189921650389436, -1.0387242320290473, -0.8306694214896972, -0.4075237331211428, -0.7686011672725158, -0.2896155719213102, 0.12699634380076155, 0.5986631297505376, -0.5742592873432331, 0.6061383593802702, 0.9949790688253584, -0.14298965950190937, 0.1317616024238007, -0.7436689452403501, 0.39084878086576547, 0.21690192256670104, 0.38269007499535723, 0.676143482211331, 0.5000637361568028, 0.34514365960466287, 0.7115857933765926, 0.1932813595910838, 0.3345045854362997, -0.4954324506107955, 0.2838286067529974, 0.5861496250891628, -0.637384378777809, 0.36538930323220536, -0.33842688176337243, -0.059367046632018826, 0.5006428478627059, -0.7683600662943584, 0.29458982417725943, 0.047258292960797636, 0.4112961480707368, 0.5654045026382581, 0.4671590864031642, 0.9665310369994647, -0.036505193199998454, -0.48356352007057885, 0.8406924205522056, 0.3635910520473192, -0.10204377839730744, -0.3107177084417003, -0.32417263525882656, 0.5478680976002993, 0.7311896799899329, 0.8442961898698016, -0.2688355103195279, -0.6049094956692611, -0.41491311292248706, 0.4079547256801092, -0.23201022600217222, 0.047767586422150884, 0.32589213887189405, -0.33554205785149166, 0.2321785594392013, 0.388747326115695, -0.5420657199829911, -0.09097457729989296, -0.7438799999748277, 0.14285807326798397, 0.44018181862451283, 0.620885920609426, 0.10796938092954453, 0.3251036709959976, 0.5196224926155814, -0.47404527127112683, -0.18347219128941675, -0.5974726897766218, 0.6425003714056051, 0.723596418679155, -0.9943079810327198, -0.2090271331865201, 0.13827774542109555, 0.19498778729524205, -1.1481891716457477, 0.3312627330032235, -0.2893308459288509, 0.5160088697238633, -0.441541890553308, -0.38024120788403404, -0.6797876803592537, -0.11783030005018563, -0.1545003220705011, -0.14012354095378746, -0.2669719469956368, 0.1904468530551812, 0.5754035535796007, -0.5945720818178113, 0.6772513890480979, -0.30435365416591914, 0.8266920113489488, -0.2812164993394682, 1.2222216551047902, -0.37442703164037167, 0.8376006688947767, 0.06841710434313657, -0.8675620378084399, -0.8353849060958145, -0.8335347383329593, 0.47997834924252375, -0.6326430142510661, -0.8229614910014564, 0.5965283224907417, 0.5522521245811512, -0.3320358186776313, 0.7934383980785322, -0.3285924446449014, 0.9095936052625712, -0.21032967010270953, -0.9496057844751642, -0.20639821272217257, 0.010077391758380752, -0.5076905900872457, -0.21230327782942135, 0.5189381155569407, -0.08702401358528636, 0.04642805034878071, -0.38114440636190267, 0.76869728045489, -0.2651137814708145, 1.1603478205725264, 0.9104368039776797, 0.6944301778546508, -0.2114598233511357, 0.8640394282225715, -0.931536147113366, -0.18312672738112015, -0.13732812501275204, 0.04017975029124134, -0.9084581344848053, 0.22104048399837622, 0.20813471910331968, -0.40545446227206056, -0.2606251804831549, 0.3172898282621009, -0.04740135161964929, 0.3272606726052283, 0.11119313886477751, -0.7698897533098753, -1.197296966184924, -0.8568972969783, -0.7340657340488859, -0.9678174088201282, 0.08355024044592735, 0.23989956466482312, -0.6768372389564948, 0.4181382066806212, -0.019085004856277333, 0.027710245582424825, -0.29868614725792586, 0.3841493900185635, -0.2344020182716847, -0.8593078037435645, -0.5439574363813202, 0.05706617511023529, 0.422353283431346, 0.4688521490902484, -0.133522893237935, -0.011010133791678188, 0.6023881384615029, 0.7214266590287023, -0.09951359556452108, 1.1467921028047616, -0.36702366671142106, 0.5308361487438905, 0.04164015495285411, -0.42386945892121214, -1.6962024777810187, -0.29175401554831565, 0.15949120139764883, -0.34627524209902566, -0.9370137534537164, -0.005932709747312304, -0.9994211691881691, -0.4913778561552378, -0.43300677097286633, 0.04714228013903628, -0.38048292237336273, 0.6270202754268832, 0.10111772197090324, -0.5578437565160312, 0.36768011589919014, -0.39461835976091286, 0.6851604951521744, 0.6370980375987985, 0.24790128252772642, -0.015898397646089368, -0.5147858587683556, 1.0255691862828458, 0.7224992926764442, 0.1289996000555936, 0.6263047131756737, 0.9678538054242553, 0.036681234516236345, 0.13164977943352618, -0.08337932916607828, -1.4772011500064806, -0.3956077396117399, 0.06614564193098343, 0.05474468565099055, -0.2097614280911008, -0.1266571350532798, -0.09100535840819153, -0.9460802055968741, 0.20213498943583882, -0.3472736263886878, 0.6833325281390124, 0.5269170896146225, -0.9689246428221207, 0.5321831574215483, 0.6714385962586827, -0.8808443553677007, -0.7568712817026044, -0.009471971980339606, 0.17605805982049486, 0.10461090960537833, -0.01884974332400401, 0.7023316525688534, 0.827228564942219, 1.4139579528476585, 0.5556216604288695, 0.7025123920403686, -0.5289407512892942, -0.30241292718105467, 0.3448396223543985, 0.18129252215492886, 0.5333702375919824, -1.0222864864741974, 0.15536081087152268, -0.47092740331345306, -0.45032007983160255, -0.931321267775219, 0.30626960028907313, 0.7220796609900403, 0.7293279260064751, -0.41344777453450215, -0.12194793214918809, 0.6288261029512914, -0.35079108693288774, -0.6597054083325222, -0.3095458683071254, 0.7657155509652563, 0.8702394568088092, -0.14846989758370358, 0.04400007502225073, 0.9949748443810135, 0.29734403579020946, 0.00594624026237203, 1.8173493521632376, 0.6145059793498866, 0.4621872583557435, -0.6266227530062378, 0.7381734202396737, -0.3836282387482182, 0.44727078704844664, -0.028484017272768287, -0.020172737424279438, 0.41507185633962784, 0.03076738806956126, 0.26449908281655865, -0.2336317361515629, -0.16621099151951885, 0.6228666385706525, 0.23701698911076416, 0.29378077907500316, 0.07046256050341898, -0.22441480416834583, -0.369548323484841, -0.8309009674805804, -0.7406236713222574, -0.024794293026269, 1.065605075255449, 1.2183015237725958, 0.2026261950316475, 0.8807647269071717, 0.6000842884193887, 0.4656143840377207, 0.19881615923547952, 0.23656959118328352, 0.5827585228390799, 1.0292926562602915, 0.5467728259226595, -0.25290690734077625, 0.37390647435893193, 0.34306675525815306, -0.34617727819175065, 0.1730266721723135, 0.6078299677824651, -0.07633359880031165, -1.1137326929289082, 0.39543940917640885, -0.7863936383980393, 0.7249785490668239, 0.25657427123262694, 0.6812378252529233, -0.10070301905517932, 0.9427594860722364, -0.059791072312888376, -0.06820753178621096, 0.9630072931685595, -0.23788907333885953, 0.8633894732157573, 0.2066882125659368, -0.09172779275742886, 0.8228507009554792, 0.38331023326412356, 0.08113167434050989, -0.2727566783565119, -0.22544517024605937, 0.756446705059309, 0.6773915720617157, 0.34350677948760927, 0.6593230475148594, -0.6483277293093521, -0.7458048623155518, -0.5661458839656461, -0.9816999127576882, 0.4778268178678026, 0.352222824251806, 0.3201168261119369, -0.327922310475502, -0.5739338661959157, 0.27201242776161744, 0.2630746697065414, 0.3043704166151614, -0.21718047280368122, 0.45744159852935207, -0.12726596395486606, 0.5144143624788506, 0.40379015399220936, 0.5586094565492944, -0.13688313522841872, 0.9257251315190362, 0.7137800768273292, 0.26006477799827094, 0.250776174465937, 0.5016413500557132, 0.7229285915158189, 0.3033873169963156, 0.33034229462203624, -0.7762503777080981, -0.2494617960894096, -0.1462979453527901, -0.02115323346281739, 0.21225751609698013, 0.04258751803414257, 0.6401612903631488, 0.16280289875599283, -0.8221067478965344, 0.1756134204548685, -0.9763959744503513, 0.2581257123004892, -0.7699578797565464, -1.0871492238126796, 0.41382551933506473, -0.5522235165979033, 0.41863798607348157, -0.31229361139483264, 0.9237345852120055, 0.06755156843408036, 0.09470781192759399, 0.3079130880863764, 0.973385214093556, 0.9071263701429686, -0.2110779758304616, 0.7667988284403747, -0.0025552759360386924, -0.31413960184591266, -0.7139584001748807, 0.5162785210537518, -0.37180315480667603, 0.1417805186773842, -0.406707670755416, 0.08904171752113388, 0.05709759962836101, -0.9224074975154242, -0.05993430611223021, -0.7946997166038727, -0.20216342513282123, 0.5307641855592968, -0.6482090403078239, -0.07251452238464515, -0.13002369035161773, -0.5814260698352779, 0.25959916779850356, -0.3420721774520356, 0.18735716559056462, -0.40780184469624053, -0.24140095146321364, 0.25037681589763233, -0.10386595550049132, 0.8076038446647514, -0.12360480451354103, -0.14132663270725768, -0.48674464448757243, -0.42207150427325296, 0.75177032745102, -0.728990711513324, -0.05249328090307643, -0.6212858940446055, -0.22497023785792641, 0.006264622111193876, -0.7108059101220064, 0.4094653719177998, 0.49581567540182203, -0.1803778344793736, 0.606618339624649, 0.7055529969094775, -0.9905845840043432, -0.47045188507065544, 0.29134557083562557, 0.10177182951710087, -0.0150162215698174, -0.839158143407102, 0.150230802026652, -0.9915742191170756, -0.31800883179903855, -0.7384240519701613, -0.3797391050456391, -0.5698784590334794, 0.29412503131148116, -0.5261013191971827, -0.3953029817659249, 0.380416403573219, -0.17009569016084344, 0.22544630258947057, 0.7097459333362474, -0.5979766758824011, -0.7058661044861047, -0.10185267190224655, -0.7511258846739871, -0.4373679994428462, 0.32326365986579186, 0.2894963381562099, 0.22268311759342882, -0.004965477376560223, 0.3522104245772107, -1.2515439749888768, 0.4374075443615614, -0.47266494138558596, -0.4172072890089459, 0.11210921624753127, -0.2772045890208038, -0.18404221987659275, 0.5581291441972777, -0.15063140870038602, -0.7751343215848134, -0.6577046393408227, 0.1399043599076251, 0.16791348009854035, 0.5928749246737149, 0.7422173970891128, -0.5492199237101939, 0.23169994413345132, -0.665275721154843, -0.5819936115167593, 0.01266220501099108, 0.48360702374111203, -0.8983016918264275, 0.7444608343192609, -0.42920223953255043, 0.19021984199790798, -0.870268609368784, 0.333927531679272, -0.9379551505524971, -0.8922017788500696, -0.508249368697382, -0.6969766914103169, -0.040688243547191215, -0.5577440262350291, 0.06436278444469629, -0.5852367085888692, -0.7066856839606377, 0.22366537864940228, 0.3870964845507611, -0.3596699112314098, 0.22302618443565178, -0.14803302591339138, -0.4929608689550951, 0.15208072250876203, 0.45088535263250984, 0.8142327206543878, 0.47913604303641216, 0.31276864958586387, 0.5439487234145315, -0.4729449895237785, -0.5281595366200819, -0.02221531460010196, 0.3258299464127435, -0.7409111207791461, -0.3519722604128517, 0.6011845675696019, 0.8921681545177675, 0.34241495718538056, -0.5751883516442085, 0.22772341900744725, -1.0133445877094782, 0.07786295971616744, 0.4014661799838037, 0.8408912717241647, -0.38691371326240065, 0.26648069632665466, 0.2891688800299483, 0.5799742831595321, -0.3670169338803332, 0.11181226644060911, 0.2245325487818879, 0.6397026189653046, -0.5925369333779696, 0.3657702474338167, 0.7433486000916408, -0.4822956834611254, 0.7135501837911584, 0.2004954755904442, 0.900441914027214, 0.583820247666222, 0.7919390839086518, -0.5679243951955171, -0.00456822737374285, -0.6552773212819417, -0.23518142428843447, 0.5474949084666288, -0.6473721372858984, 0.23426013913193547, -0.397087937319599, -0.6764377783859301, -0.15556723383891644, -0.15736439459560853, 0.26222179534294726, -0.7837911448667234, 0.02216559891123047, 0.24026678714172484, 0.03503562569885397, 0.49761345091173753, 0.7782724352060566, -0.6223737558156935, 0.5982371706379209, -0.5150962335711191, 0.7645044067689285, -0.4426222988443291, -0.6528219957827591, -0.019462914916744907, 0.054279162205659655, 1.0003634505320544, -0.15123387530872257, -0.7615622918745018, 0.4631884055742037, 0.20969476764509473, -0.300009464737136, -0.003054195088358473, 0.2958035773259425, -1.145931249416543, 0.42289989196107347, 0.10081130105708729, -0.908098231860674, 0.3447223016364411, -0.09817590377871896, -0.04528967126243444, -0.12512470391077618, -0.5912588497431867, 0.52465489852461, -0.33983146846861606, -0.3620003217699371, -0.4798708995927459, 0.07879257829892057, -0.586000162236728, 0.7273565868904701, 0.4315147781215452, -0.7123997979754889, 0.7293998803915916, 0.9846426864240964, 0.6961198036043137, -0.5661984407994554, 0.5359937156733672, 0.8621476066668408, -0.612428522118331, 0.46892715316657857, 0.626642357542047, 0.624503575179442, 0.5993817716353871, 0.3414257146553779, 0.6947002222231987, -0.30917984871066645, -0.306217581467416, -0.337841424286933, 0.011732352242381837, 0.15233866857440814, -0.4550257208925583, 0.5612466036075872, -0.7057241907095564, -0.24763267843862383, -0.5120349161475689, 0.4449214758278081, 0.6985173526502171, -0.31665750173344015, 0.8815841660838771, -0.6866952702835866, -0.4070259837370299, -0.3383991472439307, -0.4393108031352668, -0.045399013162559454, -0.4408571499371443, 0.08658670163020443, -0.3683479126412883, -0.14233244161141945, 0.8321873532682846, -0.4161847480682251, 0.5567879008882031, 0.8078599712503423, -0.4674919860944138, -0.9730495673092189, 0.6671176406875409, -0.9105493930987109, -0.6215071535411704, 0.5598906878096641, -0.06964874946305168, -0.4661839708734198, 0.4687358331989925, -0.4243010030872546, -0.3374010902515228, 0.15167218199390428, -0.7183576079338079, -0.2244865276531907, -0.44833895334321117, -0.6346563610416686, 0.8899772826687429, 0.6486103544818937, 0.30855326263915694, 0.23701025130355058, -0.44114270334027994, -0.66615177273239, 0.16682036204445327, -0.5570368363240314, -0.3307112442482336, -0.5659141520397148, 0.3393748160074483, -0.15948787185484192, -0.8712397783629009, 0.5406807276660088, 0.018626072706531507, 0.4561638835594176, 0.5478769086248181, 0.7953535820115848, 0.4028265761897853, 0.4610879066586023, -0.8658347767829417, 0.6399343450061951, 0.2721308753956022, -0.34741170542295324, -0.8165484884111501, 0.9329558798955165, -0.3565596236161941, 0.5748009566794702, -0.41442907717688215, -0.9813444810293559, 0.1513037766985461, 0.29669498185115883], [-0.006385022066759838, 0.2595141618339898, -0.18491556150675947, -0.9462755362495063, 0.8391688236741304, 0.6340245979569141, -0.07777683598948304, 0.0006136821111635271, 0.13650066868837007, -0.3756653590491781, 0.2558301446917024, -0.22967591123288722, -0.09607869463115083, 0.73343673429659, -0.7740777806974348, 0.704021350844406, 0.8978207796977511, -0.3543369961644631, -0.7845899864953223, -0.9838375800572075, -0.7439672612784856, 0.4172413076911967, 0.5909637956155585, -5.444723643965865e-05, -0.916045290295697, -0.03624726604410733, 0.9514702492107818, -0.7807697213428328, 0.5924435060951365, -0.7585040440991717, 0.3638577302190009, -0.1290632714922484, 0.5791019986478911, -0.9809681953805345, 0.27605423899140275, -0.9889362910951385, -0.43881117885949544, -0.08621484634902295, -0.07610773033097984, 0.15900472687120604, -0.4609838661071344, -0.1745024926647479, 0.16054733324577566, 0.3819094943861908, 0.42882721069072804, 0.5953232433716535, -0.4325415646264811, -0.9589374979972963, 0.9666113383446836, -0.04779455411672768, -0.5166966615924371, 0.48679291878687647, 0.13538556213725372, 0.12346953682427153, 0.7980117507196727, -0.47151398563808966, -0.19687143876816204, -0.7672974560834176, 0.44000762248182623, -0.2321885159259967, 0.24245788905579407, 0.02721501140983871, -0.63694492130633, -0.6068895142590899, 0.24211367915531318, 0.025329654299919895, 0.5425477266101212, 0.3036065002624739, -0.460744615595516, -0.615083017798704, 0.6325444410703598, 0.37368129276308815, -0.8802372496441152, 0.9924011777702177, 0.07402640514312545, -0.8483242248938705, 0.008527858896672978, -0.3149543117352629, -0.0037999988358313748, 0.6653001187976841, 0.4565735882033385, 0.1670090751687828, -0.6020335965793815, -0.30147979803293157, 0.40947255934106175, -0.8188182399771176, 0.08397396656187495, -0.9997418044352837, -0.1405450268481487, 0.08215464122713678, -0.3837758766294934, 0.012107818263221146, 0.6262448885659752, 0.8339640522812791, 0.4080859133237668, 0.20747100981795005, 0.6381508417761674, -0.7693269490784846, 0.42280489457221077, -0.2724097461269082, -0.7744194854943931, 0.4289227863495133, -0.33742415212491256, 0.10322287393785932, -0.112864437369969, 0.825688192644177, -0.9142235180395267, -0.7135728828796164, 0.9022715206901236, 0.5886502602503785, 0.92256227270854, 0.1229128736372258, 0.46754437570506213, 0.09830745626187679, -0.8756513743293864, -0.7493209803267029, -0.2500260738651532, 0.3535804327634839, -0.5956312095365397, 0.37437744677670054, 0.24935335745264428, 0.11845105063318828, 0.08623142652053947, 0.4348872994004781, -0.28826643543437896, -0.8667192382736667, -0.8455766723876105, -0.6305227045728102, -0.8471514553186097, -0.549609210191648, -0.8434180079689767, 0.011217584468692683, 0.8935552338276608, -0.4308928451667819, -0.4231828120106008, -0.2400042088285903, -0.5904385532314278, 0.7232098341677029, -0.3250728475002363, -0.9559044520564635, 0.6771867622292178, 0.36547600504423117, -0.37743059997978967, 0.7683708620555421, 0.8934117309143629, 0.6337949388382295, 0.4953401380922937, 0.8590664190016385, 0.6874291399235704, 0.21433725944224424, -0.2239635405933948, 0.059069178854580864, -0.9619488244808551, -1.0310278346162427, 0.27419303495280833, 0.8552927504922149, 0.029043155641495472, -0.5991076274936378, -0.14010171264411206, -0.49692104229648737, -0.8270799113537586, -0.42972351178068885, -0.5596149729800666, 0.8551236559482848, -0.2082721285052297, 0.5676379164061539, -0.5824680694444678, 0.23315815615107446, -0.8697767337412587, -0.18741173806188488, 0.058082150679632294, -0.6753153527372968, -0.9158360425998945, -0.9924941527287537, -0.7912849119648907, -0.22227615683125687, 0.324959554933583, 0.6869269455247542, 0.644098562332252, -0.11796028339345607, -0.8364388239701459, -0.25606427308316965, 0.4529713378218879, -1.022710388859013, -0.5335139947642384, 0.16804052416930293, -0.23742765571366128, -0.9676921686430677, -0.059090883535657376, 0.23531596008796582, 0.10596501391805421, 0.491856980026776, 0.5168948111857493, -0.4664220420123799, -0.9191545440207854, 0.32401208795779923, -0.673612807444658, 0.06275200241973271, 0.046692024551233245, 0.6458257554004583, -0.17384732113631676, 0.15023247456631206, -0.7442400456102585, 0.35360756362631285, 0.4139789407996115, -0.30322459863042944, 0.48383783074268766, -0.13962248032668353, -0.8663874888698104, -1.0331246877117464, 0.8272480283712761, -0.2714312755688969, 0.5599014391368575, 0.7213596958677019, 0.1742208648138613, -0.07747816574193993, 0.6013583944302598, 0.31453041788510183, -0.7607710911832453, -0.8849581957580971, 0.6555826357633089, 0.45985814668924185, 0.6241939407379522, 0.3643171690423453, 0.9860385684634247, 0.3752510022622131, -0.7664743208998566, -0.9697539370451009, -0.019458337820278643, 0.5113843509304457, 0.7186978795381753, 0.23467117079264804, 0.18205799994735175, 0.5911213687493826, 0.18226206574896528, -0.21717573475240234, -0.2795972485577052, -0.3632641117424293, 0.19111745401720628, 0.3701616200433482, -0.25358847177609933, 0.01054278472765014, 0.6155642457585958, 0.4660591679984277, -0.5785963762150174, -0.08015903932220728, -0.9178139918313125, 0.11316018198706704, 0.0758709275615797, -0.9605700268464165, -0.9831189979127355, -0.9245666717382147, -0.6449590971289986, -0.4840169232336099, 0.6510848166558942, 0.7638106572144667, -0.2786820388101831, -0.05351735502781429, -0.8435234733647106, -0.46095337230543515, -0.8331940906764526, 0.6199561666320321, -0.6345210863093046, -1.0067807325444045, 0.5546863647222308, -0.967748804196128, -0.12264005800650073, -0.48834486648216596, -1.0427653879597552, 0.15863948091935207, -0.5885534508834044, 0.005960366359623775, -0.24677933010969186, -0.36476376780054187, -0.6653391512498124, 0.23562509674862353, 0.47682539757904124, 0.07182058726718372, -0.0852301587977656, -0.5289575489165825, -0.2788302226755033, -0.3850985591168518, 0.2348809049068098, -0.8968007114535927, -0.9496216886938021, 0.3191224484080047, -0.3516890962896254, 0.6686829078958726, 0.08596241643526091, 0.6968221518630391, -0.09099754785773703, 0.024823270900748803, 0.027986569973231835, -0.6154042382124226, -0.08526070485694198, -0.13264922151744757, -0.04275000222987052, 0.8348651057078077, 0.5255325717879094, -0.18068981091477954, 0.7630264682773102, 0.17465342019022664, 0.7472575488965647, 0.486038336175307, 0.4500266096743944, 0.7222033777978099, -0.7649675661520227, 0.44958804690986853, -0.43994419654395545, -0.7700728481677539, -0.6161396655901129, 0.8495952993696622, -0.580096600836571, -0.6094713401114148, -0.06946084821432007, -0.548090430555812, 0.5858297707451331, -0.8566923540321695, 0.10570405056620745, 0.10165366574387547, -0.7887865023278545, -1.0687707240422233, 0.13962647983767984, 0.548442945866076, 0.806593086107395, -0.17994009708249814, -0.6713491346643573, 0.6253294015593917, -0.35431033552218916, -0.015605252494982378, -0.7370918541617926, 0.8089447873439507, 0.7922744660092995, -0.09175127634551788, 0.46200714750955474, -0.6193131925812073, 0.977837831983632, -0.7536039674807842, -0.13811817839777474, 0.16026961640572374, -0.9067092167634357, 0.3581204086953355, -0.019506169634980364, 0.3483019777012273, -0.44573593543974144, -0.9212960212320299, -0.050675342658520986, -1.1158180918200147, 0.010926860044662114, -0.3022085680366908, -0.24551900905985122, -0.7154157306715988, 0.717143497207122, -0.16036950912104542, -0.808093975402938, -0.7066635891819026, 0.7346116044621123, 0.372522018925758, -0.1631482543766131, -0.34071939299496024, -0.26313969330450376, 0.581520730256999, 0.7684500021761581, 0.9483248349653676, -0.3068881495509139, 0.6287483799100553, 0.627941447299577, -0.6725335539711377, 0.11966413868762257, 0.2514121576521579, 0.3917062744084651, -0.15118959669152732, 0.6891545573783482, -0.8914967845981979, 0.345259781798808, 0.6013812958928763, 0.5676888844888792, -0.1908798338349294, 0.06567079165000911, -0.6910453443297402, 0.47039850643926656, -0.24511015192692837, -0.3552338347388885, -0.6547871429673713, -0.1552892724890511, 0.08002550098544668, -0.29222895600153137, -0.4215111646462775, 1.0101245850142755, -0.5129634015506811, 0.7697751398797145, 0.8951597975094723, 0.6574589197245758, -0.7254733078950092, 0.7378174708194501, 0.8650297534467755, -0.15142982951077216, -0.3291202347123933, -0.4510347542697808, -0.17982725100389949, -0.6576086486534936, -0.4010098241434766, -0.34436517634046265, 0.23952630836541566, 0.4872297534276305, -0.5463674212616413, -1.0542312917103185, -0.5304600502110701, 0.31965203257944325, -1.2292867529647016, -0.3746165727363253, -0.6608731461708452, -0.26759988485171776, 0.3285705356706026, -0.7948075612642905, 0.1366334375015534, -0.7412869369165899, -0.10974759279178888, -0.08433771884622517, -0.17320893636037654, 0.7104849168160847, -0.8894246519731381, -0.3150579136349807, 0.7031452117833793, -0.6134734690172445, -0.9137214880569812, 0.878083530466811, 1.062172382187674, -0.4233310984750723, -0.5002103823124256, -0.07908748078672985, -0.04068436527469221, -0.9853214436865176, 0.8479083384207007, -0.7105425187270893, -0.9494806940856684, -0.6800471568733695, 0.13426082993093175, -1.0129982784189, 0.019632413484908576, 0.7778798662926051, -0.060939415523252, 0.7265762370336651, 0.08650858447835122, -0.6401916104107268, -0.9190923264748754, -0.21833166051086514, 0.7803778344476724, 0.32277898666294047, 0.9349185489407731, -0.9701729292754562, -0.996113767640282, 0.8379392402324775, 0.7139115888541128, -0.042664025707031275, 0.7662565445300877, -0.008656772578228554, -0.18943136937175464, 0.09817240904223719, 0.2815722998035285, -0.8032713344568103, 0.5011711468564293, -1.0088093192215895, -1.0088700507197703, 0.7233099594672284, -0.08920096536155062, 0.513366499908992, -0.5268329239590713, -0.37361676303145247, -0.5922734939667255, -0.6823120349306807, 0.44593416894795357, 0.7299189210541296, 0.9726627875159939, 0.4141392568687347, 0.2190711624825494, 0.297090044196312, 0.4955824881659277, -0.5859909079785566, -0.5608602979199374, -0.8292961468247885, 0.3194248720372771, 0.0359632747370505, 0.44362150018191243, -0.8903406708792089, -0.4237446644237506, 0.3323952621934533, 0.8982828770247423, -0.7972859280707953, 0.1283551884267673, 0.35471183644198695, 0.39997887637635504, -0.624389533149855, -0.7037647695216778, 0.6178934757892696, 0.4834617160869729, 0.2613252619113683, 0.670967489631146, -0.5306537521993123, -0.20848407968337337, 0.19203508608622294, 0.0264073791993966, 0.8123768572499379, 0.9163467829990114, 0.4521259560409892, -0.275489748538878, 0.02058172299749443, -0.8989143538403328, -0.21026188882204885, -0.8772510486094728, 0.6475831985064723, -0.38080241233839673, 0.7393359390632548, 0.8359823106420121, 0.11127276251142998, 0.7345660771831898, 0.2043807179254577, 0.3299887361465816, -0.9506901982671982, -0.5677631540420823, -0.907994555349721, -0.1372278570050317, -0.9007950861154771, -0.02006758514794849, -0.9663418658118305, -0.21831329842662697, 0.5256875075305611, -0.28620160758764707, 1.031848152498113, 0.8563460289631442, 0.16686304894628612, 0.26704052304404985, -0.39674901463382184, 0.27828618569084557, 0.04800718382015272, 0.6553178957906525, -0.7821164735299536, 0.6852103659805043, 0.5845448761228879, -0.8149888864297493, 0.41308344733868235, 0.7317273085854121, 0.8746269845409923, -0.26502602217205073, -0.03550961926237507, 0.06243730949745313, -0.5270006344205456, -0.49715878564869553, 0.8866628313595472, 0.5050331195945911, -0.974909678068351, 0.4400852849290636, 0.48055337889442756, 0.975003804073603, -0.8074622996526503, -0.5268892088245218, -0.7910579223160968, 0.41388284869242264, -0.7097343086392213, 0.9780054192702274, -0.325004631076365, 0.9153564982337798, 0.25521155436308834, -0.4693544970203017, -0.4358571272039266, 0.06447242746456347, -0.5751373344255475, -0.2074661530015668, 0.9466166335812638, -1.019470502517476, 0.34950617459880085, 0.4735918561348972, -0.4649795882613996, 0.21234772797181603, -0.00581450417530685, 0.3861267973063133, 0.1799847334681152, -0.7352979937939444, 0.2506721406884109, 0.29259969470728225, -0.12258435144029309, 0.8296613936166193, 0.22971742091571842, 0.5347189480268333, -0.11004314465420331, -0.9777294360670641, 0.7834779559172974, -0.9594043825980637, 0.12356147450114574, 0.8487851259373217, 0.2754459710601172, 0.8837609139219583, 0.7129977286672725, -0.011385111240494347, 0.45563386425322017, 0.09384569267085564, 0.15929543479888064, 0.6879535615607387, 0.18820558711519347, 0.25964556586555765, 0.1651698327469315, 0.2504311235752137, -0.5113092351368643, 0.30738071294669916, 0.8487792059436174, -0.2177272355297063, 0.38141072736407233, 0.8203142497058198, 0.18906764702012366, -0.048842567329576314, -0.6543735721303551, 0.8208205073462704, -0.5182175664850489, -0.4883750552092901, -0.71926328336352, -0.001643775095519298, 0.30930167750976767, 0.6212879125652584, 0.7298750988070641, 0.5633760997874282, -0.7520177929925298, -0.07937353025216767, -0.6576941724186797, -0.6161588746963819, 0.7192603350120571, -0.7434783011295153, -0.8874563462866877, -0.3947846900898156, -1.0094061139745254, 0.7921277640716541, -0.3106778722646288, -0.72677025018136, 0.836646238411875, -0.5373145186195033, 0.5514077882400007, -0.04886424236852033, -0.926234777323836, -0.4891564165335617, 0.13461782107172005, 0.210232125722938, 0.7554040092941783, -0.5160239441239056, -0.46720214252013675, 0.8498233536386024, 0.5602080238760698, 0.6059048435217247, -0.9611346789206636, 0.8437396344851092, -0.170671492173086, -0.4057277518239196, -0.8827635285285085, -0.16336237971807924, -0.49593381784503976, 0.6717118139763005, -0.3949203810302005, -0.29898507926120066, 0.5895891343136247, -0.03389627263513533, -0.34699833557210585, 0.48950941774830625, 0.6457597169293081, 0.2530899338530678, -0.19907236084319083, -0.2938184660890739, 0.903636481488991, 0.746895784753085, 0.6819752121567286, 0.7721828581292663, -0.7198220679182789, 0.15441112044402355, 0.21774902289179385, 0.9948202558998638, -0.15975062291156483, -0.08731902069270614, -0.08262140176376312, 0.5301529164183626, 0.730898515105547, -0.9908566716678491, -0.36355537010880173, 0.8230653432006193, -0.14234960911225839, -0.5676084074371006, 0.7490941612034085, -0.13195471479106582, -0.06549946028072713, -0.8587762282109485, 0.47565869256957327, 0.25525293888105616, 0.37181292372909086, 0.03262630250655796, 0.7414462316103938, -0.37679142045151975, -0.6468840093721591, 0.4867571938058704, 0.2898502673401821, -0.9978842827804394, 0.8417950783429818, -0.6253784165656663, -0.15191235305313525, -0.32902882091034735, 0.8882558909989646, 0.7209031971980535, 0.15625503042511638, -0.5233686756752942, -0.9670811007541783, -0.5379887777718997, -0.27652470041649724, -0.028399347949219902, -0.6215712381859758, 0.7579180477810002, -0.2459389766670786, 0.7521849026264744, -0.5270358685321657, -0.7180410444266077, -0.8608498461965258, 0.5757902841871881, -0.9067981443146295, 0.6057296830623399, 0.5354565264882052, -0.6768752616023427, 0.18733693207548172, 0.41321226865753563, 0.9621561807013893, -0.9568212026725146, 0.4831873937920683, -0.1660519397957615, -0.370000362227103, 0.6238882194790945, -0.48492171741124923, 0.970008355878879, 0.32861146138987407, -0.3155225420807193, 0.6855994158283967, 0.5644567687638357, 0.6531698669938663, 0.9493304945723862, 0.3197418816187507, -0.12456407246101095, 0.7973329156266492, -0.23651242538231604, -0.41097416634593087, 0.20622074497490878, 0.47690473076237544, 0.026778988557555103, 0.3324087941675458, -0.37843102318561034, -0.819372004641392, 0.10790654884981934, -0.7564583832229572, -0.5232861448117834, 0.5544966426854984, 0.8510735094810757, -0.30000931059972197, 0.1318996042568159, 0.3340318367081698, -0.856820074146488, -0.36851446151122413, -0.7636757013692228, -0.790250173795221, 0.783906506291278, 0.578543646435886, 0.385216639881818, 0.47051586358617986, -0.9977666656191285, -0.03654932946319431, 0.9511280505012659, 0.06662446529163238, -0.04423335119843825, 0.06776362847749119, 0.46481177640390764, -0.9252659498147684, 0.9548515304018645, 0.6501074430342361, 0.7507327158476281, -0.43399391084254624, 0.2829842911094908, 0.28542372464115556, 0.9378879943152691, 0.9413783712498015, -0.003250057746733358, -0.09570053773722087, 0.20478156381732582, 0.19800077177294972, -0.300039230333776], [-0.10624722088837912, -0.9617247800254571, 0.4612029665897379, -0.6374585575303766, -0.030311029540412537, 0.3515910987249795, -0.21221284745088287, -0.5027781493705221, 0.8150943508495978, -0.16816899807703156, -0.006698492427801295, 0.4407764254065454, 0.4347973987580923, 0.7329675833644638, 0.25766801449522575, -0.5051248606165002, 0.8341826407166979, -0.7943734925590022, -0.5228614960424973, 0.716059538915675, -0.05114698793344341, 0.5351903949139025, -0.7404337888397317, 0.8585221614795977, 0.7862751660488623, -0.10233496392980679, -0.6070382261871354, 0.4444269649520922, 0.9076619394752936, -0.5908948342111802, -0.7516906838740458, 0.6909205529692453, 0.7885885831791359, 0.11264506802189556, 0.5108615108970407, 0.7260966363077845, -0.037514745975144786, -0.8151611331164912, 0.42444021665157056, 0.0814174291976637, -0.39199434983597803, -0.9819099544828933, 0.3246256450947023, 0.5140117751030384, 0.6036873390123242, -0.6445427244756142, 0.6033629287197433, -0.849131064853704, -0.32025470986215954, -0.6077048889229387, -0.5060042370214495, -0.48076238901160107, 0.5222503067311246, 0.7444347192663126, -0.38458032857508107, 0.22464206625617145, 0.08958270286359293, -0.5931907735993571, -0.49325635796340195, -0.8342148530673203, -0.3612723149905372, 0.22954943953487153, -0.8575003416288183, -0.26362383430617453, -0.8025914362767248, -0.6794967085846064, -0.10902422959172493, 0.30066464551139627, -0.5005287609400226, -0.49301072480594793, 0.8578614284361462, 0.5610504412355337, -0.6101525990184798, 0.2287252690116139, 0.35657131722046753, 0.777242090981526, -0.7907981171885291, -0.3214660430665293, 0.7866255886983317, -0.7785287656137913, 0.7938473187436057, -0.10075130317814293, 0.06320936865415727, 0.17959240590879433, -0.875689684449735, 0.20032038441464284, -0.5525775868224627, 0.7976770590595582, -0.8659708047007, 0.4958169761312503, -0.42526243703527733, -0.7275611068694976, -0.08551974060273189, 0.6575279585165382, -0.5586776675224864, 0.9843887718066059, 1.1310727977521726, 1.1370993265804006, 0.2592283478694768, -0.12948928638751603, 0.6258433767248773, -0.026706202991676517, 0.9730828573429553, -0.3006489572892907, 0.8584379256387893, 0.10488847888084094, -0.4066423523216516, 0.37960342270037734, 0.5418725621956973, 0.3640558320204687, -0.8870716098722158, -0.8830963824041849, -0.9865003948351796, 0.053664616691156256, 0.8146401745823924, 0.030252243530029185, 0.19777414026958087, -0.45118688398569157, 0.6599870246716554, -0.12010444271007888, -0.7948013274877623, 0.8470709843106641, 1.033976056683199, 0.14009187016725516, 0.9057884995438217, -0.306102487403948, 0.1869017011164828, 0.22918805963429906, -0.5198072633496313, 0.6097356493440182, 0.18041249803081072, 0.3910018504956886, 0.4907712305334472, -0.19154042830329257, 0.2302550362763561, -0.9957256994074839, -0.8255824379281729, -0.3889937559204629, -0.8725176800304967, 0.38536750922772534, 0.5286171610813906, 0.9964863790513123, 0.24956555212662557, 0.33534624349702036, -0.04828830881338628, 0.4870772161301708, 0.41812886043702374, 0.5464241523123724, 0.6855910282066855, 0.5034791985064245, 0.7978898029620024, 0.41633763156503895, -0.20305152996435227, -0.253446590278203, 1.1372508831350496, -0.3719108090749885, 0.6516947677265336, -0.7971523961079304, 0.638323641491554, 0.37589652506757687, -0.8125941966381556, -0.27299313681913806, -0.8367935820541228, 0.7221501495635276, -0.011394651160673048, -0.6008311555690637, 0.1463525145497075, 0.45110078669618003, 0.27515222081982404, 0.5209222899858806, 0.8999065624666049, 0.6662437211465875, 0.500712850586456, -0.7489881552458628, 0.9324195452867795, 0.33482223142799555, -0.40635993390450176, 0.10258089028052049, 0.06177763953009711, 0.00759135425464421, 0.19829777681423263, 0.33517803653248474, 0.7181738076748013, -0.5932863657058134, -0.36201764426802435, 0.6717752997821612, 0.19090759649814748, -0.546472221882059, 0.8247080982191195, 0.04194473042632707, -0.18706985948227312, -0.7653875416882175, -0.8008170566666168, 0.6574544995630782, 0.8781931123846775, 0.6409187031673017, -0.9487182330802951, -0.5300584695023589, -0.16223020910249755, 0.6021987278315817, -0.6883797853311465, 0.053836021668945466, 0.6334095786780877, 0.6935029916647026, 0.4760987799404355, 0.5522769476477712, -0.2907868834562437, -0.2444402180310154, 0.9076724465699361, -0.2952571010668249, 0.23452309644161448, 0.24406841536193424, 1.012492179093439, -0.22821663882563498, 0.38746832279231425, 0.4166000215664721, -0.060034296103619454, -0.44047120377833987, 0.7834133285673446, -0.6800140855446403, -0.487390142929475, -0.4661505689044102, 0.8268668917869435, 0.9545063224818447, -0.08297512895731318, -0.9018835091454169, 0.2527747397492172, -0.006069390319640521, 0.7564493443772966, 0.9154701304766594, -0.26123632495093785, 0.8292233932435057, 0.5605192486033058, 0.17669701988818054, 0.3864620867803832, -0.07581760850567833, -0.6903319809351028, 0.4675234935481376, -0.08731835097975008, 0.6327081803953536, -0.5419651108235662, -0.008531223473808514, 0.23457601015628504, 0.1800694360743703, 0.886321545055456, -0.39741761193121067, -0.7348689467211005, 0.8943140006165219, 0.1192283554253321, -0.9422205853121773, 0.10796790254723655, -0.9533848042628644, -0.6647919081493496, 0.15774369843088032, 0.19292123957879073, -0.22740136724529295, 0.8890743507577404, -0.5239830576421636, 0.22061405419046481, -0.6437109227966559, -1.0325171468879426, -0.708783247802552, -0.06611816699719714, -0.14655863748562395, -1.4786206210397452, -0.44571265660357917, -0.2558599615037299, 0.29277578980842706, 1.0320964536841981, 0.4285545811526321, -0.002799023322583816, -0.20315811804916897, 0.38469354434702074, 0.9039618457620636, -0.9956890198137642, -0.12130716529269125, 0.14977639684667055, 0.39498651104600907, 0.31838459777333855, -0.996041612376379, -0.6575181351833073, 0.8476991678051564, 0.4404168114074591, 0.35088909024290305, 0.8712613511040912, 0.16567849632141202, -0.2644722167512035, -1.0920912091276826, -0.5846676936493614, -1.201177265867378, -1.585156786370934, -0.5303879109019214, -0.03376293654699647, -0.1245537265282176, 0.544022492494664, -0.08313765157185561, -0.2701966252809551, -0.05811704836388349, -0.12058695399608281, -0.7325984730163916, -0.69237854632657, 0.15340490582325464, -0.4216963725788631, 0.47555942601725654, -0.12167734855922299, -0.19687109689793042, -0.7888116725433331, 0.25988055803931387, -0.3339205462479082, -0.34756893229125907, 0.5551856054455822, -0.547563096908186, -0.0761442258741898, -0.7540091664471705, -0.9068815766596059, -0.8257853524615673, 0.48022771072122367, -0.7994502113228099, -0.30030266614409185, -0.5132507658244388, -1.3801944030517472, 0.3727005939345002, -0.18724272645123097, -0.3200696369764067, 0.35781855121045403, -0.12831951735977734, 0.6648956943888082, -0.06978943875131982, 0.13397418817427792, -0.9246999632335382, -1.384313241962803, -0.12160291692908391, -0.8451698484956193, -0.6837003897949117, -0.8746679243993307, 0.01815949073712841, 0.11610040744090167, 0.9349091191842582, -0.3621723870101482, -0.3597134098203603, 0.26323278930566024, -0.17733780269353566, -0.28782092618973687, -0.5352916389678296, -0.2542717824766905, -0.320899849454661, 0.4640218697192907, 0.22031992131832015, 0.7049281886618132, 0.1099899067333807, -0.25567799639522704, 0.41573452357771024, 0.5486429093267956, 0.48008830714367895, -0.014910931465667552, -0.40788932959596086, -0.8587761772367054, 0.22343345349037624, 0.5677190347849512, -0.6625498580140317, -0.5563470567343923, -0.6436860540969107, 0.9576350258300115, 0.11156130437110076, -0.27235842618521594, 0.968097080785981, 0.7017190930143004, -0.3070170101532462, -0.20487196932501925, -0.9924811484893973, 0.27196142355612907, -0.8815933398625984, -0.5037849373304507, 0.5669820514578632, 0.07549151343783081, 0.11644612549067085, -0.4793436435458717, 0.8795263081456955, -0.24570766728116983, -0.3051800363720285, 0.43157117440649123, -0.7499956784710332, -0.24016329717306892, 0.2525754716940685, -0.5271169419675836, -0.40621963198299377, -0.5653312526937354, -0.2625295084638402, -0.47067433285939, 0.7949985988347108, -0.5821010031721268, 0.9180052548925708, -0.914723300235853, -0.8508872078932701, -0.8551609811223434, -0.8196769584209332, -0.9238697548516561, -0.29137087160907355, -0.6962557367861408, 0.31679578012838494, 0.43621505404361927, 0.09891928503856698, 0.2313854147752667, -0.5269881183968198, 0.3693610942094269, 0.0674157922905994, 0.23137001151243383, 0.5340798942674703, -0.3570404282297733, -0.39218271739451543, 0.7391791772671136, -0.7136496258595216, 0.8231685778637587, -0.9503026616649262, 0.19933618153230034, 0.8288561163705093, -0.9195821003579407, 0.10812189992897854, -0.7619304181891375, -0.008226504199839436, 0.23141781039296883, -0.14659552182852606, -0.5041894466228185, -0.7731841878157706, -0.6805400721723981, -0.8853545399978422, -0.12441196684771762, 0.401328354138193, -0.9476693208604765, 0.18021245436438219, -0.032472873695838976, 0.931458742981858, 0.11797794799128417, 0.005541476174130504, 0.7328595521754803, 0.1757609933328358, -0.5303141218766596, 0.6525953083775146, 0.6583744505280366, -0.6286386263424595, 0.8514978725384633, -0.2559349715348236, -0.38529866448192746, 0.3401491761816065, -0.7520597121152148, 0.09459608386013628, 0.5862417187461407, 0.34220374623628536, -0.8312693766335995, 0.7440816175352123, 0.5327521849368235, 0.42294949794769715, 0.5272411681231358, 0.8304332855042531, -0.1782053849060915, 0.2919262219953593, -0.680408118206734, -0.5866597827116279, -0.10556381260896994, -0.8348728410332182, -0.43302074048781936, -0.30422445590511693, -0.5921928007790798, 0.08408696191034105, -0.5782558268178137, -0.08146237288580825, 0.36423784652265895, 0.7813271264694425, -0.5661419466283398, 0.02709359347991811, 1.190480914443883, 0.47298051806666214, -0.5841455961644882, -0.7699361769954344, 0.3842765916714666, -0.41886276657077914, -0.1517237897466619, 0.5435784676951952, -0.37051868889933315, -0.5954330013238591, 0.3107412151021719, -0.19562894591356755, 0.7729095460078789, -0.3331261387057606, -0.4150794601168143, -1.5819653391460917, -1.8959304810208935, -0.15487981627688693, -0.6386034770340856, -0.9823658267867417, 0.613724254050892, -0.5651774859070573, 0.7402400953768891, 0.8867532223862427, -0.3997691946147522, -0.10086337288144681, 0.305032657044973, 1.115319040279756, 0.01150377449762736, -0.49530827224919455, 0.8237001563926456, -0.7139803327096552, -0.4089415375194705, 0.5331052843092439, 0.2833581313198459, 0.11833736400657566, -0.3012941450599332, 0.7084883693327004, -0.723762192255196, 0.10465438550680325, -0.8008650731706952, -0.22911820485057477, -0.3655956593861886, -0.3727986511448893, -0.608373277385841, -1.2062015428343624, 0.18116779101251942, -0.8912500128314168, 0.43162236344660154, 0.29372166505666536, -0.28608485565244973, 0.037631815631343414, 0.6425264413762499, 0.9395889682221069, 0.11393178388018539, 1.183005022093697, 0.48471236617328844, -0.7820018344756817, 0.5784532024407465, 0.41002642305646847, -0.43299224901946404, 0.614484726741281, 0.5153093890820617, 0.06481234803451445, -0.6242698612542987, -0.25314272160254303, 1.2093804641966683, 1.2259888705943331, -0.006547139033570841, 0.7219729493079456, -0.1771231855026924, 0.025115393976680802, -0.8054971772155789, 0.571332856095553, -0.4923727149272672, -0.0846994262360671, -0.7179670334912801, -0.6430322426934149, 0.5911722172515746, 0.6622436231812914, -0.003161422282593259, 0.19544476982907244, -0.3838359457907627, -0.2988238322192044, 0.3993681702017488, 0.05148855280132814, -0.3439598852911589, 0.9610080787163977, 0.13538588050528153, 0.8996871588293962, 0.801376147085727, -0.863428458161629, -0.06836747438512887, -0.5309875362476902, -0.5678213118984601, 1.070256391392602, 0.2297176059781132, 0.33790886760845396, 0.10835909263519448, 0.4574627535380876, -0.42222619427434677, -0.4084401118441131, -0.8615365335050675, 0.6206903733646222, -0.32346654824102383, 0.7215768953614599, 0.46746906685564743, 0.11232059984194619, 0.5602530329468565, 0.900288838714222, 0.2226642751144876, -0.4042923585822112, -0.27904239615724347, -0.2277495338998891, 0.3560910615167791, 0.722533593937999, -0.5784824536076012, 0.868520400362988, 0.7803954161234562, -0.9198390942663621, -0.6788905106711174, 0.646004423917678, -0.15644139557461445, 1.1312507015257625, 0.018084388311787238, -0.08795030715374633, -0.535476776593322, 0.8058819518221749, 0.5131085485431962, -0.2496268032735744, 0.2764888503837544, 0.08397427654192212, 0.2532989478868365, 0.4224183112653254, 0.05928874743420608, -0.20301345549690505, 0.14874922807800323, 1.0625428080807877, -0.6389282069846632, 0.8908382593771581, -0.9214573333704661, 0.8878962330619432, -1.0323752398590427, -0.5250481688777521, 0.2580633060253037, -0.4644305214435147, 0.7218014858861241, 0.154500014099918, -0.47820259464466713, 0.349840081889457, 0.9694127488001186, 0.09989278522297662, 0.6269621150931982, -0.33314635206888316, 0.9290316536945784, -0.5069943021995861, 0.25741590210808707, -0.10906249190417756, -0.5019623839663455, -0.18801187194390034, -0.7042577835205214, 0.08916004837996483, 0.2517677019304796, 0.3789129063251752, 0.39156982220870384, 0.6360763268239529, -0.37072703215619984, -0.16382274835508012, 0.295271967055757, 0.31955551487123973, 0.8599849340895842, -0.896473738988166, -0.8158287443236946, -0.9996938745137649, -0.7541296013542826, 0.5587877291381103, 0.3755527110847727, -0.5564316868316461, 0.07826997592833744, 0.31809281411165957, 0.21628268132512898, 0.49641502249653974, 0.8719863006750759, -0.17706886841732358, -0.0379820666378598, 0.36911331470995, 0.2615553098808503, -0.028012410546365087, 0.32417206901976275, -0.29191345236160127, -0.24215600120470104, -0.32440488477178603, -0.20459308667795337, -0.1380654501960321, -0.035946188094020365, -0.702783429839285, 0.43588406126709317, -0.6347258918929689, 0.23612258381067888, 0.13299559423984184, 0.8988507664384484, 0.6453754201203759, -0.5341580035842792, -0.6769670195840611, 0.13278899455712545, 0.0071614080047169935, 0.40490473859258774, 0.2514208031571309, 0.316384788252817, 0.08371423799297646, 0.28109752451710573, 0.7342812254235398, -0.531918055722274, 0.9040744644287435, -0.025580347230041354, -0.20686571591960767, 0.8069209429166858, -0.4733228178744294, 0.08923448754864054, 0.6763967248779715, -0.2895445606581907, 0.34651196989318034, -0.08759049854700422, -0.1628019868154512, -0.6448843787123294, 0.3376351861077837, -0.37797652336759124, -0.9839646595718391, -0.942054113230671, -0.46340468186339634, -0.3401010635805932, 0.02103973392271108, -0.07243647180042334, 0.3392951831864323, -0.4753627720641699, -0.9566740090694926, -0.012648054174700909, 0.13530587041642228, -0.5164366096721329, -0.6108630368125073, -0.2936986136756287, -0.12348215974099158, 0.6973230686891423, -0.5273356687820734, -0.1527898518516543, -0.2739871018703956, 0.05828400220451018, -0.18590278186332526, -0.20363685865908124, 0.15898435013492684, -0.669373123032054, -0.943839188921588, 0.10273466784143931, -0.01100267788001033, 0.35937125582000307, -0.9218152185049896, 0.8280700820888302, 0.28110165133690135, 0.7053925146938504, 0.16903612487429176, 0.34036007423187553, -0.5906952324604731, 0.21612592998262933, -0.9589666068137375, -0.30742160193626605, 0.2199081511861136, 0.6652433922962717, 0.7633183579360867, 0.8553331873840738, -0.6076385601975589, 0.4812295756435882, 0.7560834005841358, -0.7066296888587351, 0.36356640008335595, 0.085477299930865, -0.5636607668447879, 0.06801460580722492, -0.5804445858609782, -0.24985065784345256, -0.8535500427317185, -0.8160315915057521, -0.7688012038660127, 0.846763046577385, 0.8390602075349831, 0.08937989989981854, -0.9730509082432128, 0.517201337177406, -0.344178170710727, 0.8294914938464335, -0.8301022762990726, -0.9113784836780612, 0.8222296691752311, 0.222643022904207, 0.3351450931631824, -0.523101817177456, 0.2794479677393562, 0.37795953371033647, -0.8828317697732924, 0.573391867715862, 0.9424941408791172, 0.533491193617542, 0.5519697425434399, -0.025778610269157794, -0.4273530138812665, 0.7521233306851872, 0.8856983779850287, 0.2231696800580494, 0.5249084316544514, 0.6691667978430191, -0.8341288768570745, 0.824428399261464, -0.5391231558872169, -0.8229667002308982, 0.052004346424473935], [0.5068969731592796, 0.7298627578480066, 0.3180153412457918, 0.9784548093410195, -0.3789391890128977, 0.5740482887778031, 0.9383243040218059, 0.8653259320417102, -0.9422716514046019, 0.8384722108592593, -0.3950548832075025, -0.9206787043100144, 0.2530623096170801, -0.8665291850627785, 0.2213066309172178, -0.9341873453528797, -0.8255118309465488, 0.08551198144261885, 0.6139299930965696, 0.6320490168498516, -0.5837032290396369, -0.9818982135581915, 0.9676948016173528, 0.9117107541157761, -0.22981128423648678, 0.31942575783235694, 0.9166375470922472, 0.603650571892693, -0.8135873562478284, 0.16484794774606892, -0.9374215054037762, -0.9382332835203431, 0.1393700876120064, -0.29861201717595387, -0.2624393111617091, -0.9885021751028816, 0.5870763421343859, -0.5652506913048839, 0.43812412609275425, -0.1578096031829787, 0.4303271731709916, 0.6435951157453522, -0.5933721487290494, 0.9989385012990285, 0.033627942595105924, -0.06747690783531249, 0.350044856318598, -0.8077270636125127, -0.8650958398619512, -0.2646033050780355, -0.6901423387193597, -0.7254593962279984, 0.280828408138009, 0.5141026397353881, -0.7695142764442058, 0.4787931174271145, 0.9405257451197155, 0.8895723421201371, -0.9247307850850821, 0.7969910292904772, 0.313926374053705, 0.8928047717662666, -0.1869243354769001, -0.8860266745435412, -0.4337557935018133, -0.4545709575125831, -0.27452833555609446, -0.8108201949773406, 0.8781793061067487, 0.3779175148336249, -0.2416899284033092, -0.2373505131738824, -0.4033449820851034, -0.44559284265964527, 0.14129488909440438, -0.9921913692987054, 0.28792838231668, -0.7943344986855422, 0.2586060292549561, 0.17314947954195628, -0.3782923668061425, -0.24008603612222124, 0.7992355914894849, 0.0069539673666101365, -0.6689253865314846, -0.4435688945639855, 0.7742550368050815, -0.7388830315131732, -0.9812585088869762, -0.9633947460880711, -0.007924984575580182, 0.8053357253902194, 0.6688627034244076, 0.0234912420273854, 0.8846512687255601, 0.5599604695626548, 0.15007927345098962, 0.11053717437243202, 0.8325845178625059, -0.7433589326852494, -0.7478528752511671, -0.13864104660358903, -0.06485952730899978, 0.22806198740730818, 