{"hidden_layer": {"weights": [[-0.7580514300020889, 0.7046288316288039, 0.9058654247419751, 0.3003206904657416, 0.18787882372261366, -0.8093889145765616, 0.4817114443640116, -0.2063785745477178, -0.4901378542981678, -0.6888416455132493, -0.26356238360220896, 0.42032840265185545, 0.36641811912242916, -0.9189615183869491, -0.059170646499737245, -0.48150626827145704, 0.8927981955687665, 0.368502468477218, 0.566186017557714, -0.5527100774538667, 0.5395458260579626, -0.7832856803648218, -0.27407060613007017, -0.9218669829140105, 0.2299726859807909, 0.007533996093021633, -0.15699807422026857, 0.7952639026616521, -0.32982078813001525, 0.2241656561525298, -0.4128934005470566, -0.9327371383570202, -0.18052021367541915, -0.30000368614042583, 0.07766535094169114, 0.7481735186466141, 0.38767467199974703, 0.7971393546098471, 0.3137879437364085, 0.8472935416449854, 0.6992038391853505, -0.4223230302892226, -0.49245667530593157, -0.914465462408734, -0.8668830420986261, 0.7001283178865328, 0.9739779970521303, 0.13346959091257052, -0.41024803497445167, -0.8171649311428416, -0.7462550636743709, 0.5900806619623034, -0.845567535739534, 0.5562831417927239, -0.04270549108162491, -0.6105578186822016, 0.9071510492654933, -0.5810666905628645, -0.2677767843837753, -0.510834424348237, 0.8288512301043603, -0.07665220099506875, 0.9650190082545751, 0.1638533645693452, -0.9172261432071688, 0.09725032124030702, -0.9085758943819322, 0.41678005458424494, -0.6387367086817314, -0.9120414682002331, 0.48737567235581664, -0.997975145063632, -0.901905296947191, -0.5547231679750063, 0.23776480422672489, -0.1491273113947374, -0.365735239221768, -0.9486611932917103, -0.6506831740419536, -0.3277557107456507, -0.9314952756671635, 0.8554232450664268, 0.6581561749898588, 0.09319780937005362, -0.20081999312152843, -0.44002565208063094, 0.6306013297382246, -0.6412156564940759, -0.5958632053464609, 0.7816568167748589, -0.05584840022450756, 0.4558280975291699, -0.2386988414198909, 0.6549783867212361, -0.1982910141748062, 0.3214054297171277, 0.018626146038315982, 0.535286967294948, -0.594577783693484, 0.10244620947848611, -0.680562663197322, -0.6559997890334749, 0.26826614485974487, -0.8539293328021212, 0.8221040262771929, 0.5775621086131052, 0.9688324848867416, 0.5193854545982656, 0.20774118387489537, 0.18110954681073824, 0.19665400875669425, 0.6018623969944341, 0.7783888171204261, 0.6688076082703789, 0.5432161220086604, -0.20640437643815307, -0.5635793710771767, 0.10712977049250395, -0.7322466183920767, -0.33153948637412467, -0.3047164057595405, -0.32757215068532736, -0.43832643307939945, 0.3007094605809907, 0.3862380051653487, -0.4997725231741412, -0.11535688682044822, -0.9291539287157513, -0.8805824219709399, 0.7564116253796414, 0.4443293132317053, -0.9753162958901795, -0.2512646801707781, -0.7375384075379265, -0.8660625986755239, -0.8942628146901698, 0.48289586576046484, -0.8175516852954102, 0.4216894726428958, -0.23068297572634253, -0.30871406262480994, 0.9817492431313919, 0.6536362882356543, -0.37822737881512203, 0.03342133761299714, -0.18178232899062494, 0.18486308927024167, -0.5950101727738188, -1.0129634379641264, -0.8748722451777551, -0.14606959889995128, -0.8422062875703349, 0.40527372717289667, -0.8236531761789606, -0.20399734544968579, -0.6471813658375574, -0.6810363345602941, -1.4389500215023747, -1.1369986283733033, -0.5508625781544041, -0.919379967098578, 0.13295492478052756, 0.009836096785258819, -0.7977336924754201, 0.7686321700218606, -0.13396983893601863, 0.22267503005272932, -0.29996556718772766, -0.8187134361064337, 0.3658544622796471, 0.27526043707766956, -0.07338869932637138, 0.9112440775134765, -0.31276295012492217, -0.6181560367137214, -0.44995447361318586, -0.3782691839052413, -0.12743795408475014, -0.0424849081337943, 0.1898127960503137, -1.1009448452400141, -0.47573401547201766, -0.10214314144027392, -0.072565334120544, -0.5872778219548287, -0.044006298584805315, -0.07169121400370593, -0.2405390158894367, 0.09141012358372758, -0.6791057047007499, 0.44002912624783913, 0.20862450932192572, -0.831998751169577, 0.8641072855660743, -0.4981392528821433, -0.3414837557011943, -0.23737689019388997, -0.7665008097661027, -0.5596002696340627, -0.9110827554387002, -0.6098549955127381, -0.818027975484874, 0.38395614771657605, -0.7186092289489319, -0.012351229167661015, -0.10119709548288591, 0.13247383257171247, -0.20746501523106042, -0.9760441992768739, -0.540289754147479, -0.02412493488632017, -1.7476646934763074, -0.30191499762639395, -1.0784920741102149, -1.765089320253996, -0.06366774962949251, 0.024160658179517625, -1.1363388236089347, -0.09179561465870426, -0.6561250184635817, 0.24284962688246323, -0.24543008087137425, -0.3239761604514941, 0.16350256802807078, -0.71760918285781, 0.158466622020474, 0.29634881862587126, -0.021527481059657384, 0.7327749809282289, 0.5923027667770692, -0.9500718070527899, -0.6907453929844152, -1.112162333129235, -0.8025681502405968, 0.09233119027141684, -1.266639084695786, -1.1830990893096702, -0.04211659538591306, -0.46920866608869516, -0.49318108066382904, 0.046611150557932746, -1.2966790933443377, -0.7289606111317101, -1.1571984132138649, -0.5052483085913393, 0.34058307232223717, -0.23400390129888585, -0.06792753605738634, 0.3738352792058665, 0.2756451808474942, -0.03440999333130396, -0.47572940699036365, 0.9592843666868125, -0.454548673493702, -0.5073824852966038, 0.9704910037010437, 0.5935761568880881, -0.8013606013373588, 0.34568126286807677, -0.436879179796986, 0.24098769386206906, -0.30630835357175457, -1.0743566211965527, -0.8383567036355088, 0.04969361062213801, -1.1467708531045437, -1.135055306361326, -0.1564344752630692, -0.9700187355804057, -0.11306118469450155, -0.9331315068930257, -0.5206903526742656, -0.5723856003403491, -0.24123172952140015, 0.059331361127008805, -0.1305955188905845, -0.17504288609331103, -0.7885766425427797, -0.20804002887302647, 0.5650950134485202, -0.8385901977225437, -0.744836106271071, 0.9973317834804918, -0.631007142309934, 0.27781297532462507, 0.854303378226561, -0.6673846258974312, 0.48912259939594505, -0.2981777741027799, -0.5521820209480077, 0.17561922720436696, -0.45964615331201447, -1.0328017295129481, -0.14155686765357384, -1.1925528592924255, -0.13152306969510863, -1.5817835295526663, -0.5811630364008448, -1.4333272988688939, -0.8638260967272657, -1.0315287281194263, -1.1541395564203485, 0.9036220057188956, -1.0103291651030597, 0.7427159268475974, -0.13206832304895252, -0.1225059698195297, -0.3298742325443352, 0.6024246271722747, -0.0077930351053946325, 0.36378895516947185, 0.9004268129818546, -0.2661598243468587, 0.06751604502468214, 0.8781851271497815, 0.7995043536355181, -0.9368836523366462, 0.39165044991190245, -1.3531225287794968, -0.10328799421587986, -1.2624397313364812, -0.545645129845421, -1.1756254607796452, -1.1358956737088026, -0.3203229525799185, -1.5820027049016896, -1.1490732111739224, -1.384914153246549, 0.5181943084462128, 0.11294627844989509, -0.34974853676746775, 0.8517495620258833, 0.624052200247762, 0.4070180307698539, 0.8280038959483451, -0.6925706061237067, -0.8159394992615631, -0.4606429475829267, 0.45282151495704037, 0.7953509791740746, 0.22374559050978582, -0.6279782012082166, -0.6581468427145705, -0.8219461587606259, -0.11103646932084615, -0.9321055510556466, 0.45953186963940906, -0.4756221785856154, -0.8944854343809381, -0.3715111876309928, 0.06779792600313417, -0.7923346620803038, -1.7515207610074621, -0.5922765851774168, 0.1547660280834603, -0.6182874741584214, 0.4820538174676243, -0.7516672161743488, -0.16160132978842812, 0.761386710790858, -0.40105843148247544, 0.10048887919728061, -0.6272803072437527, -0.3579490284403867, 0.8718756118068306, -0.13626741866448022, 0.5225812491941098, -0.6574463039981046, -0.905148682234713, -0.27143073388077443, 0.13109955394327108, -0.5181840344810261, -0.9121781052740505, -0.5451448603140345, -0.7303076068751935, -0.5271832111816213, -1.7540909953498969, -0.47024906217699947, -0.6676557573374049, -1.1794476588186518, -1.178809398268416, -1.1335261635247047, 0.1539165194566693, -0.17198272717833946, -0.9232496710091967, -0.7191384316631196, 0.7194528370777533, 0.3638586909682062, -0.2430057312414975, -0.3515115239607614, -0.2452928673810231, -0.5556626492358859, 0.9705885911938479, 0.7155854874830904, -0.6692497985076252, -0.9857964662386494, -0.12223661913263634, 0.7396667356387552, 0.5297434497072714, 0.24178651596970027, -0.7362815389211248, -0.6069905422958952, 0.1947381883712388, -0.36604052722463154, -0.8492765908467774, -0.63024835374814, -1.571507322395167, -0.7720814644659995, -1.9652730135724998, -0.8381001163307371, -1.1746328958241614, -0.9119360175618599, 0.6969893596691965, -0.380808219684056, 0.47838610876341303, -0.36448049377207886, 0.863738962162531, -0.3663474371581425, -0.9924667550253563, -0.4808797953614829, 0.7053628759617632, -0.3922895265290438, 0.8403234886384762, -0.2009202741252837, -0.8799705629699832, 0.5221630787350974, 0.8628012345271597, 0.9086627830197451, 0.694068866074825, -0.1984664313436587, -0.6165612159191888, -0.451310869266343, -0.8186336943158907, -0.6791738021414575, -0.5829010729061488, -1.1401265999468992, -0.33049492204548025, -0.48691297191749583, 0.30175843809356706, -0.07443820818638452, -0.9853782650627001, 0.24299350919265877, -0.26744040327022434, -0.7825929615297973, 0.2809626159035324, 0.0035845359614682464, 0.2641895092268037, 0.33339162017120766, -0.025006431460769196, 0.8741959216608347, 0.6018025632016918, -0.31760220736377415, -0.788675413105712, 0.391303910893048, -0.9407718929181665, -0.7844703981233214, -0.3403811584943009, 0.046495481565149516, -1.2845186221219667, -0.6979011540893472, -1.5407460549546377, -1.5590075860526766, -0.35827986356781527, -0.8101562978961161, -0.45235183561678893, -1.0815964697919198, -0.45476064525953747, -0.49806123357208376, 0.04144909139767944, -0.34401261334008015, -0.8880924166341755, -0.4167856955867005, -0.5409864431609968, 0.7711102873272879, -0.4618557587880843, -0.2890275331045969, 0.9389681070847518, -0.32955714712961554, 0.4993153570473158, -0.8154727803932652, 0.8640110605641618, 0.13567982587494407, 0.1305980071340892, 0.504829043787198, -0.43150036542379266, -0.8658248824115925, -1.12425870055593, -1.445029300779113, -1.4432432985253065, -0.34799894991605496, -1.6630873112741231, -0.3621079768679081, -1.680911060533246, 0.1784218056213337, 0.17501965832705063, -1.0030025228291932, -0.23010494142745896, 0.3619470729667912, -0.8207544845620891, -0.2885175986338051, -0.173552128128342, -0.11736363786034956, -0.8021320781198972, 0.3851746747710618, 0.6356940089848374, -0.5992028236985018, -0.8961825379610168, 0.8955032363377274, 0.4134501509655369, -0.0259727970657918, 0.5417569339569446, -0.5935215750910632, -0.03287658562675441, 0.13705375342290682, -0.33426301835870376, -1.5280403671863998, -1.7182758405009388, -0.9948107950428038, -0.840722550800274, -0.6041887997763781, -0.832108330958332, -1.2130650107216225, -0.14156394928709265, -0.5382129901201619, -0.7911821776838297, 0.011408059132924322, -0.5349623190018342, -0.767095730434009, 0.7683551274138329, 0.8409729403504335, 0.8647845969093333, 0.7988201879710701, 0.3388454667564074, 0.5575012773765247, -0.2799580399085244, 0.04629049545687572, 0.8286841904226661, -0.028575385125112387, 0.5160114457786118, 0.6907740561633946, 0.22780484299478387, 0.133311635430514, 0.22458717731781486, -0.44144436257141106, -1.3042270525244264, -1.56129814018026, -1.4941168908522187, -0.30566684225017193, -0.5606259097653703, -0.4647164998079673, 0.42018350887187955, -0.7642883041623245, -0.8446382204939737, 0.8581083958857337, 0.1885401177989303, -0.6811289183080381, 0.03359961692497958, -0.9399805114449079, -0.9142479081519277, 0.9898372322291286, 0.5392325048923357, 0.9826531154557623, 0.9502956409035028, 0.8307327836568504, 0.13803529467864903, 0.2521250202360878, -0.04694582332528863, 0.363720006870688, -0.42299455616918463, -0.2855245729104818, -0.6104447524041048, 0.16448618793121994, -1.716758524137624, -0.27083839758493955, -1.7650734537953312, -0.1373130500568429, -0.2584882310741322, -0.7092200867664722, -0.304370411171776, -0.2353220676982414, 0.7820433998412127, 0.025200898327623344, -0.9816181515637428, -0.019069774308062427, -0.423757379336452, 0.9580184501903809, -0.9988349982852678, 0.9724782952127987, -0.1255371726186002, 0.8663952077278826, -0.11960455733756098, -0.21956798883432205, -0.9157707449897656, -0.9381344689214415, -0.8652307436057247, -0.2937146654627004, -0.8431418810917695, -0.018237035593466788, -0.6365351873927407, -0.5686501172637952, -0.31845483240494943, -1.6692364652337448, -0.9926010182246408, -0.6498672323905078, -0.4862360700041355, -0.4839876825568979, 0.2384739550763313, -0.14200165003862336, 0.8353413779916814, 0.4655524393852935, -0.7348426627492265, 0.39746155411069095, -0.8061442604367435, -0.8133768807629664, -0.07908742246160526, 0.05256298560601502, -0.7759107824268333, 0.343313305853786, -0.4045061213037302, 0.6045549830232737, -0.6318863713349642, 0.2649901761624816, -0.662502059340274, 0.05148664516089568, -0.38028234739755756, -0.25966818368065925, -1.6518347839745995, 0.005641863537264369, -0.0754014733400643, -0.5470378105519025, -0.21800099330405076, -0.5794428024589241, -0.6746418163172874, -0.00783579390111, 0.5768281503793428, -0.0007502778272074906, -0.8825996424377998, 0.34036400911259884, -0.10537172863457075, 0.6904038539916684, 0.7188909112670524, -0.5765909858074573, 0.7647982130883594, -0.9830928059218975, 0.2198029487108204, -0.08932206802434184, -0.7676235432652492, -0.5656721597217577, -0.8006699700986079, 0.8030853815337037, 0.5626213287843899, 0.030172563042360212, -0.174875053143207, 0.04683530121269419, -1.4940669219210543, -1.499469361858591, -0.6736526012630097, -1.5753010258485625, -0.19653393764942884, 0.02486745138166896, -0.01636133124416217, 0.564499700707426, 0.08135647266521401, 0.3822524130477798, 0.9222060852757581, -0.9870429927206904, -0.8542910094451346, 0.4251953984585252, 0.35963751263790494, 0.6628872938533167, -0.42313621538331764, -0.9168145186849039, 0.8820347709261263, -0.8853257032038131, 0.7092226077526965, -0.9500662488621864, 0.10696015280929869, -0.7685035069667461, -0.9855111681079277, 0.08814110389881695, -1.1015576479791298, -0.9555445325489729, -0.5068285176493901, -0.7946875643610051, 0.32087508579131363, 0.19447166526240267, -0.9166640870135017, -0.3850530420306958, 0.2466335301611841, -1.014106549218034, 0.37448018941591116, -0.7481222302093804, -0.5101603205214887, -0.47523558220042456, -0.5265255115478867, 0.6582982534893809, -0.6641327057348293, -0.7878493103531486, 0.5207216748868979, -0.5294543008952077, -0.22580967207852431, -0.8377169243621567, -0.7732430534083867, -0.6781485072758595, -0.0042640159850707154, 0.5241024629693742, -0.9789386488844942, 0.12293806387887697, -0.332976393545544, -0.5325509821886729, -0.8556023812546394, 0.5806478710715248, 0.21995292866453836, -0.1504786611730292, 0.19232506365410224, -0.8079682519163236, -0.8749319113352758, -0.3238362561595912, 0.6115477820581829, -0.7067578652345727, 0.5082689126453943, 0.35125916757171016, 0.9184807652936252, 0.9730868501073944, -0.7099017802513349, 0.6265298205455202, -0.811609682392376, 0.7855299690070323, 0.5286257937488752, 0.9086410117934764, 0.5799613271072597, -0.5830895740741404, -0.18968729585729072, -0.335619845768669, -0.2926276902477444, 0.6193143125711884, -0.14654731334111118, 0.8385010669097804, -0.65515859013034, 0.1926054476696904, -0.2618365716108641, 0.20494419953047496, 0.5022542069228668, 0.8959238712667383, -0.19337182855029508, -0.2254682581028988, 0.30276163098111125, -0.15308767894857528, 0.051008176919763136, -0.14200112750229407, 0.8376510360706099, -0.9693631004482193, -0.7501780628078218, 0.2826828108864748, -0.008742454211642103, -0.17576957337661447, 0.3516616024287318, 0.010321970252524792, -0.010988964416693392, -0.36547183560384067, 0.5618522837880067, 0.8654853216753768, 0.1310673018940198, 0.2345909661123546, -0.4645433902691651, 0.49271342907876664, -0.14410688329679552, -0.3825727482709895, 0.4934730460911894, -0.45831497661311005, -0.49111899900143563, -0.0549154754319767, 0.6522148405659561, -0.6445402818692838, -0.5357308084330238, 0.9221650270450221, -0.5174618100540896, 0.08632287063357741, 0.9983214317586349, 0.46406395963155667, -0.755832402366162, -0.201163798097709, -0.7534607266791984, 0.8492117992431534], [0.24336868927143485, -0.9090980427240656, 0.9475662915830865, 0.9543828214736296, 0.18568610460342683, -0.45817729732907453, 0.5406551503773245, 0.7941533066672881, 0.1303949736861345, -0.487385713545188, -0.9157514290466429, 0.708625231200096, 0.89992925859677, -0.518649893266879, 0.4715411261656641, -0.648684823872389, 0.5282266461576572, 0.33533948324817464, -0.5876139487591676, -0.3152398122668283, -0.9045296593741738, -0.14832629227357264, 0.0507237133598879, -0.5198476362363622, -0.5361710053888773, 0.4306585066281843, -0.5889714332232134, -0.3278680461001635, 0.9124908519546797, 0.8224101398907047, -0.5612906934428472, -0.491596529299966, 0.555131942645334, 0.5084565123725966, 0.46034843239095413, -0.5754526596199974, -0.3595586383595084, 0.8499961687561076, 0.5104335778028892, -0.253314228357715, -0.885230192939004, -0.8999110133781992, 0.23171556600332488, 0.988913530713059, 0.7240688935074937, -0.020111677157049312, 0.5557185558238231, 0.2978559344550405, 0.45959023994545933, 0.41618631641733084, 0.07290403251222832, -0.9561995886863104, -0.7646268427334628, -0.8598651538127833, -0.21079035270140634, -0.181538201402353, -0.12401778624545168, 0.18060518757691701, 0.2803220929170165, 0.21074234630682587, -0.6842225009018978, -0.738832976602944, -0.5493413920427248, 0.18152814671735534, -0.34540922620482295, -0.3995474102519979, -0.5593711387820758, 0.4238667347429559, 0.8092758501476762, 0.9738024140586675, -0.8958998713453828, 0.39232992051400306, -0.03120622291655304, -0.4284431302709406, -0.5939154757823937, 0.700029273408427, 0.9970716271127389, 0.8677341436366652, 0.8673365335078379, 0.6982594244078725, 0.6689723436250418, -0.2913327957245486, 0.14452415664992224, 0.9996047744118115, -0.8095475016522382, 0.44238787590041806, -0.7476633491359306, -0.25220406043819654, 0.46073547910862583, -0.8360030306795914, 0.4626622778266359, 0.013228154620961979, 0.8484035643758379, 0.7652013481317136, 0.8781364579747687, 0.2512976053491094, 0.5939541906845087, 0.891310078277199, 0.6749160691323406, -0.10241046182555097, 0.4954827068019913, -0.1539110534145296, 0.8803593254522761, 0.6492974707452186, 0.222056387754764, -0.6066141625649059, 0.9870491556883704, 0.5777088628289652, -0.07843953674945572, -0.6483576393184596, 0.23206003113588958, 0.07066689886685329, 0.7985523710841234, 0.7579770745684637, -0.2599515758185236, -0.4199011273003514, -0.7561129581647801, -0.09637641273572574, 0.6440245633271635, 0.24618059738287268, -0.6014657425694295, 0.48727707405343385, -0.4691989937547185, 0.22735392177969252, -0.6793593736603648, -0.23806973790387098, 0.6820128444598884, -0.9453210190770581, -0.26966494051941226, -0.18570779776887247, -0.14679310864009207, 0.7960909180158455, 0.8996098979401993, -0.581914564459902, -0.7132445506592503, -0.6590062148136974, -0.3097036145085129, -0.1444337674448144, -0.032845734916420496, 0.14184278420545704, -0.9789968767901274, -0.8623520378252434, -0.5607493186603234, -0.956058609928019, 0.5134429174968592, -0.1704875868975053, 0.9819526197695801, -0.8793186280464429, 0.8810537258862481, -0.6434907141773216, 0.040807896574598435, 0.1809910364735072, -0.13148275579435995, -1.0458734957017617, -0.10449228040908798, 0.31793821018697493, 0.3275354683842255, -0.687449190131949, -0.7456316286819519, 0.44844531177524005, -0.4546059874522854, 0.2714742431485263, -0.5354338596386574, -0.4426165635397809, 0.4738214477418643, 0.2897821081700592, -0.2817742173129117, -0.02995900109421057, 0.8931552972432, 0.6377337671824133, -0.49067196678979663, -0.7525336247248656, -0.2818887738270623, -0.8725452191702701, 0.7990323052116411, -0.06435046202842407, 0.10257413188876248, -1.0399715531919607, 0.4093714089039204, -0.10994056273356162, -1.141226348983122, 0.07264797586985555, -0.7900995389597998, 0.10990879262214348, -0.8846205584945879, 0.09411637577268145, -0.4225676141582542, -0.6887357367904832, -0.06429926162447688, 0.42943243497840755, -0.7034306076616607, -0.15431531887910524, 0.5026383340918744, 0.4501552727015424, 0.40821566940391685, -0.9310524549825772, -0.3605013584066341, -0.248742304348202, 0.0036414756355304155, -0.9918119593986648, -0.6808059351851916, 0.5275608235307303, -0.5762470386678106, 0.3229754993574647, 0.2989143113639761, -0.619611167042881, 0.512011745745988, -1.1096793095288182, -0.31834426179185515, 0.5469048441642445, -1.3822277047663145, 0.24077948259984522, 0.1572764551818584, -0.8187840661245653, 0.3212019104661224, -0.9754246251716265, -1.2311036134902322, 0.7505278850868795, -0.7551302869149532, 0.4598584288198813, -0.37506060240733324, 0.17908770793801418, 0.6635651249282615, -0.7018784169169137, 0.11917985494696914, -0.7191879883361812, -0.5819703680177419, -0.1331195575649422, -0.6381413781214249, -0.7361369566669401, -0.8959315607250486, -0.6886265991240792, -0.5250271170746099, 0.5546893604164338, -0.9802483207930932, -0.16416074056760005, -0.4828364997667141, -0.20385490164808107, -0.7667093913329797, 0.5922372701771179, -1.3163655369124931, -0.8008811998046397, 0.21815040245844342, -0.04012435179807955, -0.6449008197916495, -0.8563728704465599, 0.6169491241060422, -0.5563944041478723, -0.8006406085463684, 0.38023654206121144, -0.0662742910694902, 0.10735124878955125, 0.19362948197631646, 0.9540698968527542, -0.5948764317526224, 0.9520153196317731, 0.6938398882964673, -0.209372933819401, 0.15635346400513098, 0.7106394246444113, -1.2180448896164315, 0.5460844066620807, -0.7596617433082851, 0.20448366467057755, 0.3572113324368513, -1.0044930504859582, -0.645511153787909, -0.47429765537638185, 0.28840157185275384, 0.3068735992114242, -0.14307069126711192, -0.21430154146720604, 0.10392614440970938, 0.1314722474342585, -0.2595293433837613, 0.7829216591736857, 0.5093902185331044, -0.7547358535784929, -0.5422765392225464, -0.9955856166110351, -0.916471180381556, -0.7001121717098089, 0.04603422878088935, 0.8096283073165056, 0.4313399687760131, 0.5716777582999946, -0.6064032723839882, -1.1315613805094802, 0.2041386907202536, 0.44335142820615064, -0.6670893507701818, -0.9997168876626716, -0.3264820799389566, -0.931664303451452, 0.4622142281278797, -0.17298842425424665, -0.16514689279311884, -0.06893293181818566, -1.1066925339053848, -0.18648809675675954, -0.27269933732656354, 0.6515028649767445, 0.37500994808141286, 0.6990800363077445, -0.3925431730524522, -0.5954712654819975, -0.8241518409883906, -0.7623734605869825, 0.33370713961822096, 0.769508824439791, 0.7514616859634834, -0.47494075530729774, -0.42305461867824573, -1.0252767160771104, 0.2970326018278478, -0.5847105804316326, -0.828802352447793, 0.47294853026821876, -0.8725675762246919, 0.4764772933067361, -0.7763282736765225, 0.7250228897235729, -0.3486568512689988, 0.08404879213538041, -0.371444769586157, -1.2288595197662917, -0.07402035966617077, -1.0285227021789978, 0.6574807321847171, -1.1505521633028601, -0.38075541427104476, 0.19926093807088685, 0.8587604559707739, -0.6453759225592249, -0.8093655924439884, 0.3440097312682231, -0.6419751874503126, -0.8282666624316769, 0.14945714764945106, 0.6822900922950409, 0.8317375794970057, -0.4076555503575069, 0.3372907955960602, 0.7146402242554836, -0.16558980030972453, -0.19600067081149647, -0.22267630830377394, -0.7771083922743003, -0.18294923451369532, -0.548249201556096, -0.9177776980870709, -0.5964503167760089, -0.4563028353829716, -0.5621283939026469, 0.6133385647946838, -0.8200730361630081, -0.5663544431956289, -0.9209058825142254, -0.5553788034492695, 0.5079916684026795, -0.8563290957402653, -0.5499545616777647, 0.5361275271730521, 0.5581130364623086, -0.8651285390010768, -0.12705140872100926, -0.6110575191218572, -0.5734539868230079, -0.4252736812466449, 0.901293919354375, -0.12750373842019774, -0.6720295879814924, 0.4840110979612525, -0.8209404835750824, -0.22909166061850905, -0.8094813016777815, -0.7805193273885374, -0.6694176955378432, -0.9913030784565722, -1.2184894460574254, -0.22432107555989195, -0.28140310482309716, 0.16645225442385214, 0.08952408516754656, 0.535167271428646, 0.571228405016975, 0.02251308246967859, -0.7234481507363468, 0.16751961813857263, -0.2887776329933073, 0.9088433648058977, -0.08910519869441336, -0.24686603889384773, 0.5549683254050105, -0.28947488848478975, -0.9719111484623115, 0.13194011638536854, 0.8649361018174908, -0.9784932683409993, -0.8093527133283477, -0.3603530526750712, 0.14074814327459872, -0.5023927790563752, -0.8161662311408772, -1.0781556954780647, -0.7577273910987445, 0.47754977359030815, 0.07257711413939516, -0.796608685302821, -0.1504174918569886, -1.18105588012171, -0.4007509802229097, 0.17621381558695634, 0.11983446841495607, 0.3653700626723965, -0.38239703407153125, 0.5074363849896778, -0.7367876917478996, 0.4317039476656148, 0.8423584025123558, -0.9610413057584284, 0.4543063991590106, -0.5028680005325509, 0.351790372273477, 0.7059463673443037, -0.9623790238153442, -1.1344257164758473, 0.11928719303161162, 0.11166183150267112, -1.0578294251999758, -1.116517982385064, 0.5075176641248358, -0.022701392984821323, 0.6359704409690744, -0.42345377572014975, -0.8543088692289093, -0.5077877407681364, -1.118275428530221, -0.4636038826769231, -0.019041801771840755, 0.10031574629323822, -0.7307148119766442, -0.824122417805452, 0.2105967894457904, 0.08650397582765902, 0.8789321980722796, 0.9703111074185826, -0.3168531976966791, -0.2718434881574911, -0.3726174607112876, 0.6883035995100509, 0.20900320794486038, 0.7938720976738901, -0.6041426957960271, 0.28322383756048775, -0.7198632037173266, -0.9023118383842812, -0.9171737980967605, 0.05771069089678749, -0.39056962801684936, -0.17476699563593423, -0.19691747661210218, -0.06280893773220003, -0.09517293391122805, -1.1462431189610205, -0.6921694842567289, -0.2658804485224131, -1.0960345110480159, 0.054963796360677386, -1.1466887715467249, 0.2316030883826637, -0.5412816764538372, -0.700843021872951, -0.45604442972412024, 0.12791114722805522, 0.8877942877413096, -0.2534587545692819, 0.984932519157264, -0.3665135706454459, 0.2793990674506433, -0.31916659962408905, 0.14957205642030985, -0.7731051760706817, -0.28211127774458167, -0.8069591373696456, 0.39210864442552995, -0.03569088088322811, -1.1052381469912598, 0.6313186804855024, 0.5586625091305261, -0.36230534556282307, -0.35771564919315424, -1.1134962256500673, 0.20685879532583198, 0.5647276466656029, -0.2697853109929432, -0.0021767050898958973, 0.23913591935435216, 0.3406695621197585, -0.46364448683542847, -0.967263130024472, -0.5624414856944471, -0.007505584291722436, 0.014287181115893777, -0.940090397968525, -0.9631156021118267, -0.40655180310861583, -0.9201053920238248, 0.5110439927646925, -0.5748954966453708, 0.5294829121416449, -0.3452579125249354, -1.1086820749027295, -0.7747241684634945, -0.3208454285546088, -0.13534505273413994, -1.2320162265017367, -0.7741814853448321, 0.6822242196144002, 0.7651352041434987, -0.40124046741152936, 0.06825117276472947, -1.1438194408060907, -0.6407531641003557, -1.1142477824372083, -0.6005332730692085, -0.2272880527609511, 0.1957123541830605, -0.6574876564946929, 0.9217770643529482, -0.15071731473270042, 0.4121256543957166, -0.22200007586968237, 0.9780881387111618, 0.4938107734915353, -0.19123580588229927, 0.49089148914380387, -0.5739145151064851, -0.14769621022339277, -0.18426950853526514, -0.8492344310203709, -0.6093383728191427, 0.6503778454838094, 0.252258566192429, -0.7253314099655745, -1.1218826439199776, -0.9204620508400444, -1.018115988295555, -1.1242941672085014, 0.2757797346247669, -0.6529627333738652, 0.11219434510909371, -0.9213307367355632, 0.5910585071361033, 0.3258351492242546, 0.2769937833624955, -0.7558775075599414, -0.6430947513674625, -0.9941182130932592, -0.9153040838087451, -0.27928636068713586, -0.3093282331237175, -0.4373494759664478, 0.3787315046790168, -0.3406141587094865, 0.08313131474692435, -0.39076186020871484, -0.9077334949559959, 0.5005694523071457, -0.5277208916685152, -0.6718108356715979, 0.3528913579995682, 0.5902116736387526, -0.703157424460698, -0.7667428430873596, -0.36475765914070646, -0.2883979796042889, -0.7611937313377968, 0.22558803496336388, -0.33341931670963987, 0.3846887503897327, -0.15130549818874423, 0.7980441191383343, 0.6163385274980486, 0.33292306151524487, 0.38611459910267515, -0.18097209327255784, -0.22413555974504734, 0.8102228222399179, -0.2837695721626688, 0.2842953803621379, 0.8664697902227508, 0.0915788805077204, 0.5492960452958153, 0.30845012864283405, 0.2898789542222259, 0.16524238440767192, -0.8449423551419135, -1.21424965932712, -0.07229807258751597, 0.008094122618883315, -1.2630314448818858, -0.6630869093380698, 0.2533832835475523, 0.4155476770479797, -1.1403807151229195, -0.31772289452426755, -0.868013432881387, -0.6090103152769305, 0.5803966010877353, -0.531723279944815, -0.17975140177953475, 0.35884528767919543, -0.6757536869054559, -0.7222690771082408, 0.5210107125374921, 0.2627816873661796, -0.9423237073385718, 0.40648447093622386, -0.9472595792395949, -0.8398277231652754, 0.6074963858976836, 0.1719487523397614, 0.4360745680663032, -0.029232585874448325, -1.354817746257499, 0.19271426510816564, 0.020581999185512567, -1.249369183561144, -0.7889328004582046, -0.3800757736438598, 0.13867938999371576, -0.8706911809517082, 0.18185401941879364, -0.12398497065591055, -0.8852313165339701, 0.10004700780094614, -0.16102597531917426, 0.1272281122755644, 0.11673646245488022, -0.7737313146148684, 0.5851437701948148, -0.150845257074548, 0.4619701215803249, 0.35578912772922067, -0.12459529827807692, 0.34507949871045474, -0.7903258815346349, 0.8417349495606933, -1.003530216894476, 0.11400943622486469, -0.07892634300302202, 0.1859357338467771, 0.29284765399934043, -0.9311049247970697, 0.4648995443782949, -0.09653389894258463, 0.09557570960433592, 0.18307428358466854, -0.31385703695946404, 0.28005371284004565, -0.37664263070187876, -0.7584682847512112, -0.46996275839753937, -0.9590281715639748, 0.11258370282719321, -0.4493885781878068, -1.000612307757312, -0.5155510044489525, -0.5155176542597779, 0.8643960132676844, -0.2657541106833541, -0.9104404349322712, -0.42105915419655027, 0.841833364377215, 0.19210985381444257, 0.8082244995640125, -0.04797510220261778, 0.053752852653799615, 0.22808235509925257, 0.7383462683542841, -0.6521209901124515, -1.043390549697571, 0.43638413987776514, 0.009800576505472114, -0.9571341744912979, -0.02059578375264623, -0.08738311304307339, 0.23082444143298006, -0.09353470230468089, 0.2363182039729153, -0.30803015210187285, -0.05943071638874521, -0.20345813964221976, 0.24133883006666054, 0.8028128656619125, 0.4953163936141932, 0.8607911600965266, -0.7751196169488468, 0.20544897564832754, -0.6733311209243944, -0.1862287734517274, -0.9488059895802552, -0.8198897957478021, -0.852976340784043, 0.02757191451291647, -0.4147200566117988, -0.869815713189871, 0.7595455411554279, 0.3847077046514847, -0.34366206910393166, -0.7937911730306578, 0.5356306773395048, 0.8910018477897996, -0.3261268472919126, 0.37617897689170676, 0.050898249354705306, -0.4613092172630486, -0.6975994125942017, 0.7690612606469742, -0.03687232413215981, -0.7067591830421429, -0.21746651421960506, 0.20306612209447789, 0.31135111309119673, -0.41341665348882595, -0.7351009888743516, -0.5878627072358102, -0.3310080559989812, 0.5711090846611309, -0.5573691181218785, 0.22186999531758422, -0.9278869549141655, 0.22935356274146892, -0.39274014643172456, -0.8193305828116894, -0.6566703012519983, -0.33872940627408965, -0.8993668061881067, 0.12562178035165272, 0.9581550124126154, -0.6139677171699721, -0.31505336795365757, 0.11348085927846417, 0.43395954235235845, 0.2338493371521984, 0.3127695805161927, -0.782505030536821, -0.4610949182275425, -0.08460920826770774, 0.7751008468735638, -0.8778779640851037, 0.6011036663324993, -0.40513016740938834, -0.43406391803608635, -0.1628861198641003, 0.026277296513512294, -0.5381489689819803, -0.0901036865737761, 0.32752632859182507, 0.7741831060932951, -0.5061222749738982, 0.6064733476023859, 0.8272850103591214, -0.47148435856948867, 0.1740347196864846, 0.23764775036899302, 0.08815889632001064, 0.4997037469459937, 0.3911891762692955, 0.3534524518228034, 0.8611794744088263, 0.7772728524930836, -0.33221704821849074, -0.002744868202317201, -0.21387125951015412, 0.5487107375777952, -0.9524190526538969, -0.5362383457412523, -0.774984510714763, 0.9051927855506166, -0.8031676542699704, -0.6677130329080598, 0.9851059525570567], [-0.7160302621829493, 0.7177189171308271, -0.07993675116398635, 0.2855700597690787, -0.4774722107998106, -0.5708875667104163, 0.729479401427569, -0.07151487997536643, 0.3924924785417654, 0.7188547450546685, 0.01944321195895582, -0.4533284350322744, 0.30677322070748364, 0.5474038403656112, 0.8642197171977041, 0.2730291269606639, -0.532327764921253, 0.14386708481095822, -0.5490939055059783, 0.3609755853634038, 0.4904961460884316, 0.7836575495719502, -0.7809668679856507, -0.7300316698037344, 0.7045254737787023, -0.30719513849553914, -0.9067778204215247, 0.9287210311649852, 0.24252624922252686, -0.3968899636140806, 0.46693019968505634, -0.7907371906633949, -0.6680311007317908, 0.9762610073074447, 0.38479978348696686, -0.8763018428302469, 0.4418139590980986, 0.34571650349128885, -0.2402368291490016, 0.9574480944867806, 0.7312037424194979, 0.2808653590441343, 0.16214222050689753, 0.9740456513727622, 0.44436276798842567, 0.4401654674515966, 0.18662468137451002, -0.3680374880337864, -0.5235586721208211, 0.03879549396670219, -0.024987479814480157, -0.12053617830368411, -0.7756288208764972, -0.04386704138407538, 0.7974286171090292, 0.5137858295457676, 0.045298738880479306, -0.5887961053682556, 0.7753251300214405, 0.5227894261972992, 0.29596593519767656, -0.5385278408404456, 0.5166479233274638, 0.12134485437624826, 0.21701229432019556, 0.06063316072126064, -0.33089626491106183, 0.15442573186397596, -0.7479119175514651, -0.8250967747400676, 0.808959165091765, -0.05935259219090899, 0.14726816202387694, -0.7559973674248881, -0.05273400827193708, 0.8930627511634528, 0.49743726346152295, -0.39870602028037927, 0.8334911868938149, 0.8113470848017054, 0.6860595338027499, 0.38607430206716026, 0.05124284820352254, -0.8300690723591042, -0.3053027680300424, -0.15110375493996075, -0.3353820577121586, -0.947674932383496, -0.17396164412360815, -0.7175655370094042, -0.9597523377053621, 0.5015242125077122, 0.11947336340623947, 0.16278382185393228, -0.8181015425516944, 0.5129410668325961, -0.8638104085007421, 0.6379354825602077, 0.393205939932858, 0.07087271240088433, -1.204906664712122, -1.0846691347338246, -0.6057440291378422, 0.6898706254859633, 0.4733963218882998, 0.4699580179793954, -0.7752637483505253, 0.6859166550542056, 0.9691766443122841, -0.9888608818213723, -0.6738376975496223, -0.4199734730593703, 0.07771648430139932, 0.5868358863289076, -0.5869029743601133, 0.8027853653524718, 0.9738686071618512, -0.07160462193791946, -0.8214567638257794, -0.726733587644409, 0.7013790846497957, -0.2862968613891197, -0.6597788970396756, -0.5418006681181018, 0.217330493776989, -0.037987159879252164, -1.283527443572829, 0.13445347364032512, -0.9551740008432456, -0.11084567415338564, -0.9274790212404235, 0.16289775555168967, 0.13510596386652757, 0.36580445693264957, 0.17142818704297702, 0.6439032351578353, 0.4944783831247549, 0.25022515645851645, -0.9277008430596128, 0.21197940179485728, 0.3783634403632117, -0.43860404821952104, 0.36307510357043915, 0.06119973638361417, -0.6473157030108225, -0.25109639471668915, 0.5252304930053392, -0.4676324447175167, -1.0064391944549067, -0.1100214752011992, 0.26526998133517776, -1.1346441036517967, -1.7230877872591794, -0.4812835550665273, -0.36174564255411323, -1.8895596095060547, -0.5229753177945206, -0.4129577122283924, -0.670174895403629, -0.8981524972601065, -0.765514439757981, -0.6362560895808661, 0.5391388754114576, -0.8722577228376306, 0.8913416957198733, -0.5361485411938957, 0.35472044732794916, -0.2668573402567863, 0.6556592726203352, -0.4564841047520888, 0.034093612789845476, 0.45617243842508093, -0.43550362031687895, -0.8876137233947141, 0.19133070055092335, -1.1436147866546902, -0.9585764397069599, -0.3758316368875342, -1.420614253724719, -1.2406000619426694, -1.1728659884409247, -0.5724182520525156, -1.4583169402637597, -0.5608697589171352, -0.14399662104015432, -1.5488868133050966, -1.3909141559930451, -0.2840797110609508, 0.18805544883336112, -0.7441947806293124, -0.358892880017261, 0.030534477648141326, -0.59682510197272, 0.029052135779633028, 0.9645971374430505, 0.7983224737138334, 0.2601211741332295, 0.6561401455075033, -0.8771195169103475, -0.21617878238242488, -0.8741052503064031, -0.5422736140403387, 0.31765374181219636, -0.9088777343549734, -0.8785402549566859, -0.07678578176131601, -0.3201710890182923, -1.8063308180692415, -0.6575365177036887, -1.3568705548130757, -0.9050316491061947, -1.9406604008478023, -1.7024345443548463, 0.005671064164253448, -0.8109592335338689, -0.3518752379536468, -0.415017339608644, -0.45601686674996894, 0.08072382730755376, 0.6286771224827775, 0.5929547471998994, 0.49347265787977806, -0.46661070762160406, -0.5860584367547945, -0.5805113329795383, -0.0347130822611069, 0.57099556482037, -0.057545955327489476, 0.19553998997210595, 0.007215184917808301, -1.0931954165611195, -0.6003189792118746, -0.16923428544026686, -0.1605955819378848, -0.9583324804014877, -2.1754493318361403, -2.47385133661621, -0.9927638734136219, -1.2244231575743378, -0.30047123081303817, -1.043271055750945, -0.2036377966325722, -0.26075059125946676, -1.5266586098994677, -0.2347682661539764, -0.5030108178118197, 0.04393586049478787, -0.5853068509775905, 0.33716795810854205, -0.018850910880778504, 0.8327113142304963, -0.6716324411848418, -0.9301846131554963, 0.6491496249637665, 0.3202625273864213, -0.840357907054886, 0.23143118098563004, 0.09519318736280953, -0.8500138080923194, -0.39172958560102294, -1.1871251239812037, -1.75016592201939, -0.5140402237014541, -1.1524772662430929, -0.5496604964468066, -1.05895638314684, -0.8444844071375677, -0.6454296623402562, -1.43957969450194, -0.3930059522745841, -1.0722528181595692, -1.671317455466144, -0.6954809648356409, -0.39625889953451143, 0.2238932567072039, 0.3667490165465094, -0.8277082006787462, 0.26882957703754984, 0.023977990994270414, -0.8015533047602531, 0.4251160406050032, -0.07142933001227464, -0.27519945997648293, -0.5098709035379514, -0.24410497295068045, -0.3135155654396875, -0.6796758777179557, -0.3027179234330962, -1.3608693930923206, -1.4898180764808813, -0.769524955501496, -1.427525594921129, -1.9892389225053182, -0.7791145674192974, -1.576536875960284, 0.09862984973284317, 0.09883713620652335, -1.2602451594939001, -0.020126075007573574, -1.2148272812008405, -0.6570831825320014, -0.816067325681254, -1.0361579498665021, -0.3535276031356145, -0.3037855756134166, 0.05383695433704016, -0.506602340754847, 0.1034601095979386, 0.0620804377155326, -0.4672595468206535, 0.05711015716653515, 0.36992550252140216, -0.6916279768970369, -0.6069035852277362, -0.9293749682993531, -0.3899476169912286, -0.254970100823257, -1.1681656811880443, -0.7636093239458632, -1.82435363432387, -1.5673700431898443, -0.21581757159107295, -0.39625241146946966, -1.4485977025880732, -0.8574878842216771, -0.09041090906154248, -0.4002393072847835, -0.5384857637876163, -0.5712455404726121, -0.11848163470221118, 0.2834999714040179, 0.025363458882527473, -0.24249764191043122, 0.4362774547756568, 0.2958549024563257, 0.7609781321979459, 0.32689789838256095, -0.9636018519025185, -0.15176805309877484, 0.6149062559277813, 0.5368445719932694, -1.0135245618349713, -0.14053124760639557, -0.754033199506091, -0.14316286170466364, -1.0597948168211566, -1.620354518721595, -1.136635641763221, -0.46584531610022506, -0.12921727735192368, -1.547330767625908, 0.2875707842993106, -0.29590348437197245, -1.7096337990291035, -1.2085678846062802, -1.0820910421013614, -0.6664111417374521, -1.2604211994715837, -1.4667114123412286, -0.8566661323073383, 0.8672281739132278, -0.014673528276382693, 0.5018148492732804, 0.2526680080265224, 0.13787994105260587, 0.6905643706343798, 0.9719317394124268, 0.7523984284377683, 0.869302382926105, 0.6383866966428867, 0.47412519196576863, -1.3807880803800394, -0.7461845411563921, -1.5328601120783574, -0.676473037937751, -1.5509143701461836, -0.36021412752372073, -1.0744104540352928, -0.0718880514306488, -0.10687834286496478, -0.9079949154316076, -1.3561920565200052, -1.7777849796836267, -1.9380280147418092, -0.5194734982041487, -0.8816447069039979, -0.270995212546321, 0.5210396256938392, -1.0044663780675407, -0.2608084185837421, 0.9884018512448535, 0.4882749492430943, -0.40171664693878856, 0.009260780954590132, 0.8705203761984392, -0.35396644560694784, 0.2843128655408431, 0.6898088617272812, 0.2761557057014138, -1.5907373531210358, -1.1984243652666273, -1.2243921072713218, -0.35398305055446055, -1.534002876017142, -0.25706683328909763, 0.13779231461558072, -0.3989089939319167, -0.6122881873991426, -1.833826639692259, -0.6616593438011937, -0.8305901201192127, -0.42633797636464377, -1.9214457969095153, -0.9770716436517443, -1.1566902762810525, -0.27473361633278076, -0.5661872863373385, 0.35173185258042133, -0.8513490822752707, 0.04328757932921302, 0.09646468004490254, -0.9778134795718718, -0.9953427967286707, 0.5948610676490952, -0.5913481705141924, 0.37341922863092936, -0.6335676747620976, -1.1035245023073954, -1.2043702741726945, -1.5568815576582962, -1.2981940933418517, -0.03311818854475557, -0.916505923752573, -0.38388765526636115, -0.2834736173750486, -0.384887121587418, -0.9647087179025755, -0.4508948371215089, -1.9266641145463783, -0.4108031976772599, -0.864547420606474, -0.42723223737471094, -1.2427972180919205, 0.06943585944260944, -0.14650635521046798, 0.3066309342303003, 0.7715076820142956, -0.8495000557372944, 0.9120616721707976, -0.0327168292025627, 0.22657923774094024, -0.6517422748823756, -0.08211862461369401, -0.6523821711164162, 0.19920543085269127, -1.3148502881984259, -0.3249343498738917, -0.4767252021638675, -2.0851343057259277, -1.0295999050225033, -1.8119389786647877, 0.13269785337158035, -1.00271651331623, -0.21719104165384684, -1.4132836582291126, -0.7193086200016474, -1.8151813693594177, -0.6928469049988486, -0.48743538016498666, -1.5085093782281984, -0.4250798218602839, -1.0459113869996712, 0.20084408906372264, 0.3237666553289994, 0.5715344289945895, -0.4563358414795342, 0.3238557778693367, -0.0824564367240658, 0.14318950612494, 0.6839418179945917, 0.35177538185822177, 0.5929343113786647, 0.2135201039173681, -1.7090194670509953, -1.9438441598437652, -0.6257290272204281, -0.8649465289179017, -0.18497470210551215, -1.1519395710961948, -0.9758690720829993, -0.7176401440328722, -1.4988077852858692, -1.2710141129675039, -1.9134991139963755, -0.9474790339185866, -2.1889631527763687, -0.6688345842357033, -1.4572705324762842, 0.15257987113503269, 0.41857492970089083, -0.6804150565190835, 0.8956079420250028, -0.5261350594882397, -0.12041751896150182, -0.45579674384891494, -0.5636970126267358, 0.640337488491168, 0.9683988652767322, -0.5588574342691852, -0.4527847791120286, -1.0131196143092733, -0.36623099794269054, -1.8358861842769487, -0.4702381337894861, -0.2757229718516909, -1.8063722936505338, -0.6604931990086644, -0.7239911751138012, -0.6204105444677077, -0.06408429577002472, -2.1142158596168508, -0.6357930693272, -2.1258778982626083, -0.6258384359984404, -1.0800765685630693, -0.8078263478855093, -0.2712981635609014, 0.6432737204815435, 0.6546924731217111, -0.3924659102083616, -0.4604914567975411, -0.926082848514969, -0.17081267217380428, -0.7339589147208175, -0.2777732379206211, 0.9856178205097271, -0.5842986882222327, 0.2327456039383734, -1.203928586964324, 0.07496610635661116, -0.36034474081062695, -1.7031937649857494, -1.4779948944041492, -0.8737257751691836, -1.510626126259786, -1.5723310804431345, -1.1821745530164605, -1.6775632252263644, -1.1045197338046444, -0.8464962830657337, -1.1839808398567067, -2.098760203256135, -0.7739076669713794, -1.1011752294945105, 0.535483561444093, 0.4693367258269657, 0.8288174416309888, 0.32838442249849764, -0.10669718969493833, -0.2727414243081629, 0.5932282927328469, -0.11481599478674602, -0.9324353055905413, -0.9619000673896607, 0.2403768673711867, 0.8161744289487407, -0.9016827275736661, -0.9147001626180883, -0.4046734857591633, -0.5089171762284204, -2.042927547156536, -0.4742293481506863, -0.3039538570509277, -2.0360667006278557, -1.3274807472866763, -1.1710907094512937, -1.1025368576881398, -2.012164272922412, -0.4776715625586241, -1.434618476504582, -1.1044609751258831, -0.5285069491890355, 0.5418611745028916, -1.0128128372688372, 0.5854418005398068, -0.5808770307684645, -0.12011331690766015, -0.7595215522160934, 0.4238701243182213, -0.029232159183039036, 0.6811292057911306, -0.8138767419138832, -0.5867204223436089, 0.2933717803245717, -1.2194609060971753, -1.0005313972894672, -1.576390985175542, -0.6778861222534459, -1.0944896932941581, -0.19691083435823442, -1.8859973326987978, -1.8787355764378844, -2.1437905602564773, -1.5137380590559508, -1.8444606364807372, -1.7932568746018447, -1.3236132526194995, -0.7860525084502987, -0.8850426063377514, -1.0798087567611887, 0.23730697233400297, 0.5311300715767915, 0.23331592250487682, 0.5749465392330205, 0.19563688739067137, -0.7848741019217644, -0.48145457127792973, 0.8813689995512451, 0.7763773039974522, 0.07599007507953968, -0.014746083297216876, -0.6743949871021001, -0.8992571357663788, 0.4375919249898699, -0.8520198671143424, -0.3413084061797168, -0.9240622627819977, -1.6352192784000121, -0.21700815695723685, -0.9343358358132045, -1.364461635625551, -0.6018412167208669, -0.6271233926847757, -1.3764338150219642, -0.014055194070166643, 0.28084035033330335, -0.24037129370514387, 0.5043192157581267, 0.4060159081667198, 0.28367569910350915, 0.4853785702806761, 0.5649076239026368, -0.6027745680692669, 0.8336336712902369, 0.9459223394585221, 0.16402870449274687, 0.6701751615609953, 0.04586929284423283, 0.38140857566174696, -0.05304422598612881, -0.790104324682, 0.13363297144262876, 0.24582116983627417, 0.47433329611751784, -0.7009017825630572, -0.2770308831291073, -0.25913401651764245, -1.5815778158323652, -0.10359785702172264, -0.7320792970839473, -0.6262345922933658, -0.9072491579399122, -0.08070225789795854, -0.26287448321280515, -0.820082105968835, -0.49307898629723684, 0.5899636494516315, -0.7854458109923967, 0.9732671413566287, 0.7695679189928987, 0.6690924214144728, -0.9849676373487755, 0.9238531526233096, 0.6821760193019575, 0.6609053467104866, 0.3170501473085266, -0.7329470394492734, 0.509174794680832, 0.3933797879975186, -0.5127827578471092, -0.5478236811527367, 0.3175877739987546, -0.9290100035247196, 0.11654551109011371, -0.625795779955432, 0.6809405851178397, 0.382724975520004, -0.22399852800839426, -1.0948736714958363, -0.18079819327256977, 0.405456464640389, -0.3665713174061982, -0.032864376344271036, -0.9431119053499746, -0.1851704016388938, -0.3407320633622185, -0.24243687574043674, 0.03711459365799402, -0.2560826109020032, -0.8418409405366925, -0.584004741390316, 0.8759499888545408, -0.8804289443910299, -0.5568488281869266, 0.6625361673073392, 0.23190162210997486, -0.11059665688210579, -0.15058850648136674, 0.7483923050564498, -0.263691506876343, -0.7547010389329344, -0.26195718954547753, -0.5684659445090315, 0.8571469050431605, -0.5327590625166123, 0.17070363497096716, 0.11576319264486035, -0.39697380480938205, -0.40890340964518673, -0.29214559148341784, -0.6490346489486486, -0.7269286393587592, 0.3517444147250408, 0.3180601231799431, -0.7909785844649122, -0.4560176620562447, -0.28664616214492367, 0.6825568605835017, -0.22890803216251276, -0.2551305190338373, 0.21227347927958506, 0.1558199281184056, 0.7854248127276686, -0.37904775095198706, -0.8940010984973945, 0.2442728448068517, 0.056807918641729495, 0.9395717420179988, 0.250511358640255, -0.5077279536034232, -0.7694520908830035, -1.0670287031922787, 0.3438667473799165, 0.6900438117155949, -0.26534526511367573, -0.9437798397149945, 0.8223061898839463, 0.6421664441684457, 0.8000993549611897, 0.4745313256041913, 0.40162348981191587, 0.8551197411588161, -0.7828739876618548, 0.2496430184738367, -0.33399050495539906, -0.726816564325238, -0.6833672726595976, -0.1594592016228884, -0.030397248690109402, -0.8592981433731768, 0.5705552416799657, -0.11993118519379142, 0.25729646027561154, 0.8316982688557712, -0.34969356468020407, -0.37917512936694076, -0.7403094609882137, 0.30635123007889903, 0.13261233295675864, 0.3281224671005044, 0.7242595133583406, -0.5417175744731086, 0.30237242876567727, -0.17255794326550364, -0.763404648634366, -0.5839073490411526, -0.18134501786326393, -0.09471795164373467, -0.22605725469655671, -0.9778123384675057, 0.7133618849708214, 0.20368392090095533, 0.7121976949289563, 0.008061483889156396], [-0.06861507601525818, -0.8444820892619704, 0.5441495585213436, 0.13312378991121876, 0.9243394459340855, 0.852732247797096, -0.14607164037932585, 0.2215936157548266, -0.0378917222711439, 0.5674933930847597, -0.12104490400291312, -0.9937401328730513, -0.9886975841316157, 0.7163492542652816, -0.6940770709062309, -0.4332098280352238, -0.26486587014072605, 0.5506097411649706, 0.7958906898360931, 0.5594702592216769, -0.17053455153810892, -0.7534688412114734, 0.5099198992615668, 0.3073370313590158, 0.658884020447905, 0.8724313647484156, 0.13115358439086244, 0.10154789710764267, 0.1866216453114815, 0.07789258375809882, 0.12970832214895744, -0.3437847442832389, -0.720005860241861, 0.2852936891899407, -0.9988489121587782, 0.29288874796920844, 0.5766282950353819, 0.4521365727075459, -0.07792906200809985, -0.12903731427093532, 0.22049326601654975, -0.403932091225877, 0.9298269199911797, 0.7794258603293512, 0.2284981489133723, 0.3358754786532962, -0.691232888046326, 0.8231711913146867, -0.3332250906812687, 0.8890301862597743, 0.2729787142712805, 0.439935256620633, -0.9542638487845034, -0.3382488409628166, -0.39737857574144986, 0.43174284943172303, 0.41649810151246824, -0.8107827524792821, -0.0692445382378728, -0.5704068839254752, -0.657782699414224, -0.09924316651591043, 0.788468742784287, -0.23574146251427913, -0.29381197220112837, -0.22839885194774873, -0.5384400648527692, 0.5769877478759889, -0.2992768040130298, 0.5245889898794057, 0.8756079851595465, -0.26160450156897225, -0.34472120965959224, -0.8653912113005524, 0.9296155240137564, 0.7751072539782621, -0.13001420423594823, -0.9608077412615234, 0.4563310719893386, 0.08453935638551655, -0.5889612934045242, 0.7154716337712537, -0.7870147398866814, 0.8426708601276536, -0.3432536078604833, -0.21222340379919968, 0.4240997221367644, -0.36828572646977714, -0.29767336455460275, 0.05510344123802198, 0.35660608574813274, -0.09249764313686218, -0.4026140276466382, -0.13265937894326882, -0.6048973227270225, -0.3688718396639419, -0.16469227246150384, 0.46462293927205844, -0.20167315490536236, 0.11027579436106862, -0.8224023613789604, -0.29948473038608137, -0.5943657652108382, 0.39234164437676966, -0.026805248048185272, -0.26702961875399456, -0.9110981502963472, -0.9340633077277453, 0.6715285558278357, 0.8775244084504368, 0.5791818805786799, -0.5270841060067104, -0.9074545479332874, 0.5828809259461578, -0.3089229297982378, -0.7838563258405474, -0.9223751767320594, -0.5181536680494627, 0.8635578271575208, -0.20270898216653377, -0.03422298727037509, 0.023731097414832023, 0.730054043427921, -0.729579727736674, -0.5818802352624809, 0.3866100500917536, -1.1251939670720381, 0.05747789088838087, -0.68883883361801, -0.7315624785948928, -0.29759463983521, -0.6470997171116178, -0.9544224927253675, -0.10981708310465324, -0.9997991512452492, 0.24978917450340146, -0.5992678159395398, -0.9092894038296643, -0.14815363671887716, -0.8743154171869767, -0.45899744323742264, -0.38820031393285404, -0.8384467060208659, 0.35526875746219044, 0.7682823461122102, -0.2987396661011338, 0.5269916684194091, 0.12938021886202872, 0.25375963653294387, -0.14787785315276789, 0.2951584022860232, 0.43446789780640227, -0.13804699506814494, -1.0520793973013862, -1.346106079193087, -0.9301027103222691, -1.410521493153159, -1.326503244657526, 0.0347291038848232, -0.01972602324036471, -1.009449846191941, 0.086620980918501, -0.7352931329691281, 0.3399818634070333, -0.7423746390095002, -0.009721083895988988, 0.3152576798157771, -0.5313364295507276, 0.8504930800001282, 0.8785096571790063, -0.9686025258972816, -0.6454466500901758, -0.4730659021214754, 0.6435831420933422, -0.901295230191209, 0.6568661203854027, -1.1475086860072963, -0.7445366559732436, -1.024756554094188, -1.661018742053892, -0.6579600052738102, -2.0877920441771494, -1.6927396962073293, -1.4914223573514838, -3.2623851040927963, -1.1010263930320388, -1.2069354619374129, -1.0756026650147672, -0.26432401040201126, -1.1915188165741075, -0.9809753066207847, -0.6424537320352292, -0.49303544785727277, 0.7665040137607521, -0.6386443832891179, 0.8563883622927396, 0.08512091348251816, -0.9896607075107913, 0.2252878675489504, 0.6494317794108403, 0.6950290402970478, -0.7229513043709797, -1.0069561283284711, -0.25697753155994324, -0.2640285033205941, -1.6556209294058584, -1.1178034239953625, -1.5486343954948103, -1.6396551173060094, -1.6625882275801298, -2.46578989687214, -2.6979303770167027, -2.665045626630931, -2.2046633764769323, -2.2439973870962096, -1.195415601739659, -1.3102377507699527, 0.3612044834334901, 0.657974262107311, 0.7849284146436684, 0.33945430385952, 0.20406271216606617, 0.01818320271817342, 0.7047486902005097, -0.25159890733573803, 0.8129554399385335, -0.5371685381946568, -0.6821321474898726, -0.10725187514919218, -0.5351504822290113, -1.1184527750992375, -0.5605427949654784, -0.2652499744072676, -1.2413173601073648, -1.879213115475646, -1.2908261433633257, -2.7508766675322285, -2.511783865883621, -2.279687713453992, -2.50821991072361, -2.2534893412021884, -2.900227094143812, -0.9498978477324941, -1.2906205906894521, -1.4991793188773612, -1.3259836610685092, -0.08300223891837757, -0.9968093932546098, -0.38894972079726414, 0.4520005550260352, 0.09189253073730874, -0.5094993905160967, 0.8287898218987363, -0.5935205751702957, 0.18788292090704678, -0.9253632123044595, 0.6204465147508136, -0.3151543167227162, 0.540660433432592, -0.535709743222341, -0.5768481562860985, -1.1629532115715444, -1.722245730126102, -1.031030239262678, -0.4291989513287273, -1.026186921735895, -2.363649894675674, -3.005546060998449, -1.5368273579178124, -2.3009433720541876, -1.0434981069456748, -1.2250742191086468, -0.222629931344273, 0.5763147256020481, -0.1972431929394893, -0.5997575391003983, -0.3711132933560498, 0.398227630641794, 0.7678312512037364, -0.7658793533135839, 0.41335754295002813, 0.22687673954485124, 0.5363375506915296, -0.8196425654766746, 0.3424635849701694, -0.8475706999458591, 0.2162465836641984, -0.7504313451284339, -1.4993961047308968, -1.290976099185704, -1.0384251570165255, -1.953023971542966, -0.5230054551166246, -0.6082336328298961, -0.5712508061789582, -1.107234723662966, -2.084365172888254, -1.4009650762725825, -1.80731407295714, -1.0560978727702337, -0.20255092910542072, -0.8235984722813116, -1.0644857181511145, -0.8054789393479859, -0.44641017876512495, 0.5329547765207487, 0.9389766149108862, -0.06759244310413258, 0.11372663563263391, -0.90796249760205, 0.7217883846626136, -0.8784681611411093, -0.17931529272988406, -0.9442082416210473, -0.8488074252694623, -0.13382460260307283, -2.0066871120718828, -1.5300155873268713, -0.8705684132999959, -0.9525249864510368, -0.9289633977404796, -0.2274395205749864, -2.0529574181905343, -2.0850598594921776, -1.9437723560255638, -1.8441898805992825, -0.7110597086777088, -0.35302652578651517, -1.5745201481820135, -0.7703707182828183, -0.2842368051091348, -0.7060836434014721, 0.31117007558203225, -0.7175908732585647, 0.8095047248867232, 0.15815994614585968, 0.40817898184149837, 0.7143483877940547, 0.4154068195917035, 0.7655367777929957, 0.8030582870362796, 0.016063550289571682, -0.6660468312624345, -0.2723584626120552, -0.9662948313921002, -1.1971284095740378, -0.8901752916338271, -0.9350363793410199, -0.983145123627023, -1.4643033543112152, -2.0377499093710094, -2.4054106069931653, -1.2650200453509608, -2.2289852435086535, -1.796233337443097, -1.1757309817564896, 0.312918488501183, -0.28189032134469405, -0.3036347604143303, -0.7879514531255979, 0.6148074063398353, 0.3541902940587983, 0.9644397029179405, -0.09153360128164727, 0.765430099800062, -0.943240066798102, 0.30986953901571357, 0.3835017769624142, 0.2577634098115724, -0.37379033470785744, -1.046409872000003, -0.7945875189275777, -0.7652798044094827, -1.9910484543579496, -1.6551068809324003, -0.9452127977750735, -1.1144737326303842, -1.90602737074205, -2.1155965219490476, -2.84786634364961, -1.8053161124849242, -2.05529800036514, -2.2034567421163316, -1.4699060049971808, 0.011963116894673886, -0.9093956491477961, -0.4593310250609661, 0.28521310277653666, -0.9717323099608682, -0.7179814552773824, 0.941043129721851, 0.9334761219963235, 0.19016986020125537, 0.36851940928690236, 0.5999095021262805, -0.9089009011679241, 0.7252909883431968, -0.03919858729460732, -0.035299708616443826, -0.2917065937281332, -0.741426803997187, -1.616705050306365, -1.2604055082971157, -1.3565084101574048, -0.7815898176599341, -1.5490031673487952, -2.452807513944398, -3.237438980719981, -1.795355141379224, -1.2954907544952148, -1.0762312703958974, -1.2948802064299663, -0.20050157233542115, 0.5008803748682751, 0.02615326631907411, 0.6209501678284137, -0.7740867731108115, -0.7901113159026346, -0.24121021867034537, -0.08105300780769109, 0.41339207061235905, 0.23343022937286273, -0.09915800880821021, 0.3306717900107054, 0.5025874270994628, -0.7227308088881386, -1.1400374550517909, -0.17783163527986906, -1.5717724782953533, -0.8327443791809954, -0.9955240309969025, -1.7677161121081026, -2.9062841058980586, -1.8617151587084675, -3.0031123212244095, -1.9626459558060967, -2.6489686327072293, -2.637670061996689, -0.7438545081041733, -1.2369582191580317, -1.1039466210122852, -0.17974936655634294, -0.1742647422710838, -0.24930315467152483, -0.6956780919463809, -0.8060487161800147, 0.12316197684157591, 0.8196924644600011, -0.11187828373589448, 0.5907694173621054, -0.5204828982845532, 0.707159836616077, 0.5709970223459391, -0.28151273372875707, -1.0719221529814618, -0.29402628771880107, -1.0526097804713235, -1.3839176001944284, -1.2208897967544337, -0.7051247250524371, -2.3880204534225076, -2.8066664130984798, -2.8586455744343082, -2.507895852122807, -1.5306903065127988, -1.238669744088578, -1.2173604449313957, -1.090641405766145, 0.14417287109697097, -0.6120565477428941, 0.4157187526834396, 0.27940094748057465, 0.7994386228516001, -0.24726644265091957, 0.7801576695459222, 0.69838656818729, 0.34826739619656144, 0.7975044402558087, 0.666370431190325, -0.11976906881292028, -0.6400813197964974, 0.33261575320558934, -1.0475079057556336, -0.055208072534294064, -0.3755440345987334, -0.6454019697759912, -0.16765716501014294, -0.8860046611292454, -1.2181311094324627, -2.2337370154965064, -2.337770330991766, -1.6972649973584706, -1.4533656787331284, -1.8753660492789086, -0.8632317544114768, -0.7216725226485972, 0.17964337950125076, -0.33420167627928793, 0.19959115310518633, -1.1565531225657812, -0.44139756944731534, -0.6795002559833191, -0.7726577812882298, 0.1789517285920997, 0.38881733510589334, 0.6832781874363838, 0.643350077790601, -0.9818180084155098, 0.47444268080199925, -0.5007352089386378, 0.8232638365103238, -1.0774487155847727, -0.5990768184010199, -0.15585738099500995, -1.3634883167241854, -1.99647094735694, -1.870648856030701, -1.8043179963181062, -1.591114877501778, -1.0123802777740907, -1.6452092718219897, -1.268424355832868, -1.447615070455429, -1.016050594204043, -0.40591371004474097, -0.5986966071060533, 0.4702156282962514, -0.8811548876436099, 0.5847058034820671, 0.20458281411745616, 0.34021721631936797, -0.22354671100703868, -0.5964619826486717, -0.5244319827631571, 0.021453530747169755, 0.5837449459516764, 0.8898690235227378, -0.46618796292865144, -1.0623016531720888, 0.05970135035153834, -0.2549756875667002, -1.0392233388472658, -1.085663907940366, -0.5041382185876252, -1.1042132464007455, -2.024262474778931, -1.3171947545378528, -0.5648770038096212, -1.7520981968387808, -0.6044727448037204, -0.34506269988334404, -1.2251390696307776, -1.367204094098632, -0.34823041169610613, 0.36830424818455537, 0.0894191603747885, 0.03945873110349067, -0.03440052177282222, 0.9915394362467186, 0.3398168105388926, -0.6964637267453682, 0.8430889057693406, 0.5233049899485176, -0.5919564594638402, -0.4578738012495094, 0.10019742069159604, 0.39773712461682414, -1.0350741468006168, -0.35850055761545946, -0.4626983989925802, -0.0844692386440915, -1.7382601991989155, -2.0116829438790838, -2.6055429513382062, -1.6413562195227114, -1.0664013662921141, -0.4475391969312324, -1.8893634487348308, -0.6374233000396614, -0.9779473824661558, -0.5067929228227195, -0.010729381028128648, -1.003984155656497, 0.7047111865241733, -0.7401339928111399, 0.319783243534712, 0.15225976943308758, -0.9006817693555498, 0.5042190012480303, -0.25946251555122557, 0.38647362719192685, -0.2882883802874917, -0.7835325636172448, 0.43548807203114615, 0.7237585878709079, 0.05955151729499966, 0.2467618335661032, -1.039446160656019, -0.6443272466249355, -1.8782882828319343, -2.0412212164015218, -2.1436509060143334, -1.6613950106443507, -1.2222211327685362, -1.2924744768223304, -0.9618066271632089, -0.8447268749684764, -0.49891410966702865, 0.08636879193335556, -0.5019873108267245, -0.06672818544764911, -0.7544122509116815, -0.3193753772265391, 0.500784372428875, -0.26523570125024554, -0.5532325418438744, 0.7105338384359605, -0.34637215113191067, 0.050146211876980984, 0.5001375704919129, -0.3628117442328583, -0.7910780083472634, -0.3459898635853534, -0.6863091813885766, 0.2415331823873384, -0.3909507441053719, -1.5643838313122893, -1.8168115369618503, -2.07884647944817, -1.26293917121853, -1.3479899631234704, -0.3178077638032481, -1.1243920990470815, -0.8308563200011523, -0.7517600694555389, -0.725415851755403, 0.22756777598226008, -0.9010441098963512, 0.5297294650450343, -0.26892781574218866, 0.8584348163222022, -0.35748825498700104, -0.058478282679089624, 0.2698971759726796, 0.05234991401730804, 0.5277372457201452, -0.48175063713002214, -0.30585164447428137, -0.40333714453208647, -0.7991169356609437, 0.34687412052109523, -0.12513990416034065, -0.8732053951245717, -1.467412704363129, -0.8355740660090734, -1.231450395736577, -1.6620229756484295, -1.5530780437372855, -0.6994033433965247, -1.845298363863791, -0.34487202338393386, -0.9997383364304446, -1.3134149632247358, 0.4228678662011791, -1.1146225160113719, -0.372153403982823, -0.9674567609876967, -0.9285373373238994, 0.9125710104377268, -0.6473016956548279, -0.8396353922783608, 0.6160416498336865, 0.7421099780517961, 0.7671981006883384, 0.9648945415074559, 0.47727158721582746, 0.8192753937411923, -0.5640527347773268, -0.2826409997093099, 0.6370742187824567, 0.012340556111020029, -0.8474925326540788, -1.3714635769045422, -0.650702968827268, -1.4448949120417733, -0.15287555005515086, -0.9506743580484701, -0.6942385447461012, -1.049612476243563, -0.3952174827516904, 0.25835883548928307, -1.1705059722290103, -0.9849940597117522, -0.9117594930103137, -0.03985800894275399, -0.591007104102436, 0.7305344861301788, 0.18736778672959137, 0.8165108720511962, 0.15325821349749869, 0.4813627699225762, 0.6735026111727678, 0.6960486274708441, 0.5764687745823168, -0.8701497026000217, -0.374854626332655, -0.9361301089111359, 0.2843989901931412, 0.4239891156659337, 0.374020183344555, 0.28899992224019866, -1.2222085635449016, -1.0918247758715804, 0.35951924594333856, -0.8161909980010589, -0.08318520321847081, -0.5733145328298836, 0.1777422071735914, 0.22410928132856017, -0.6312450979343165, -0.362614605373495, -0.29170680469621213, 0.24081336920270022, -0.33277034960938506, 0.5524837505009281, -0.386133929923056, 0.36557987834511096, -0.23276048535486216, 0.6666254094558215, -0.06564507384073948, -0.09475866376342257, 0.02642530757311623, -0.7575395896956881, 0.7780624995557622, 0.9674529082357596, -0.9930842078539324, -0.80738546953511, -0.18125506509391537, 0.034625193256592246, 0.8172773735114431, -0.1602930276071557, -0.6224371631894337, -0.9115709965424794, 0.8790118853302893, -0.3557504670056851, 0.10294497040826578, -0.5314940079548893, 0.873603678037787, 0.004218696962691397, -0.16484494721272286, -0.6252289588490838, 0.005700938728623056, 0.5092420975590874, 0.5964424195441541, -0.1777867347526434, -0.09000991770584821, 0.3539847140302168, -0.7833401844682635, -0.22670827735220045, -0.17341306860396988, 0.08207625265942088, 0.030458804320112165, 0.5137058836356994, -0.717284465080135, -0.1876083885224442, 0.5591942921675327, -0.3057411637449232, 0.39889282368126283, 0.6467941157013455, -0.7289213058230952, 0.2389311367589843, -0.8409986224264332, 0.9901218630170533, 0.8713597956802558, 0.4443816521805683, 0.9820392604700053, -0.2638037827237237, -0.6280710961313984, -0.7749228070215471, -0.7911089254423085, -0.1740454788354484, -0.4544141312890393, -0.4213675649659132, 0.7749583172456616], [-0.174664685028445, 0.7837803871266917, 0.5171154899535793, 0.7991677212682871, 0.8761549401703077, 0.5356987261994817, -0.017835186468869946, -0.9284666111293998, 0.8692119018208244, -0.3594635148644736, 0.9148501323294687, -0.882477552254687, 0.5797946682824794, 0.5757509561520052, -0.45180926944567973, 0.9293748971123262, -0.9630834495818548, 0.10336257661153714, 0.47478818805294876, -0.6086395617090967, -0.8713764067649263, 0.17622069555091824, -0.23478040741187667, 0.9224300959697209, 0.6173309040025372, 0.19918611270259512, 0.3527508851349668, -0.6918181983526837, 0.6172470771925791, -0.02490073850450414, -0.14287987622019904, 0.5276777959768335, -0.5923460414007002, -0.4647059648946146, -0.8533186956691632, -0.4287674708240075, -0.3298715752458569, 0.29587169728815843, 0.3730868040340258, -0.727631638899934, 0.7222468748656241, 0.20027673463361784, 0.11959977692578498, -0.5169754112026576, 0.5340578287813729, 0.29104984795087635, 0.798790520737266, 0.527692344697596, 0.012967938086361307, 0.07779764342467074, 0.03844985085601449, -0.5319313181457299, -0.36753542137377093, 0.1092858786826123, 0.17931109314567806, 0.4786065097954979, -0.4119514251157488, 0.333162969552633, 0.0511993406058657, 0.7906013017478157, -0.7887373841415198, -0.12374904472297624, -0.5739034938047757, 0.3653163663843735, -0.10573054071782959, -0.6807198074538447, 0.5519071695124956, -0.3015239531621239, 0.40485663020047685, 0.04467035540273804, -0.015860535084596183, -0.44320403025410604, 0.23430403293294355, 0.8848739930571081, -0.18457373141179795, 0.15636781027953867, 0.536709176072956, 0.9096269079403678, -0.3772176638815739, 0.5387370102321345, 0.7201520408799706, 0.2593750032256923, -0.030596933155114137, -0.9217528799554062, 0.5822495726131609, -0.7170199006495879, -0.658478838442311, -0.509312841113487, -0.47066238898908885, 0.2593387121682911, -0.861723867964077, -0.454406671526098, 0.3479384806145188, -0.1737085983714859, -0.17075204396253413, 0.8318897435166132, -0.7827287418035918, 0.14285277972060306, 0.08245375737796123, -0.9142965013076363, 0.49684702577012085, -0.9018052665353389, -0.536646567681036, 0.6102933657074058, -0.598617153866473, -0.5649214880335839, -0.8174715344150444, -0.7924317501054994, -0.2625533637250066, 0.41814357021291104, 0.5146726686823955, -0.194977835455433, -0.5248950646233876, -0.32365451751024965, -0.24130138012963223, -0.7470621249431498, 0.6868015229522513, -0.8087171755367412, -0.6136242742485001, 0.07408145072714487, -1.0035229016960172, -0.7853929326529346, -0.2993909722800935, -0.44042523389142757, 0.14308174348411704, -0.10274008153990258, -0.11941016828485498, -0.1417441330250111, -0.43271811710708374, -0.2754732467816764, 0.20309582238620327, -0.7032855627411468, -0.7864719108954332, -0.610315609508738, 0.7421505277579381, -0.4807728905209697, 0.4362174315347075, 0.33626666706866715, 0.17393262017373237, -0.13041311681367132, 0.7211017417693029, -0.3026985549677559, 0.904067666042171, -0.8925644047398843, -0.21290183881905858, -0.6335169560454813, -0.6143531578669734, -0.12488433376352023, 0.10498316547652721, -0.20789393672344214, 0.6308499542654469, -0.12316319880054433, 0.0011609873359054168, -1.515797489860818, -1.0720277560707827, -0.5991754690282065, 0.001220259128461798, -0.7054016719268821, -0.4306705543130456, -1.1279664587506102, -0.9901518942020581, 0.2212109843611346, 0.1254970285380233, -0.04898181278764417, -0.45827920460740473, 0.5988449897649325, 0.6815443262978553, 0.6270521998296678, -0.690590793961603, 0.915431131843308, 0.5636113373844813, 0.9222198014263296, -0.3804795646602997, -0.7753641684299032, -1.0314926916373426, -0.37233215055409935, -1.154296026751959, 0.4796689357680852, 0.008044644841738946, -0.5174948149647711, -0.906407060157433, -0.06622235441093838, -0.5846611246312721, -0.7680099766205954, -0.4871470029783105, -1.2113448077334212, -1.2410568554624346, -0.5797559699979349, 0.5307693587768358, -0.5121019044684428, 0.05920056762638676, 0.5254609305932653, 0.7024374711567981, -0.913816417697895, 0.23740701977068432, -0.39144400999801965, -0.5908904268932417, -0.5076003952561687, -0.17828651528495623, 0.8557724541095216, 0.9182309860855022, -0.4832490611065538, 0.0831212847461125, -0.8182530434834663, -0.8981193146231798, -0.6422171541802221, -0.276730326919433, 0.005847851223855893, -1.7444887085869385, -1.5567534356417523, -1.1974393180745733, -0.9584032661831325, -0.873010776164276, -1.738519146784292, -0.3676976059417667, -0.5588844523868673, -1.061929344957162, -1.2615913000872698, -0.8233440849153841, 0.10375343927004424, 0.715725359686992, 0.7860822457714036, -0.9798486362934363, 0.36656427909382816, -0.13601973710317805, -0.3339692385131244, -0.6305221733536277, -0.32328321422775663, -0.5827504016050676, 0.7006097821564661, 0.7752245999863041, 0.669095800418896, 0.31491778371818097, 0.05195902983266121, -0.32511996568537394, -1.392427094344167, -1.200740785167246, -1.2446386869442758, -0.6778288301605802, -1.6367917554460552, -1.0022767173299296, -0.6439358991987827, -0.3356648747795712, -1.9065183844012026, -0.7769742167085244, -0.8249429932533241, -0.36549752410702196, -0.12999677274436572, 0.46228332883351486, -0.8421730659854214, 0.18468229258938634, 0.9079454139115292, -0.4070239177745536, 0.34524531602508546, -0.6889613767196353, -0.5381827181294134, 0.2746964928256337, 0.4872630886184124, -0.2604363863207849, -1.188072052654876, -0.916028494820534, -1.554426605962925, -0.5352836460548178, -0.6554220454229449, -0.5630919746854629, -0.7504257665741728, -1.0530303641140875, -0.3161270831618396, -1.4406043603011476, -0.8101432349133622, -1.111143770483422, -0.46052777155981106, -0.7415748835507682, 0.49925619540893523, -0.3597909447759276, 0.7115834518769211, -0.3332785216762055, -0.9125344789490032, 0.8385243961196779, 0.6526130936765888, 0.06915872386398036, 0.5467569814972035, 0.7024353079076133, -0.276845887691861, -0.49905625073348187, -0.12333813561470452, 0.09614853308292984, -0.9179241988500042, -0.8924724679203193, -0.6306340745692546, -1.0730913950000076, -0.03886646197222654, 0.38320450619863444, 0.24340172242099767, -0.04757669631468886, -0.10905504291854262, -1.6018294658606167, -0.7136489815708211, -1.3301955294908598, -0.5939752734606288, -0.4949285373856558, -0.12320378770984416, -0.515553713056536, -0.9535196064033761, -0.9711880841942425, -0.36923075986081744, -0.4225006015323137, 0.017723110696605066, 0.24572704793476385, 0.010764800098686278, 0.8474583121784298, -0.7791450722632658, 0.579342980309992, 0.0013302252277598015, -0.3397440977029691, -0.6138415176407634, 0.27815813081308016, 0.15825151598332, -0.04657337447453991, -1.6115656466981108, -0.0032045777195017777, -0.5754169440122219, -1.3509156082750042, -0.11170031179111928, -0.6682832010740354, -0.28515165489464867, -0.24598106012875154, -0.9855695475213634, -0.4039304043027452, -0.5576011479001626, -0.3138190751460011, 0.23831646782172886, -0.6720813883353746, -0.5572012302619047, -0.6554336012103519, -0.8544604008074544, 0.5067937662341614, 0.5304293370839934, -0.4081872479948553, -0.3584625526658051, -0.3965644215112109, 0.07167613737321386, 0.33964699400193044, -0.14969137943566319, 0.3864609446972075, -0.3519228255035618, -0.4618447357080031, -1.1375082970402146, -1.3253038624762357, -1.07001658320714, -0.6738762887914025, -0.4990476602113545, -1.5304940388616497, -1.0572386461150418, -0.6097309505173839, 0.32173181495228487, -0.5073662738108942, -0.9965949151386798, 0.1356086523745314, -0.32359194885459375, -0.12456943761099547, -0.7253959605886546, -0.8008960815683248, -0.8989751485391078, -0.11340157294161662, -0.5318362358200599, -0.47034518507536166, -0.24030099083922501, -0.9357721468240819, 0.3522651571215535, 0.8269506412604098, -1.024231988277852, -0.6326489539823582, -0.7901252334786686, -0.9845594660676328, -0.4445071236206696, -0.5600954489671973, -0.4280908209106411, -1.4938851528213208, -0.7422603261186718, -2.011098164653312, -1.5413031546343745, -0.8814134695435456, -0.9313920650711008, -1.0624919742295529, -0.04485139098271168, -0.31159639002697387, 0.0032573632200465913, 0.8693983805889731, 0.7066546739880296, -0.25196728568101934, -0.4070401449181355, 0.58815977942641, -0.5986082298555516, -0.7808605305676403, -0.7876893176604406, 0.7203424155133574, -0.4350642340536413, -0.36354660416227336, -0.5329813092163203, -1.0400147728743834, -0.2594412485159021, -0.1327610288338369, -0.8363841116005143, -0.8547276633164673, -0.3038741434134853, -1.4704954348138608, -0.861917445028108, -2.0440122874179263, -0.11994912044027117, -0.35611620317900194, -0.8088157331894046, -0.9512874098913715, -0.781476206858476, -0.7473140806067844, -0.32974031258860786, -0.7262441321175134, -0.6124953035622026, -0.6304057147616081, -0.10910444447606368, -0.6449114464083555, -0.15228806133477013, -0.27552926334825156, 0.0709465536732301, 0.23705033043099, 0.7485231307721258, -0.019786184010145508, 0.664707973688667, -0.19125682573297215, -0.47933636906434984, -1.1368938441724312, -1.1941466007091117, -1.1460722636696248, -1.6973429742011317, -0.8696899919070433, -1.506955529603451, -1.2245274513063042, -1.0975105814392876, -0.910619649015884, -0.8117551166269342, -1.2257566356955545, -0.3622590844041331, -0.9191497477467886, 0.13543594187220406, 0.4356768325836586, 0.3560482560983508, 0.38136244113344475, -0.887719344253079, 0.48099355399576693, 0.42349859022966274, 0.018546214088691487, -0.9966157584011109, -0.21561698285118544, 0.14028274331948437, 0.05997059166794888, -0.2006408646391264, -0.9398392214887912, -0.5529771817261515, -0.1338522670544957, -0.38257823572767213, -1.7097460647262512, -0.22259236907120705, -0.8195133647763837, -1.7137372362838608, -0.1451493117005379, -1.6288193110995017, -0.6427170954765093, 0.025410172078064952, -0.20475465416289446, 0.5419569045263427, -0.9087402228292667, 0.24829675944178353, 0.14408765410543464, -0.8244570319994187, -0.0709142538093114, 0.0021204863598748985, 0.4938330671813529, -0.6370018065038289, -0.7171328384601121, -0.24161211078735023, -0.7967576879537008, 0.7780365120502678, 0.6270841833719765, -0.6320320488844492, 0.18412514451404327, 0.3428647869729882, -1.1824014422481421, -1.4116717786371633, -0.47276013674711104, -1.4655213734055963, 0.059796186135894214, -0.2767058419056909, -1.6118108890091873, -1.737902854891146, -1.60534037465627, 0.2610970019133825, -0.03382718842927962, -0.6678435895667016, 0.41933174853683347, -0.47017419813204586, 0.9711097441227372, 0.4686006739365026, -0.9831597450021662, 0.7927969138542982, 0.03354865802984234, 0.14705734319254635, -0.060700432470540036, 0.09011161946458668, 0.780648512288603, -0.09922731224070534, -0.31037407740837997, -0.3831478983067994, 0.42277285118575103, -0.15280264498159546, -1.1867771205315898, -0.2442423687248802, -0.6859058123839733, -1.585680909771567, -0.6317070107432909, -1.6935431226185735, -1.0378312700106043, -0.08349222019756997, -0.675520429480415, -0.4999821942162843, -0.59150135347999, -0.4223721957727117, -0.24393748117601946, 0.8219570539509512, -0.11231057282842166, 0.5476998688327137, -0.597258277852462, 0.16979979817298602, 0.8555555563491629, -0.09127929572810299, -0.6479781648394163, 0.38595836097467595, -0.04954948795562632, -1.0668376079943598, 0.5185937320552221, -0.5260543299185949, 0.5412101332950323, -1.1821431441101409, -0.20720991198771, 0.16188378781270707, -1.3172847575518176, -1.4435939398696123, -0.5971909175240203, -1.4879835684903424, 0.09464596100686062, -0.6342764247649524, -0.5492957265110318, -0.08735076383026352, -1.2991766537996243, -0.14939022192794138, 0.6349040537715621, 0.11879912843251811, -0.12755023399400095, -0.714637647595231, 0.4615275952705497, 0.22438963822736574, -0.3388331413408363, -0.08566515927338865, 0.8675804561578796, -0.10583222656616367, -0.2630997383018859, 0.7477110664180909, 0.6550499208721715, -1.3103564385472555, -1.3389717293790415, -0.853507122958953, -0.4614033320334041, 0.11222392017476757, -0.691446887299201, -1.2320672307002003, -1.6961876834016392, -1.044440343069935, -0.3721969189326564, -1.2957561054810498, -0.8833184146121895, 0.09546037934151264, -0.603509956649966, -0.17638190715879726, -0.41084160761783584, 0.8535464943692046, 0.828499317545833, -0.40980312981956546, -0.023448469692682435, 0.5569939244185239, -0.0651894067473223, 0.8128330092379922, -0.12570486000514794, 0.21299323159672412, 0.35273100921759043, -0.7715669778519723, -0.8077382036636044, 0.304403053559955, -0.15849230941232467, -1.340931786239424, -0.2663100750624915, -0.3104279620189536, -1.864957368682128, -0.27406722163873265, -1.091106794202671, -1.659742438157333, -0.46297163830960386, -0.06121028654288119, -1.67866600168826, 0.4952230248658468, -1.2500918356234378, 0.23349010694847272, 0.3414180503279583, 0.7740634326808816, 0.029258175428014118, -0.32474489257579797, -0.9122545631483264, -0.844006216227813, -0.27700017635841445, -0.5274382265206532, -0.9380211060850163, -0.7925109627854402, -0.7461262574144848, 0.5964688176304174, -0.16586207405523262, -1.2901842828505452, 0.27126066628209267, -1.4281635923347435, -1.7589400223381921, -0.7088605275968525, -1.2452245569728804, -0.43127164426070363, -1.3369973338682732, -0.5183819628900836, -1.0017744435062361, -1.7324746957206565, -0.44206961298169756, -0.3427970174392781, 0.6748088148475659, -0.20900266136586299, 0.0029635985092450468, -0.27825545301414734, 0.4290009720348768, 0.8039980188201701, -0.18517819568795887, 0.10655587977459893, -0.9498371145309501, 0.10824044769860874, 0.6358874907968849, 0.4859402617196233, 0.12180312441278138, -0.051037159904592254, -0.34826956978531926, 0.7135841003391289, -0.5742647294052255, -0.2589571862721305, -0.5436767969040456, -1.5806979788366133, -1.3427136017397772, -0.45623861894667406, -0.5374327923095394, -0.7332238990643224, -1.1421828471421658, -1.4216004479264157, -0.09846061062926265, 0.4623604744151524, -0.7928368667247809, 0.08992650208503275, -0.34167043111514794, -0.6673525588844389, 0.5336411207637437, 0.042874074389122135, 0.45940438125488425, 0.5713936629094465, -0.6327838411796847, -0.7472414716653331, -0.8195478936121624, -0.9253730957812092, 0.4961559323034431, -0.6743375186134759, 0.902755401809905, -1.040397347011692, -0.7861793581179162, -0.6041714350790587, 0.5436358750367761, -0.859235581907777, -0.42952395549357925, -0.459841862339472, 0.1248066877693963, -0.25546733505586305, -0.0373134532542001, -0.5243060811680353, -0.2911605313934458, -0.46642091063447044, 0.39044029305051464, -0.9087925203869432, -0.6118096375944755, -0.6924225316130603, -0.7447700962649476, 0.04871637669926151, 0.057514553346934394, 0.7192530477207231, -0.47389423201037206, 0.1438210561958817, 0.5170617829307479, 0.534386101827536, -0.5858545860681401, 0.8986269944747315, 0.3661559341281415, -0.542266989749522, -0.3477741198491712, -0.30977184700297367, -0.9924472507569945, -0.13275114165544713, -1.1532341765328658, 0.4528458549265765, -0.4398139877860489, -0.5965812810749593, 0.7456147220894394, 0.8292579245278099, 0.9271277942577354, 0.23683521679184472, 0.8820908713200954, -0.026643321778125437, -0.03888287053191329, -0.05298639427583504, 0.029741972772449336, -0.4923176507722732, 0.24796186201309492, 0.7109610561875557, 0.12885723641149172, 0.14327821172903676, -0.0940013366543675, 0.15038716074234926, -0.039705838792884966, -0.9205001303628713, -0.4023347384959329, -0.030933405061329043, 0.18616080020057987, -0.9456806987001006, -0.926691154103199, 0.32334105543191294, -0.39370657762577493, -1.0374199155377366, 0.35251406738466634, 0.425162389767527, -0.9987163964368905, 0.5302502632571492, -1.0104235773609531, -0.48636090383735714, 0.8119326386474843, 0.8870386891949257, 0.3303389919018115, 0.13675256803264668, -0.5807001260812819, -0.2478818768990434, -0.44109337557504236, -0.6543405881488527, -0.9419755516487434, -0.7042857669020544, 0.4516625309072473, -0.09833898151891218, -0.31414143404817846, -0.24126561430628876, 0.19153352454388195, 0.6036944357447979, -0.18816776910375374, 0.47972159949685206, 0.553728924807081, 0.8315456998742118, -0.8742141741263796, -0.2773829332223048, 0.044124527969825744, -0.4977605808341014, -0.17295071197994163, 0.06533823070937168, -0.4913528337032766, -0.3129476757243324, 0.8468336399168145, 0.2236261952641688, -0.6405023913288439, -0.6171546476888056, -0.49940181278028284, -0.8222587797614747, -0.8983338373278726, -0.6069605908801401], [-0.26453263133705307, -0.8649424027330355, 0.5307114840476572, -0.39654387725385165, 0.7989515701508771, 0.8764155241934717, 0.39634293947018495, -0.24359889644088928, 0.5701427995868691, -0.7491901752434962, 0.15890733138576518, -0.06320575664984385, -0.8898062691659887, -0.17853305634042993, -0.3205782073498369, 0.23482578340974958, -0.3854751834047756, -0.35549346263595916, 0.4467997439883413, 0.6435039459535925, -0.10377743550436125, -0.4285764288167502, -0.1275244312305428, -0.3741654296291774, 0.7953751406707923, 0.3491841979136052, -0.04442462062018615, -0.5486378368998936, -0.29294607643682014, -0.16082624596580564, -0.16058622039884085, 0.20744654292015752, 0.22864838834455492, 0.642164258747131, 0.22376720130336358, -0.417400127368611, -0.8446093040112435, -0.28397014339371185, -0.5028534318443546, -0.9355788571261456, 0.33024606918753685, -0.3320623443992942, -0.06208357508891566, 0.21214915185802793, -0.47062275944132803, -0.7884062953284552, 0.5259891908830231, -0.9886494803739786, 0.7895355293040642, -0.8339049706631959, 0.024229157209809327, -0.8462814137840053, -0.27745663240985863, -0.9245777868912006, -0.004874360309861325, -0.020780306990961783, -0.6986826392952554, -0.5552479280974674, 0.7909045700223725, 0.26299133611424014, 0.6776732462056697, -0.6833298776144558, 0.24525368677796375, -0.488900998818856, -0.45509140005921994, -0.8004535918033522, -0.1738326029879593, -0.16325627260359962, 0.2549460369868744, 0.666847870923791, 0.13129671216554534, 0.44111161514433544, -0.9737205106417787, 0.14830454358152004, -0.4796189611226181, -0.18840369800855802, -0.02608035475504555, -0.5212203688312692, 0.4011740658471755, -0.5676883361674118, 0.7049676584441554, 0.24114650681749308, -0.4101647235436807, 0.709097342394895, 0.09154510801023408, 0.6073445155339312, -0.3502311062706325, 0.43313181899162473, 0.8908170534110865, 0.125376568586415, -0.08447619202169401, -0.06047119047610017, -0.2666294098919819, 0.799619067160472, -0.8025543253104336, 0.9530581559586153, 0.513449027049288, 0.88688814307762, 0.8475864031766641, 0.12759869306336405, 0.698709182944763, -0.8133959000141223, -0.24837614622240622, -0.4647430981947217, -0.0003553865673673849, 0.6909294852375498, 0.675540929451811, 0.7053868692044799, -0.6933166260539121, 0.1788230493398349, 0.10932015219168335, 0.40971800502607536, 0.8722502859005468, 0.49454864617568095, 0.400756571550251, -0.7685189519685018, -0.6815193793491203, -0.20648490962609636, 0.6894362112493928, 0.6817150952319947, 0.30057848513074104, 0.4605883975378533, 0.27571638713638, -0.39923992409988657, 0.26267495181827916, -0.9897601128209337, -0.9897472733881029, -0.11931517057128703, 0.22265700438948097, -0.6849515934980376, 0.36793984087148696, 0.37504499808827974, 0.48235970381269244, -0.5359060717573654, 0.6058228087765066, -0.22617073447954486, 0.18739964972701292, -0.6060539662220004, -0.9496124948652341, 0.41725775290396516, -0.2852876050584501, -0.5657212193669081, 0.6900741062398696, 0.1164005460690295, 0.505169283678249, 0.3563791426776144, 0.6465704506904513, 0.03831838230105203, -0.7452131457320087, 0.2028282876954816, 0.10073949455316059, -0.6583018340954142, 0.06339811721802943, 0.1811914521510692, 0.3089214731098856, 0.09403183165357767, -0.4119043480082055, 0.4094451327109336, -0.12438853611694753, -0.4053677739745489, -0.7139327882719118, -0.840837535964291, -0.130248115367724, 0.17748427364368521, -0.5640365219234172, 0.9025604248773608, -0.9232476815767923, 0.7523139758147832, -0.5881677487270316, -0.9452027359810592, -0.35404211153486315, 0.8787772149821302, -0.9354991768509839, 0.7570596959251747, 0.9227900805156175, 0.40835357817976525, 0.8037230731712861, -0.9060026007053255, 0.21400130317982757, 0.6330642290398835, -0.0567739953103831, -0.3339136387134247, 0.6240330679490128, -1.1087455273208653, -0.9119877414121426, 0.06934363588055384, -0.7816411338238565, 0.5693398194910178, -0.7302668506013436, 0.856379053668554, 0.6875825701391206, -1.0125034488335565, -0.21706637697323958, -0.5455914971910923, -0.3674153677261412, 0.6490953949766483, -0.7058651062574881, 0.5237086252882001, -0.9053225636689767, -0.7200737998512812, -0.3579371533377375, -0.3643810474669018, -0.748163775930969, -0.47974054946245737, -0.8420002897711409, -0.35995806963033994, -0.0966113035337703, -0.288720856170173, -0.9993439193441085, -0.015036219509785342, -0.011279505876407914, -1.0017469014431046, 0.18412105893489883, 0.4106523521012805, 0.06207816138469072, -0.7882390485009589, -0.6308066839736597, -0.41594271307599523, 0.03768763876023589, 0.19039075660876853, 0.9587563619364882, 0.3808760274651681, 0.4730416986289378, 0.467032291325895, -0.02936375077621567, 0.44546001623689735, -0.7512108939616954, -0.7476301821308468, -0.3006592896959322, 0.3812423705555615, 0.29539582831901534, 0.8161781052741132, -0.9320131152859511, -0.6350109185006019, -0.015653679104022405, -0.21571273504072777, -1.10976411603139, -0.10658578521692891, 0.47504975365643676, -0.022240772511720852, -0.848928588490558, -0.457794678512359, -0.7644082930668274, 0.4242530299120644, -0.348641056484843, -1.0161052712339855, -0.4654612617267547, -0.5221455680372675, -0.05898318340453901, -0.40458724253408185, -0.08886299493539282, -0.9058541143987214, -0.7298522137729937, 0.5465782032340053, -0.7369795480055412, 0.8621568474086573, 0.7252106938689715, -0.5623777558605982, 0.5367483412688582, 0.6409718169889944, -0.6581189572295597, 0.45857858787045486, -0.5341756697507831, -0.046959161613822076, -1.0118127266365762, -0.07265789757956945, 0.1534425549169079, -0.07317261272227873, -0.17938254532052, -0.7614662966673, 0.31237759923736474, 0.5847421398927998, -0.914608591930382, -0.8752872021059211, 0.6948297761384228, 0.26895246513443366, 0.5439946934160004, 0.7375248674099594, 0.009756320751675374, 0.19011366709887678, -0.23699349706756245, 0.5927603439674048, -0.8504867373613652, 0.6644592178508938, -0.20370450921710706, -0.6251126851566188, 0.9256260610878122, -0.9260312322453647, -0.734681817247946, 0.7990231162396308, -0.6583424835012375, -0.20270001765908663, -0.9213591882632952, -0.12296386505389642, -0.9391583404243637, 0.1956040261334308, 0.23306122542600385, -0.2905266626809133, 0.3611452299401891, -0.5785921729300785, -0.1526203102681147, 0.6258118685667069, 0.34495368533573445, -0.5500977415722613, 0.8310696936568784, 0.9159611652913131, -0.13120579245370015, -0.2139082708567974, 0.2815772421510043, 0.6408317663339109, -0.5277498184268734, -0.42778623411148625, 0.5593164254277659, -0.6805773980789238, 0.815377740685362, -0.6431582553727077, -0.47629753987593093, -0.5343729391179388, -0.8254846314485932, 0.7278509215099918, 0.3269632386580853, -0.018232248829116254, -0.022020069781236135, 0.43879334561582567, -0.6148591746917488, -0.08445873130307179, -0.7458678840889043, -1.121302755883526, -0.24266787773465726, 0.717587754569823, -0.43071779488491846, 0.41959956864385567, -0.24967746254710693, 0.661702307865447, -0.9639991701400524, -0.3558700434600701, 0.9223576177028099, -0.09067571377470211, 0.6367478028835772, -0.624857051309581, 0.6662223779446427, 0.6914794600612805, 0.46160060825031457, -0.010678182159803616, -0.222808545358687, -0.0886813570811315, -0.31506590586442795, -0.7051257839523459, 0.631151022258989, -1.0047428267219147, 0.6751356750764996, -0.5562496865711448, -0.7974568305845354, -0.6362384476952919, -1.0197698970022964, -0.5074611117247718, 0.2507874272375479, 0.6014100241237732, -0.3980104866048632, -0.3179398948763708, 0.6325187745186766, 0.4843440378103626, -0.7886004474169724, -0.47945419526740984, -0.6508202447372013, 0.6742419813165291, -0.03222782389026757, 0.34185950170027246, -0.47543370776282995, -0.28405542151115354, -0.33048891420262216, -0.31946293651894303, -0.965583138932647, 0.5725173439168203, 0.3626225988709273, -0.7249188690141148, -0.24575360185046763, 0.24495470737960207, -0.907552793823179, -0.5345258311481059, 0.5598458329334723, 0.35083871187767063, 0.4548051684299704, 0.6722520741073469, 0.6706440389722027, -0.8786541588283325, -0.22014919004303882, 0.04092053084787235, -0.3993492819924022, 0.21430234430855458, -0.8977488277825488, -0.5556493160223015, 0.8336079431160648, -0.5583876095054694, -0.970388860958866, -8.959843919209326e-05, 0.554873736037819, 0.855418255689394, 0.5162516474885688, 0.6600764108879784, -1.072319345204477, 0.766092608881964, -0.9402515855212668, -0.25142297298257776, 0.1156034109638808, 0.04381278345456145, 0.03008700443794468, -0.6885421629386638, -1.041925008585919, -1.0527461443195694, 0.6392408452441186, 0.4488597578575573, -0.06258485123361987, -0.7022843075415006, -0.39622188817565185, -0.9358982275153395, 0.007381395318606595, -0.5863498117863162, 0.5991444054559599, -0.4449403111199193, 0.6135301900734271, 0.32152686209361003, 0.2864075368881678, 0.534220358105138, -0.03523367708166823, -0.48513632656462313, -1.0276816427896913, -0.2962048382739454, 0.0641208028523951, 0.7910726639572246, -0.8776805863964445, -0.38216094474673473, -0.8621750531886154, -0.1857863237262499, -0.3793926317189479, 0.6542086337475459, 0.2138372897724909, -0.9068591421717571, -0.9431303078419907, -0.48570432537340397, 0.41961724176484866, -0.4333554095372009, 0.6297873727180623, 0.0002609384191167019, -0.5266442542815936, -0.806541446635736, -0.8141578249912361, 0.8305285432565647, 0.4549227096350834, 0.16684153537215907, -0.5454072737757082, -0.8351867506208737, -0.5307346342079439, -0.6564010372214425, 0.31010171821689564, 0.138155992190679, -1.1592055424020333, -0.9692949981391212, 0.052699776032116674, -0.6048181173057089, -0.9827731303562052, 0.019829602788983026, -0.8525716991605047, 0.226565538111141, -0.615988426029084, -0.15990334063168588, 0.7765913034823453, 0.08020849011858094, -0.7206954025236675, -0.03874781473444548, 0.41085095894908885, 0.7719371551010717, 0.6563602127964349, 0.12768563970183758, -0.3646292471771605, 0.37976462913763, 0.5840301542968682, -0.9453857432957615, 0.7876498338963629, 0.3784214343359922, 0.47769728714467924, 0.8589163924840008, -0.14105775543621052, -0.49567341978698515, 0.6683031800224569, 0.7628715323776876, -0.6565991795621043, -0.6091622884816694, -0.4772597103858401, -0.9801559479565279, 0.023675343827225193, 0.5508368994161258, -0.9047676176241943, 0.45897011516285735, -0.5892078917450706, -0.2981602486560085, -0.3769378481427689, 0.7489843870036353, 0.06557418741261707, -0.3195901676183636, -0.8940942638604412, 0.43585634903265674, -0.4569422449941537, -0.9453235219960708, 0.7300514370970861, -0.17124093559541392, -0.3780365570494487, -0.40801219709923503, 0.5282893968635329, 0.3748076094622216, -1.0613307087596544, 0.31061807522179163, -0.6178126726280768, 0.26819953603762126, 0.638636645953541, 0.7821978492751958, -0.45314987241450994, 0.08758825460428907, -0.46329952271882413, -0.21832408787366442, -0.5645133355437387, 0.27157375035250886, -0.2002859626854563, -0.17228375301289992, -1.0077998128113357, 0.2421360009420645, -0.005398469973934752, 0.9755989204631267, -0.6225788624460064, 0.4916293905635872, 0.14730573076223924, -0.7906596548874247, -0.5453347344199915, -0.0030301113130081834, 0.35478711977751887, -0.8801040746624269, -0.2371132209152559, 0.30100695771559616, 0.6890766217672414, 0.18274460682521146, -0.1774003207103625, 0.5463884166950645, -0.7533688538173584, -0.3058483024166754, 0.5131154285841979, -0.7738651664263313, -0.6850054503931854, 0.6715367642369194, -0.39209612922710657, -0.11774172053344961, 0.5365468041583547, -0.4527299526707341, -0.8972316741511389, -0.9831730728163279, -0.5645161020580324, -0.5508403334679616, 0.7360594800540475, 0.5960572193637296, 0.6094710820345474, 0.991810326652341, -0.31352549294029797, 0.6898595386362225, 0.09213222579896942, 0.5865763089626254, -0.9928307793310549, 0.22182821365024613, 0.04886177965830077, 0.4165184317619658, -0.5226266536396625, 0.029050705739904203, 0.5952286157645433, -0.17739956977791363, -0.8871688236911431, -0.9068933761256732, -0.07170088660400609, 0.3175416573119193, -0.03524348232514307, -0.3039266614650141, 0.32163922110414767, -0.5726970142369585, 0.3454199965872387, -0.7164972660118676, -0.582992585984235, -0.12483462549195598, 0.5474992569422642, 0.04700277237829892, 0.489777468735553, 0.03835056990310792, -0.8980826314242267, 0.9775244883714291, -0.5154684522462442, -0.022585363729908405, 0.28581749625275965, -0.6378339472554029, -0.9408541613299192, 0.6889639581747211, 0.7762283327567694, -0.577516503261418, 0.26377948518910516, 0.181706013619225, 0.25484201972481013, 0.4609744863688472, -0.6053645587901331, -0.07835994316224593, -0.17874921781857825, 0.7894503729078021, -0.695261399379106, 0.8013866934702903, -0.7940817696686967, -0.983028690523135, 0.94652678455515, 0.09183868114175381, 0.4188860479953914, 0.9361834554219478, 0.49969846264438084, -0.6309193969379976, -0.5841127511732482, 0.4787338660672023, -0.9261630324940715, 0.40606050889090667, -0.1613243475420632, -0.1748564195945248, -0.6711782168031316, -0.4033521557243069, 0.11947560546844296, -0.6590619460684439, 0.6443200179271314, -0.7105895749607452, -1.2028877870956205, 0.4306328158235669, -0.8715094196791283, -0.2659899957536637, -0.3886077946899155, -0.6016711342931438, -0.45964918040968783, -0.169430039523957, -0.488998650885455, 0.3990086736467405, 0.9716343705661651, 0.4767802313414114, -0.3935812180031403, 0.6512002456203106, 0.5075005475511079, 0.22845070943353818, 0.4814121033906491, 0.700571104594625, 0.9508455303967879, 0.419504933482393, -0.17377527190595124, 0.3879075824114164, 0.7992264776185465, 0.7544074018996342, -0.8506887489223676, 0.09443787961367976, -0.12432082756132981, -0.8722921146442354, 0.41081913834355593, -0.9148546328830912, -0.38097226797909484, 0.11059398965853333, 0.5645871814989787, -0.044814284964612344, -0.8511189732682862, -0.358843839807213, -0.8356904573870187, -0.2922368655609079, 0.18705265209619343, 0.9074457654621908, 0.07703242400966612, 0.5232237740957095, 0.035145157922352954, 0.31237495883558086, -0.5007529001418529, -0.07424065839556149, 0.7461812915820071, 0.972255758277432, -0.3980940064572567, 0.2225404255941824, -0.41271433347521863, 0.6809467117733254, 0.5483113697604891, -0.49256084492306684, 0.42399599039651786, 0.020200126390365614, 0.6095283455931692, -0.6601842037673084, 0.9430740392400354, -0.1016903718218699, -0.7628121455609065, 0.5611345388285238, 0.10068052889946606, -0.44778828524385517, -0.9573177639619352, -0.11956377467063228, -0.553442896967287, 0.10544519129904861, 0.5316352930412017, 0.4645890677685268, 0.7115310950960725, 0.17203851308132312, 0.6966352788604524, -0.42498876191578594, 0.5711060797934486, 0.7023509556051082, 0.900717082509597, 0.6534290816202317, 0.7881260492270494, -0.392922721179587, -0.5787914327498654, -0.7727287550611311, 0.6599766844410474, -0.782981494222075, -0.5386538296479986, -0.7253560459424502, 0.06783471504085997, -0.3426002321835832, -0.8918453059517861, -0.5012333382054621, 0.43985519184902466, 0.07777035996715864, -0.5399698260861513, -0.11075270768159147, 0.513806149678283, 0.5413464665824717, -0.23108126430779818, 0.21758349927888831, -0.23091157692239683, 0.25612207263312525, -0.001779739532963287, -0.7398854206586423, -0.4053141857936422, 0.6774152302941265, 0.566917626432457, -0.47182554511773916, -0.9354115694305902, -0.7267020085227055, 0.1415662838511383, 0.8919651313048903, -0.42420685383936124, -0.5233597641595362, -0.2428089009750852, 0.7401608138044012, -0.01342114093947555, -0.993522360107484, -0.9029393521210233, -0.7252929626912143, -0.8700671823567157, -0.8391826232431697, -0.44891691868087213, -0.2556754020384033, -0.952872202559614, -0.873965083178746, -0.5428401763435027, 0.41525276591772076, 0.05195313158386261, -0.4462371891513133, -0.9425124895046029, -0.5739994723787065, 0.12640022603379886, -0.20890391372258565, 0.15819068557127824, 0.6721046679580328, 0.3461760642521998, -0.20368082675891575, 0.15993208708135367, -0.6292148768391732, -0.8473522650621511, -0.8177374198494932, -0.17056825786155624, 0.9257574267992653, -0.12817595952180788, -0.7812300032425628, -0.7685508004225929, -0.279063588530301, 0.09811496506529299, 0.8920391443808245, 0.7540988254046292, 0.6294966662244648, -0.02108720094111094, 0.18588986222162895, 0.47292559271054757, 0.07507816641905163, -0.9522662042701671, 0.039842308234768975], [0.04487345232345197, 0.03812524321427446, -0.139024920649226, -0.24192149238671457, -0.8718345023739458, 0.14599492041519113, -0.7567154932349536, -0.856906594785003, -0.30233686270183835, -0.5561404669081296, -0.1539578011399556, -0.6388028157593888, -0.9976334559187842, -0.12401295829385588, -0.7813230117909553, 0.6958735107088647, 0.7230303681815011, 0.17567436830877736, 0.5827232289876021, 0.20242244897021044, 0.3895423992750735, -0.9776652080773449, 0.38412205921404996, 0.18699825149137506, -0.682629940499442, 0.6998721986916414, -0.03904537500450367, 0.9910659011803888, -0.33291006830065784, 0.04816852043421904, 0.4339728609920366, -0.21357428775034837, 0.8746042288899563, -0.41931405446486075, 0.8933472987635374, -0.1641375915144836, 0.7380484567484665, -0.11536096340525073, 0.7332193920437139, -0.765025274217471, -0.314565179333605, -0.4833809989577874, -0.5189561566271074, -0.9518571567917982, 0.992773127050998, 0.1925215057922644, 0.738010013118663, -0.6625705131046145, 0.6220103927198938, 0.6879899970097919, 0.7220826072739855, -0.35291449830541516, -0.38468671879169336, -0.9981807875303257, -0.7142824501965392, 0.6036745236127374, -0.9477528289651664, 0.6505305097391549, -0.1359602677659436, -0.8571711375259055, 0.7428598713309996, 0.40586120015655375, 0.1509280597804095, -0.03910632536126559, 0.7172154157177337, 0.6881181727339035, -0.9698537054423978, -0.5192235349997024, -0.5223519088794869, -0.44283424734853993, -0.18736642528733116, -0.980301896197251, -0.22082944540964455, -0.789007265000267, 0.028692941980053704, -0.7645882945742327, -0.7524584678012175, -0.18713792859373907, 0.06417792416473596, 0.7611900790645478, -0.07075727114845826, 0.7470351675838975, 0.03603856860349519, 0.28966961409256586, 0.12996762081942803, -0.16493693324005942, 0.13878422541823332, -0.48075893115030127, 0.5947966384757815, 0.6077641605519272, 0.4486455586675159, 0.7750374784122345, 